encog,BasicNetwork,java,3.1.0,1,1384385160531
[BASIC]
[BASIC:PARAMS]
[BASIC:NETWORK]
beginTraining=0
connectionLimit=0
contextTargetOffset=0,0
contextTargetSize=0,0
endTraining=1
hasContext=f
inputCount=784
layerCounts=10,785
layerFeedCounts=10,784
layerContextCount=0,0
layerIndex=0,10
output=0,0,0,0,0,0,0,0,0,0,0,0,0,0,0,0,0,0,0,0,0,0,0,0,0,0,0,0,0,0,0,0,0,0,0,0,0,0,0,0,0,0,0,0,0,0,0,0,0,0,0,0,0,0,0,0,0,0,0,0,0,0,0,0,0,0,0,0,0,0,0,0,0,0,0,0,0,0,0,0,0,0,0,0,0,0,0,0,0,0,0,0,0,0,0,0,0,0,0,0,0,0,0,0,0,0,0,0,0,0,0,0,0,0,0,0,0,0,0,0,0,0,0,0,0,0,0,0,0,0,0,0,0,0,0,0,0,0,0,0,0,0,0,0,0,0,0,0,0,0,0,0,0,0,0,0,0,0,0,0,0,0,0,0,0,0,0,0,0,0,0,0,0,0,0,0,0,0,0,0,0,0,0,0,0,0,0,0,0,0,0,0,0,0,0,0,0,0,0,0,0,0,0,0,0,0,0,0,0,0,0,0,0,0,0,0,0,0,0,0,0,0,0,0,0,0,0,0,0,0,0,0,0,0,0,0,0,0,0,0,0,0,0,0,0,0,0,0,0,0,0,0,0,0,0,0,0,0,0,0,0,0,0,0,0,0,0,0,0,0,0,0,0,0,0,0,0,0,0,0,0,0,0,0,0,0,0,0,0,0,0,0,0,0,0,0,0,0,0,0,0,0,0,0,0,0,0,0,0,0,0,0,0,0,0,0,0,0,0,0,0,0,0,0,0,0,0,0,0,0,0,0,0,0,0,0,0,0,0,0,0,0,0,0,0,0,0,0,0,0,0,0,0,0,0,0,0,0,0,0,0,0,0,0,0,0,0,0,0,0,0,0,0,0,0,0,0,0,0,0,0,0,0,0,0,0,0,0,0,0,0,0,0,0,0,0,0,0,0,0,0,0,0,0,0,0,0,0,0,0,0,0,0,0,0,0,0,0,0,0,0,0,0,0,0,0,0,0,0,0,0,0,0,0,0,0,0,0,0,0,0,0,0,0,0,0,0,0,0,0,0,0,0,0,0,0,0,0,0,0,0,0,0,0,0,0,0,0,0,0,0,0,0,0,0,0,0,0,0,0,0,0,0,0,0,0,0,0,0,0,0,0,0,0,0,0,0,0,0,0,0,0,0,0,0,0,0,0,0,0,0,0,0,0,0,0,0,0,0,0,0,0,0,0,0,0,0,0,0,0,0,0,0,0,0,0,0,0,0,0,0,0,0,0,0,0,0,0,0,0,0,0,0,0,0,0,0,0,0,0,0,0,0,0,0,0,0,0,0,0,0,0,0,0,0,0,0,0,0,0,0,0,0,0,0,0,0,0,0,0,0,0,0,0,0,0,0,0,0,0,0,0,0,0,0,0,0,0,0,0,0,0,0,0,0,0,0,0,0,0,0,0,0,0,0,0,0,0,0,0,0,0,0,0,0,0,0,0,0,0,0,0,0,0,0,0,0,0,0,0,0,0,0,0,0,0,0,0,0,0,0,0,0,0,0,0,0,0,0,0,0,0,0,0,0,0,0,0,0,0,0,0,0,0,0,0,0,0,0,0,0,0,0,0,0,0,0,0,0,0,0,0,0,0,0,0,0,0,0,0,0,0,0,0,0,0,0,0,0,0,0,0,0,0,0,0,0,0,0,0,0,0,0,0,0,0,0,0,0,0,0,0,0,0,0,0,0,0,0,0,0,0,0,0,0,0,0,0,0,0,0,0,0,0,0,0,0,0,0,0,0,0,0,0,0,0,0,0,0,0,0,0,0,0,0,0,0,0,0,0,0,0,0,0,1
outputCount=10
weightIndex=0,7850
weights=##0
##double#7850
   0.2836494061,-0.8993644454,0.9871462718,-0.5864730179,-0.7869245466,-0.0415761404,-0.6203752468,-1.802458002,-1.8344762998,-2.1539359595,-2.2843198327,-3.4527742639,-3.0961527565,-6.2449123509,-8.3392201289,-9.5641467812,18.309309832,21.6099497002,-5.3199441263,-3.189361664,-5.6894681726,-0.9445915015,-3.3978902664,-2.1421480606,-0.0516720334,0.9651357547,0.9327318195,-0.8385974372,0.694553407,0.3224208313,-0.0509927423,0.9774143271,-0.8192414627,18.2446730976,-8.3528883191,-3.9832262252,-9.0826560377,-12.8586935168,-1.3783614952,0.3806367675,0.0613043554,1.333513283,-0.5244293784,0.1951793514,-3.3122663552,-0.6177328056,-1.2503711812,0.1972390447,-0.7932432815,-34.8837885195,-12.7251667724,-12.0122006135,-13.3316341645,0.3371460715,0.914183263,-0.3759273455,0.8357849384,-0.6354539045,0.5404658249,-1.1416639075,16.093163028,-12.5533810252,-37.231726544,1.8732363127,1.04683385,0.2133608409,-0.4449952184,-0.0172680556,0.0146218448,-0.0506644624,0.3998807765,-0.3237366025,-0.3030670874,0.5360701988,0.1414039811,0.8086464124,-0.6614001597,-0.2814437199,-0.8319585651,0.8820096844,-0.4682631592,-37.934891327,-7.8444212884,0.0196887793,0.841416702,-14.0792306609,-4.4018670809,-11.9081309253,2.5480334948,-0.8807629132,-3.5431770012,0.4080091774,-0.1727572756,-0.0604249203,-0.085754011,-0.6889102738,-0.3490675545,0.5637149462,0.2987281532,-0.0134077552,-0.4193811689,0.6170515519,0.9815806211,-0.4939711323,0.3109191347,0.6339940672,-0.7356017803,0.7630569798,-0.1546385345,-42.5675731882,-11.5419142548,-7.5556116194,-0.9169524213,-3.590741986,-4.3303083325,-13.5544130408,-5.2567966626,0.3130445309,0.8076414963,-0.4309791906,-0.0052888046,0.0960652196,0.1517086557,-0.333576982,-0.410538043,0.8854689536,-0.3743605567,0.2339346927,-0.0277601821,0.2726796937,0.86859121,0.3146785643,0.088048457,-0.552096516,0.9636259044,-0.7822615006,0.3143620913,-41.9335528268,-12.1494483426,-8.0673977402,0.0283963293,-10.6050606699,-5.9779684457,-12.9203826407,1.0037541307,-0.2786045443,-0.808800504,0.2251679098,-0.4022173784,0.5100518773,0.0539038001,-0.0145214527,1.0207328169,-0.3197280509,-0.6384858234,0.0405569288,-0.0181010631,-0.327237243,0.2143432731,-0.3187558196,-0.2377741551,0.6189969787,-0.693088236,-0.3987378994,0.6634205743,-7.0990925591,-13.0177462474,-0.8808424557,0.6258614595,-2.7677765015,-4.8443371262,-16.8713944718,0.2134054556,0.3395288168,0.6631038547,0.1681976133,0.1638298896,-0.8514460464,0.6896583737,-0.4116316216,0.0147117263,0.3920154564,-0.3266705935,-2.3064590661,-1.8397652398,-1.325193769,-0.0168862889,0.4538894468,-0.5279175437,-0.6236891558,0.76890413,0.2345058857,0.076096066,-2.3440466017,-14.2447973626,0.5357157722,0.2455648703,-2.1466462995,-3.0598056356,-20.0219868973,-0.6412891087,0.026205247,0.1414487965,0.1553327767,0.3568572256,0.6380002714,0.9819515958,-0.0422141967,-1.1196366461,-0.3596701571,-2.8601519672,-2.35046419,-2.1232184935,-1.1147304981,-0.0750150492,-0.743125894,-0.6998436258,0.0057906995,0.5124516023,-0.6470451036,0.9375630203,-3.7436032227,-13.4451188673,-0.6850159261,-0.0567634043,0.9199841299,-7.1221834215,-17.7845093151,-0.4376602632,-0.0578209152,-0.6339719904,1.0930090652,-0.3305872971,0.3982532553,0.1891354867,-0.7132088728,-0.9325911498,-3.8190308428,-1.5239180437,-1.1343128049,-0.2799100214,-0.9211099627,0.9116471602,-0.6858909498,-0.8009717574,0.979915355,0.9629777913,-0.8086952582,-0.5660913798,-3.0254538204,-13.8681199196,-0.2492701175,0.7246259964,0.0319436973,-27.7909086181,-4.6701955526,0.0625426625,-0.367066905,-0.1440138106,-0.5507197373,-0.442204681,-0.2942595654,0.6447756663,-0.1030823938,-0.2063131299,-0.136059313,-0.9859238995,-0.8495405386,-0.8739240061,-0.7580374247,-0.7570298104,-0.6727066439,0.2118289706,-0.0241980762,0.0096301235,-2.4600899933,-0.3053119863,0.1734603942,-16.0978280322,-6.379292619,0.2824612912,0.4527462822,-25.6428394351,-7.8715853092,-0.3362830461,0.5049871782,-0.7205104361,0.0998700014,1.06344074,-0.7921005366,0.5388204322,-0.8054328357,-0.3380722097,-0.5015003947,-0.4704572174,0.6516844828,1.0721257063,-0.7822267205,0.9529354513,-0.3503277793,-1.0856164524,-0.9090047067,-0.2000186415,0.0011325053,-0.9499662087,-14.8530510195,-13.7542494608,-0.1085151478,0.0938826325,-0.5699033533,-8.2712823132,0.7237508144,1.1529259005,-0.527070686,0.6028698612,-0.1221014311,0.1902523791,0.5507866964,-0.7320778731,-0.4552081653,-0.3910400367,-0.5959702199,-0.7816021899,-0.1403738002,-0.9700476626,-0.6785896919,0.2750912975,-0.3663717747,-0.3046545794,-0.7722709585,-0.3905976295,-1.0545506798,-25.1126743943,-9.6329411337,57.7320438475,-0.5317540125,-0.4732136164,-0.9022722114,-0.0136806511,-13.9861898877,-6.3392464272,4.9527222323,-1.9922569275,-1.2212412984,0.642241047,-0.3932183669,-0.3644154458,-0.4504603719,0.7822697985,0.4004847325,-0.577633096,1.0290511715,0.9055104032,-0.016165825,-1.3014600122,-3.6699113468,-0.9992859416,-3.8399723971,5.4099997929,-1.6411800657,-6.8747829896,0.1773477359,0.9470255086,-0.5262217782,0.1035178172,-0.0448721161,-0.0787029748,-0.9840560219,-5.1719557887,-6.0203532598,-11.0939114753,-9.0899898772,-16.3984045634,-14.6921844654,-14.9810602129,-17.239738837,-18.7648619658,-16.9162313122,-16.2544498774,-17.9835151918,-15.7813223525,-14.8511635008,-8.6585928495,-9.2491131285,-10.312757235,-7.0651428354,-12.2000900009,-5.0629598924,0.7088256477,0.7243567821,0.3091818629,-0.3806903592,-0.4296497018,0.0221936919,0.8372183435,-0.9357879674,-0.870169876,-0.0069650242,-0.4656267533,-14.2628111835,-1.5150338833,-1.8286554555,-10.3757177104,-3.0206142354,-1.9445538083,-2.2612861539,-1.365450498,-0.0160038649,0.3834933807,-0.7778831513,-0.5756923376,0.838450952,0.2438789745,0.0318307629,0.3841052586,0.0940746397,-0.9138896306,0.2088893015,-0.0706731461,0.4670977198,-0.078812174,-0.3077515608,-0.453477572,-0.0461362442,-0.2747981047,-1.2470315503,-2.5629616526,-12.8233422854,-12.1332650778,-9.0287240221,-9.948934726,-12.364935551,-17.0149383887,-10.0471675272,-19.0167632802,-13.240055788,-10.0642954619,-18.791820845,-0.6855713387,-1.5616215878,3.122960827,-1.6761857934,0.2837550282,-38.6856081286,-14.2939406263,0.687652272,-0.0802027977,0.5160521756,0.0239287152,0.806861549,0.8429550246,18.2101825675,16.8328077355,-12.4929179781,1.7578683251,-1.5200673405,-1.0531985383,-0.5781873995,-0.7634832143,0.1949751396,-0.6948948385,1.0218470695,0.2100825787,0.1724400316,0.2536894385,0.2811968569,0.1901931772,0.5851763965,0.6862840512,0.2119057858,-0.0753342166,-0.6355784292,-2.0479805323,-35.1721206948,-6.9039043764,-4.1076150544,-0.0020719184,-1.2114785169,-0.8046238591,-3.4366386087,-41.2761127008,2.6988013885,-2.6607303969,-0.1746474338,0.3620737176,0.5007435109,0.2422347774,-0.0251318246,0.7887095348,0.5343785374,0.0753033656,1.0910882035,0.2320827461,-0.1091625234,-0.0089485505,1.2806676428,-0.8236049713,-0.6391149172,-0.5707195006,0.4543398501,-0.5454916902,-41.2139514194,-9.6250296264,-3.958789879,0.9909963301,-1.5210859808,-7.0624572912,-12.8854530142,-0.9668855099,0.3849388818,-0.992034334,-0.2274186358,-0.1507213647,-0.4286719356,0.8013673827,0.2155268687,-0.0630917704,-0.0390529001,0.3565804786,0.8357151996,0.4686953225,0.4072456054,1.6677555304,0.3180065677,0.2223279357,0.6817140558,0.9430979553,0.2222087459,-0.6916161275,-0.7278018686,-17.417821291,-5.6083657548,0.5043712672,-5.0752909817,-32.2152174676,-8.9519355094,-0.7998402967,-1.0032901266,-0.6957373973,0.7423406699,0.0421637256,0.1192127042,0.3321626646,0.0706731724,0.345459376,-0.4485996467,1.0002583947,0.5132295951,0.3056604522,-0.371247919,0.4854909871,0.539906813,1.459527244,-0.3386374465,0.2067184115,-0.5208046603,-0.8077145698,-1.4622199269,-16.5931718514,-7.0974292149,-0.085898474,-7.5654465895,-40.6371713416,-1.7185284629,0.2675159201,-0.2544786354,-0.409572675,-0.6529248817,0.0485794845,1.0935220237,-0.1305286928,-0.0340277318,-0.7365499553,-0.3116481357,1.3036724774,0.2590472131,0.7783182972,0.0771320715,-0.7116182471,0.0544604971,0.6449484832,0.16591684,-0.1077416896,0.9153724374,-0.02199348,-4.2292054776,-19.1361245327,-7.4996154169,-0.662721744,-10.0788622702,-42.6015839244,0.116191172,0.7193851879,0.4572948253,0.5581031678,0.7034491325,-0.4313639901,2.0520253682,-0.1959782382,0.0609900603,0.3984848979,-0.5159685951,-0.9451058424,-0.8991708035,-1.2461116609,-0.3553500638,-0.8770447617,-0.9504592269,0.0998592898,-0.1016223066,-0.2503748121,0.5213840987,-0.9642308563,-1.2452590011,-19.2703476837,-10.7445072257,-0.5084465931,19.8558305911,-57.304592773,-0.4096123323,-0.7214104511,-0.6036563847,-0.9210673586,0.9835120558,0.2996034481,0.6007302694,-0.5739439049,0.145912564,-0.8000736855,0.5272229066,0.3838427811,-1.0638148056,0.1934424869,0.837882592,0.0850065122,0.7740351246,0.1059844343,-0.9839156771,-0.2512464677,-0.0882052968,0.5591555457,-55.4431295077,-15.0913670931,-7.1658747773,0.6963812149,-7.0972283087,-40.9321348241,-2.454618804,-0.0511669963,-0.7643211406,0.7958620808,0.2768784401,0.6036342277,0.5182635626,0.4599451273,-0.7097428441,0.5271490111,0.1946897052,-0.7065259485,0.6994051826,-0.5269688973,-0.3135967846,0.0705601072,0.0174405199,-0.3926622576,-0.0554006508,-0.582704859,0.2759047993,0.17217995,-37.3869560251,-9.4078229281,-6.0998963505,-0.3355787931,-4.5743157152,-37.6295127685,-1.4266669197,-0.4510883121,0.2232269616,-0.5983360471,0.1347266214,-0.286726386,0.4714031298,0.7009017603,0.655596867,0.4062451859,0.6118020979,1.0384089255,-0.5125234789,0.7009106374,0.0752371918,-0.546350933,-0.1057186339,-0.199245794,0.7288314815,0.0548407917,-1.2147212517,-2.6785625853,-32.1690219294,-9.8539022189,-11.1045664347,-0.7684605057,-3.8151873315,-9.3925091746,-13.4611873276,-0.8703527479,0.8166147975,0.3203960885,-0.0195158733,-0.7360398816,0.3551707869,1.1886720019,-0.3301682024,1.1665480571,0.4917914277,-0.52862336,0.3992253277,-0.4432580958,0.0579726673,0.7710736135,0.7396713554,0.019803211,0.8034124512,-0.215063778,-0.1396824898,-1.5169559252,-29.8734810614,-11.4170972774,-5.1873052294,0.6738464479,-0.9235765937,-0.9927096268,-12.8661585413,1.0266781371,-1.7400328679,-6.2636858174,0.6136329697,-2.6647388282,-0.2048886626,-0.4970600598,1.211181284,0.7140562778,2.1153801685,-0.5420043218,0.1338260421,-0.6885423595,-0.329341666,0.4964321074,0.2648604893,-1.0452989511,7.6780094513,-26.0892036121,-8.3316219069,-6.9510719608,0.2646278739,-0.1504362781,0.828535715,0.7602078108,-0.5243204222,0.7851609621,0.8230666759,0.6658904764,-7.5404411631,-10.3553778775,-13.0218020032,-10.0458711693,-12.6780869121,-45.2586393581,-12.886894193,-14.7392907107,-25.9774510773,-2.7819022149,-12.7996006525,-9.2390047697,-11.6966784939,-5.6118462815,-16.2002162706,-9.4103576896,-2.4145313062,58.1183922874,-0.3479096836,-0.3182385048,0.6962914802,0.676994738,-0.3969662804,-0.02480537,0.8945425494,-0.6378352156,0.6464371094,0.1831942632,0.4232284256,0.5742377897,-0.8299177715,0.1362311586,-0.4814470235,-1.1671324831,-2.3066815217,-2.3249386694,-1.9145382847,-0.9855032,-2.0008930478,-3.3555846797,-10.5125382603,-4.0086568249,-1.8436935356,-3.3880089167,-1.9378394723,-0.7026170719,-0.6535872338,-0.4306790247,-0.6376932291,0.5650419142,0.4153699354,-0.1122733352,-0.3781369973,0.6487550503,-0.8563834811,-0.1027159605,-0.4472148759,-0.5626826602,-2.4332717605,-2.1110998448,-11.786768727,-19.1050280573,-0.3554345047,-0.129429019,0.0128159258,-1.9469225431,-1.1072340079,-0.1989268862,1.4516962963,-2.9831841481,0.1812223188,-2.0140617389,-1.4137421653,4.8303204164,-1.828605093,-29.7971608377,-3.5202825702,-0.7126023773,-0.1271337755,0.3922889924,-0.9328225044,0.7414652574,0.8974728041,-1.5227801258,-6.1303300349,-8.039705223,5.3318124067,-3.3278254675,-1.1275038983,-0.013230837,-0.1252255013,-0.8218136419,0.6662904876,-1.5513168159,-0.6163599439,-0.2308696832,-0.6652021059,-0.1086320175,-1.4393093645,-0.4020132127,-1.261607914,-0.4320401968,-0.1670140526,5.2277291805,-1.1305145716,-46.1745002086,-4.6889743887,0.86199663,-0.4255902639,-2.7397145675,-3.2381309613,-3.6040604297,-4.4790804207,-23.0795833226,2.7184866057,-0.4151422775,0.1278171939,-0.3165400221,-0.1751353612,-0.660778559,-0.5924768542,-1.0396552651,-0.9413755043,-1.76872116,0.1422719865,-0.3812337799,0.5594226786,0.4979318981,0.6823823132,-0.0688569524,-0.9759778852,-6.4256607298,-21.8997160744,-12.8613366868,-4.4997985553,-2.760372095,-1.3784545276,-1.6066102041,-1.7496742407,1.1704864369,-5.4479531329,-21.9330919553,-0.7548477896,1.0818625589,-0.5378975392,-1.1149715794,-0.201727047,0.1604893012,0.2891380922,0.8159529424,0.220857978,0.3384880269,-0.860192712,-0.4830947879,0.5878559229,-0.4307128418,-1.0618149581,0.0175170117,0.2729595128,-28.13413882,-12.7296051998,-7.5720498612,-3.0272594739,-1.7215100385,-0.724508151,15.0361864843,-4.5377296148,-2.7547596844,-11.0629790268,-11.6956130447,-1.1653612737,-4.4742764244,-2.5906743301,0.0728082746,-0.5364903334,0.0650031283,0.1953087414,-0.2925598999,0.9675068988,1.0699620011,0.6147406686,0.7677551022,-0.8021138754,-0.0425455917,-0.6541319796,-1.4056761379,-25.3436082773,-12.0381973607,-9.0733138026,16.0627923586,-9.6675444064,0.5701017261,0.4394804261,-0.0893885626,-5.6998468853,-3.5965546593,-7.499616538,-27.7036353616,12.8660442313,0.4828883585,0.3413661617,-0.6501398462,-0.7393962136,-0.5706413771,-0.7222379556,0.2498802291,1.0950773193,-0.2222788189,0.3027076537,0.5178385693,-0.2231370125,-1.7734103559,-0.7217227898,9.1405296114,-9.8464799969,-4.3847619976,-4.243294372,-3.1041286065,-2.8950598425,0.6256424912,0.3389519704,-1.0297654403,-1.5839807839,-2.6449458424,-7.2759981815,18.3035694401,-34.8372042354,1.2904570487,0.9965362885,-0.6828249114,-0.9933936081,-0.944724912,-0.6557854768,-0.2183849733,0.6052858224,0.0026902725,-0.4717722291,-0.4753499128,-0.6896499416,-0.7415296831,-0.9837161626,22.7284751351,-25.2601191915,-4.9227981003,-6.0257325649,-1.6491261801,-8.7171518314,-0.035495819,-0.5281401474,-0.7005639356,-3.3921237326,-2.6288690862,-6.4376848512,16.3868884986,-1.6116905475,-15.0616009047,0.2027522546,-1.366510548,-0.6491633086,-0.4472719138,0.3389745672,0.9301098226,-0.0964604588,0.0142476683,-0.6527320699,-1.3745706726,-0.2357006854,-1.8455721946,-0.8439154904,-30.0600864576,-11.1347088217,-20.5798384471,-9.5218660548,-9.5460622192,-5.6426465954,-0.5610359367,0.3253302943,-0.9907689856,-6.1245367016,-6.8369236292,-20.7529746885,-27.0462122935,-1.6033211674,-1.8514273847,-0.2131142559,0.3526946833,0.3933293965,-0.2644434872,-0.7351884305,1.379471582,-0.0106347039,-0.0787495,-0.0481214195,-1.2199522852,0.2926805325,0.9287811377,0.1885450122,-0.9672005043,-0.6951026377,-0.0330801965,2.1895065772,-46.4495224656,0.4906862087,28.1765426273,-0.6273838043,-0.4189132228,-19.7263708498,0.4937510173,3.040392891,0.145653545,0.4949508856,-0.0130785089,0.7780003043,0.5345531274,0.2005592351,0.3683180992,0.2348407941,-0.3010718218,-0.024294418,0.7960288427,-1.1138283036,0.1734318127,0.2151740142,-1.3051442332,-0.292661624,0.3372199938,-0.3344222897,0.7857917206,0.8658022453,8.8806350958,9.1367305507,0.6287575576,-0.2677175565,-0.8587844864,-11.3135301043,0.8033550857,3.1390766738,-0.3859878378,0.1234435961,0.6738190663,-0.3366227839,-0.2495548838,-0.2001549247,-1.3732551861,-0.8754951001,-0.2536211573,-0.42145839,-0.2300793627,-0.2276478441,0.1825243147,-0.1604975139,1.3636500204,-0.4746678002,-3.3586270198,-0.458055314,-0.6238254026,9.7507346896,8.9750555591,-1.5496915636,-0.5754698169,0.575560488,-0.7311988036,-0.8898415019,-5.0235980122,-26.7034876359,-1.1583557216,-0.1042856664,-0.5931759349,-2.2442928807,-0.8176379316,-0.7790580556,0.2505940315,-0.3666469792,-0.8267701614,-0.6847106949,-0.0910960567,-1.2971785864,-0.7792709491,0.709416366,0.815544718,0.611102652,-50.3386457948,-11.9833776136,-2.6374589292,-3.6441765149,0.787737254,0.2464399795,0.2408505945,-0.1321910274,0.4678983807,-0.2826845829,-0.9257701124,-2.9485194683,-5.5437296047,-8.0771719888,-9.98220581,-16.4756665931,-16.1818486236,-12.5043078409,-18.2212274802,-20.9792956874,-16.1619276428,-18.9768437609,-14.0629703465,-11.7550789988,-8.4846953672,-7.9342369817,-8.0442821654,-2.6093053726,-2.8645692564,-3.6445281497,0.2625477123,-0.2905301815,0.8106375032,-0.6589184327,0.3999699001,-0.4699813642,-0.6808587968,-0.3512048654,-0.3497358375,0.4375026106,0.8718866649,-0.1427970891,-1.9073675169,-1.2487951207,-1.5122932052,15.6643661415,-0.8113832205,-0.3972819037,-1.950274667,-1.344033679,-0.9508150015,-0.4715564591,-0.0215335849,0.720212889,0.2925044631,-0.3887571876,0.9106328177,-0.2753696411,-0.5534341793,-0.1551938835,-0.8418842822,0.0480089745,-0.5949406911,0.6062983132,-0.2278014336,0.5012480544,0.7509864339,0.4260460292,-1.6516828835,-4.5340025685,-4.2025928971,2.644972519,-2.6791814802,-2.9866127833,-4.2060615236,-6.0300300947,-3.0393768875,-1.6609722939,-2.7263454794,-2.7556431871,-2.3690574752,-5.4357931831,-7.2352661926,-48.2373358767,0.7812683269,0.5906281861,-9.7998715524,-4.8107982607,0.572619847,0.0656884955,0.1249385215,0.5232801567,-0.4600850454,-0.7591326683,-1.0249727342,-5.8537095369,-8.3507559991,-15.3466277615,-23.0502426915,-21.1671802654,-12.8370572328,-13.2342534735,-11.9662179013,-16.3971807203,-27.834636031,18.131349678,-16.1030067374,-12.5819144949,17.2404171656,-22.2666860566,-19.6256049354,-0.665598809,0.10889049,-0.3084265202,1.3778858868,-0.9199907794,-17.8893501794,-4.1989865697,-1.1468548087,-0.9726186711,-1.3089278036,0.2006482336,-2.3368313957,-37.194850142,-1.3561634448,-0.0944660414,0.2144832828,-0.8225749522,0.1904432813,-4.4131868032,-4.0031256342,0.7073174093,0.9522290196,-49.5803725885,0.6873848579,-1.1524854075,-6.2381879471,-0.2463531885,-0.6165734883,0.7047756827,-0.4633260776,0.9527048909,0.5807290936,0.8640846844,-45.1653743986,-9.6354835667,-2.1637172671,-0.1141407071,0.5867117238,-2.1387377256,-18.7242486755,-1.9632786839,-0.3126249055,-0.9299352572,0.4436808021,-0.3080504494,0.2122139778,-0.2737571601,0.8511624657,0.2995099535,0.2485025466,-0.1066208168,-0.7812571111,0.6606706875,-1.232651752,-0.9298170038,-0.6677158441,-0.2966871428,-0.3484240366,-0.2913562798,-0.0159130532,0.6751478407,-0.1860828531,-19.7309545642,-1.0937360902,-0.0624009271,-2.2928066564,-7.021466105,-1.4335084037,-0.1105313599,0.2663750968,0.0484307286,-0.3848899441,-0.1067173287,-0.1595280398,-0.2377184986,-0.645487149,-0.3880972806,-0.76335199,0.0283510085,0.3910668014,0.8008964922,-0.2669010955,0.0062069555,0.4597578645,0.3894895628,0.8150289232,0.7873685424,-0.3530593926,0.4830727669,-6.6633884852,-21.3006400353,-7.6634644353,-0.4204310963,-1.6297110745,-32.2770097667,-1.5448696437,-0.8351059902,-0.3705134083,-0.265659475,0.5134250596,-0.6626687299,-0.007263363,-0.6206376289,-0.2780556809,1.1098770956,0.9072044055,0.6368315571,0.0957896195,-0.7771807486,-0.5025819063,-0.5739892624,0.6737103989,0.6331111568,0.6454196837,0.0489228464,-0.6164810097,0.3243241315,-2.0329000548,-21.9844671888,-5.0796517254,-0.7251172182,-3.3080323095,-44.9011792884,0.9624936215,-0.7474742399,0.6834555724,0.674800919,-0.2901649388,0.4247618245,0.0006084648,0.792311241,1.0651580443,0.669332331,-0.0497038817,1.0635624938,0.5396090753,0.8390687384,0.1548251678,0.0910738046,-0.1782599367,-0.1812641839,-0.0914973259,0.8745998013,0.4139705435,-0.2411867444,-0.6248894759,-21.2026626634,-8.3623927474,-0.8315933842,-10.6906021128,-41.0104675069,-1.3642797359,-0.7868768093,0.0795139427,-0.4311100407,-0.5933930893,-0.6969112509,0.7402940528,-0.9420803525,0.4615606038,-0.8005681129,0.417279519,0.6843961272,0.3437767375,0.3145306304,-0.3319204378,0.1233541279,-0.8308510181,0.0990741855,0.7213985542,0.5832050841,0.6074077688,-0.9012849268,-40.8425264794,-11.4570574917,-4.6865031488,-0.6041538511,-3.8442817929,-38.4850691757,-0.3760218682,0.5166410603,0.637410177,-0.9297935159,0.3382530495,-0.5805546355,-0.3970069753,0.3839073052,-0.1226953915,1.0401479892,-0.634216429,-0.5207625465,-0.3444361238,-0.5102565449,-1.1877879006,-0.6353932832,0.1954859724,1.1149321179,-0.9354378217,0.8213299026,1.9756179597,-0.4288802823,-43.2445502936,-6.7662488513,-3.8486924922,-0.8277464861,-1.5024943115,-30.2666809964,-0.1103758278,-0.249572609,-0.1100404637,0.4500841017,-0.0409658679,-0.3166041266,-0.9764004853,-0.1389934495,-6.1070653174,-0.5145645012,-63.5723808595,-2.4850366856,-58.5358076633,-37.5538258114,-0.3849246241,2.463780999,-0.1248276007,-1.1096008791,0.3888610854,0.7043390502,0.9768596382,0.2041227752,-17.196957113,-3.6160837254,-2.1786125618,-0.7541095415,-1.3234363096,-12.5647152145,-1.443858137,0.8555931848,-0.0906627441,-0.140645847,0.8598649082,0.6990099143,-38.6860151161,-26.2123771236,-11.3500724006,-9.887339273,-9.4563784921,-26.0775403157,-5.5607547177,-4.0066863631,-19.6221250932,0.0006942654,0.5423951078,-1.1280729732,-8.0320541942,-2.2520525406,-3.3111461425,-12.1985716148,-2.3824540327,-3.0708680703,-1.5824744033,0.8033854168,0.144440624,0.586477352,-2.6780483999,-2.364191104,4.0254157251,-22.1675757804,-15.7377377892,-13.0328305196,-6.0034311818,15.5523807494,14.7234674637,-1.7667845498,-2.7527494816,-4.8241243296,-4.3607283378,-4.7887926009,-8.695654611,-34.9543501215,2.7594639686,1.4708494874,2.5511945022,0.6465359005,-51.4733211573,-3.6609936543,-0.4576976972,-0.9885323022,-0.0973042543,0.4121220594,-0.2300903544,0.8991913854,-0.8484635213,-0.3120951501,-6.3024319647,-4.3264055126,-4.4658127637,-2.8900460607,-2.9440324453,-4.101616132,-9.9752232579,-2.9170482736,-0.1581797389,-0.5916786932,-7.619303975,-4.1925679588,-5.6406300737,10.1227663629,-21.8205182662,-19.1867623168,23.3777392535,-1.4267418648,-0.7883555778,-0.7399674558,-0.7827241249,-0.4354649991,-0.8731712522,-0.79614227,-0.2154630436,0.4504451545,-0.5208101592,0.26462385,-0.6456814791,-0.4806324494,0.7855233385,-7.8656945951,-7.4531938405,-22.7367875884,11.1175377219,-2.3730968272,-2.1334250979,-2.8553159966,-37.3065868245,-0.1301743111,1.119637096,-41.57977909,-16.1153077679,-14.826914773,-9.9363822079,-5.9895288388,-12.3083426964,-11.9842923653,0.1298548691,0.5765566105,0.5581093582,0.8893328869,-0.852327465,-0.4987444901,-0.0486612467,0.2271779343,-0.9214460803,-0.6135508405,-2.8580420627,-0.7986306292,-2.4369841933,0.1348309278,0.5019360382,-0.4049506369,-0.5872735196,0.5437650565,-0.9331074392,-0.8243605535,0.88993084,0.6020623135,-0.4777053808,0.6250696938,-0.5318239068,0.1675483447,-0.2217055621,7.8627898665,-16.6562428245,0.5349874585,0.4979424567,0.6193784349,0.1393362789,0.9185915298,-0.2999908117,-17.5365055078,-0.5922591622,0.9621081654,-0.27873902,0.7379065491,-0.1027178873,0.7643493877,-0.0466381233,0.1258037683,0.2910150471,0.7981651889,0.5863922,0.0414120924,0.4105371434,0.3154698464,-0.9715712232,-0.7307500418,0.3888979894,0.1418036779,0.0349374426,-4.8849343051,0.0783043422,6.9918014017,-12.2638348199,0.9848778109,-0.9797481702,-13.5142743686,2.9527672502,-0.0833229947,0.2835780887,-0.9664077462,0.5223178641,-0.0803174775,-0.3646769663,-0.104613639,-0.3080544064,0.071913107,0.4424196365,-0.1380319386,0.3929835663,-0.1810073484,0.7982381546,-0.6246587829,0.3543893839,-0.1247188827,0.0268731902,0.5129655004,-0.3831781279,-0.6730690095,-4.6014766776,-34.5018835809,-7.2698035228,-6.134957493,-2.1318835446,-2.8715136723,-41.0657710053,-2.8181372534,1.4550140146,0.0081054093,-0.4426246375,0.0330641319,-0.5995036928,0.2038502164,-0.6634538618,0.3345540846,-0.1490845067,0.2636232004,0.5170774716,0.6482478347,0.3037835716,-0.3796397619,0.1315745585,-0.679591324,-0.4107894214,0.4696247284,-0.7189807893,-0.7838814266,-2.1119284099,-41.4231303558,-7.6340676694,-4.1468886431,0.5073894161,-17.1925469167,-6.9811317031,-33.2939791778,-0.0636994526,-0.1497032068,-0.0716388082,-0.331974757,-0.3118842676,-0.961222543,0.6533828019,-0.3043231683,-0.1052457585,-0.5941952365,-0.3004993556,-0.9221788372,-0.6277887676,-0.0350935969,0.4005159201,-0.175976818,-0.7226878396,-0.2259411398,-0.7243245672,0.1123021072,2.0329382276,-1.4791292542,0.1944649036,-0.9193519351,0.3789345257,-2.5309108574,-7.1406146198,4.1555606383,-2.0061893815,0.9418551734,-3.9074435568,1.4409051673,-1.3295147423,-0.6738881064,-0.2852716789,0.4808110961,0.0474372334,-0.9288935881,0.0521993388,-0.1538178159,-0.5230742358,-1.158954025,0.665290412,0.6788696068,-0.4846898717,-0.034117522,0.7061113904,-0.0504241573,0.351818544,2.7842678313,1.9536673212,-0.7057869125,-0.1176053995,-2.7737616085,-13.8689977983,-0.310907416,0.3301472447,1.2021227728,0.0172378786,0.0988701797,-0.8535213718,0.8640077162,0.4198275433,0.4034880996,0.3803816567,0.1748659774,-0.9900544437,-0.3036847698,0.1168909205,0.3003743555,-0.7868838879,-0.2167914096,-0.5939452755,-1.0918700117,-0.9470214665,0.7783577074,-0.6398720524,1.5249881575,0.5700137994,0.2736145451,-0.7947047397,-0.8959198386,-33.992128399,0.609408378,0.9342192104,-0.4455449932,-0.0264074259,-0.2861040328,0.7654936,0.7612294339,0.3522158526,0.7642054548,0.1409234356,0.0064728335,-0.6179408058,-0.347095495,0.7659500925,0.2954425776,0.0368236347,0.0869544478,-0.0835067369,0.8644972072,-0.0883760025,0.3779778165,-0.2728145292,0.0276291481,0.1846757371,-0.1612090991,0.3679790764,0.8530962554,-41.612766707,-1.7975333331,-0.2421018529,0.0585709195,0.4830646121,0.6185808344,0.6428884133,1.0653402566,0.0171801408,0.0030316897,0.8332861649,0.3164655507,0.4225086726,-0.0866438957,1.0272712734,-0.6922376411,-0.3220052493,0.0254341642,1.0167545061,-0.4203724282,1.0693766671,0.9197322007,0.9392580213,4.9135402751,13.2302872097,-67.3719590525,-0.8940795331,-0.4410310816,0.3679334988,-0.6918812337,-0.83067966,-0.2225138597,0.1303815948,-0.3065381806,0.420858453,0.3051548211,-0.7297694985,-0.9219927529,0.9178103115,-0.7331949656,-0.0791609017,-0.0813842964,-0.6034025668,0.6092194994,0.0376852268,0.5579102056,0.826084055,1.3643108713,0.1726138657,-0.7734730799,-0.0394363218,6.0038899006,0.4809023486,0.9889337593,-0.4011577983,0.3593574328,-3.0054924574,0.0646378613,0.0130141357,1.0463662548,0.0462234865,-0.1960972652,0.0806277609,-0.4994209825,-0.9899738001,0.4833607062,-0.2105157139,-0.6196158296,0.0090947842,0.2132449892,-0.7832662909,0.0605720332,0.6874230773,-0.4659364988,-0.0522127664,0.7360543562,0.591500029,0.8615007005,0.3458118312,6.497591749,-8.8873832962,-0.6166807743,-0.929929259,0.2490726393,-0.900990269,-22.5300309843,1.77999546,-2.5603251362,0.8062685641,0.5933927526,-0.6807278045,-0.6148887506,-0.4044029875,0.1678277966,-0.860229246,1.2071946521,0.4085503128,0.1490278919,-0.3586752582,0.6476998117,0.4516409925,1.2899157441,-0.2316618802,0.1589675479,-0.1289804656,-2.1229221026,0.8985874073,-0.4452865579,-0.8284112397,0.6328721238,-0.2204308999,0.6909987394,-0.0158482706,-0.9853168647,-4.8787281599,-5.8717271276,-8.6522862884,-7.0691961673,-8.2810332137,-7.8736442924,-10.2295355461,-12.7215897145,-10.4271153467,-10.3018424581,-12.2554525861,-10.5344137381,-12.8342672894,-9.4401918006,-17.8905679787,-12.2068075135,-12.0116394466,-16.5824114537,-9.4670958722,-3.7975474664,0.6053402094,-0.3583990563,0.418672465,-0.5243880515,0.4340833788,0.9195201924,-0.878697305,0.1856370559,-0.6631454052,-0.7838780367,-0.5088663432,-12.5615671165,-3.3758421602,-2.0997107094,-17.7009895468,-3.0010751443,-2.6240271943,-2.9566263762,-2.6545393296,0.3050402021,-0.918186581,0.7574799218,-0.6951359867,-0.592081427,-0.13291712,-0.763629208,0.8464703564,0.8532492278,0.3176464679,-0.6301871912,-0.5573785039,0.4886327582,-0.4621588145,0.3348905412,0.9439831333,-0.1362270729,-0.5043149256,-17.1822420327,-3.0415470953,-0.8365724302,-4.0551708399,4.6711890011,-16.6809986433,-29.3094562957,0.744147721,10.1484673303,0.2308877635,-0.1371770484,-2.3937706452,0.0769416925,-3.9285328495,0.2309884999,2.7522107365,-0.0783962657,-1.6671609766,3.5974064783,-22.5272817225,-0.2299220406,0.8915924809,-0.6101179555,-0.2927605803,0.886981741,0.4049537833,-1.6168033627,4.2414947181,0.0761981529,-0.0410089724,0.6052340316,-0.2244017965,-0.1925251717,-0.2201778363,-0.3371317366,-1.1894566234,-4.5107411116,-0.1717290785,1.2761143437,2.0790331763,0.226582988,0.9783509464,-0.1254247186,0.3732708626,0.2300906432,-0.3095376268,-0.5667411609,0.1853028855,-42.0065851319,-4.9009524281,-1.6153742494,0.472958855,-6.0832333143
   -0.3281759206,-0.104217364,-0.2995898088,-0.5308658387,-0.7325983665,0.5262976648,-0.5582650772,0.726921916,0.1993861294,-1.4698501308,-5.1752037271,-0.7281547987,0.2290452827,0.1984040661,-0.6023616792,0.931179505,0.0538888586,0.6109635698,-0.2067286805,0.4462275492,-0.1117857394,0.2296097317,0.0564416936,-41.806813665,-9.0188213585,-1.5169154156,-0.4070573284,-23.6703946952,-0.1277523405,1.3086029112,1.0610657121,-0.7874443538,0.5166918768,0.3679666731,0.8403570325,0.5881641391,-0.9628722159,-1.0662582742,-1.9280320689,-0.8527080535,0.1030895286,-0.581938291,-0.515038983,0.6778697583,-0.6025966633,-0.3221945554,0.6165953344,0.7619868598,-0.1820870163,0.4687219408,0.080672107,-41.0358149445,-8.5326187132,-2.7324384008,-0.6003228587,-1.9312048589,1.4661732297,0.9718286977,0.0468527803,0.2807769355,-0.5951984304,-0.187528886,-0.0786685083,0.7945356672,-0.8222738674,-0.9303830441,-2.6018828813,-1.3227389449,0.1677170872,-0.7916190404,-0.9309141276,0.5908906835,-0.4165417695,0.151235538,0.7717435068,0.7008136302,-0.3021695901,-0.5341914483,-0.150193722,-38.0018541832,-12.8084594998,-6.0847013595,-0.7947886396,-5.2248718836,0.7924585911,-0.0711027184,0.7454554629,-0.1590284123,-0.4669094347,0.1324875491,0.0450668799,-0.1284713267,-0.6388360609,-1.6713549895,-0.8885004526,-0.2786394861,-1.0565708468,0.4186276763,0.9296238339,0.1754508725,0.515045422,0.4475569608,-0.8173833394,-0.1811115284,0.6884174045,-0.875603398,-0.4890003418,-38.2188369923,-10.4009710069,-5.3075610347,-0.7126463473,0.2895812643,-0.693550522,0.1599712664,-0.0021291467,-0.716543186,0.2230153597,-0.8692763604,0.0227830139,-0.5826883984,-0.1218527784,-0.2506118812,-0.5177942939,-0.9747853936,-0.0439903529,0.0428944804,0.7752638514,-0.5109172295,0.6801257743,0.3501130847,-0.5128197052,0.2083750104,-0.2581097843,-0.9442886719,-0.4454465131,-45.4015096911,-11.6330377938,-7.3464894463,0.4804824468,-0.3345091327,-0.996779221,-0.7109892017,-0.068772972,0.6789125305,0.1699434042,-0.1905905198,0.3405956692,-1.0103396948,0.1834155309,0.2801039225,0.47589257,0.0711198181,0.1752644678,0.8030558908,-0.4720665562,0.0644431759,-0.5748162823,0.3664739113,0.0235710713,0.2112226091,0.7629293245,-1.0246028138,-0.3898334113,-44.5962797364,-13.9834900591,-6.6935567578,-0.1055911237,-16.9881726971,-4.1436778147,-0.7786123807,-0.6603670674,0.991501018,-0.0600341588,-0.8405987775,0.7428924539,-0.5834837974,-0.0758597942,-0.5556649935,-0.1648774675,-0.388050885,-0.410395654,-0.341712331,-0.2572370606,0.2206827717,0.8709155471,-0.1337991144,0.4319897195,0.281755204,-0.4513077554,-0.0414993111,-1.1922627055,-4.4953877288,-17.9178168066,-5.7577624489,-0.2152717013,-9.9724050884,-38.2662023769,-0.085233836,-0.1046158286,-0.7368255784,0.0558541663,-0.7506428319,0.5083734229,0.5741277864,0.6900770457,1.0698258965,-0.6043080368,0.7922145718,0.0120144491,-0.1171865942,0.2373547976,0.139980386,-0.7692295313,-0.0247740849,-0.4887105281,0.5749122072,0.3136877843,-0.0841690973,-0.355589049,-0.5000814425,-16.8435029939,-6.8539950955,-0.9019007544,-13.6379242903,-3.079718427,-0.7601240512,-4.0779027336,0.6556666969,-0.2847771997,-0.1563138536,1.0830074717,-0.2308761642,-0.0607574778,-0.7185551936,-0.9757225056,-0.4580945947,-1.2630078789,-0.3298689632,0.0943049111,0.8713576344,-0.2426615294,-0.6118717012,0.5599908587,0.9465383543,1.0449217429,1.2141920086,-0.5836236039,-41.8436451869,-8.6776436032,-5.3995832808,-0.2841141167,-0.8867446089,0.9951026483,-16.666001019,-46.1914021534,-0.0230326419,-2.1810727181,0.0004142975,-41.8540004149,-1.7423792626,1.8637593727,-1.9186086771,-0.3398948835,-0.605484308,-0.5189568773,0.6023578305,1.0882283889,0.6628703024,1.0332176764,-0.512050981,0.1131551161,-1.0279054057,-3.1338362515,3.2351350827,1.6850754927,-0.9792696992,0.4109444569,0.8560507267,-0.0803972791,0.9796939048,0.275603839,0.0778998349,-0.7276634664,-13.6936422515,-7.4209870534,-7.2891645474,-6.6489861741,-7.1428241218,-2.3062627144,-42.6868776417,2.4860007096,-15.4569695291,-14.1817405753,0.7010566389,11.2908157567,-0.6171569067,13.3088381558,29.2319948093,38.2080758111,-33.1578997551,-7.5499768587,0.5165407061,0.7118505449,0.1635393298,0.5223313007,-0.0240205733,0.0415394263,0.1073780006,-0.2248043052,0.3843632092,0.4380593379,0.6073773818,0.3803759643,0.3487098245,-0.3690983586,-1.5942752136,-0.5945227636,-1.1596641094,-6.6927414911,-2.147337143,-3.6858130053,-3.3361032257,-8.9745325973,-15.0859368782,-5.7011882734,-2.986878657,-13.9441408386,-6.2491732284,-2.4649013414,-2.093268048,-1.4974915664,-0.9926599854,0.8927911969,-0.7916230487,0.4607892584,-0.2810888658,0.5041955568,0.723924437,0.9920994932,0.3967747688,-15.7172506403,-7.5167780875,2.368782322,-3.2268279637,-0.5802129933,1.6717132982,0.2670042472,1.4515362078,0.0000994803,-0.5308318023,-0.7728091974,0.5669721957,-0.1342642827,-0.3950332938,1.0015136488,-0.6497234981,-42.2502977006,-12.8808042822,-5.1273285073,-14.8738392092,0.0903877708,-0.4749049089,-0.0903892599,0.0330928367,-0.2559077977,0.5195648686,16.7576887895,-0.4606021165,-0.4725580164,0.3302718042,1.2287590671,0.7259497806,-0.5190117369,0.1491305363,-0.5273233312,-0.1356111047,-0.8674082037,0.265962155,-0.8250491502,0.225614543,0.1408827088,-0.0767358793,-0.1963724303,0.1179595455,-1.0660393144,0.397597217,-1.2682889687,-19.8205380406,-8.7346085082,-3.2036489388,0.275097069,-0.6907416431,18.649411334,-1.2266055283,0.5679950897,-0.6082981,0.9864928595,-0.0923312439,0.3925727527,0.3499994034,-0.2083320682,-0.2407121612,0.1427968129,0.2073686418,0.1700684723,-0.413376911,-0.5069890956,0.0342478305,0.0430528377,-1.0045902284,-0.6527636848,-0.5696564656,-0.6654431857,-0.5594948764,-1.7132770618,-24.3291494093,-14.0913752768,-5.565462083,-3.5826448461,-12.963032051,-23.7917684087,-2.557844292,0.4708548397,1.1320169295,0.5944874851,0.3466946931,-0.4991376253,-0.7663576803,-0.4955125098,0.6101697725,-0.7290603043,0.0793918369,0.1181711382,0.2020969753,0.6849068455,0.2479319384,-0.6084008374,0.784542641,0.4631793668,0.6827430369,0.4612892203,0.3408840955,0.6175965712,-29.3477182812,-15.7516662036,-6.4102680441,-3.8871769471,0.7811972163,-19.6148475396,2.4781508037,1.4859265388,-1.3783080479,-0.3487476887,1.118869635,0.0894326167,-0.3043823103,0.997965508,0.0753904927,0.3908048017,0.7007554155,0.8559315654,0.7315804246,0.065530744,-0.0858492512,0.6304804447,0.8212609972,-0.712318896,-0.3037975813,-0.3405504786,0.9193765614,1.5890479489,-21.7360019942,-10.966109883,-11.7486432881,0.6136115808,0.8617550171,-3.9848499649,-42.5718155165,-0.0639594539,1.3549961883,1.0482257591,-0.764868569,-1.1453571391,-0.6834008506,-0.5469258028,0.9023045016,0.4265855358,0.027758652,-0.0903641541,-0.151347243,0.6880952338,-0.5330092293,-0.3208192195,0.4480934385,-0.1916094222,-0.8207128939,-0.9986342989,-0.9549258711,-3.7362569506,0.4432631022,-22.1450743246,-5.1267083238,-0.671357569,-0.3006711425,-3.6457583918,8.2976750339,-33.9477894999,-0.223355544,0.2663276889,-1.5825096445,-0.0783734735,0.5505257469,0.1905091224,-0.7691985658,0.405310853,0.383206367,-0.2752696598,0.1651328977,-0.6974459926,0.8783100511,-0.2941340538,-0.4249465244,-0.6574691034,0.2296272902,-0.8217037579,1.3093709316,0.3329890523,-0.4257645763,-41.6387715254,18.4547093099,0.1302537284,-0.5823677503,-0.957637615,46.0940649305,0.573092135,0.3929872435,1.0427527534,-0.5166685436,0.2356993985,0.304329833,-0.2808307565,-0.2391726544,-0.5886574333,0.890641333,0.4543181373,-0.8831083272,-0.007931346,0.1743005131,-0.5778773658,0.7990706818,-0.1539252353,-0.314873989,-0.7108425858,0.3573846401,-1.8022311462,-2.7986501066,-38.8335154333,-10.5844408128,0.2570396318,0.7854701306,0.4949797631,-6.4799897989,1.252407859,-0.0753461911,-0.0511913341,0.8245536396,-0.0588118719,0.1614464091,-0.3765356807,-0.6860871337,-0.2362355482,-0.3844130213,0.2332125886,-0.2857405239,0.9623763905,0.457971322,0.6343799898,0.1713470742,-0.1816950123,0.4021738462,-0.0807880119,-0.0829166268,-0.1045829688,-5.7121338877,-34.5678766358,-8.8995059652,-16.2992446957,-0.4146336575,0.0105225801,-1.1164203632,0.5308999525,0.9174157131,0.8693691186,0.2703485394,-0.403684767,0.2881212037,-0.0780039951,0.8837907618,-0.4388543566,-0.7734019596,0.1455210133,-0.2327559892,-0.1852043683,-0.0428181291,-0.3006482813,0.9084087131,0.5701207576,0.5633262427,0.3548214819,-0.6288387262,0.5544825612,1.272138619,-36.2420676694,-20.3698425293,0.3040645026,-0.2911243396,0.0848084777,-3.4775143545,-1.8028347192,0.0503443767,0.015021831,1.0112484027,0.6814503492,0.3448578804,-0.3137944041,0.7383547291,0.8148172919,0.0319743363,0.5690262164,0.754194513,-0.6420258253,-0.8667992939,-0.1632589662,-0.0138514099,-0.5488300886,-0.4893526909,-0.622232587,-0.9396011973,1.9720686049,-20.4184025548,-7.7275364078,-1.2324786104,-0.5316185485,0.4395180628,-0.289995718,0.6249251518,28.8501481352,-0.1408764811,-2.4851076778,2.3018628227,0.6367866239,0.3551693666,0.7089446285,0.443839811,0.2729181549,-0.3862425987,-0.5550395683,0.3866760805,0.1505072994,-0.22428859,0.7588530147,0.3368822878,-3.3834609475,0.5863686312,-0.7227570682,-0.689884343,-33.9429610185,-8.2078967726,-0.0073029522,-0.3990886907,0.1741899393,-0.1157275558,0.4813821534,0.8927364064,0.3644582547,-8.9914188586,-19.6206797661,-0.6571258516,-1.4749718136,0.5285971771,-0.1838138594,1.7243428571,2.4530333005,-0.518872457,-2.9044591901,-0.5799830071,-1.4037694801,-44.7038273692,-0.2495978003,-1.9392053259,-0.3400212891,1.7788720015,-36.8100700413,-18.2857321327,-3.3222920004,0.7552702264,0.0507412313,-0.7781041561,0.2833312987,-0.9854325175,0.229588379,-0.2911710711,-0.0331791325,-0.0506896518,-0.1835260817,0.5820867802,17.095019311,-23.4553022466,-5.2774795959,-19.7913100145,-11.0374794463,-5.5578399793,-2.6146606663,-3.7119106586,-0.5759770375,0.2794239596,0.4195372471,0.2333786212,-0.5012397354,-0.9057712833,-0.0391028544,0.4708656689,0.1905372722,-0.0244322828,0.2763974725,-0.9975040804,-0.0209337085,-0.7222929489,0.0143627568,-0.2579763591,0.6365018861,-0.7480704763,16.2830604848,4.244949974,0.1419353519,0.6804077242,1.4948902231,-2.2091322359,0.9822922651,0.3982368081,-0.8789894232,-16.9529614221,-1.4230268182,-2.9493366916,0.9515838491,2.8329722854,-0.400802867,2.0189486877,0.8870807499,0.3828629397,2.8529668595,29.5183340974,0.8211925973,-0.5081357667,-0.9934404242,-0.7603323629,0.8156451565,-0.3756682292,-15.547364445,-0.9254781293,1.1403098345,0.2761983953,0.3898495731,-1.096423234,0.7017121165,-0.6265266616,-0.0871074475,-2.8727924347,2.0402012316,-1.3768649057,-0.581956102,-0.810678282,0.280891392,-0.0660302811,-0.3266024056,1.0143751239,0.7270542624,-0.1908749452,-0.0279439585,-1.0206636469,5.2813371879,-19.3669491656,-6.0777849099,0.2202054086,0.0580075185,-0.2533545432,3.4802142594,0.0719953203,0.1061112311,0.1486659455,0.8481546782,-0.1414757071,0.2642926766,-0.4605794304,0.0716209557,-0.3024760154,-0.0887605035,-0.3526601563,-0.9023019197,-0.7087239247,-0.6344085018,0.7065525898,-0.4411358556,0.837089495,0.5227817561,-0.1970944954,0.2975554027,1.0368165824,0.2364256134,0.6159247164,-23.0348567641,-0.6187896829,-0.8156513627,-26.1273446975,-0.7541492711,0.1018036797,-0.1872578158,0.1610095673,0.6619925914,0.2756305632,-0.171028145,-0.7463358629,-0.5664370715,-0.7692897289,-0.409585895,-0.5754186645,0.179956052,-0.1277892607,-2.0876176425,-0.2029802948,0.1175120698,0.1014425981,0.1522216691,-0.6939829106,-0.0981274418,0.0268250062,-0.1760333263,-3.1958199845,-29.8193393486,-0.7707552255,-6.1689033817,-30.0100830426,-0.360803003,0.3265222941,0.517295336,-0.4317234354,0.7183214794,-0.0373137788,-0.4890310518,-2.3392984409,-1.879016975,-0.6503780324,0.1692216733,-0.1016319081,-0.2963933931,-0.4532663344,-1.7492829942,-1.1617256623,-1.0828894748,-0.4740068148,-0.0050607779,0.2758782622,-0.1129039975,-0.9902738648,0.1944113269,-5.4449511453,-32.1805702869,0.9932044843,-4.8922723618,-44.6216507811,0.0210548124,-0.1490778514,0.8715063129,0.0886075511,-0.2115113304,-0.2186344523,0.1649264388,-1.1520634945,-0.7826736849,0.3342287875,-0.0989594928,0.5786320891,-0.3718580195,-0.5207002372,-0.8658846229,-1.9400617588,-0.9988072356,0.4035109448,-0.6501144725,-0.321141407,0.5745323793,-0.6036806959,0.8235965211,-1.2526184669,-35.5156135017,-0.1619613765,-8.7349491429,3.9178255645,-0.5073425751,-0.8666029394,0.7477952146,-0.1229380302,0.8625707258,-0.9179470669,-0.3608851668,0.4436098385,-0.1288132788,1.3628712732,-0.0775056944,0.6021351768,-0.2665118434,-0.5702329909,-0.5569144748,-1.5486548252,-0.2821708156,-0.6714732358,0.2007140613,-0.0715019582,-0.2568352683,-0.1424260836,-0.5480695861,-1.5638855431,-37.2733640775,0.375467357,-16.139799314,1.4732014132,0.8247621558,0.2161415802,-0.7796258238,0.4223206103,0.368843563,0.1002744422,0.5906498937,0.8198266499,-0.583419197,-0.3947029819,0.030501634,-0.8513520493,0.3456076198,0.2339211544,0.4269403852,-0.36745526,-0.0998423317,-0.5529805435,0.9826536855,-0.1094847877,0.4735678689,-0.7395978074,-0.8967782715,-1.1225458691,-33.1604895464,-0.5673663413,-13.1692708523,2.4638661231,-1.4038947344,0.438762569,-0.3571758917,0.1138296243,0.3917500241,-0.1526455604,0.9392152857,0.9241235573,-0.5344655591,-0.8100026905,0.1785545056,-0.1135854252,0.7466760693,-0.0539533396,0.1446145282,0.2862049626,-0.4300132032,-0.1165456246,-0.7931994568,-0.0933681985,0.2132757893,0.4331825623,-0.0183498766,-1.8256393987,-37.3421365304,-0.4603724767,-7.6492816197,-28.5676979527,0.473473814,-1.8675111132,-0.7966504309,-0.3249849196,0.505423718,-0.607047531,0.0837700227,0.5973696909,-0.5227353891,-0.6457660299,-0.8104413308,0.487223541,0.5396392924,0.7563262697,0.5918537097,0.2919471411,-0.62363973,0.4329549826,-0.6950836779,0.2625448313,0.2921338241,-0.2265697627,-1.101819062,3.2059031789,-36.4290420513,-0.9031805592,-3.6564803777,-4.9983849411,-14.0274407564,-0.4744461108,-0.0986672882,-0.8595229946,0.7015897724,-0.2754805276,1.3055400637,-0.5605897271,-0.0950735918,-2.4336590347,-2.7491497057,-0.7386863675,1.8286987338,-0.3533368364,1.3364893963,0.5627397917,-0.1149635589,-0.3402425193,0.2029067257,0.0187644213,-1.5902626422,-1.0280330533,5.439994766,-10.7920651897,-6.2456283176,-0.3170588583,0.4124985831,-0.9332707521,-15.1732634419,-11.7007226074,-19.0134792314,-22.296921989,-22.5980943732,-25.1448083542,-22.3223699849,-12.6968277862,-21.0519638451,-0.6501686858,2.6828258245,-4.3855032998,0.9540881838,-0.0337098743,0.0494140073,1.4844420147,0.3615166878,-0.2727338869,-42.3571168795,-17.7057199594,-10.2013122065,-7.9177155028,0.3351193444,-0.670675765,0.2988256313,-0.5351492318,-0.5107084069,0.0957049748,-0.6137705974,-0.3819990469,-3.1481222099,-4.1020665166,-5.2899886347,-5.9459266233,-5.3572690413,-11.6478787397,-3.798635085,-6.3563608628,-2.4965366392,-4.5249776908,19.7247572955,-10.8806350913,-8.4188800151,-15.0438992764,-6.7084921498,-6.8946231893,-19.893201352,-1.7262001781,-0.1542796767,0.0677111775,-0.2406333382,0.240043363,-0.8363448782,0.1133525715,0.2823403924,-0.6095358101,-0.1505567507,0.4665271414,-0.1868150019,0.1605595758,-0.2470174002,-0.3111060445,-1.9242142108,-0.9989919855,-2.6562306359,-4.5319488859,-5.1919423174,-12.1338407763,-7.492200218,-12.623053276,-19.8896702338,-6.9221616712,-7.1205750664,-4.6240714715,-4.6963691051,-3.8284116713,-10.9072510793,-9.7237917488,0.5101294324,-0.6581345584,-0.4573281212,0.6124483522,-0.5312863159,-0.9788170289,-0.7907203889,0.2662218544,0.9376872025,-6.9238498443,-8.4274532834,-7.4750323322,-18.8972428274,-8.9896494934,-16.7824132095,-19.11497922,-0.1923851754,-7.0812823205,-0.66420221,-4.1732321326,0.1094258414,-4.9998677234,-45.3636569092,0.7553182384,0.3654080701,-0.6819726997,-3.9888733805,3.4140052644,3.3290291853,-0.6327676615,-0.0486479593,-0.5488191659,0.6659717012,-0.2895683571,0.5853440575,-17.2978339689,5.7777648838,1.1112586379,-2.9128783491,0.3111857331,-0.3810388329,0.2233174754,-0.1807646029,-0.4254896104,-0.1428456227,0.1827678558,-0.4498054241,0.0654666944,-0.2697108005,0.6299155724,0.1595352593,-0.4478441611,-0.1883591404,0.7735349691,-0.109248591,-0.1067646927,0.9785707333,3.5301618682,-18.9478162906,0.2726023816,-0.277744694,-3.1377899783,-35.079649535,-1.5424613678,-0.4346128458,0.1491568991,-0.2962507984,0.1618341354,0.6988476833,-0.3934985406,-0.7122778196,-0.1582748055,-1.4493037443,-2.4104453018,-2.2576195799,-1.5206392583,-2.1699531622,-0.9122466407,-0.8996428395,-0.1320693898,-0.1884571225,-0.2645835353,0.7708628947,0.2491161718,-0.0994577137,0.3999161562,-1.2864687443,-41.0684872319,-3.149924681,-4.8049674247,-28.0702099996,-1.5878927042,-0.8520847976,-0.1890506035,-0.854161661,0.4795282524,-1.5656367795,-0.1896543186,0.3128725862,0.7301489128,0.1724927759,-0.5821232906,-1.0835265953,-2.3580728281,-0.0323850198,0.0152683965,-0.8425642047,0.3627991707,-0.2409245217,0.1588440219,0.4251473008,-1.1189229735,-1.9720890071,-1.2967675837,-0.8909523485,-41.5983695752,0.4224766346,-17.1500028995,-32.4358068577,0.4568086586,-1.2189521043,-1.1455050317,-0.5984617737,-0.9859662061,0.8369891162,-0.6150782924,0.1973142495,-0.6312351245,0.3980380537,-0.2309646441,-2.3803529742,0.5139061143,-0.6560069606,0.1019763011,-0.1119047505,-0.4012011947,-1.0567495161,-0.762776879,0.2550628165,-0.9394832409,0.1386828465,-1.080405407,-16.3487160235,0.968446472,0.8941397087,2.7671748362,-35.3775296894,-0.0211575337,-0.0044774521,0.4108920664,-0.1765855215,0.5672733643,0.4108743233,-0.3057260973,1.0943305297,1.065952468,0.6554673973,-0.3044111737,-0.0762358758,-0.3450598745,-0.3578328232,1.0354083762,-0.4494445178,-0.7248070833,-0.3301338407,0.6418521215,-0.3216975281,-0.8020028031,-0.9389938422,-0.3453075973,-23.2564350058,0.7753972367,0.7394519184,29.5678052932,11.3258840406,0.0470735781,-0.2017490385,0.0315516127,-0.424647234,1.0648484167,0.5454105529,-0.3611426833,-0.1060308208,0.5907637272,0.9057899164,-0.3082495921,0.4514355312,0.5197329642,-0.6363782008,0.7491970929,-0.2818652131,1.0572423004,0.1959956585,0.0252942603,-0.2230563648,-0.230364696,-2.7013324986,3.4255214923,-17.6971897491,-0.5895269504,0.8123912089,0.4836186648,-7.4310209118,-0.5412588725,0.5465870751,0.0028054337,-0.7735924459,-0.3961376082,1.025488558,-0.0893340554,-0.348163001,-0.4888868068,0.8898874295,0.9727384298,0.4262274058,-0.555252234,0.9063206307,0.8684288964,-0.7154953311,-0.1303847417,0.8090389067,0.7204556393,0.1121037968,-1.0099539874,1.3325683873,-12.5655345535,-0.1949317842,-0.006017703,0.8228167457,0.5436862854,-37.4720969385,0.4250635888,-3.8252652537,-0.3142639149,-0.4666858097,-0.1767237699,0.2569964243,0.0776900496,0.4079252361,-0.6210200044,-0.7401444085,1.2768678179,-0.4720928321,0.8463722914,-0.5985542181,-0.3993322681,0.8806330237,0.234344408,-0.875352594,0.1238198753,-0.0534114632,-3.1472247972,-0.0503107635,-43.6117447454,-7.5666414128,-14.0290044367,-0.2711149549,-0.5485850995,-2.6559906932,-11.4048299566,-38.3309362303,-2.7724483762,0.1361917193,-1.0336051415,-0.6864545717,-0.4990594234,-1.3807940135,0.1242581119,-0.5471417227,0.0717172123,-0.066528562,-0.8987896565,-0.1756053317,-0.3939697607,-0.7521077909,0.356593418,0.4147008586,-0.6666152825,0.5656155869,-3.7568223085,0.4542258972,13.0406175006,-14.0516421234,0.2911254431,0.7438456246,-0.3912430915,-5.1943376404,-6.5792501022,-49.2831651851,-1.2841710687,-3.2388162873,0.3584411327,0.4319992802,0.581172358,-0.5612145834,0.3334731666,-0.7503626411,-0.3336340119,-1.1122581522,0.2375872059,0.7061177852,-0.7209205861,0.1953362921,-0.3592956457,-0.1308385627,0.910933005,1.0081245337,0.788152534,0.4302033016,5.2112791203,-1.8276705739,-0.5566524602,0.3556545141,0.875585803,0.4290455159,-4.7175725535,-10.6751400624,-18.2495000781,0.7178064384,-0.2111864415,0.3348310216,-0.3838111618,-0.9158046528,-0.4043546018,-0.0614450601,-0.7958514314,0.2100588774,-0.9807286773,-0.0241278269,0.5255912958,0.8059694334,-1.6982992485,-0.2335346393,1.1481619704,-0.7276072928,-1.8939999392,4.2738981112,-0.0935579561,0.8822650444,0.9698664557,-0.7421577813,-0.9250034291,-0.0775510768,-0.2423723199,-3.7512102951,-7.8455086939,-14.1848245764,-19.5200569076,-1.2857426228,-0.5688863959,-21.6230154566,-21.2387500123,2.3628686498,2.6227871982,-41.8058452719,-1.7773082989,-38.3518789687,-2.151207568,-0.4225676203,-4.4906897822,-17.1860350942,-14.3850541798,-20.1028924733,-5.3992344628,0.5543516613,0.1483202338,-0.6246021658,0.3818980517,-0.4099256921,-0.0100606006,-0.9626863407,-0.2305114558,0.1512690228,0.0602822539,-0.4273532259,-3.213860245,-4.6858740926,-5.0301441925,-12.5240242378,-14.7744058031,1.9157919016,29.9187012345,31.1889267235,0.2630031607,0.8520282638,0.8485525261,-0.7242359376,0.4499219536,-0.1767673679,-0.0190760144,0.3843960309,0.6973307415,0.1053809758,-0.97738955,0.9555495338,0.4611449566,-0.6131581347,-0.3753764582,-0.9426246499,0.2430116482,0.5932385727,-17.298728494,-2.1256813455,-1.0945838881,-1.5680915486,-1.8088657082,-1.0504674558,-1.1578662917,1.1813442297,-1.4761306623,2.4603975077,-0.135675406,-3.5176755956,0.4482001088,0.8780204124,1.0331787485,-10.6697772729,-4.5823214069,-7.6939004335,-6.5865584307,-4.4351539834,-0.9786981424,0.8657408368,-0.849709909,-0.3672807283,0.0041294791,0.8561442794,-6.7837162245,1.2853036302,0.7564656442,1.3880082015,0.710156347,1.0683306508,-0.0370803666,0.1738028842,-0.3975069867,0.7874682023,-0.7398152059,-0.414881876,-0.0279560983,0.0061107972,-0.408527754,0.1886545799,0.3054473029,-0.8817391044,-35.1408981942,-0.3239925999,6.8256222,-16.6010240902,-13.6892981672,-7.0309016678,-4.9866761001,-0.1773731915,-0.9423335199,0.4121851489,-8.6029380014,0.6233045362,0.5160293204,-0.5607762287,-0.7037120335,-0.2851782149,-0.3903309478,0.3838733767,0.3375650867,0.9171063736,0.1296104138,-0.0177523718,0.046103154,0.6329227071,1.022425144,-0.1368843027,-0.8013867931,-0.0092546727,-12.4558680496,0.5191331035,-0.0600147399,-0.0416410735,-2.8468554742,-19.3804795002,-10.7917149678,0.4255358993,-1.7730869727,-8.7937300642,-19.7481566999,-0.3456528885,-0.3386429165,-0.1363627347,0.3450945147,0.7568346519,0.6129132991,-0.9152550476,-0.7912809318,-0.1427960309,1.2525434156,0.8928255241,0.5865819603,-0.1290181603,1.009102631,0.1113593293,-1.2603247416,-0.9138937804,-1.7019367133,-1.089588025,0.2886430709,0.1101304345,-0.0866415341,-0.596648765,-10.7335443757,-0.8499461664,-4.4189389003,-13.277639762,-22.2869723654,-0.5951536984,-0.6967928304,0.751464352,-0.1925884225,-0.2143788256,-0.5683332547,0.0192639396,0.3254215522,0.3043784635,0.3393689095,0.7844865018,0.3803720611,0.0523289919,0.3315628136,-0.1790926931,0.1360154413,-0.6515466502,0.0481536392,-0.0625423734,0.1928417347,-0.75040838,0.2014891862,-21.4294449438,-11.062468566,0.4103262829,-11.7665327018,-34.8057609464,-2.1901048236,-0.7244860709,-0.5634206525,0.2035638522,-0.1712553087,0.6057744298,0.1340752389,-0.3553746661,-0.6017882323,0.2851310217,0.8070756376,-0.4141933251,0.5463783542,0.5529986353,-0.9736750054,-0.0288832804,-0.3401356994,-0.608531046,0.6090110525,-0.3805206677,0.0204647925,0.1660049216,-0.9059685269,-7.5450516077,-32.0384961149,-0.1093056211,-11.4172236763,-41.484892063,-0.4475882133,-0.9247320543,1.9918411989,-0.2241221092,0.0641479678,-0.0765877625,0.6305136323,0.7752042877,-0.437566496,0.6883578604,-0.4333624227,-0.0653348004,0.89424474,-0.3379481207,0.0043327214,0.5536662109,0.0745235152,-0.7283780569,-0.4970536626,0.5752534321,0.0864533088,0.1304580747,-0.7557129781,-0.6827488174,-25.2360574018,0.6075443221,-19.6637331654,0.8082211937,0.4179745354,-0.8741579327,-0.3735043591,0.5087745,0.4462864602,0.3797441349,-0.9038433331,0.6704522519,0.0133785897,-0.8493191107,0.9237916543,0.3590323514,0.6351204489,-0.3605178868,-0.3079936827,0.959516298,-0.8237365929,0.8239895907,-0.0229307847,0.7963549235,-0.374510157,-1.0170607936,-1.5414431066,-1.9586323431,-29.4047852621,-0.6332129814,-7.4809770784,-18.7811866173,-0.2893636995,-0.0511898848,0.2075985584,-0.876254909,0.9243394326,-0.3225479229,0.0085918407,-0.0610224577,0.5456435002,0.6509565666,-0.0028952848,0.9914974854,-0.2316881538,-0.3841594874,0.3324383784,-0.9612065876,0.0917154018,-0.7144209882,-0.1519645878,-0.407265005,0.3629958499,0.2540352443,-1.7783426035,-1.3486192294,-34.2375288507,-0.9845952242,-4.1136858171,-42.453025902,0.8407438881,0.5785161547,0.4564723772,0.0587553043,-0.4054722421,-0.3907039598,-0.1995477171,0.6543868092,0.4480188625,-0.0052493908,0.6445488612,0.1615905129,0.3399092613,0.4789759759,-0.2138251951,-0.8973278378,-0.6889790862,-0.6015856736,0.8635747736,-0.0200219338,-0.2693802788,-0.1294995893,-1.1652705801,-21.7536671583,-11.7791486265,0.3855030183,-9.8834744672,-22.7494334204,-5.3167657636,0.2530488353,0.9109250246,0.4416608314,0.1576149417,0.3800861714,0.0935053139,0.3077678181,-0.0930654331,0.31944405,0.2014339004,0.8052905873,0.6946833329,-0.2291456766,-0.1154134063,-1.4088317582,0.4313730383,-1.3778960903,-0.4951221718,-0.5431369891,0.4873587522,0.8555517422,4.5408283398,-18.8070047457,-6.6397781403,0.3293045433,-0.1156096295,-0.1237234593,1.7898740191,0.143597434,-0.0948192101,0.2521855735,0.5231304585,-0.180923472,-2.8493260079,-0.5236059214,-4.3887985792,-2.4019845809,0.4492619605,-0.9643752867,-3.6677352719,3.0771522682,0.3561516878,-0.0486637699,-0.3702269162,-0.2435327472,-0.6736896152,0.1572141036,-3.6750762703,2.6193350265,0.4412353102,-0.6182276334,-0.2396469386,0.7435234588,0.419213689,0.1641246772,0.8165735787,-0.3972891449,-17.5240794785,-0.4452658437,0.2732414886,0.9093375128,6.9071695585,-12.4129575026,-11.8559161975,-21.9942778221,-3.7444244235,-1.8991234584,-17.9772770001,4.1846133483,-1.3907887906,-13.0015334335,-5.5481215199,-3.1707284119,-13.5732828297,-1.4247219178,0.1168412806,0.6020075665,0.3426258074,0.5704315641,-0.9395836339,0.0008735036,-0.6531445232,-0.2926948795,-0.0241970845,-0.4451487023,0.9493122385,0.3110768967,0.6028603338,-0.426344353,-0.2619847126,-0.7669992037,-1.0035124427,-7.6736653547,-3.4385148645,-10.6748947097,-6.3087491979,-10.7442359137,-9.5413073944,-7.8776402881,-5.5883006237,-8.4761212829,-5.537633691,-5.7170158912,-8.0084213537,-7.8750664602,-0.3078688158,0.8733444707,0.7889579446,-0.5881904789,-0.716159149,-0.1771722085,-0.9622474663,-0.2467781007,-0.5290053486,-5.961442894,-6.5715229696,-5.1803753949,-9.365221202,-11.1168728251,-37.4257694141,-0.7297292036,0.5124787101,-3.9774054364,-0.5781172209,-0.5530291799,-0.3348550274,-1.6254222945,-1.2822174962,0.1045034093,-0.520155108,-0.1098139666,-0.1695765574,0.202609848,-1.091990455,-0.7355550521,-0.8547106072,-0.7739359811,0.9768367263,-0.0092348256,0.6889496159,-4.1710648393,-13.8183790147,-22.3289991613,-2.1500574377,0.0568250376,0.9947977799,-0.3588135658,-1.1102660073,0.0815960908,0.1157268225,-0.2986587368,-0.2709748934,-0.1375349136,-0.6823569249,0.8078574931,-0.6264168373,-0.4392817465,0.1581204071,-0.0399468158,-0.0591956116,0.6727374888,-1.4066521097,0.5069695787,0.689636046,0.7128787189,-0.2074971054,-14.2099080705,-7.4024114438,-19.3005593617,1.2153444043,-0.8038626245,-0.6117855709,-0.7046586138,-0.5121257485,0.2284234632,-0.3108573861,0.5785680477,-0.7486108078,-0.7367340748,-0.8360982067,0.1430774814,0.0237948105,0.6104770111,0.2019794016,-0.1587053276,-0.3570783505,0.8392636208,0.7440729629,0.1288506709,2.046546413,1.064022991,0.896461267,0.5630242615,-2.3440732907,-2.7401807333,-8.7192377145,-20.6877460691,-0.0702632296,-0.6133316502,-0.1614339119,-0.0044801199,-0.4823595928,-0.4902642568,0.6195876456,-0.2188845629,-0.0869429127,0.3854976994,0.6089796036,-0.2791838513,0.6686673732,0.3070191121,0.2169215943,0.1019078402,-0.2480531725,0.8564811184,1.0428753479,3.0557197993,2.6773085047,2.2691811685,-0.9851448119,-1.3355471222,0.2033161488,-13.5225184114,-8.0899962915,-25.8197963526,-0.615009676,-0.3695328992,-0.2964408543,0.3611702157,1.0002850813,0.4022042248,-0.1252335606,0.8290053256,0.1950389101,0.0267501542,-0.1396844461,-0.481481743,0.6399167031,-0.8816239453,-0.8158206891,-0.749003426,-0.8350677593,0.2767041628,-0.9520046937,0.8573785646,1.3232525287,12.8964827054,4.6561195649,-0.3371614844,-0.2333911905,-1.9182509342,-9.3023681141
   1.4795313677,0.339185087,-0.6846060691,0.3578968622,0.0436970019,-0.4593351066,-0.394009754,0.4794602199,0.6025700234,0.6742206738,0.2242152381,-0.8265105643,0.7022616372,0.8340971316,-0.2282108386,-0.2701594704,0.1621133493,-0.5355118488,-0.9025139319,-1.4246515578,-4.6047004553,-1.8904729194,-20.6220305052,28.8825450595,0.2408700572,-0.9155689151,-2.2238637222,-14.2841666265,0.6976326926,-0.10183282,-0.9366901658,0.2501931501,-0.6999224529,-0.037004909,0.0502764174,-0.0260913721,0.6075207334,0.5649740678,0.0093151165,-0.7275985609,-0.8770115011,-0.184716509,-0.3336612343,-0.2381744218,-0.8735799289,0.4218466409,-0.3649031985,-0.1162889178,-1.2614110643,1.2861237764,-41.3385271344,-19.6450557992,-0.7684198961,0.0168480023,-0.5772615461,-43.8029000227,3.0492349423,-0.9731578422,-0.6629809419,0.9632979921,0.7511524854,-0.6080973234,-0.5738648154,-0.5632403103,-0.2457864956,0.4433840006,0.0710349642,-1.1100333059,-0.748053955,-0.2595486796,0.0879461612,0.5463102481,0.430352997,0.462671261,0.0572936784,-0.1162442989,1.001833181,-0.5629137422,-1.6798848898,-15.4815722779,0.7499210555,0.5349397365,-0.501616824,5.1536328065,-0.7927376181,0.4092794394,0.2328948911,0.0602793187,-0.2623015772,0.2672528655,0.7270054971,0.2049994985,0.3464702315,0.5168803609,-0.1678164217,-0.0086748807,0.185663722,0.0310813002,-0.027663813,0.8131152969,0.1028497566,0.8732876787,0.121117227,0.4631351201,1.2422549664,-0.8652615304,2.8190803431,-14.752685136,-12.0206709615,0.5094425956,-0.8938203961,-0.3966709588,-0.014120445,-1.7083212385,-0.1498547913,0.5086761784,0.80431936,0.65113256,0.1929340595,0.4913151241,0.9504895205,-0.0389975968,-0.1533089229,0.3823289178,0.738411229,0.5047367519,0.1645114093,0.5788948346,0.7633984377,-0.1998755492,1.1800745378,0.4641138036,1.5382313687,-0.2919074591,-47.8987864998,-18.9415295473,0.336616412,0.8217774383,-0.0263262157,-37.7823440034,0.3155384721,-0.9927126073,-0.0304830205,0.3435257656,-0.244900965,-0.1038429031,-0.5976294434,0.5071034882,-0.1335006911,0.0268793664,-0.1298044342,0.9752449295,-0.4890191274,0.7288321415,0.5842368693,0.1144451223,0.9708407154,0.198217001,-0.2082001416,0.980473945,-0.3224326821,1.1407384887,-31.1592237288,-3.6850616649,0.1664044371,0.6334040535,-0.6244688547,0.200141482,-15.201112923,0.7995684267,0.2101154343,-0.0344881998,0.4106883963,0.7200698074,-0.1314920198,0.4065570508,-0.351735871,0.081752313,0.0238902384,0.2436773897,0.6326042103,0.5887107245,-0.0693720897,0.5719645932,-0.3634223982,0.6109118778,3.537264722,-0.7414274526,-37.4357167081,-12.9961225032,-0.6379442505,-0.4267155015,-0.7025045397,0.1494372073,0.7594273951,-0.4164812138,0.1813373753,-5.3651763754,-9.4860665602,1.5095249109,1.658587473,-0.4533288766,-0.4450714666,-1.0080613965,-0.4561887705,-3.6447011495,1.3618896452,-2.2810727827,1.6520803518,0.519255382,1.1899232194,-21.4549540261,-14.1720650396,-8.7243899655,-7.0657867785,-13.1631204031,-0.9091846615,-0.7498032724,-0.8604295935,0.4158090903,0.5506604824,0.712463649,0.7744047493,0.6082737255,-0.9879784023,0.2833046822,0.1264422744,0.7062583357,-13.2823256,-2.7377765306,-2.6171069677,-12.0643906516,-2.4558655191,-1.967873554,-1.8453293025,-2.5453061287,-0.1373498788,-0.5142031613,-0.3724040312,-0.386903618,-0.4556919426,-0.0629021518,0.9818802239,0.7866192707,0.8929760029,0.3684683346,-0.7225443103,-0.1139228104,0.7816561762,0.5624965997,-0.0873678198,0.9074108234,-0.8545036278,0.7729116305,-3.0684553152,-10.0473620082,-19.436214141,-21.3154612685,-21.5500798222,-8.9830119225,-26.6787571784,1.8579429412,-35.8232057467,4.574530544,0.2930070209,2.5097888365,-3.4825850748,-1.2144141773,-0.7618018606,-0.1729162608,1.4190972556,1.5958950903,-5.088681447,-15.4388868707,0.0763549269,0.9868325814,-0.9538826295,-0.9009947876,0.4755057935,0.050845851,-5.8492578659,-13.0218756122,-20.8859092122,0.1246987952,0.0612966915,-0.5713583324,-0.7688939923,-0.6566222958,-0.1738713736,-0.473912256,2.0096147802,-0.2830013292,-3.4052161534,0.5515778276,0.8623290412,0.9717613946,-0.4405693383,-0.186349238,-0.186674155,-0.9407162157,1.1225321377,0.2985609096,-41.696001499,-9.6242017005,-5.2632793907,0.9809570917,-1.1529720487,-0.2340072069,-7.0407738918,-0.5976318276,-1.2972937467,0.590051731,-1.3611782358,-0.0416354773,0.1852363029,0.1964845047,0.2292777089,-0.4965691958,0.4764707345,-0.6622281531,-0.2275975251,-0.9653246072,-0.4841398043,-0.1058000486,0.0098269179,-0.4682075075,0.6270257296,-1.8027116029,-0.7945800796,-0.6196619059,-2.0510258849,0.8762817905,-24.8767339316,-0.0991892186,-1.8465977851,-5.4016983012,-10.656030512,-1.0167759274,-0.859690132,0.2556273316,-0.3426059493,-0.2580405553,0.4303240752,-0.3664452142,-0.1683970499,-0.6027602313,0.7135059069,-0.0911402633,-0.1560593509,-1.3398542738,-0.3531751902,-0.1156552077,-0.7904696194,0.0330897266,-0.4884019408,0.7976827592,0.6823621543,0.2963444478,-2.8285364295,-0.1277937042,-25.0902690293,0.3683959655,-9.0883191077,-26.4071858175,-0.849706809,-0.7026246683,0.1632841498,0.1483238691,-0.579780982,-0.1450267021,0.7336756044,0.5084009878,0.7352513478,0.6202198443,0.1380485881,-0.3054064002,0.2732395407,-0.0471550787,-1.0026824767,-2.5760405013,-1.2107615244,-0.5008801267,-0.0997152124,-0.1800093302,0.3377826674,0.3850727627,0.4377405662,0.1680873759,-30.2380464257,0.3406189297,-10.7162141964,-37.2469798032,-0.2055971668,0.020663884,0.0702354166,-0.5559974484,0.39750557,-0.0512150992,-0.751395989,0.9238503189,-0.5659242391,-0.3227838212,-0.284670552,0.7711469647,-0.5281531657,-0.8017022177,-0.7259624672,-0.2081496754,-0.5514257353,0.3750056912,0.5990061058,-0.336142392,-0.03808315,0.2628959379,-0.2393830694,0.4330894719,-34.0929494486,0.0329305996,-10.3953468245,-40.303934186,-0.7005777631,-0.7463226127,-0.0171243634,-0.4077211884,0.3187822835,-1.0976479882,-0.6963187989,-0.22791125,-0.1276978397,0.4221131898,-0.5730715069,0.3065267148,-0.7588921191,0.5112944945,0.5761851786,-0.2172158559,0.8335097423,-0.0908232569,-0.9852622994,0.026829405,-0.7559969588,0.1182266897,-0.0030951425,-1.2276810099,-37.0769103086,0.7484950437,-9.7228518636,-37.8857960965,-2.0405358049,0.4662543582,0.6439524767,-0.4329901226,-1.1680881529,-1.1568742838,-1.3169768679,-1.5696886237,-1.1106763017,-0.5961329008,-1.107046656,-0.5786013221,0.5773912273,0.3008141856,-0.4769464589,0.3550575861,0.4167528347,0.2471827953,0.2181290283,0.38699321,-0.4670968991,-0.751830594,-0.1181203926,-0.9829650347,-33.629098944,0.0609953251,-9.3571990368,-38.6716544561,-1.3304630403,-0.4832406078,0.6896246051,0.120299917,-0.0292372546,-0.0722645532,-0.9025527687,-0.1441144512,-1.0618680114,-0.1663343331,0.4462189438,-0.7502886166,0.0404642127,0.2449336351,-0.2551388125,-0.1807314197,-0.6279345647,0.1363574175,0.6529526409,-0.3139405455,-0.6056718109,0.4224514861,0.0116253211,-21.301850702,-8.9165692325,0.1870147847,-5.6745255069,-38.2548120022,-0.3335473877,0.2450479536,0.0803092516,0.9026624847,0.8040437535,0.0154543925,-0.1872512984,-0.1986129603,-8.4512683158,0.0225600965,0.715029164,0.8601415764,0.1151231749,0.2595984116,0.1546430971,0.6094534205,-0.4258364323,-0.1752593164,0.3821523292,-0.420177847,-0.2172799592,-0.5267097912,-40.7719549106,-8.6557971798,-8.2105703238,0.8839308037,-9.2179118694,-30.4150527935,0.4968634526,-0.1653821955,0.6654661677,-0.0862315934,0.0145339795,-0.1096679002,-0.6770974937,0.5961770577,-5.7793860145,-3.9929712389,-3.2735403528,-0.1537845283,-0.8546895999,0.5980417067,-0.5751997811,0.5923234474,-0.6979655008,1.0510451991,0.9167005083,1.9057493295,-2.6704873197,0.8079057505,-26.7375076136,-13.480093606,-4.2737382742,0.7092592905,0.9488132474,0.7404556765,-2.0945293038,0.5313742837,-0.9136541743,1.1395307052,0.7939540404,1.150579532,0.9554888261,1.9723840812,-0.1105373733,-0.2139162661,-105.2342647482,6.3986984567,1.1003899394,-0.8423989955,1.9835496096,2.0570407282,0.3847372389,0.1083895941,1.234900053,0.3322989904,-44.6813758812,-13.2663674943,0.4638954286,-0.4841362003,0.802142539,0.9773859436,0.7637123785,-0.717704593,0.6201942402,-0.180250092,2.1764404139,0.9888730707,-3.234460364,1.6664337891,1.2667132936,2.8106704646,36.3421594811,29.8155700247,-8.7697565891,-2.0800630441,-20.0480351977,-15.1563344162,-17.095218899,-15.052977527,-11.6718160791,-16.5404287638,-15.6541299613,-4.6379302804,-0.2951519185,-0.8120815894,-0.5587416483,0.3800448188,0.1118465536,-0.7898783618,-0.3473281105,-0.1448552418,0.2377331509,-0.6326336804,0.5392736109,-0.0258897936,0.1704932328,5.4485946644,6.2263274746,22.0773573765,-11.2210765461,3.2243613893,-1.1417124379,0.92851143,28.6858409466,3.3936786336,-2.5178885818,2.4294781352,20.6646864528,10.3039794781,8.6778792453,2.663999734,9.4024453562,9.3247197378,0.0835462392,-0.7460349288,0.5930216105,0.7230682651,-0.7257807345,-0.5262760934,-0.047914406,-0.6541714518,0.9815323969,0.2225366622,0.6831833576,-2.6675006398,1.3489456668,-4.2595191119,0.9644008031,0.1434535756,-0.4407645932,-0.1033478239,-0.4503954862,0.1946236227,0.255525951,0.4346272438,0.033307588,1.5945516171,-1.9612210189,0.0643829682,0.3458686111,-1.770834733,-0.8760238495,-0.1442323417,0.8306351137,-0.4904588945,0.6559700901,0.9569858006,-0.954176135,-2.3578175133,-34.3559558333,0.1879791954,3.8491669121,-1.9089933905,-0.2437833342,0.3111415625,-0.0691965282,-0.7328853618,-0.8861713273,-0.398271772,-0.7907690883,-0.6009385565,-0.2774770273,0.359328485,0.2466670703,0.8533000542,0.5463746447,0.4756410776,0.3415183273,-0.8900646546,2.427254884,-27.8606680124,-17.3325293286,0.8616624462,-0.0683494955,-2.1724128461,-2.4632857325,-21.8681964834,2.9018438343,-4.6006583717,0.8639033402,0.2119697751,-1.3586987224,-0.5890693796,0.1548141814,0.4170757666,0.3289232254,-0.9192916403,0.4228886112,-0.6149383993,0.3353547627,0.5272768034,0.5136454822,-0.2476814929,-0.3849437047,-0.5309860725,0.7017928853,0.1193573994,-0.3262499269,-8.8107926495,-7.6891949674,117.729231829,-1.3054389332,-1.8545842227,-3.166848238,-17.4657096345,0.4179014409,-0.9231949337,-0.6823636242,-0.2335266283,0.3617953372,0.3977982575,0.3004793282,0.028411457,0.1308664942,-0.5149066071,0.1623643354,-0.3257019378,0.203922662,-0.493874046,-0.1710550981,1.6313224316,2.1882131448,-0.2200379039,-0.6555992776,-0.2400510435,-1.9652888177,-124.0824955607,-12.7912796659,-6.9486872932,-0.8886998291,-11.7601629793,-5.5052582862,-8.4485038432,-1.423036504,-0.3763379589,-0.6235875513,0.0897216239,0.4750429522,-0.3160977882,-0.8299827138,0.6832568932,0.9523732024,-0.0250363478,-0.4039628272,-0.4889550099,-0.0661031616,-0.196665541,-0.8720534353,0.4653275044,-0.8215022916,0.913523165,0.1891819062,0.9297887273,0.8414614572,-8.0948635617,-16.8188448046,-0.4819372456,-0.4684920806,-0.8997398017,-5.2132946826,-11.2889493913,0.3130564366,-0.2254031798,1.3923378596,0.0188878653,0.5224181773,-0.258399563,0.9095180431,0.032029001,-0.7723620939,0.6739382085,-0.7801483286,-0.1781232035,0.7215057171,-0.227023309,0.130076409,0.4951158163,-0.6065874133,-1.1561084152,-0.3799895151,0.916659562,-0.6932774548,0.1533742425,-22.6291648735,-0.9440120956,0.567067875,-2.1026485466,-2.5286777424,-15.3696621881,1.649118387,0.2756789381,-0.6832962872,-0.825034706,-0.1609861334,-0.8514060721,0.9885933378,0.1983897128,0.0350315873,0.4128167258,-0.8054147922,0.7221757537,-0.4174982884,-0.1227479744,-0.9039847441,-0.2453574225,1.1092005581,0.4495706404,-0.0721189555,-0.0246577399,-0.2812586462,0.5257431574,-10.0696670074,-0.3265210212,0.7142046557,0.1954408948,-2.778955009,-10.8948727448,-3.1067962663,-0.3479078949,-0.2105313123,0.5384667056,0.4942564249,0.6002748289,-0.4225951403,-0.0182351743,-0.7664241315,0.3937669125,-0.5955762619,-0.2202735206,-0.7942443207,0.281407117,0.2698389622,-0.4560217665,0.2372775365,-0.7205994014,-0.1103088256,1.1023112666,-1.1177388081,-1.2226668934,-1.2512112972,0.0008435902,-0.9880857551,-0.7474205609,-7.0241942096,-17.5656894059,2.4961014579,-1.2780035454,-1.2243010091,-0.1027044838,-0.26838219,0.1960111433,0.7229381013,0.5906049244,0.8162003856,-0.767495507,-0.1807205841,0.296404027,-0.2507184408,0.9216083217,-0.1592090232,-0.2254041256,-0.7014411817,-0.0912357767,0.843262689,0.4153034978,-0.870556303,-1.6390041097,-15.2689362181,-11.4771252798,-0.2298351803,-0.5687746664,-3.6754061065,-16.323519913,-1.2095195563,-0.4670563082,-1.1466103891,-0.7488282524,-0.3050574351,-0.553209651,0.9230510588,-0.0535315281,-0.3553974669,0.9202861226,-0.6892143249,0.6614597943,0.2413351495,-0.5832963553,0.1627507626,-0.461751937,0.4275003792,0.0253602274,0.8361690702,2.3192524061,0.6470473635,-32.3011781322,-10.61122784,0.7284181221,-0.5386940631,0.2051348675,-2.0034791965,-5.1568803649,-7.5393968379,-12.2094546888,-40.7311864084,1.3517047736,-0.8280073112,-0.8422505441,0.1383824463,-1.1394665732,-0.7589023258,0.1007556859,0.5982144341,-0.0501087101,-0.0356452947,0.2728947719,-0.2139811057,-0.7034549085,-1.2904403313,-0.8408621998,-22.491022837,-10.1629589884,-6.2928192825,-7.0737499628,-1.7577553337,0.3511561447,-0.4518774474,-0.1912112305,0.2799701119,-2.5905332372,-3.664082193,-4.9754466026,-9.2207528188,-8.3863286871,-20.7036275427,-19.0639769471,-24.4446870694,-20.5979715803,-0.5450727455,-1.204204946,-0.3667762222,0.0057323014,0.0930072231,-41.740192441,-20.239544002,-18.7167251865,-22.0314548082,-11.1446134005,-6.4072282184,-3.7597017339,-2.1039380998,0.0152953382,0.907115933,-0.4761146247,-0.4780271369,-0.7638072498,0.1113917961,-0.3315770863,-2.9849303129,-3.6694740593,-3.5776125028,-4.2894711651,-4.5017295272,-4.3421570936,-4.3267112353,-4.2144676567,-7.2927719399,-6.5369593987,-10.9513262691,-11.1979124721,-6.6139727151,-7.4324234147,-4.7613087912,-4.991693353,-6.0815725903,-4.4360580739,-15.2974797247,-1.129646733,-0.1884792,0.3712567496,-0.8961263349,0.320885845,0.9244459823,0.8110886842,-0.6767727721,-0.0334202329,0.8706202381,0.9825841486,-0.1039096108,-1.6652599552,-1.4742762748,-1.6020035435,-10.7177149184,-1.8050610075,-2.5340698681,-2.5106573571,-0.8802273906,-0.3781367275,-0.2745790099,0.6619445928,0.5954649818,0.1733147935,-0.1825946659,0.6181156925,0.2739680529,0.1521087046,0.6087063424,-0.933944575,0.2620015786,-0.2588775544,-0.3740219321,0.4770148153,0.5139490044,-0.5715053692,0.6732145954,-1.6617577305,-5.6740258092,-23.4573442902,-14.8796349016,-14.4801232449,-6.5602960544,-8.0676686831,-11.6474576686,-4.9271753662,-11.8085571844,-13.8252102089,-10.7076371417,-9.9557804584,-13.1812541317,-15.1397030437,-16.8314343895,-3.825090266,-4.9140799795,-2.0982652732,-1.7455179125,0.5024040342,0.2103498157,-0.8540507266,0.1348636439,-0.5443481763,0.8383423399,0.9830555426,-1.212007118,0.3659403749,0.5054348591,0.7400610225,0.6179092969,-3.0168017839,-0.2243229633,0.028985194,0.0949813276,-0.4107379207,-0.1910124313,-1.0113558037,-0.1818599979,0.3348360133,-0.119772287,-0.1359075661,0.571522844,-4.0126092301,-11.7183630598,-4.9706710653,-5.1868288744,-5.443785337,-1.773689546,-1.5817940631,0.2101000911,5.7328027994,-0.1287349713,-1.691042407,-0.2286923317,-0.1259225507,0.7726055384,-0.3316947476,0.110795096,0.0765291943,-0.569567188,-0.0025417204,0.0417299511,0.5757076402,0.1074314283,-0.857514263,-0.2689900963,0.3831585202,-0.1077031728,-1.3236472155,-0.7158331447,0.777007944,1.1908902388,-45.3508538407,-8.7936654814,-4.8471646867,-3.2143934753,-2.6406414645,0.5515027516,22.4546061535,4.5173080512,-0.256727509,0.2474899037,-0.381499331,-0.0556276845,-0.2958551588,-0.6362211443,0.8861051133,-0.7333138845,0.4708285245,-0.2247010727,0.8438014041,0.2245707477,0.2334646537,0.8951022976,-0.2414446492,0.4249736859,0.8479367841,-0.307622123,-0.8204975656,0.1227105138,0.205654009,-20.4911686967,-8.6662265092,-3.8231717734,-2.5693645704,0.8405277121,3.1676891891,-0.3349580933,2.7493587814,-0.2666154169,0.3029638445,0.5335726637,-0.9505969033,-0.5200764042,-0.7790615696,-0.4556016043,-0.4207780943,0.1669974952,-0.253858414,0.7234644757,-0.2305777538,0.3088999294,1.1565853981,0.6858269201,0.0207539549,0.6535568441,0.6602142776,-0.7322487882,-1.7147021758,-25.5530731316,-9.0086432749,-6.3306191896,-2.9419826023,-0.0947595891,2.8880042148,-0.0320017669,1.2753904668,-0.4988872344,-0.7035388215,0.0624273349,0.0428677602,0.3284941633,0.1874383256,-0.1959463735,-0.0448662641,0.541537167,-0.0214404242,0.7735284797,0.3107791796,0.4357947903,-0.1329735762,-0.0210445786,0.7002531209,0.1602543325,-0.7050962525,0.8812000764,0.0440603694,-1.0107045479,-37.2183505528,-7.3057838638,-3.3643163382,0.282867209,2.6158284457,0.8173416576,0.4161654476,0.3986709157,0.135679508,-0.6793191216,-0.2082728058,-0.450565928,-0.6943736048,0.6831242101,-0.8406144373,-0.65460302,-0.8735687617,0.1928877,0.6456541925,-0.1058890277,0.3857805678,-0.0136479697,-0.1150027436,0.7989313892,0.0610340314,-0.3521707562,-2.4962975274,-0.7900952754,-37.3823597619,-11.6680135904,-4.2889113635,-0.0466328101,-2.6811725446,-0.3426681834,0.9608330943,0.1912679906,-0.5178738542,0.1339326488,-0.5066653779,-0.6665668818,-1.4231432169,-0.8496634554,-1.2138200425,-0.5814644071,0.3410538573,0.2435589539,0.0939074504,0.6461043575,-0.6524882705,-0.5430313421,-0.1220245868,-0.8621929203,-0.3583024142,0.2495627457,-0.732275971,0.0535619944,-37.619628955,-7.8241587243,-3.5933132702,0.5174623874,20.6014547862,-0.9916366811,1.3774523472,-0.7942593579,-0.227191025,0.4158048894,-0.1560978238,-4.2023676268,-3.7511489697,-1.0254112891,0.3994828993,0.6046948445,-0.4318532066,0.6802799356,-0.326590762,0.5337058205,0.4883931817,0.0924382655,0.1157516905,0.8043734413,0.3589093256,-0.9074725012,-0.4506883363,-21.3923246794,-11.796858991,-5.4918215866,-3.0982749007,-0.4074368457,8.5654293924,40.9296453276,2.1699372962,0.3492631769,0.3937825895,0.1241624986,-1.0316007464,-4.1476612959,-0.2537438161,-0.6785946934,-0.2252024644,-0.1149646291,0.3232630496,-0.0936095613,0.2913985526,0.0109094271,0.8702172889,0.824477903,-0.1479438599,-0.1858948554,0.526788443,0.0732203468,2.8822320241,-20.9325287062,-6.3645921678,-5.6870919997,-4.4914473309,-0.2999732036,8.3309223613,5.8526249455,0.2143523527,0.530038025,1.5000056356,-0.5332350975,-0.1703646551,-1.0088846047,-0.3193978043,-0.6554225166,0.5567588011,0.6356502769,0.1601912585,1.9083486644,1.4817117603,0.2772408342,-0.4477016562,-0.2453271695,0.4531096511,0.4457974628,-0.8523566329,-20.7750633661,-12.5793527597,-6.452172777,-4.7081803849,-14.5445136231,-4.0452540828,0.4171864693,-0.5111103354,0.6936481014,-0.6229382878,-50.2965163818,2.3089125832,-2.4808601138,-3.591043007,-0.3643728163,0.1889333389,0.0591748493,-0.3614536198,0.5000127114,0.2751081607,0.5003061315,0.6375703944,-0.167569137,-0.6368318609,-2.100615707,-2.2165869737,-0.0177341867,-39.5807897372,-7.6292571731,-4.778539836,-2.0407227273,-0.3377805716,0.5434855813,0.7477417013,-0.9324115251,0.7423018587,-0.0116603711,-0.3705613704,-0.9474856305,-16.5178592005,-5.5792663364,-6.0014995971,-11.526352025,-7.0803253078,-15.9738912681,-12.7654504044,-21.2495498526,-6.7595570478,71.7057567101,-11.0723522586,-87.7043889849,-0.4285123136,-16.2726096312,-11.4840175092,-5.9508963341,-12.1747358144,-1.0758542111,-0.4048058625,0.0274871496,-0.6711512427,-0.9353624162,0.9528132174,-0.2979251067,-0.5357477418,0.7906526185,0.8289196172,-0.5603650764,0.9971883695,0.2270067876,-0.1031209644,-0.4398021522,-1.6358740195,-1.4166920842,-0.6553000823,-2.7401739921,-3.9493298016,-4.2481488318,-1.5176573012,-2.6943005815,-9.3866615428,-10.2096121067,-1.1081767255,-1.0787789131,-0.9190709791,-0.4369293048,-5.7329971002,-5.9790119179,-0.7294620546,-0.3614932905,-0.4679532316,-0.7963484637,-0.1579909754,-0.7526162949,0.8229126018,-0.6814373895,-0.1579204339,-8.3059439823,-7.2542122241,-4.5752177398,-6.9525109157,-6.8034702923,-9.3633706319,-9.4982138415,-9.9105787597,-17.5129226737,-14.4514120475,-10.3191154674,-7.4257165671,-11.386734831,-7.5228675694,-7.8719006578,-4.009265894,-6.0391077416,-6.2289077451,-5.8790349809,-2.8074278605,0.9821230745,-0.7759849729,0.9911897744,0.4635821386,-0.5777959989,0.3922117461,-7.7811371746,-19.3240164751,-1.2078559339,-3.6540334249,-1.1066679728,1.099835051,-0.1966335805,0.1161314141,-1.2961003852,-0.0559627885,-0.0861968899,-0.2632530738,-0.9742603846,-0.6326382855,-2.1926749132,-1.6091659332,-44.8021898303,1.0707419177,-46.3070495525,-1.5904375585,-34.5973312007,-10.9358861231,-6.6161517792,-3.428588356,0.7048214693,0.6710984372,0.509673455,-15.5464227197,0.7860052352,0.0500174464,-0.6546139127,-0.2463760839,0.1402768245,0.2473015911,0.7386205984,-0.4533804612,-0.2217041949,0.0529403112,-0.8211655,-0.7216743284,0.5549468526,0.5981271624,-0.328547496,-0.3059004395,-0.5149219,-0.183132873,-0.3506776752,-0.8421403186,0.1308618289,-0.4728677905,-33.6783971913,-9.3003349085,-5.3924470276,6.6092821561,22.6500174621,5.3631019368,1.4519103313,2.9145124384,1.1093284616,0.5584365375,-0.090257424,0.1680390151,0.7408416454,-0.0351329645,-0.6496585512,0.8482566807,0.8966000475,-0.5634841431,-0.1505963634,0.0941589092,0.977671406,0.8222441952,0.6419643772,-0.3019624477,0.6814741385,-0.0725809952,-0.3679440906,-3.1258147312,-41.2810864034,-10.7724592507,-7.6086009568,-0.9480416432,-0.2129315552,-1.9513428949,0.8646797322,1.8482872104,-0.4211933068,-0.7304721531,-0.0388661619,-0.3894827546,0.7324815243,-0.1296242694,0.3437834788,-0.6587384879,-0.3292971363,1.191544621,0.7248860641,0.7759687623,1.4454083782,-0.0939592375,0.152089278,0.2537032798,-0.4891145541,-0.2999236477,0.2571398514,0.0265802521,-32.4577545672,-10.8151854003,-0.3202645966,-0.1379302496,1.1136261078,37.4809419727,1.0612824358,-0.4335842712,0.1515374774,0.1821762462,-0.1374684406,-0.6264638147,-0.9341978875,0.1832908664,0.4570799016,-0.098145603,-2.4713105646,-1.82226012,0.5322233957,0.8539980883,0.6433156709,0.7592482859,0.0772378047,-0.4457097694,0.644264775,-0.4192090396,-2.1486821579,-0.2438829397,-46.3031653101,-6.0225433818,0.2896703494,0.5721376822,-5.3439253389,-5.4282156301,0.9587093022,-0.5378196692,1.6536719505,-0.7060172905,-0.9240422537,0.7035092733,-0.6246506051,-0.2179424397,-0.4199408906,-2.4276403992,-0.806116786,-0.8378526239,0.6051938212,0.7006543785,0.4735814141,0.3628120214,0.4911352899,0.2748572587,0.1568230232,0.40700395,0.6504528133,0.1361576232,3.8908803963,-8.7633165493,-0.7279623759,-0.4798887328,-0.9271879353,-18.0513737041,-0.8908870653,1.5029517226,-0.4211354812,1.1154021899,0.7062220916,0.1195453641,-1.0350351918,-0.9986203739,-0.8235823646,0.0399740088,-0.0460245261,-0.7178113549,0.8481448487,0.4625791768,-0.3916842402,0.3725057006,-0.5310862097,-0.1440780893,0.7142408322,-0.6383895336,0.4711449151,-0.2216089828,1.0367754518,-0.7054179363,0.5305424371,-0.2828612108,-0.8802340724,-2.454660829,-2.5363593002,2.9661492598,2.0711069506,-1.3501130607,-0.6678572052,0.2328937045,-0.6813348801,0.2448396626,-0.7239032261,0.2454936912,0.1976776785,0.4864143841,-0.9727381099,0.2594312973,0.6695151787,0.4032067166,-0.2187732378,-0.9213814502,-0.8989795351,-1.7630501443,-5.2873035341,0.6674027208,-41.4802995116,-7.1854532881,-13.2040813265,-0.4970010019,0.8927439268,-6.3558585642,-9.007258388,-38.1224934689,-1.5100481428,-1.2296032271,-3.4502388228,-0.5286807351,0.2622065283,0.0845402629,-0.2251092909,0.70421032,-0.0292744786,0.6726897201,-0.8648102664,-0.5176816274,-0.6019592709,-0.0577653723,-0.7356826856,-0.0679616454,-1.0705328112,-1.4068830713,-3.8144826698,3.1129793452,-7.6902440694,-8.1710891987,0.0419806127,0.1508741307,0.6171256153,-7.1991203506,-9.748464961,0.7399140955,0.5239330841,0.1453161258,0.5930657266,0.7051106714,-0.5453800242,0.2809464776,-0.3867034913,-0.0496561853,-0.1580388948,-0.5994352901,0.5300012074,0.2965076354,-0.3376840381,-0.3761954976,-1.5654466558,0.020167607,-1.4190683344,-9.688937986,34.4186863874,-8.9401957799,-6.6692271317,-1.6403943955,0.5373860239,0.6324004727,-0.9632189796,0.9362657391,-14.0229419175,0.7049117758,0.4783202653,-0.5072126989,-0.5885285529,-0.0660485524,-0.7037937238,-0.6503496166,0.3612751794,0.394751699,0.064275246,0.4742951843,-0.089418619,0.5230768192,0.0254326768,-0.2795944006,-1.6317028695,-0.0056263675,-3.6194823067,0.3578115115,-91.6489629429,-5.929202159,-0.0488517687,0.1144245299,-0.3672481102,0.2539352938,0.21681103,-0.885830732,0.5842730247,-82.5668168021,22.5596318837,-1.3373382144,-0.6954505478,0.5586629766,-1.1620314282,0.8864633096,-0.0308092462,-0.8225885061,-0.054942629,-0.2504678341,0.269644837,0.3066490158,0.8131369119,0.4115806167,4.4472024861,-0.3933082271,2.4707792758,3.9498637925,87.7290543436,0.5541178099,-0.1121227577,-0.9501898902,-0.6446441369,0.3749766437,-0.8430439252,-0.6002224009,-0.9859056755,-0.4671954532,-0.8670095039,0.5961702774,0.6197608906,24.4274185341,9.8768986964,-8.2434788686,37.1847787006,0.160281648,-6.4866735344,-6.8244687846,0.1047623172,-0.5345702368,0.3201528614,0.0840001204,0.6130335788,0.766426989,-0.3834422694,-0.6319818716,0.9095981718,0.7352496414,0.1703055552,0.5235020126,-0.7944163139,0.9196744397,0.8016119187,0.5907843664,0.4206219488,0.1659849599,-7.7683693462,-33.7697451109,-0.2714023838,-0.7185540733,-0.1793393017,2.3971971508,-0.8686204469,1.3684275701,0.3747673146,2.6555174157,0.7802401681,0.1432227084,0.5820321496,-3.5074659069,8.9770284304,-8.7498548117,-8.6234617147,-10.6354735619,-9.9830820456,-14.3025589178,-0.6822506169,0.1642187474,-0.3616809258,-0.1076305332,-0.46761113,0.2454376929,-6.8289109325,-13.9557348961,-3.0687430506,0.3147787257,0.3668650726,0.4834376598,0.339921525,0.5983486332,-0.7909678186,0.0252475254,-0.1124695456,-0.7146291466,0.663138607,0.0194642807,-0.626690603,0.1741327383,-4.6937901697,-1.7220510727,-3.9502920583,0.9804793436,-0.0395888277,-0.0021376934,1.3262597844,23.4428561749,14.0940557451,0.6080984677,-0.4988471212,-0.3970741941,-7.494494612,-37.7675286549,-0.8529657231,-0.095521929,1.4873709782,0.2333554341,0.1870740606,0.4056656864,-0.1111210474,-0.1327941473,-0.4162852341,0.4507988423,0.5582769308,-0.0297104981,0.0470763308,-0.4992919403,-2.0644916262,0.0797847214,-0.5312631231,-0.8470903033,-0.5993481173,0.4936891667,0.9535489919,-0.9059899532,37.4041171121,-0.1509976527,-0.742514881,-6.8565438195,-7.4098676337,-36.9151684313,0.2281512592,-0.7737448953,0.6099318828,0.8834611914,-0.6426540498,0.2329882077,-0.9158501835,-0.3743796305,0.6718723319,-0.740522984,-0.4183182292,-0.5698908966,-0.1769281971,-0.3997360129,-1.1988615769,-0.6849045628,0.9019366714,-0.0111127767,-0.4716838863,0.5284796378,1.3547094743,0.6349959125,30.1507311104,0.6575754431,-3.3770004347,-4.77133641,-10.3248216845,-41.4590493432,-0.7905459864,0.4135116715,0.3462386803,0.2601738538,-0.7685187375,-0.5498516756,-0.1725128181,-0.2423136605,-0.1799157196,-1.1062124837,0.0830475122,0.6468665136,-0.5628093305,0.5857723298,0.2309882881,1.096676468,0.395880526,-0.0654272435,-0.3019204166,0.0039220208,0.2401849144,0.3593032364,37.0754519131,-0.0223071566,-4.0488511094,-5.5646190696,-16.9012615973,-1.7959818284,-0.9021600283,0.0122188192,0.3148718061,0.1936870771,-0.2245582332,0.5266858418,-0.3775278817,0.4391012034,-2.6779070326,-0.4806088545,-0.6805062162,-0.9003104488,-0.5576825899,0.2929991242,0.2161752798,-0.6691638953,-0.0830898093,0.7844643657,0.4789802184,-0.1913459667,-0.6199484589,0.7367608233,4.9367094767,-0.1456462206,-2.7459283039,-8.311380469,-13.864047924,-1.1887184521,-0.5158367208,-0.3104346577,0.5022801542,-0.5111149725,0.1778656377,0.3479095181,-0.1326890978,0.3779540612,-0.6382034204,-0.4689034641,-0.3032684589,-0.1689464539,0.0683662598,-0.2333268999,-0.9026587706,-0.2181632068,0.6523577611,0.1133680082,-0.1111731046,-0.0339028904,0.517028299,0.7708060329,-0.4607413827,-0.5969219439,-10.5279389906,-6.4616537784,-10.8058033927,-37.9768027653,-1.3144394976,-0.8550264985,0.3726287268,-0.4562715725,0.4352229026,0.9103055555,-0.6691677554,0.1074802686,-0.4320890986,-0.7128157703,0.1276245493,-0.4148884836,0.9654611585,-0.4473335666,-0.555005159,0.7359460594,-0.4947878263,-0.5450932314,-0.3528877072,0.3408471368,-0.0197791314,0.2194922851,10.1125834162,-0.7401063457,-2.6569415368,-5.5596716716,-8.812955261,-39.3692975003
