encog,BasicNetwork,java,3.1.0,1,1391102512209
[BASIC]
[BASIC:PARAMS]
[BASIC:NETWORK]
beginTraining=0
connectionLimit=0
contextTargetOffset=0,0
contextTargetSize=0,0
endTraining=1
hasContext=f
inputCount=28
layerCounts=10,29
layerFeedCounts=10,28
layerContextCount=0,0
layerIndex=0,10
output=0,0,0,0,0,0,0,0,0,0,0,0,0,0,0,0,0,0,0,0,0,0,0,0,0,0,0,0,0,0,0,0,0,0,0,0,0,0,1
outputCount=10
weightIndex=0,290
weights=0.7630244262,19.9971947826,-77.051730533,-0.2227154132,-0.0199217363,0.0132545494,-0.1625642894,0.2580614417,-0.0896978127,0.2112025623,0.352471194,-0.1980947422,0.3991866629,-0.4650387477,0.2852164443,-0.4705591434,0.3453418017,-0.0979088012,-0.0287625702,0.1013003024,0.0665972357,0.0186708952,0.1228358175,0.1753945216,-0.3666764725,-1.5548774938,-41.5932039233,-13.8625020079,-6.9769823971,0.84212772,-18.8610085502,-41.5825052398,-0.8719020917,0.1192318328,-0.0732611981,-0.0564262877,0.1002354887,-0.1686164379,-0.022828907,-0.2181047649,0.0108387562,0.1399637756,-0.3462938092,-0.1061547531,-0.2816537928,-0.2050297245,-0.1059037308,-0.1169797165,-0.1302539218,-0.1961366712,-0.1362021577,-0.4596625749,0.148007819,-0.5678332898,-3.2120752407,-42.4669086744,-15.1962129299,9.0655020912,0.5219870774,1.8298139489,-1.0970180616,-0.2217860537,0.3102618806,0.1504037694,0.1930917269,0.2083553294,-0.0966299638,0.2595598336,-0.0295190478,-0.6477097697,-0.5948794385,-0.4027792187,0.1333852632,-0.2436731402,0.0134368444,0.2935516497,0.1988682412,0.0418510892,0.0642319214,0.1339825646,-0.2715253366,-0.0205702386,-0.1353507196,-4.0066343267,-34.3979401512,-7.8218446317,-2.224391595,0.0687023409,-37.9048324588,0.021459379,-0.2246799789,0.2757813013,-0.0845875006,0.2366322873,0.005493282,-0.1231926091,0.1537182027,-0.2675785259,-0.0222985743,0.1370895279,-0.0607331246,0.1460794531,-0.0112964174,-0.2192147061,0.1064779154,-0.6734804265,0.2043152225,0.0753562824,-0.1189470904,0.3017735025,-0.0501337001,0.2467166783,-0.0505771886,-0.1476784596,-37.0343023869,-2.8707567662,0.937676244,-39.9904020224,-0.7853492509,-1.3444313853,-0.2512596568,0.0136886506,-0.360426519,-0.3906624921,-0.1452012058,-0.252671783,0.0830453342,-0.3165104098,0.369937879,0.165576499,0.1498627476,0.343949497,0.2587559295,0.000208261,0.0621919025,-0.4009223234,-0.3900123223,-0.2020901678,0.1828733024,-0.2081949719,0.2032260307,-0.5699273636,-3.0972336133,-33.5476870095,-0.3845421643,0.9621575112,-16.542108107,-41.3073220711,-0.2244379735,-0.1350321327,0.0346362131,-0.0809940004,0.0162414557,0.20470248,-0.0386222823,0.094457036,-0.2547235801,-0.0519717814,-0.0257898461,0.1659298536,-0.1166199555,-0.0955587076,-0.310610737,0.0349833358,-0.1863100155,0.3018820599,-0.0644661438,-0.0165391125,0.0970528515,-0.097079128,-0.2520854554,-1.4336168025,-37.2596352028,-0.8237409886,0.2108380056,-0.5488669198,1.0981554182,0.222843763,-0.4657469052,-0.1772945025,-0.3025699037,-0.2622574655,-0.4014820762,-0.2498998722,-0.4320362444,0.1728791878,-0.1057006482,0.1996871832,0.0664285356,0.0753584275,0.1832336745,-0.140313732,0.2536689331,0.1759751388,-0.0323684898,0.3194880141,0.1815047865,-0.4377850813,-1.4826807918,-41.6833986813,-32.1847733273,-9.1716647946,-1.0478367508,-0.428355597,-17.3357260656,-30.4134407362,-34.7643076287,-1.8965109683,-0.3083206309,0.0662586817,0.1578659277,0.1613489818,0.2074493192,0.1731302328,0.3150059151,-0.0361132401,-0.3630176963,-0.2472496424,-0.1505869181,-0.0454009358,-0.0639442836,-0.1128367478,-0.1068481749,-0.2622964253,-0.2292610626,-0.0587090978,-0.1377809894,-0.2544641507,0.406263255,0.2044356708,0.3888419607,-0.4214140204,0.4595835246,-38.1645236008,-1.5130105038,-0.185138232,-0.0908394034,0.2539679922,-0.1449771692,0.1752670549,-0.0517609954,-0.0489959552,0.2165089876,0.0180794258,0.0642488005,0.1317594857,-0.1292068054,0.067950232,-0.451399246,0.58627308,-0.4460986953,0.4666307091,-0.4820177303,0.1486127527,-0.1625299556,0.229739064,0.1171527317,-0.3765597571,-44.7170265261,-15.2915513583,-4.5340022812,0.2482682208,-19.4070157331,-31.6511474823,-37.8633463825,-0.5022321725,-1.0642544977,0.2594349167,0.1165347138,0.1486803607,-0.2300078837,0.1778913521,-0.2244091444,0.5142663597,-0.0909052463,0.2138852898,0.0632967459,-0.1058961516,0.0655984977,0.0012896668,-0.5385139638,0.0793585169,-0.5990270747,0.115985061,-0.5355219783,0.1191455144,0.1401968422,0.3526981397,-0.8522456648,-1.8093856095
biasActivation=0,1
[BASIC:ACTIVATION]
"ActivationSigmoid"
"ActivationLinear"
