encog,BasicNetwork,java,3.1.0,1,1384211896045
[BASIC]
[BASIC:PARAMS]
[BASIC:NETWORK]
beginTraining=0
connectionLimit=0
contextTargetOffset=0,0,0
contextTargetSize=0,0,0
endTraining=2
hasContext=f
inputCount=224
layerCounts=10,181,225
layerFeedCounts=10,180,224
layerContextCount=0,0,0
layerIndex=0,10,191
output=0,0,0,0,0,0,0,0,0,0,0,0,0,0,0,0,0,0,0,0,0,0,0,0,0,0,0,0,0,0,0,0,0,0,0,0,0,0,0,0,0,0,0,0,0,0,0,0,0,0,0,0,0,0,0,0,0,0,0,0,0,0,0,0,0,0,0,0,0,0,0,0,0,0,0,0,0,0,0,0,0,0,0,0,0,0,0,0,0,0,0,0,0,0,0,0,0,0,0,0,0,0,0,0,0,0,0,0,0,0,0,0,0,0,0,0,0,0,0,0,0,0,0,0,0,0,0,0,0,0,0,0,0,0,0,0,0,0,0,0,0,0,0,0,0,0,0,0,0,0,0,0,0,0,0,0,0,0,0,0,0,0,0,0,0,0,0,0,0,0,0,0,0,0,0,0,0,0,0,0,0,0,0,0,0,0,0,0,0,0,1,0,0,0,0,0,0,0,0,0,0,0,0,0,0,0,0,0,0,0,0,0,0,0,0,0,0,0,0,0,0,0,0,0,0,0,0,0,0,0,0,0,0,0,0,0,0,0,0,0,0,0,0,0,0,0,0,0,0,0,0,0,0,0,0,0,0,0,0,0,0,0,0,0,0,0,0,0,0,0,0,0,0,0,0,0,0,0,0,0,0,0,0,0,0,0,0,0,0,0,0,0,0,0,0,0,0,0,0,0,0,0,0,0,0,0,0,0,0,0,0,0,0,0,0,0,0,0,0,0,0,0,0,0,0,0,0,0,0,0,0,0,0,0,0,0,0,0,0,0,0,0,0,0,0,0,0,0,0,0,0,0,0,0,0,0,0,0,0,0,0,0,0,0,0,0,0,0,0,0,0,0,0,0,0,0,0,0,0,0,0,0,0,0,0,0,0,0,0,0,0,0,0,0,0,0,0,0,0,0,0,0,0,0,0,0,0,0,0,0,0,0,0,0,0,1
outputCount=10
weightIndex=0,1810,42310
weights=##0
##double#42310
   -31.1776878286,-93.4306162002,-2.2844635927,-22.877273286,-1.0032226494,0.0280285121,-28.7395829099,-34.426501913,-4.3260765287,-1.4673251441,-147.0427565445,-0.0387090477,0.5543880791,-59.1424429539,-5.5331470628,-51.1710366966,-21.930380867,-0.0750082156,-0.0472597618,-147.0790581168,0.3508153779,-4.0963114553,-0.0150085436,-147.5099861159,-37.8391634161,0.4057394485,-3.0655234468,-11.3553735017,-0.6741144294,-6.534408247,-9.8367063985,-70.8395648937,0.1977360839,-12.675386051,0.2504464308,-9.5142937399,-147.3136128662,-0.2158844608,-0.2570277045,-71.2432031062,-55.959873471,-122.5539539806,-1.0893635172,-0.4554487096,-147.2026568557,-15.9885626815,-0.3110115777,-2.199437127,-147.1745757072,-20.121728282,0.1742895479,-1.2575348287,-37.8178628881,-1.6327776451,-1.8523027379,-0.398955943,-15.6974844425,0.2599588144,-23.6116800346,0.0044172688,-0.1210902492,-147.1974909561,-0.2542660931,0.2221018504,-7.8241267301,-1.9064481737,-0.2276556955,-0.3087720193,0.2017248582,-1.6132854728,-6.5616668291,-49.606293517,-23.4907001702,0.161352907,-3.1183113507,-7.9077413281,-147.1882640921,-35.8909301824,0.0811080847,-0.4679038577,-26.378648339,-0.0548885828,-41.3206115031,-0.2857425322,0.3265778613,-3.1688102434,-2.4579743328,-5.8320408383,-2.2887362459,-3.5418140246,-0.1803533094,-14.3154951273,-0.3041064448,-3.2291778936,-49.5680028855,-0.0867630222,-20.0594589109,-0.1928950325,0.0972469272,0.1670262734,-0.1800556691,-0.7877237096,-9.4675997293,-21.7875855192,-50.996864079,-11.3132868985,-1.4190402315,-0.3175914272,-7.2301597047,-7.8436869575,-4.7914808634,-1.079024401,-5.8117264742,-0.2823050886,-1.8511431812,-0.3090546307,0.5323306295,-15.4950853984,-3.0592666596,-1.6459017799,-0.3789554396,-2.5309620593,0.3254399692,-0.5881944049,-51.0824217381,-0.0700142946,2.5459277495,-3.2405633073,-118.1424387063,-0.0417066033,-13.0946495432,2.6207472239,-0.3966093536,-1.5229391609,-0.2352384007,0.3167814893,-0.3588956686,-8.5224536948,-50.9912889307,-18.0866053768,0.2641045768,-40.6789784397,-0.3030571864,-55.7918415444,-0.4674479085,-0.2651181337,-1.4045051495,-2.4742627491,-10.0994509378,0.3286057396,-0.2960656771,-0.6139284746,-1.4576701085,17.8505872259,0.1812146435,-20.9194683094,0.0944353667,-147.3890529932,-0.1203049094,0.2875183463,-0.0559963955,-50.9734863963,-147.2484722902,-7.2421631418,-1.5778545594,-51.3248733248,-0.4613714661,-1.1472841778,-1.0562637195,0.2365501307,-17.5050037128,-37.550446006,-0.3127601694,0.1670665746,-0.1046938745,-51.2877394109,-1.8566008376,-2.4802027264,0.1113416703,-6.3002171133,-0.1434475792,25.0795854417,-2.4256255224,1.6020818381,102.0561896768,2.9228532429,0.7636613308,147.4194403317,0.752241209,1.4173505438,-0.3459949109,-0.4537933506,-0.155091339,0.5704264425,-12.4423446087,85.3942909158,1.0048150629,147.569756738,1.1880404544,0.2501968872,-0.864791658,0.4157893492,0.4677402654,-0.332900839,-2.0190051562,147.2479128376,-0.0241126666,22.3266471592,-0.0421937562,0.1249252712,30.0563337067,-0.5842943663,-0.4507661172,-0.1691520438,2.6166330991,0.3289615391,42.6783945011,1.3199018865,-0.012750759,-0.0384364156,147.1517123801,147.5100400559,0.4862699074,3.5792029433,-0.9428278061,3.9568348687,-2.468328061,0.0467876904,7.659668461,1.6959156539,-0.4653082183,0.0963750409,2.6407540506,51.568200884,1.5763544834,3.2780196816,-0.1190536996,-3.0351497241,-7.1556228996,2.9853348729,-0.0145788619,-0.2109079239,-1.2740907116,0.1911555132,-0.2102419511,0.9964184982,3.1894960019,-0.3372016954,0.0462104461,0.2718028166,1.4413128259,-0.2907787425,24.9498214025,71.479305002,2.5747779965,1.0850369447,-1.31478276,-1.1123519126,-11.8042190707,0.0016451657,-0.3018960385,30.9511902412,-0.2316987358,3.2758195323,0.0195994644,-0.2884412138,1.4113583376,1.392641507,6.338734423,1.3309864282,9.2964753088,0.1332151866,-147.54406237,0.3542394782,-0.0419377442,18.0894378797,-0.1333720128,0.303850165,0.4694122075,-1.5119142898,-0.3254463425,0.2390634164,0.9126922972,58.919758061,0.6370333147,-1.5783386726,-0.6330079978,1.5584482798,-0.1904599796,-0.6463801495,-0.290847515,10.3387542058,2.7053612485,6.4278384038,0.1116675788,1.4563530685,-0.1343585563,-0.0897499657,106.6484981782,4.689059217,6.0059912994,-0.0850161265,4.0821573265,0.1017898974,-0.2740263311,0.2699548207,1.4911154135,0.9555388056,-9.5284834885,147.4426475679,0.454458522,-0.5392002031,-1.9329251358,0.2533576365,0.32219231,-0.1055878027,0.4390207686,-0.1250096254,70.4208809894,10.835307361,-0.4601289257,0.5137321245,4.3855192293,-0.2404269497,-5.3573324708,-0.0005242438,-0.1165076057,0.3699162559,1.016563907,2.4985546949,-0.5823732892,-0.1951780177,-0.2790267902,-0.1554095546,-4.3548373918,0.0890417476,122.7737197206,0.8738482734,1.1065286958,-0.9846323377,-0.0686311943,-0.0012313161,-1.6333019328,-5.544691679,0.532756744,1.4152296193,3.293115121,2.3211253782,-1.5586561854,2.8857198194,0.0165302563,47.2137582419,3.0747683323,-0.1737987447,-0.0323694913,-0.1489411951,-0.4416809455,3.163110595,1.2778551913,0.0812042952,0.9524243377,-0.8863781437,4.1053211074,-5.3478011656,-3.0348158406,-75.6099791986,-2.3477696526,-0.1636523634,-147.1152583473,-0.2755025733,-50.8785219968,-3.7132862819,-20.9268525874,0.2471234772,-0.8408655728,-2.7986102316,-9.9358415296,0.1227511519,-15.8144655414,0.3759024349,-0.0078575727,-147.1514432374,-1.5088225363,-0.0761340235,-0.1754179758,0.6600310595,-52.5207675661,0.2767318803,-4.2782169051,-15.61422864,-3.6794642771,-2.20478383,0.7090166162,42.6953474884,-0.0533210408,-28.4789489355,-0.3678371059,-39.6392500867,-32.7724599703,-1.6322391181,-0.4827948095,-146.912322272,-147.2984086762,-147.017909066,-3.4696397142,-1.3363369555,-1.6181114966,1.109640855,0.3749538734,-2.3578328745,3.640199716,-0.0662939676,-0.358581546,-3.2149030094,-147.4384635133,-2.5493587173,-2.79000949,-0.3656050831,-12.8076113944,0.385072839,-16.7995004892,0.0268491823,-0.4864984649,0.453554012,-0.0120890266,-0.3347698244,0.0857143887,-2.8360068463,-0.218423079,-0.054482208,0.0087879067,-3.2346568602,-2.4957949323,-143.4148726752,-1.5383482787,2.7263690398,-2.9778455562,-7.797976194,-1.8568079882,0.0780325479,-0.2129551053,-2.3503467541,-88.8583335974,0.3446614827,-2.4806835653,0.1315661439,-0.1113150647,-3.2596801826,-3.1770635212,-0.4302465852,-2.5579827985,-4.0823874339,-0.0728924961,-7.1637082564,0.2474474894,-4.2366940557,-2.2576112165,-0.3162063962,-0.1536533686,-0.097719413,0.9204370536,0.1907269268,-0.267864066,-0.590961396,3.1406728304,-0.8867011419,-1.9816584442,2.3722877409,-2.1203852545,0.298980656,0.2173014923,-2.7240662444,-2.8091691896,-1.3380034081,-0.3467100024,0.4588252523,-3.03411117,-0.2262097427,-0.385121527,-18.005955806,-3.6285704084,-3.1617292947,0.0212305616,-2.0985193878,-2.4585395739,0.2886213046,-5.8895528296,0.152522084,0.156540646,-4.1021952763,-147.199668958,0.2750564047,-1.4207678232,-3.7700311533,0.1938930462,0.4210355026,-0.1911243634,-0.2879593615,0.0955166308,-6.7884065473,-22.4961378776,-0.4616302725,0.6450935459,-147.3023548155,-0.4001165089,-147.2648150256,-1.1426962879,-0.1518612546,-2.5897715638,0.6829380789,-9.9735163857,-0.1327286607,-0.2186686846,-0.8065387986,0.6413379056,-8.6824326825,-1.2694662688,-30.3692532426,-0.1526534425,-6.7081922647,0.5236054048,-0.2411344311,-0.301039508,1.663720997,-22.0666522605,1.5735194959,-2.6329177938,-1.4474658169,-0.7970499813,0.4461052553,-2.3959429662,-0.0077339572,-26.7084539327,-0.3498127276,-0.1145080441,-0.3187227086,0.1838561369,-18.118592526,-2.870855334,-1.269464277,-0.0228455157,0.7221825459,0.0631133569,-11.2848459291,-16.9724050185,-2.3253828642,-2.4374976244,-1.2812274221,-0.8278561577,-19.5791483614,0.6801089692,-30.505319061,-0.1982022131,-4.1998587383,-0.2231805472,-3.4972810146,0.9459510404,-2.0101000258,-4.933724704,-13.9728010457,-0.3091815869,-0.0647020337,0.2539787276,0.7011004253,0.4633602107,-0.0224625767,2.8617635891,-38.6329292022,-0.1303715337,-4.3310965342,-9.8434082192,-1.4358307171,-13.3646595143,-6.8741319587,-12.6185329154,0.0341141528,-10.2252112599,0.1348499629,-3.2907176682,-147.4332707402,-1.1632155915,-0.3182146097,-16.7596613096,-52.1011039217,-4.1110805576,-1.6478668846,0.6335422431,-9.8529002112,2.9514365167,0.0847951487,-2.2662685814,-86.3340226243,4.5263425273,0.2516841614,-1.3674857851,0.5787067019,-1.3545240865,-0.3927092296,0.1574635258,-71.3677964678,-0.3266659812,-4.0456178825,-2.6001685237,-0.3681812408,-3.7367397675,0.2074620035,0.0779839223,-4.1565992956,-1.8370820739,0.2066971233,0.0935593068,-0.2575781792,-1.1231034685,-1.3715765864,-108.4755041455,1.72447888,-0.1240175495,-3.2408824096,-51.2719874477,-0.1036403895,-15.5675551031,0.2437631443,0.2476980551,-30.1381823677,-0.2178169634,-1.2160738799,0.1399037827,0.198205624,-0.200285414,-2.1199821675,-17.6274386286,-2.9569092976,-3.0864100381,0.1777115483,-5.2387346293,0.3138039566,-86.723719778,-9.6001883087,0.1463165773,0.2066745192,-0.2266081757,0.0146852511,-0.3579517811,0.0779131488,-0.8724290934,-9.7724544504,-51.195464053,1.921116256,-147.2746645363,-1.325181135,-0.2398294574,-17.784866148,0.5730025366,-2.6379418244,-1.2645373512,-0.9358271807,-0.104524689,-1.2484455241,-0.3809166583,0.3094122063,-11.5106817178,-2.8308622291,-1.5125034857,0.2375509485,-2.687439389,0.1386958625,0.1664937125,0.4655020608,-0.4779795336,-0.8302088134,-25.8362803847,-88.5227334581,0.3418388088,-5.2460526985,-0.9718948974,-0.3148626655,0.1485049426,-0.0676223099,-0.5708197734,0.2105634297,-8.3634507984,4.379620089,0.2787828257,-2.8030981029,-75.3842414477,-0.341352112,-102.5374837491,-5.0104930103,0.1334411359,-0.9711535506,0.6468100538,-4.0964050832,0.2686124533,-0.2125404146,0.7352862534,-0.2306626098,-29.9843574137,-1.0390049989,-0.6113544354,-0.0747455055,4.2835984498,0.0065531548,-0.2416496935,-0.3104363208,-1.0869492801,-0.9129124706,-4.6514254271,-1.3690127456,-0.4739280549,-0.1085206115,-0.0342408692,-1.0727617713,0.208449802,-12.3142691857,2.4496129779,0.1423000262,0.1070659352,0.1096173127,0.2826835576,-1.4546234283,-2.9299571203,0.2312280801,-0.5547354787,-0.9802728096,-16.96125914,-93.8654714125,-3.288670238,-56.7159482288,-2.0333229524,-0.641759555,-108.6931250595,-1.087647036,-4.2933701365,-0.5949783906,-2.2828252079,0.0093657526,0.3925052938,-1.2838945914,-54.0013063791,-0.5889065658,-82.1951583752,-0.6087794231,0.0274804203,-5.9820871295,-0.1462694821,-0.1169574104,0.0715072433,-147.4840484181,-118.3125240461,0.1347047444,-5.7988414016,-5.1875395607,-0.3007730464,-6.2700427352,-2.8308830473,-102.3095883932,-0.2738042799,0.6801025741,0.3608993804,-38.5737261631,0.913583281,-0.0040866457,-0.0315998151,-27.0409316494,-33.0338753062,-1.8474745674,-2.1767885119,2.3055838841,-1.3366461362,-49.3204061659,-0.0668077419,-1.6797787762,-93.7666401244,-0.1052145529,-0.022899286,-2.4579712189,-127.624170695,-2.1986299359,-3.052677802,0.3989340472,-29.7782449283,-0.1435830955,-0.3876415297,0.5700685136,0.2414554559,-4.5198839997,0.1571825318,-0.1537587341,0.3967444457,-2.4022696986,0.2819379523,-0.2091921598,-0.2424724407,-2.104479773,0.0187681736,-17.4656191788,-98.2061813478,0.0505338256,-1.699087968,0.1009662333,-0.8035954167,-93.2350849458,-0.1710449999,0.5874173281,-55.3920769386,-0.1761356631,0.8269500827,-0.1780065664,-0.0141829506,0.5072730076,-3.0080425398,0.0492024992,-3.1208965658,-2.8817896451,0.4728683683,-0.5891226983,0.0373162063,-0.0910120696,-7.555408163,0.1180436794,-0.6653306079,-0.0783458715,-0.0524069578,0.0479858453,-0.2792968251,-0.492196227,-62.4605574014,0.0553286923,-0.1221277689,1.4683474475,-3.016578507,-0.2773324921,-0.5750866432,-0.3724326032,-10.6739829318,-1.5385090336,-3.9140411129,-0.2166143103,-2.5665813111,-0.0867099692,-0.6019434112,-41.254347691,-3.1124182853,-2.5240300907,0.1030930884,-3.3848319391,-0.0921968608,-3.2824799502,-0.1270201364,0.1046419485,0.0524827043,-2.217485711,-93.5812648662,-0.0686583078,-9.9240389097,-2.5118214887,-0.5599693983,0.0080584364,0.0859232834,-0.280949352,0.2194003832,-26.4740139324,-51.2801849127,-122.8666840028,0.0174638157,-93.6286808684,0.0487107218,-3.0216428686,-0.0970417715,-0.306593265,-3.1241861648,-5.8463536576,0.4256619592,-0.1569462189,-0.0085537236,0.194676815,-0.1964251565,-14.8714361335,0.519030656,-9.7795766097,2.151841496,0.0233472556,-1.7888090339,0.1319382248,-0.1841935513,-1.5326589872,-0.2084786682,-1.6426051719,-2.1813121273,-0.6067472683,-0.9044557486,0.4625055238,-2.2482106291,-0.2476177059,-38.5755271134,-12.2917009732,0.3200582353,-0.3025775688,-0.0782889728,0.0929995293,-2.4739901257,-2.8522249497,-0.4014963714,-6.1341989979,-0.3912722782,-4.3358241801,-6.5060900927,-2.6839689931,-94.4561122658,-1.8779235594,-0.4935101821,-127.6179381207,-0.0262238151,-17.1988700536,0.3236162111,2.1891401073,-0.2800233701,-0.0615967525,0.0192482835,-52.0770436095,-17.6192313706,-122.4784326409,0.8971941777,0.1027377513,0.3907791072,0.0263923041,-0.1109288776,-0.3073933225,-9.3961704694,-146.9370793309,0.1602672491,-4.5629515744,-6.188563026,1.4888846128,-18.4290465854,-2.274587911,-42.5578483738,-0.229752754,-6.9182094887,-0.0619389616,-8.1873904486,-17.5816064569,0.0309873989,-0.2947551291,-50.8328300825,-147.2387268764,-7.9288943225,-1.8883616107,-0.0680654478,-42.3735800245,-32.7413479201,-0.5142358415,-2.6939630316,9.3301699635,-0.101098198,-0.0124844702,-2.2923911977,-19.6474148111,-2.0625519632,-2.596387475,-0.0243202666,-2.0439777048,-0.1641585284,-14.1741100429,-4.4786470309,-1.5527511225,0.8428063525,-0.0633158695,0.1418350683,-0.4981095641,-2.0009942076,-0.0397719317,0.3622108863,0.2579617671,-1.7399312836,-17.8946965407,0.1075175352,-102.5556858983,0.0770012887,-1.6734644756,-17.5173222596,-0.2501203889,-22.7781199667,0.0170355853,0.3294988539,-74.9946143668,-0.2757421377,-17.9370800286,-0.0527165131,0.0987030609,0.0168031501,-2.7947281792,0.124532982,-2.782616725,-2.5756787695,-0.3041210633,-51.2052133039,-0.2429413393,-0.0093847711,-17.8347915211,0.1569333253,-0.6602727684,-0.0280013728,0.1000014008,-0.2793559051,-0.5165304676,-0.6116216172,-70.6890266269,-2.3960144848,-17.7911823464,-51.3329016113,-1.996487521,-0.1573228506,-0.0078157887,4.641354179,-3.7396532004,-2.2216800601,-1.9059789158,0.0470407731,-0.9985054863,0.1251867686,-0.0404703778,-38.7508771428,-3.175421907,-4.3516757603,-0.0856868328,-2.3746709921,1.1247966448,0.3110005976,-0.2724569702,-0.1358729745,-2.3492329126,-50.623532611,-147.3835696552,-0.5684884395,-61.5040458956,-1.599222029,0.1113936871,-0.9375788149,-0.1459144017,-0.42851866,0.0577611003,-23.7038624648,-51.1029694137,-3.4052542619,0.2491423644,-2.1625715386,0.5983216029,-17.641381067,0.1490652271,0.0256748294,-2.5277975362,-9.6098732257,-5.9854781987,-0.1565981766,-0.2898602705,0.1412290965,-0.0758694254,0.999271441,-0.0882272106,-84.8075627923,1.8072326925,0.3334804405,0.0162042359,0.160573565,-0.0665923757,-18.038650329,0.371378135,-6.0690293377,-2.3849848746,-0.7858242491,-0.9006317643,-0.3514903526,-2.2022721575,-0.2708007793,-49.3028673558,-17.9043976602,0.0705836433,0.0598237275,-0.0215372345,-0.190181809,-2.180849833,-0.3597017121,0.0363660586,-1.345815247,-0.082525387,-6.7455023806,0.6202901384,-3.0740129209,-66.5553045702,-1.9913837212,-0.5887489472,-118.155028719,-0.116188443,-18.1832285844,0.2750703078,-0.0569597719,-0.1011251994,0.5267116849,-71.3516306136,-5.0416839984,-147.5790831356,-68.3471326999,0.8900138831,0.1340986855,-147.2172730695,-51.2370374815,0.402981446,-0.2984476678,-0.4214615308,-8.1017696934,-0.2017790379,-4.8125801877,-2.0180568139,-2.1409742113,-13.3114856201,-19.0013639381,-102.2474814712,-0.155913289,-14.9188686164,-0.0683811634,-11.1910419697,-12.6351106836,0.449939838,0.0354276138,-147.0398746768,-147.1074858907,-61.8692117795,-2.7412073704,0.8691607858,-147.1516395046,-86.5662760479,0.2720653715,-1.3836504041,-2.7415652216,0.2997514942,0.1337406036,-2.6348867595,-68.9552322055,-2.7793506491,-2.5099303046,-3.0030547347,2.8792672416,-0.0067739476,0.4102067552,-0.3167211227,0.6673329024,-0.243000418,-0.1109648223,-0.2308954034,0.3071245728,-2.7788540469,-0.0307989826,0.2461721476,-0.3038478013,-2.0342551587,0.2098977063,-147.3324093522,-67.2407732353,-0.7252124266,-3.3007956905,1.7031699463,0.0380179617,0.2001207145,-0.245498644,0.7137324991,-49.4918731961,0.0852169581,-7.4704995034,-0.328272251,-0.1376817046,0.8480294474,-3.2573477109,-0.0810281922,-3.4918360462,-4.2805456374,-0.2065995155,-147.10263953,0.3249240797,-51.6238439023,-147.3723720613,-0.2574503191,0.0118359441,0.1265954165,0.0236398003,-0.2981269851,-0.2137763469,-0.5312343792,-4.0000241412,0.5511241686,-21.4599451182,0.1107560376,-3.2216816403,-0.077423851,0.2012986593,0.7986249849,-9.9192792602,-1.3715480898,0.4053648146,-0.0736631369,-1.840660057,0.0098025594,0.5165499868,-28.9041671299,-4.1711879084,-0.7722273432,0.1962992014,-3.185249477,0.0388786418,0.2587841211,0.8853389064,0.4148535477,-22.1036372753,-1.0765551269,-1.7911394541,-0.6644240958,-23.8946702337,-4.2206886392,0.2038865974,0.2124237656,0.1196888923,0.0220619941,-1.0146781984,-17.5387504565,-147.3463121721,0.8786874024,-0.4503315582,1.6807692027,-0.0041899947,0.3484842432,1.8699474049,0.3034945821,-0.7651684403,-0.6945238145,-3.4263950593,0.3715387044,0.0323242128,-0.4213474179,0.2164718973,-26.59555572,0.1520039337,-48.8099766954,-0.0244554008,0.3914734153,-1.1543038164,-0.363191213,0.1947260183,-0.6224602932,-3.5123778059,0.220612821,-2.1490683762,-2.6844975204,-0.8919050795,0.16989921,-3.0867034886,0.0277804805,-26.7144355118,-0.6446364276,0.2950094094,-0.0950267583,0.0786155145,-0.2272066314,-3.1080124904,-3.176282116,0.4510881805,-1.3004450267,-1.0578944687,-4.0049448496,-68.1139908135,-2.7602079945,-6.5230057635,-1.2475902661,-0.2873068365,-3.2709740156,-0.1095388971,6.0074345884,0.5358730191,-0.2921278676,0.0641660875,-0.3747790712,0.0545874382,-19.2625156497,0.5028428495,4.2488372267,-0.40123217,-0.2120494477,-0.1858499295,-0.3985018052,-0.2582424562,-0.2870843147,-102.3563846564,2.0487587355,-0.2914267202,-6.7663746476,0.7851597706,-7.1853666131,-0.1775530439,-0.0431851886,0.2730699274,0.0468093613,-0.5517065246,-0.0320583067,0.6477290874,32.6018510378,-0.4686185006,0.243721085,11.7676821863,0.8296384072,0.3091392229,-2.0061515013,-19.1506109458,13.4595719973,-5.0142991423,0.0726161553,-1.2948426106,-68.0311670744,0.0882761502,-0.2212321342,-2.3452705999,23.8845923993,-2.020673701,-2.2405383161,0.3084239027,-0.7853307473,0.0143957587,-49.2829274908,0.2093111466,0.4014935984,-0.2435925578,-0.2886834221,-0.281393577,-0.484041028,-1.5964977581,-0.0306770216,0.2499589747,-0.2697796307,-1.6051320257,0.1121754351,0.3747132056,7.9743709017,-0.1793393651,6.4376412937,-19.6138599315,-6.318023893,-35.3375151176,-0.1412689277,-0.3585020276,7.8247433055,-0.1011377085,0.0492259644,0.334459962,-0.2411616624,0.2463784371,-2.503480941,-0.0796727072,-1.6043010017,0.1616681108,0.2914190562,-0.0279686073,-0.2139156814,-0.7422599623,13.0769348584,-0.2380761882,0.37706359,-0.2094008844,-1.2412271015,0.1322461267,0.3823305359,-0.4926802258,-9.6322632664,0.266277783,0.5329580479,-0.9571989964,-1.4478161633,0.1965047307,-6.3783997189,0.1800896372,2.5007210498,-1.1515751512,4.281422435,-0.1316686176,0.0792769935,0.1895220215,-0.8166244133,-20.9417881731,-3.088630173,-2.3037996635,0.2703666117,0.1258470301,-0.0209801042,0.1827015757,0.5900654492,-0.1499917248,0.343174163,-0.1885464259,-143.3326819881,0.1107472878,1.7866669169,3.6644887774,0.3851005559,-0.2978281299,0.1279064622,-0.0954356855,0.1148722766,-5.1159244001,-14.3457430859,-1.0904519679,-0.4383985309,15.0809271686,0.6675226503,-0.0343784345,0.3661281822,0.179542447,-1.1216310546,0.2208968526,2.9839524012,0.2981851555,0.0193259373,0.0008526217,0.4230241336,0.1565757509,0.1834318938,25.5000422856,0.0695874949,4.384520952,0.2809701385,-0.2861471193,-0.2820438002,-0.6815008642,0.0913161641,-0.5052111433,0.3171434205,6.14357365,-0.696368658,0.1225781294,-1.7818935821,-0.2862016748,-11.8302089866,4.7378992332,0.2929550003,-0.2460673894,0.0585932759,-0.1030928442,-2.3747202925,3.5380093688,0.0339166685,0.3043942087,-0.9713687258,-35.2679143838,-147.1333310757,-2.4317809919,-85.1114490314,-1.8554506148,-0.6834548801,-102.5474372454,-8.2752045936,-42.6308145433,0.0151398517,0.1687609803,-0.1741519678,-0.1816310615,-1.0040880348,-71.0596040446,-0.1260484257,-294.9385276921,-0.123602656,-0.1180380388,-51.1296845737,-6.3132717578,-0.0793856504,-0.1295250399,-102.1079925022,-102.0044739088,-0.0737961181,-4.9000916138,-27.3347490628,0.3276076497,-21.0918870276,-94.4456386733,-102.287812689,-0.0841833639,-27.2603307915,-0.1859127385,-30.1781111482,-123.0029549329,0.3223980151,-0.0641158018,-50.7451132101,-102.1842783994,-102.0007607126,-1.9888512984,-0.0680330967,-51.3000101379,-69.2563889028,-0.3560141579,-11.1614400049,-147.0631759619,-2.2560520497,-0.2101409169,-2.1689286923,-102.1284255711,-2.3349833885,-2.6190528109,0.0310601128,-70.9727137289,-3.0852580074,-40.9695406143,-1.0747664139,0.3760740878,-0.5365102123,-0.0150305977,0.149234448,-6.4567938735,-2.3854421344,-0.0963912971,-0.0243710517,-0.1839972258,-2.1792884845,-51.2232502075,-50.8443366491,-102.1223909694,-3.0434291423,-2.6130066482,-50.7424396237,-11.1298967753,-286.6672767928,0.0319043805,0.341671472,-68.3384650547,-0.0079175848,-17.994255109,0.4617672986,-0.1778189986,0.2257623313,-2.8356195739,-6.217406257,-2.4953191976,-3.8671153701,-0.0727417419,-51.1645762377,-0.0116610666,-0.1164000967,-50.8494165527,0.025369667,-0.6652274188,-0.193257244,-0.2879829995,-0.0489595647,0.2695805313,-0.8050714095,-71.1188570269,-51.006366364,-51.1541970397,-51.2119476527,-2.6683397933,0.1925565137,-2.3581566958,0.0190059193,-18.4363257852,-5.3420030031,-6.2674854699,0.1407902108,-2.1303407238,0.2343778611,-0.0862379783,-81.7724956509,-2.9153192266,-2.6775045148,-0.0888584284,-2.9185961266,-0.4689916979,0.2434680291,-17.768633567,-0.1937808143,-0.6078952882,-65.824078352,-146.9928463908,0.0956063133,-101.8714415069,0.1661340136,-0.1975987169,0.0473626417,0.0854210701,0.5364323071,0.0942623818,-32.3507483717,-51.1139316981,-35.7339111521,-0.2210323904,-102.1470556652,0.0059885467,-101.9366392559,0.3195847245,-0.0386363731,-2.5133639372,-31.4966660107,-20.6505948686,-0.0845803502,0.4362486622,0.2462183335,-0.6830260328,-35.2232140996,-0.1974508243,-102.1262446031,-1.4090608132,-2.7413979862,0.2863747991,-0.2059355656,0.371797329,-47.3189054329,-0.5156874235,-17.0111700591,-2.5935471627,-51.161842329,-0.9212051122,-3.0759583679,-2.4035836509,0.0550937362,-41.1579213081,-50.8140479229,-0.2162934435,-0.2193535346,-0.0809193261,-2.1429828001,-2.435428405,-2.3322211219,0.2432190453,0.2586075155,-0.2982944968,-15.6945691127,-51.2915054608,-1.1333824199,-61.4965888815,-1.858623925,-1.2372909225,-41.2384609101,-15.1220862955,-46.9258738188,0.4889891529,-6.4821317436,0.1452229621,-0.1345811487,0.1115087961,-29.6721678319,-0.1964880463,-88.5309152574,-0.2704421558,-0.1673609465,-0.0092277113,0.0562424663,0.3274281752,-0.3410560901,-51.1276155544,-136.3314917046,0.1932828779,-5.5873956852,-12.6166216187,-5.0041617408,-9.9041642248,-11.8435776273,-75.1679236487,0.2832598035,-1.600442752,-0.211088804,-36.5735240504,-146.9663574943,0.8160490441,0.1599121017,-147.4867911586,-143.2835262916,-0.1084552208,-2.0319346019,-76.7980877047,-147.0827656352,-20.5086230034,0.0096730363,-6.7767224115,-147.5119457594,-6.3904479448,0.261484358,-2.1541163911,-50.8736912501,-1.0402102726,-2.6239058406,0.3729403669,0.8297430901,-0.2198812382,4.6126528793,0.1832953424,0.5211345452,-0.3093812497,0.1942796014,0.1174836422,-0.5767390644,-0.3706474236,-0.3047015306,0.2205134197,-0.1864203758,-2.3029967017,0.0455150668,-147.5711372544,-88.6694450623,-6.9335300935,-1.3007476679,3.531727138,-21.1324123351,-147.151736643,-0.1402178074,0.3632474078,-10.3311905802,0.02645973,-2.7546426753,0.1463254727,-0.1267416707,-2.0831161715,-3.0197435141,-1.7223230035,-1.1334088477,-2.2064379049,-0.3597368848,0.4449195249,0.1689658728,-147.3700395504,-51.2448583192,0.1146646249,-1.4153764883,-0.1988919649,-2.6315818976,-0.2295266534,-0.0246051694,-0.6461518147,-24.9210373488,-51.3095749545,-51.1297407638,-147.1772354,-0.9102561222,-0.0743041476,-1.9707328398,0.0481678643,-8.6408613743,-1.7862910542,-17.4999370666,-0.0266612565,-0.9637371319,-0.0767487488,0.0019762461,-9.6750744331,-3.0164510165,-2.48605502,0.2086916162,-0.7064789429,0.065748034,-1.1084691997,-0.6247875253,-0.220801159,0.1637559033,0.0478255632,-147.2426680495,-0.2595120449,-94.9923913075,-3.4088136036,0.0678811379,0.1780958688,-0.1691474651,0.2887062333,0.0083290622,-12.2441834222,7.6927325076,-102.6750518157,-1.2530586568,-147.2852999648,0.4418583552,0.2007090506,-2.3833334889,0.055030805,-2.8760805102,-1.0989319814,-7.2851272226,-0.1313187248,0.251636802,0.0752120985,0.2305280822,-35.6091313698,-0.001692353,-122.4719633697,-0.5514571876,-17.9856176481,-0.3919631934,-0.2566645958,0.1117450756,-17.6029128803,0.2053156053,-3.6721923936,-0.7412354558,-51.0213873212,-0.9699590771,0.4478229605,-2.038549247,-0.318908098,-12.919568602,-17.6372268953,-0.168778583,-0.1408255246,-0.1648829249,-0.5268859346,-2.3254654384,-1.9771709497,-0.5544786305,-3.1827466798,-0.7875469823,0.5582318332,0.60195181,-0.0627534465,-2.0461356042,-0.684816045,-0.1639083973,3.0577870748,0.5479883935,-0.1041851205,-0.2886968882,-0.5746804731,-0.445755986,-0.831512367,-0.508264781,-0.7248964313,-0.746318663,-0.5731295456,-0.8425467918,-2.171529339,-2.4158316744,-6.1222102584,-3.3591744474,-0.5946126791,-6.5070747863,-0.0050438376,-0.1387334307,-0.4736529766,-17.716957595,0.0565785014,0.0448834163,0.0801805468,-0.4039498464,-0.0306203066,0.1008435864,-0.1371123148,-0.2194258458,-0.1456440868,-0.7039194326,-6.284338379,-6.2577900774,-1.1944195885,-0.3925369601,-0.1194828743,-0.1705576048,-1.0205614466,-2.3746593963,-6.4464985093,-6.0967866627,-17.8687115125,-17.8062046679,-8.1860777481,-12.5052858604,-2.8260486666,0.0911638069,0.5152025455,0.2129771563,0.4945778856,0.415952649,-0.171174031,5.2097226864,1.1734611994,0.0276678982,-0.1234332642,0.0362936515,-3.714348369,-6.2166065168,-6.6106545483,-2.3064261777,-0.7580010263,-0.0953036872,-0.1030056179,-0.1917104895,-0.9486113858,-0.307084708,-0.381073249,-0.5852534533,0.1791288317,0.0291026158,0.2889230721,2.1877233518,1.5000316132,1.8365476609,9.7573620876,0.0105592903,0.4847184787,0.1384229304,-0.7942214606,0.1696169308,2.7430343677,0.4535468764,-0.3789384056,-0.494420885,-0.9624255803,-0.3722285591,-2.3695189412,-2.081981377,-2.4422786212,-2.3666638286,-1.9215021558,-2.4891912661,-0.3417532681,0.0883014975,-2.3439938366,-0.3533888403,-0.1654713093,-0.2245857136,-1.7889236506,2.1086460795,2.9051517813,0.0460112414,-0.3396249583,0.320046453,0.6554121373,0.4812203638,0.1255205662,1.5692210092,1.3944936474,1.473120516,0.1627030293,-0.2302809927,-0.0572988251,-0.7896579989,-0.2832469425,-0.2424472156,-0.3661866314,-0.3713317695,-0.8155991608,-0.5925359933,-0.9054090609,-0.4219576435,-0.4188232481,-0.1838389128,-0.2462297046,0.2947871717,-0.6176718145,-0.9367898559,0.1755270108,-0.0475767746,-0.1515714448,-0.0419339748,0.6092075903,-2.0583289662,-0.0530483996,0.4467577812,11.3228009886,-0.0117508234,0.0756314092,-0.6151206588,-0.4287554907,-1.1732044038,-2.5732659507,-2.0345996696,-1.8988128011,-2.1461801565,-0.6146903186,-0.5671500119,-0.5976550261,-0.5281872788,-0.6483333473,-0.6388841279,-0.1944684073,0.0824887471,-0.5087737661,-2.3851077988,-0.9097970361,-0.4725157161,0.0164706024,-0.7483948293,0.4010947157,-0.2276565168,0.1619064403,1.5489065692,0.4634774193,-2.3489269605,-0.8494941708,-0.473643932,-0.3800884744,-1.1929796492,-0.1749748878,-0.9519476911,-0.7065323305,-0.6613646363,-0.4708361885,-0.4063271616,-0.3169360437,-1.2570166957,-0.9777422987,-1.3225539742,-1.1643840913,-1.2781176318,-0.7333075488,-0.4209840774,-1.9609438492,-0.1917705996,0.4665015413,0.5724523643,0.5736112905,0.670387657,-1.294452015,-17.7388570696,-0.3059980794,-0.7158125714,-6.0641694557,-0.7345964326,-8.6445314359,-17.4937623996,-2.1857425513,-1.9482457769,-0.0460399493,-0.3181459258,-0.168415698,0.1958206949,0.3414653964,0.8943630119,0.9703110004,2.4333057713,0.0401925804,-0.5752003893,-1.7774251791,0.4298759023,-0.4348800677,0.5274117136,0.5859090569,0.2132181833,-0.1384525667,0.4529290675,0.6617218366,-2.5618395146,-4.7172944398,-8.7131838199,-0.513720626,-0.324173798,-0.4336912377,-0.729022494,-1.0059857152,-0.620389826,-0.254074064,-0.224169663
   0.2365462241,0.0300805581,0.0573908883,-0.2950273796,-0.465994013,-0.1093815924,0.1173520633,0.0985825132,-0.0419569793,-0.148399586,-0.6767306047,-0.6829742287,-0.0400051104,-0.61960844,-5.93723507,0.6452373299,0.6989251331,-4.3255139438,-8.667964445,-1.1482854323,-0.4257686941,-0.5699879068,-0.7126576539,-0.1054193028,-0.1626937889,-0.4562873445,-0.4286098168,-0.0876410665,0.0583639048,0.0333061044,0.0354701677,-0.380895872,-0.7034413162,-0.6325988412,-0.2960773756,-0.579126054,-0.4146595525,-0.0591012399,-0.4176137024,-0.3636697066,-0.2088475804,0.1147272137,0.316606221,0.6084658997,0.554356107,-0.0509450779,0.0915659324,0.092808426,-0.2092851035,-0.3391284785,-0.0850827878,-0.2856662556,-0.487933424,-0.2987394277,-0.3821002508,0.1665715928,-0.412546746,-0.1229753177,-0.2991570086,-0.3113136158,-0.0775550034,-0.1729336917,0.0837073764,-0.1611666793,-0.1809357992,0.0524276756,-0.1871420801,0.3747311438,0.6968711334,8.2507602322,0.6531423238,0.5121298727,0.072686105,-0.3823392355,0.5522160814,0.0250908094,-0.8151686859,-0.4666299947,0.1531826053,-0.1223705695,-0.2761387949,-0.457477501,-0.5546055296,-0.0092723656,-0.0628421935,-0.0707601423,-0.3574167945,-0.1579157408,0.1447594386,-0.2161458488,0.1423787121,0.0876414541,0.1515200634,-0.5193384554,0.1455054672,1.6810154749,0.3687213533,-0.2578093755,0.5523719232,0.487009368,0.1464553272,0.5268029632,-0.1289194019,0.8106663045,0.4030314238,-0.0878865305,-0.4208230419,-1.2496041108,-0.4700139641,-0.4544347653,-1.2387091127,-0.5962798534,0.0173695182,-0.8352425458,-0.5597304388,-0.3820904014,-0.3347552216,-0.4054384076,-0.3899101012,-0.3115406332,0.0115610818,0.0978063386,-0.5442059405,-0.3321738212,-1.8429659023,-0.9958207104,-1.5480361278,0.5473640848,5.5705088788,4.9503795864,7.5762672639,1.5243233899,-0.3280345586,-0.2602322659,0.0523322431,-0.0853459615,-0.1679534011,-0.3954232329,0.1436264959,-0.4421317061,-0.2075990313,0.1396778448,-0.2608437697,-0.9277899897,-0.64451137,-0.3373680972,-0.1707678977,-0.3278763053,0.1156686122,-0.0577778652,-0.9331587465,-0.3465222628,-1.2493109919,-0.5693239442,-2.1642209998,0.3786944828,21.0985315782,0.9364838045,3.8446857718,-0.1865259441,-0.3601806003,0.1891611769,-0.0774958395,-0.656955594,-1.4191290367,-1.2165763198,-0.9594327627,-1.3844611194,-0.2700359818,-0.5934426743,-0.1752078183,-0.0994467005,-0.2946837983,-0.5270005978,-0.3679357967,0.0712254524,-0.1724771276,-0.761674318,-0.4195188838,-0.4494163567,0.4188958937,-0.6337218129,-1.921822474,0.5114911501,0.3654560837,6.2344209956,-7.0970324747,-0.019402213,-0.2055671184,-0.7938724803,0.029386238,-0.7602861658,-2.2668535051,-1.5283684346,-2.4719312831,-0.1289791159,-0.0349983345,-0.0281547655,-0.1436658659,-0.0333086406,0.1038465488,0.4567689476,1.1452304731,0.0039926452,-0.0285938712,-0.754526714,0.9455383881,0.050625741,4.0514353981,0.0251125617,0.3522064885,0.2139223803,0.5313838061,0.4682535781,-1.9953484066,-4.9028343144,-3.6848763452,-1.7992996164,-1.3141130997,-1.0380305741,-1.3585428554,-2.0224252796,-3.5833287401,-1.4551561331,-1.1285876107,-1.6054712948,-1.5019861911,-0.9223303307,-1.285247476,-0.5033443574,-1.1415052631,-0.9677377182,-1.6236597552,-0.8222717269,-0.6239723969,-0.6441159724,-1.0193704938,-1.0117813853,-0.8355414574,-0.5689089165,0.0567298788,0.4027931023,-6.0707702912,-13.6773380214,-1.6322543086,-1.2235177975,-0.9639429233,-1.4247115933,-1.4226578211,-2.4074176822,-3.9792082372,-4.1625627922,-1.570938185,-0.2779914892,-0.3318956216,-0.4540522828,-1.2127855845,-1.3018465385,-1.2587301364,-1.2465543409,-4.2270188591,-2.1325875455,-0.3010514425,-0.6500342817,-0.7314233789,-0.7492879139,1.7622714891,0.1219125239,0.1758782851,0.3103775059,-0.0334297166,-0.1990987844,-0.8827906087,-1.0088830584,-1.2213680945,-1.5946293988,-1.4185347137,-0.7351851263,-0.5986008685,-0.6075122441,-1.0009113695,-0.3842180362,-0.8552280366,-0.9749508664,-1.6814455385,-1.9773414887,-1.954373827,-2.0502658367,-1.4716771858,-1.1522059444,-0.824494759,-0.7353344619,-0.8164097699,-0.4127845503,16.9681963358,0.0958540981,0.1003006322,0.5820963393,1.4200152633,3.7886435681,-1.2100876814,-1.6186832771,-0.8474762834,-1.3263066176,-0.687279852,-0.4146698233,-0.92555189,-1.6187654476,-1.5559435407,-1.3189466754,-0.9987956031,-1.0886688618,-1.426513887,-1.5860240588,-1.5429908252,-0.52078483,-0.1914840206,-0.5965723061,-1.0485592975,-0.4574319276,-3.1264408087,0.5752688261,0.3922023871,0.6224279817,0.0619233077,0.5519486288,0.5058701878,-0.2314284303,-2.4202554684,-1.3699762784,-1.5513907843,-1.2918030636,-2.7501425834,-1.4680213191,-0.9926376431,-1.1525256092,-0.7871816323,-0.9464772791,-1.1890276775,-1.2408410782,-1.9108993911,-0.7060061465,-0.7843220686,-0.6897129382,-0.8634719841,-0.8764845004,-0.9611166975,-1.6968212737,-3.118137851,-5.0128247922,-1.4629483408,-2.1555351062,0.1003282873,-2.0500544767,-1.3175134776,-1.2325791581,0.0463601682,-0.9958627715,-1.2626053809,-1.1192677539,-1.4345583833,-0.5674634186,-0.8783814408,-0.5331073594,-0.6435925445,-0.5062691291,-0.4920510433,-0.7658137294,-0.623764849,-0.3187313549,-0.3010534383,-0.7249512951,-0.2868320004,-0.3083504242,-1.0299364283,-0.9018362008,-1.8245611641,-1.4053703334,-0.8308465198,-2.3479458695,0.036160531,-0.9724929925,2.3551525303,-0.4879827405,-0.657040139,-0.3078114364,-0.4909061015,-0.4797708712,-0.4117110715,-0.4388376223,-0.477574514,-0.620057452,-0.9019837664,-0.4420790449,-0.6710033316,-1.4026498932,-1.4127673894,-1.934464474,-1.5341000278,-1.1323956116,-1.1872724444,-1.0458925598,-1.3013880323,-1.4631689146,-1.6933397551,1.9906707162,-0.9297034679,-2.1947456991,0.0178470698,0.3913982463,-1.8033466277,-28.5386751657,-0.8699466528,-0.7041138067,-0.5110086875,-1.7978828018,-0.6670263024,-0.8310771604,-0.5136265481,-0.390723095,-1.1434084099,-1.2524079041,-1.136824295,-1.2287070216,-1.4843562259,-0.1959299556,1.1059064506,1.4238763483,-0.1602046972,-0.215890704,-0.5949754564,-1.0886882335,0.298235415,14.9967708015,0.2436345562,0.4353782034,-1.0028538018,0.4647050988,0.7158127436,-1.0572789931,-1.0564625326,-0.5022554506,-0.690786855,-0.4329786325,-0.4077296415,-0.2874070342,-0.5954075308,-0.7757034963,-0.2015402656,-0.7119471918,-0.4948445964,-0.2269226717,-0.2705796928,-0.7975698143,-0.5824987506,-0.9792587792,-1.2633872935,-1.2393391368,-0.5107104166,-0.7809335897,-1.0043187661,-0.4390385045,-0.7618572374,-0.8592783047,-0.337677614,0.4450810913,0.6330171867,-1.416958131,-0.6750195958,-0.7490814055,-0.616081862,-0.6353953268,-0.0595627956,-0.5692670341,-0.2596889901,-0.9496399511,-0.7678691808,-0.7470807395,-0.4185403496,-0.4024910552,-0.5326304034,-0.3975119794,-0.7061421737,-0.8683557622,-0.2815052218,-1.0244909313,-0.3991131583,-0.7734723727,-0.6412336522,-0.523921185,-0.7945089435,0.5045974901,0.5991028414,0.1875858994,0.1257094987,-0.7791257212,-0.4064618003,-0.6835246989,-0.4608253795,-0.544919559,-0.2660013496,-0.2500178422,-1.0834009233,-0.5810657915,-1.0804215731,-0.304874659,-0.1114862875,-0.2207394706,-0.4803336187,-0.8039662591,-0.5280601183,-0.3298582235,-0.9611024169,-0.3991197714,-0.3650519745,-0.5231230265,-0.1932540482,-0.4478138426,-0.3818727164,4.9016660036,0.3843624556,0.3385153047,0.3721098162,0.871595072,-0.4722972863,-0.7609273458,-0.808741442,-0.2603826505,-0.0768868786,-0.1652768108,-0.3616706714,-0.1399643076,-0.3019878206,-0.1298106257,-0.5810479753,-0.0840611137,-0.3193509794,-0.5736992157,-0.5836265361,-0.2929076961,-0.0494004576,0.6719926554,-0.1773682432,-2.2474857748,-0.719040849,0.0271473389,0.6749309832,3.3663359096,0.6232265203,0.5029102835,0.0683295518,0.2714482069,-0.2732757887,-1.0186488361,0.5495884086,-0.6034221104,-0.1990349575,-0.8640468633,-0.4193832988,-0.3072222866,-0.4267256151,-0.0796016958,-0.3215283103,-0.8315345196,-0.6691568714,-0.4521758897,-0.5002428161,-0.1394372614,-0.3349738011,0.2693845963,-0.6858817269,-0.6251008818,-0.150659859,-0.6464261851,-1.2393562492,-0.2588761599,-0.5998498434,0.2710852964,-0.8218858491,-0.7680368634,-0.4578988624,0.1769103,-0.1245459026,-0.7323130795,-0.2982329641,-0.7658655428,-0.3573939286,-0.7997646016,-0.1336950416,-0.1094000587,-0.0595991787,-0.294721368,-0.3986943189,-0.1435932144,-0.5467049607,-0.310012454,-0.579354799,-0.4192652143,-0.7312470796,-0.2643420919,-0.4627050358,-0.2708254822,-0.6363775066,-0.3803788301,-0.5192025298,0.5181590253,-1.0731598546,2.9320364032,0.0481765579,-0.6094214166,-0.8173247461,-0.2157136118,-0.1651515602,-0.5543933579,-0.7552122034,-0.5123347557,-0.496134528,-0.0986317501,-0.394131389,-0.2901020312,-0.2717533444,-0.7741761205,-0.2198760774,-0.4460205723,-0.3169847286,-0.7200433303,-0.5722593459,-0.4254311014,0.0894070772,-0.6925560006,-0.6905363298,-0.2499837607,-0.6162004791,0.0797049964,0.482920432,-1.5905661542,-18.5953818833,-1.0582506871,-0.6571739676,-0.653464525,-0.726594407,-0.4290970323,-0.7389347928,-0.7339741521,-0.8706624456,-0.4323018428,-0.3862901059,-0.2269570482,-0.2975502145,-0.617477826,-0.2986737626,0.144045797,1.2401938152,0.1137754323,-0.4962233359,-2.2145979932,-0.2039126907,0.9402829469,0.8087160034,0.3842487037,0.4682090685,-0.1221384744,0.1830723043,0.6619467974,-1.3202623604,-12.3560473934,-9.586015803,-3.5958080592,-0.7754630564,-1.1596499348,-1.1380047066,-0.9767021958,-1.8451528234,-2.6425783817,-1.4316384503,-1.2221831889,-0.9897306296,-1.1536924885,-0.8084926709,-1.1570585018,-0.8368350537,-1.3840791244,-1.4187668213,-0.7672214022,-1.3908920542,-1.0470916181,-1.3878473673,-0.9674987446,-1.53861951,-4.3476332816,0.4843055886,0.4458650594,-2.1492609642,-1.1809033925,-1.1155677602,-1.2368183559,-0.8212439077,-1.1760901397,-0.959133814,-1.6503328325,-2.2579920337,-2.4608257949,-1.2237540491,-1.060942546,-0.7839093702,-1.114182071,-0.6462584698,-3.4788449924,-3.7790018034,-3.7239747917,-3.7988114885,-1.9610254097,-1.0720643685,-1.2279979446,-1.0050975496,-1.0643019793,-0.4342254484,0.5209023098,0.4551435609,0.7025984074,-9.6295178642,-0.8956767446,-1.4371241712,-0.9097219378,-0.7408333975,-1.2086770877,-0.730911408,-2.7759594912,-3.4945993141,-3.2375298366,-1.1790373619,-0.8836744382,-0.7707735179,-1.0370749834,-1.4554301384,-1.4447687084,-1.4797533723,-1.0266888789,-0.8523763095,-0.5016842686,-0.7781971328,-0.6455245065,0.1817134678,0.1299814883,16.1971223589,0.4431253829,0.0809533032,0.4662804815,5.7976203563,0.0976920841,-3.9712701614,-0.7973267482,-0.6696396396,-0.563401438,-0.6014394181,-0.6664199487,-1.0957858926,-0.6197934598,-1.3282763398,-1.3899748699,-1.1751782313,-0.6601767617,-1.0450698496,-1.1205582256,-1.3077314158,-0.4685265748,-0.7103399024,-1.3747705417,-2.8912347794,-2.4579054088,-2.5189265101,0.1469494693,2.3688852962,0.070118633,0.2701190027,0.3185493025,0.0512653591,-0.3633472523,-1.79399707,-0.5400891191,-0.9931199868,-0.5967483074,-0.8335144414,-1.2120096373,-1.1214512788,-0.6727873782,-0.893368634,-0.7385292034,-0.5935596587,-1.0732691697,-0.7138772112,-1.0855411678,-0.8742883523,-0.6573706145,-0.6462549671,-0.8433288041,-1.14887386,-1.064266043,-1.5403553355,-1.1460237418,-0.7766655185,-1.2345196751,0.391955443,-3.9007843791,-1.9458641602,-0.9107473536,6.322107187,-0.6979886537,-1.0443991911,-1.3452950004,-0.9189429885,-1.0627460338,-1.213385207,-1.2586371554,-0.9003348986,-1.1343119721,-0.7120008093,-1.1222443723,-0.8548072669,-0.967172029,-0.9662164705,-1.0800857917,-1.1622636866,-1.1752092231,-0.6771061483,-0.6753527419,-1.1470893243,-1.4977128402,-1.0015813983,-0.7462163768,0.4506972873,-1.8332722621,3.2040420794,0.1138467525,-1.1053125553,-1.126710699,-0.8055482237,-0.8538782751,-0.7475577649,-0.731593115,-0.5737033981,-1.0201647388,-0.9302562579,-0.8582570984,-1.0255132804,-1.2508306376,-1.5510233903,-1.4935102453,-1.505665327,-1.4555352735,-1.2969342076,-1.4073136815,-0.7952189967,-1.1685118088,-1.3565949345,-1.7943302908,-1.0195633766,-1.3431706449,0.3588156327,0.2878872279,-3.5932958976,-51.7503270598,-2.2859274102,-0.9421126665,-1.3618523426,-1.8843610789,-1.2470360706,-1.8072676821,-0.7115579183,-1.1133573546,-0.199394104,-0.8828030161,-0.3931121775,-1.12490399,-0.918632102,-0.5260123912,0.0742898753,4.989028878,-0.1661428825,-0.4751335359,-2.7654264492,-2.87441572,-4.3426277958,-2.9216575362,0.025068935,0.05992333,-1.0269285758,0.1655349357,0.671673653,0.1604660711,-19.294174742,-2.6818266946,-2.015355407,2.6758092706,-0.6599729162,-1.7233515602,-2.7592332157,-2.3660361838,-2.0588976407,-1.5786627175,-1.7287548766,-2.2185092366,-2.0367703435,-1.6773950649,-1.579950736,-1.4234485394,-1.8169654541,-2.0817065442,-1.8911229122,-3.4990469612,-3.481218626,-2.6377087773,-1.8959877473,-1.8281427084,-2.458479311,0.3626559022,0.3129172831,-1.10595277,0.032288119,-0.999008074,-0.9167985618,-0.3369772232,-0.1971596619,-0.5964249531,-2.1823998733,-2.4938137033,-2.5790375886,-1.7219900216,-1.4736005942,-1.1625681683,-1.126753997,-2.1385306234,-1.7932758835,-2.6320070891,-2.8567417755,-2.8821306369,-1.7090124311,-1.3245613674,-8.7340057065,-1.6032684787,-1.6812729202,-0.300147818,0.3284928344,0.0312550192,0.2457246546,-19.0236707829,-3.3451214726,-5.0411181375,-1.7691951481,-1.7369402697,-1.5323829837,-1.4664349056,-2.4566936966,-2.1375766858,-1.9881353243,-2.1314029901,-1.5658473121,-1.3876612472,-1.6271480931,-3.2563470062,-2.988427769,-2.5035255111,-1.2299802076,0.2883906729,0.7102058616,-0.4086936668,1.0959404405,0.1464159111,0.3369894211,8.7722557433,0.5337084018,0.4844970759,0.0713214804,-1.5690940306,-0.6606320061,-2.3977148462,-1.5776503691,-1.7300323958,-0.8994831365,-1.3442821748,-0.7820376177,-1.7399399522,-1.8813690762,-1.6029596127,-1.545693252,-2.087854417,-1.2178591651,-1.3904505953,-1.4719203617,-2.7031129977,-1.4998598541,-1.309920619,-3.8017087781,-1.9287720151,-1.5051628422,-15.1709785358,0.2441693793,17.8244156066,0.61518282,0.313562451,0.2770528365,0.1693208922,0.7965444128,-0.975426806,-1.5772708804,-0.1097866981,-1.2420157991,-2.0693748346,-1.1757651854,-0.2430657627,-0.1672273156,-0.2584194836,-0.3172818265,-0.0259410828,0.2963088695,0.1553145475,0.3463874972,0.0207636867,-0.2590626037,-1.016581724,-0.5056519213,-0.9869051612,-1.2893758542,-2.3373972768,-2.4529369026,-0.5039965644,0.468999887,0.1115180401,-0.0964892921,0.1282984987,0.3604716634,2.0856206481,-0.3800880462,-1.7617322226,-1.5508426297,-1.8336654197,-1.8278997647,-1.8572334887,-1.5557806457,-1.6449929161,-1.8753301228,-2.2225270398,-1.5272051319,-0.2881376789,0.0546559103,0.3475677051,-0.2277725568,-1.2769744614,-1.1956158717,-1.466927493,-1.6167529528,-2.6988590929,-2.4676842609,0.1352336814,-0.1309756534,0.2169112425,-0.2985999253,0.3263455642,0.3740084669,0.2076761527,0.2030991458,-1.7044108717,-1.160007892,-1.534133603,-1.4104394032,-1.1921255716,-1.61316453,-1.2932406978,-1.4417074436,-2.1077129877,-1.6674140579,-1.8072008657,-1.8239666741,-2.7046773073,-1.8863286433,-1.9411236451,-1.9613664058,-1.6054637647,-1.0491432158,-2.7177749681,-2.7649856633,-2.8803857934,-0.0237685821,0.2617504612,0.4521431718,-0.4934399211,-5.8202721525,-1.0688761484,-1.6378070628,-4.0693547953,-3.8475851477,-1.3940787228,-2.0565334502,0.0114710629,0.1177935006,1.2570908633,1.598975237,0.22231276,-0.0812859781,0.2698526025,-0.5674150471,-0.2325459332,2.2391393444,-0.4295967307,-0.0983283479,-2.6877276339,-11.108392282,-17.9507126653,-154.7369956779,0.4392909736,0.641739357,-1.9886045479,0.5378427515,0.4175686578,-0.5469135589,-0.6386334661,-0.4778468776,-0.6734130846,-0.5801026072,-0.0901289696,-0.0954428199,-0.5562571233,-0.5709959659,-0.2720643054,-0.3490684327,-0.6454969334,-0.1001829287,-0.2267745456,-0.0476720938,-0.370157435,-0.9170848808,-0.6438330313,-1.1884315083,-0.9650259243,-0.2129235093,-0.6690889722,-0.2710168574,-0.2481014146,-1.0422962111,-1.2050885097,0.4685852822,0.1138111999,0.4163837522,-0.8377483726,-0.1237568551,-0.7366552505,-0.5328991529,-0.1335483296,-0.4030561277,-0.6554924542,-1.2097144779,-1.1990982494,-0.1629157148,-0.1398806984,-0.4426079722,-0.607576534,-0.4961343064,-0.6613344719,-0.3502447026,-0.8346145631,-0.4622578045,-0.4229615538,-0.6934591372,-0.4200046684,-0.5243117942,-0.2472331593,0.2748052873,0.3764744224,0.0835954204,0.4508825916,-0.6440588311,0.2907935536,-0.7039353539,-0.3420640764,-0.1546076131,-0.6387131325,-0.122529629,-0.7210754181,-0.3264176699,-0.6816770989,-0.6275624118,-0.029862756,-0.4052380075,-0.62505162,-0.2599812576,-0.8565162761,-0.5687308104,-0.5920262273,-0.6667525273,-0.5038022029,-0.365035818,-0.2043449687,-0.3165167826,-0.1328941714,5.1827881554,0.1790284107,0.0556363294,0.670867596,1.1968604975,1.09772397,-0.5250814055,0.311113456,1.4102007314,-0.5322828891,-0.491193858,-0.5719542381,-0.5234865203,-0.161778166,-0.7168456865,-0.2521927292,-0.7445626402,-0.6385481696,-0.1811160374,-0.6257557255,-0.0829732648,-0.103436703,-0.3952857578,-0.5577744492,-1.3383139681,-0.821164355,-0.0511443142,0.2742059643,1.1079950127,0.0703298283,0.3458155788,0.6881980357,0.4843834488,0.2426556736,-0.6705202008,0.2207025491,-0.0298188574,-0.2918147593,-0.2791549499,-0.5237642595,-0.319349288,-0.4088554336,-0.0938237189,-0.2006547746,-0.7432117034,-0.340186756,-0.2532457703,-0.2450153318,-0.5652237891,-0.4831147168,-0.1304954223,-0.2961946825,-0.3444236053,0.0418341106,-0.7454721295,-0.1409547324,-0.0874096143,0.2377170766,0.3373531228,-0.5892886227,-0.2279721099,-0.1795529843,0.1064874783,-0.2903165566,-0.0757717791,-0.5636221818,-0.1496879507,-0.513101615,-0.6080378818,-0.4243675464,-0.3404759216,-0.4037383023,-0.166120637,-0.6642813851,-0.6593722756,-0.3921854084,-0.2936152168,-0.1603333043,-0.3255693031,-0.0477187193,-0.2459782699,-0.4861409277,-0.303636562,-0.0337978721,-0.0093117153,-0.4801449723,0.4537934991,-0.1033341995,-0.4767214017,0.0686531982,-0.3019162121,-0.5623199152,-0.6178760965,-0.0525772168,-0.1684684903,-0.2378680151,-0.3144065474,-0.2322662524,-0.1133570961,-0.5930282227,-0.049811792,-0.6419858066,-0.7186998851,-0.6822833321,-0.7733436484,-0.4460964779,-0.7265308784,-0.3680399256,-0.3608854067,-0.723166756,-0.4766844483,0.2256979188,0.0587896253,-0.129872797,0.6462042399,0.5613271474,-0.1762209955,-3.4119347678,-0.6315140435,-0.7015090782,-0.2277513689,-0.6001584777,-0.5056980351,-0.6643779777,-0.3990136323,-0.4660472682,-0.1297748287,-0.10914601,-0.0667762493,-0.1723524871,-0.3705776194,-0.5316531121,-0.4529431232,0.0642536182,0.0500967492,-0.4956352274,-0.7724688151,-0.3384614952,-0.0839284955,0.5921693473,0.3353041314,0.3591969228,-0.5642679555,0.322342833,0.6981313213,-5.43396075,-1.2840716356,-0.1899087921,-0.0000289289,-0.3689086088,-0.3538362456,-0.2613149688,-0.2898771058,-0.0085343726,-0.4453607589,-0.6017592647,-0.13087915,-2.0747234205,-6.4593012919,-5.9491031256,-2.0354414933,-1.9529102097,-0.4994161398,-0.003661114,-0.3489428242,0.1410248382,-5.0165043412,2.0116014989,2.3746173905,0.0123614341,-0.5481218763,0.1162939809,0.586340163,-7.631158371,-6.9241210388,-0.0608828839,-0.3061146232,0.0410644501,-0.1555121942,-0.3640950139,-0.081780111,-0.8192780487,-0.5620301879,-0.5629028208,-0.0422222694,-0.1491880556,-0.3382463741,-0.3442774935,-0.0572547086,0.008924771,0.1192282175,-1.0624948202,-0.4742060108,0.0952043506,0.117066896,-0.4808656104,4.0164807813,0.0448916383,0.5142879935,0.1231468336,0.136895062,-6.5054452131,-0.4617151577,-0.826577586,-1.6853596793,-0.5209372061,-0.3075817456,-0.1799632564,-0.6409521993,-0.6307456194,0.1000670657,0.0919483461,-0.37221263,-0.3086869351,0.129879144,-0.1167797162,-0.2863879564,-0.1527153238,-0.7634642605,-0.4174816715,-0.3439813069,-0.038763165,-0.5246142303,-0.7361460444,-0.4531778118,-2.7461844536,0.0451908121,0.5472690554,0.0833065315,-5.8495579654,-34.6481159116,-8.9961605716,-11.6800648841,-23.3869333778,-1.2211610239,-6.4916711899,-6.285544281,-6.5038594008,-6.246862045,-6.5783657012,-6.3163728061,-6.3972777131,-6.5682132863,-1.4282259293,-0.4394646199,-0.1391854223,0.1601381848,0.1681489919,0.0537366778,-0.0005403361,2.6601200652,-15.3557736315,0.6150505996,-102.2370586269,0.3597084462,0.4552677916,0.2502545532,0.1078245798,-4.0224974916,-1.6499158212,-0.5833904837,-0.2020560652,0.0536832143,-0.3930833479,-0.1501939253,-0.3607326748,-0.2655565737,-0.2575810749,0.0165406403,-0.3372783856,-0.1440093148,-1.6450855993,-1.7637714214,-1.5589801817,-1.4851933726,-2.1297472877,-4.4964636627,-4.4555307564,-6.2483517671,-0.5183978761,-2.1176455377,0.0499349239,-2.7107371287,0.6821731755,-4.5500208461,-0.1055860771,0.0847188331,-0.1545812381,-0.5467439326,-0.031560817,-0.3363196784,-0.4379697477,-0.319393497,-0.231402294,-0.5964219458,-1.1493512108,-0.8158137234,-0.8990245278,-0.0403678464,-0.4125762375,-0.1546464135,-0.0810372499,-0.3892016625,-0.0081715278,-0.2611827741,-0.4899839041,-0.9151875935,-0.5708074681,-4.0644573858,-1.4880769779,-3.4673640291,0.0476133085,0.6534176433,6.3186326772,1.3015699852,-0.2576296059,-0.2751938775,-0.6379551496,-0.3433207911,-1.1365606507,-2.2446836076,-2.1738027236,-0.8036167776,-0.1028345393,-0.4027103038,0.09777911,0.0832835615,-0.4230583857,-0.5184265814,0.0520367768,0.0448703767,0.028666165,-0.5958732499,-0.5132388458,-0.4640563744,-0.5125184791,-0.1435011798,-0.7790371735,-5.2490704797,0.1336421843,0.2724377872,0.1767191317,1.0762565719,-1.1098654866,1.2287047569,-0.4900376248,-0.3787186023,0.0748568868,-2.2406197715,-1.3296275082,-4.4663277754,-22.7508909635,-3.8203140406,-0.6727450557,-0.7851210111,-0.4778047457,-0.1612440434,-0.4500331425,-0.6369363206,-0.5108826034,-0.8913410899,-0.5267750044,-0.4016067632,-15.9109873085,-4.7804376885,0.0989379747,0.2836383116,-0.6925991627,0.6855983841,0.2551214933,0.2055784948,-1.4337643675,0.1342919983,0.0854814705,0.2292073545,-0.113182309,0.002141707,-0.0399261809,-0.3396403365,-0.5376146385,-0.1672711955,-0.6039711074,-0.3253131461,-0.0769294417,-0.7799425265,-0.1720490583,-0.770272228,-0.8643699442,-0.5166879459,-1.449559036,-1.7105694882,-3.4433064219,-4.3977619592,5.6031334962,-4.4084401802,-0.4975271385,0.7072056046,0.0759370132,6.6930386049,-0.819101059,-0.7076291032,0.1879400411,-0.0924324025,-0.3291121362,0.0210200549,-1.4338868364,-1.665418813,-1.2480238848,-0.2899715671,-0.3978324447,-0.4776334586,-0.5147572497,-0.0228118183,-0.2401495897,-0.3317140311,-0.132324776,-1.940362525,-1.8099259645,-1.9128631702,-7.0955632343,-5.384937979,-3.925322084,46.5700801464,0.6115577485,0.1013956668,0.071797233,-1.6657497671,2.0060168156,-0.4467778154,-0.4850984315,-1.3411009528,-0.7259187119,-1.4856114402,-2.2281246234,-1.9419023806,-0.2715265318,-0.1420954841,-0.1919868395,-0.5970131662,-0.2529160959,-0.0992691582,-1.1210619073,-1.6598593927,-1.3620059709,-1.5236069705,-1.1142209842,-0.465615769,0.1254134235,-0.1709233821,1.4993047925,1.3851373702,0.2739162753,0.4378647149,0.1647060358,-0.1644083847,4.4019719566,0.4719585026,1.4865966392,0.8995286425,0.2796445443,0.1800851162,-0.2986291593,-0.0235782181,0.0487383697,-0.1890116214,-0.1582320515,-0.3122835373,-0.1190675632,-0.7205139725,0.024783502,-1.3726463432,0.0877524632,-0.1622135892,-4.9510201892,-2.0475163115,-0.9915665968,-0.2392690906,0.6761570569,3.4405033249,0.374686839,0.5272229301,0.1339772097,0.1499639938,0.8672094353,-0.7251085618,0.0842509982,0.4444869765,-0.2367601467,-0.3434871269,-0.5645704012,-0.0559644374,-1.5391798776,-1.5159000474,-0.8458180964,-1.2646230702,-0.6481601763,-0.6099206665,-1.0571274846,-0.7212964902,-0.5138249291,0.1231650576,0.0672242834,0.3037674925,0.0325603227,0.0792240109,0.0549251875,-0.4672171328,14.8399793959,0.4028556134,-394.5527565057,-1.5996549923,4.0858386109,-1.165558812,-0.205824113,-0.3174262146,-0.1884682897,-0.1758056699,-1.328959543,-1.5501467025,-1.8331534602,-0.4869335916,-0.9411462819,-0.9190883085,-0.5683886002,-0.5815042241,-0.0156222538,-0.6539121528,-0.3079300018,-0.3437953734,-0.073213506,0.0197096302,0.2000448723,-0.5584979108,-0.3373967821,-0.391468659,7.2745591461,0.1712212503,-37.0900014181,16.7182817251,-7.6100296818,-4.1919415028,-1.6952756128,-0.397971734,-0.447227712,-0.4702726035,-0.3026593624,0.0867332199,-0.4316549865,-0.5079562317,-0.1510626639,-0.2935936577,-0.480166163,-0.2641505026,-0.0486403081,-0.2909621386,-0.6235374347,-0.5617212041,-0.3061055296,0.0845473548,-0.336278552,-0.2859755323,-1.007068902,-0.537630408,-0.2457500519,0.3591760988,0.6445737212,-135.9278302305,-4.2278318102,-1.4295126144,-1.5453208808,-1.1802139632,-1.4582380852,-1.0533303454,-0.3921395086,-0.4049114099,-0.3504767287,0.0431280894,-0.3132076518,-1.8210107493,-1.0103847938,-0.6195321503,-0.5473356881,0.1370497163,-0.0453497887,-0.1668526438,0.9580139888,-4.9164728673,-0.9572279561,-4.0879123796,-16.7382985007,0.3599715098,0.3468446921,-0.9606682146,0.3990714548,0.2349526672,0.7016751053,-1.7119586641,-3.3718470691,-1.7120307784,-0.2915762036,-0.3720233803,0.113251718,-0.315494771,-0.0177956566,-0.3132848138,-0.2553633247,-0.0935983916,0.2817198578,0.1483318079,0.3410722318,-0.0372444402,-0.3225041437,0.0834523206,0.021601119,-0.3757579644,-0.2451842333,0.237585581,1.1870058113,0.1881104523,0.368693238,0.7592052886,0.4831223261,0.3352150162,14.0988820549,0.1495090203,0.3103222005,0.2531293625,0.4661476023,0.1689448116,0.5086886629,0.3505407697,0.3944681044,0.5551113735,-0.1518787938,0.2038700466,0.1636016411,-0.0896333901,0.4645829218,0.1891426861,-0.1891782659,0.2297280279,0.3617249734,0.2126017726,0.1689552226,0.2611343973,0.1885432045,0.3265015985,0.209847626,0.0208504378,0.3472072705,0.2777036189,0.9077364904,0.2514446806,-0.0207722969,-0.2935040265,-0.2621362942,-0.0825409521,-0.4375181848,0.0281767397,-0.0378642865,-0.1858010523,0.0181509952,0.0415832262,0.1448146235,-0.1992704639,0.4707692336,-0.2136557959,-0.146070669,-0.5239445385,-0.42396373,-0.13663531,-0.0438630815,-0.3935598562,-3.5527123003,-1.5957396356,-25.0649397253,0.4467998982,0.0618866719,0.6320271965,-0.4554175178,-0.4477122438,-0.7157224803,-1.2061996673,0.170580278,-0.4671935959,0.1040884405,-0.0793509635,-0.415291071,-0.2731593069,0.2246308627,0.1473976541,0.1241921071,-0.2261451816,0.2941986032,-0.0263019354,-0.0545124328,-0.3757138922,-0.3682157766,0.0499345643,-1.1955992867,-0.7896922577,-1.6558529882,0.5576633472,-2.3404417437,0.2916840993,0.0024185812,0.0849630236,0.3503946012,-78.2235382767,0.0586942182,-0.7865794774,-1.326854007,-0.5575868543,0.386448651,0.3292045683,0.4206885143,0.3724834462,-0.020333359,0.1543624402,0.2701041561,-1.2499971649,-1.291222348,-0.430480784,-0.4651174079,-0.0120514685,0.1691772602,0.1603441797,-0.2073512918,0.1417340831,-0.1441090904,2.8947317786,2.1439736139,0.5726769263,0.3239542273,18.0042897188,0.694064561,0.302907896,-0.3064895338,-0.5918777867,-0.2367597227,0.0207504041,0.2958124095,-0.0378084065,0.2926920497,0.6255335349,-0.3175753374,-0.2946760011,-0.0659982489,-0.5619407245,-0.2109306373,-0.0545549131,-0.2019270537,0.0657648876,-0.1821008014,-0.2951482282,-0.1136265013,-0.0252840714,-0.2343430541,1.8579666634,0.5278405874,1.1755356601,0.7102063125,24.5903735575,1.9894609876,1.6735811081,-0.110400795,0.0499371847,-0.3611871051,0.142062423,-0.470989047,0.0997983925,-0.300987514,0.1847457892,0.0274235702,-0.1548732567,0.1933779772,-0.1872168893,-0.1586056522,0.2477327961,0.4279718411,-0.1073276283,-0.0108183993,0.0656294671,0.2065274321,0.2428443105,0.363716447,0.3999566682,12.1031447681,0.2454694073,0.4817968692,0.1476600211,18.0601458658,-5.1908358083,-0.4053477448,-0.0938448315,0.0904417582,-0.4792853199,-0.1547348672,0.157401532,-0.340561651,-0.1568986663,0.6399302627,0.1410007381,0.4394808303,0.9958039626,-0.1964437258,-0.4471260006,0.0746370932,-1.0670357494,0.8964003312,-1.8612152833,-0.2873803296,0.5661693937,1.8395886687,20.8013049357,0.4257345354,0.1815934168,-0.5040774341,0.7096195227,0.6146282596,0.0326029746,-0.4908174345,-0.6252333316,0.0749658766,-0.3288038434,-0.3353378985,-0.182067531,-0.182457073,-0.1793749236,-0.3097662377,-0.1778178535,-0.4898344087,-0.4953430408,-0.5994965072,-0.5146488006,-0.8338613414,-0.587283504,-0.1705161706,0.1161484947,-0.0456669146,-0.155179603,-0.6549433799,5.2511721489,0.3418613755,0.0739931909,0.025684931,0.6833296198,0.3913509292,0.0900606653,-0.3753128886,-0.5355446857,-0.128706219,-0.4358031371,-0.1237009758
   -0.3600406373,-0.4483057845,-0.4395792884,-0.0852561455,-0.1280991545,-0.3194842314,0.0129961001,-0.1124556719,0.1061928636,0.0333399492,-0.2224840047,-0.1709971512,0.0845030315,-0.1150991883,-0.0132059376,-0.2103956298,0.486530453,4.5159817185,-0.2018720575,0.1165313386,0.1220113058,0.3112633923,-2.6086264781,-0.5215022041,-0.2032469607,0.0881594811,-0.105572844,0.1107127267,0.1154102474,-0.1260143409,0.1044215683,-0.185988542,-0.094201858,-0.0188850527,-0.407378566,0.0469150563,-0.408024811,0.0619452486,-0.4150156349,-0.4005675955,-0.5474584726,-0.5788952501,-0.0375012571,-0.1980839352,-1.9549932084,-0.1227054152,-6.546966945,0.6857279673,0.3990438667,0.0275740005,0.09013538,-0.356518623,-3.4692750617,-6.5612821077,-0.3739075327,-0.6320754823,-0.838567573,-1.223608367,-1.0955822937,-0.3610297688,-0.0920908538,-0.2203311861,-0.3600922289,-0.5313612832,0.0076009929,0.0240139181,-0.2984936983,0.1450470503,-0.1698720586,-0.1283823891,-0.225124075,0.0053060201,-1.9980059045,0.6456352598,-1.2041702268,0.0407350258,0.5288272924,0.4473914753,0.4913731494,-9.672211392,-0.4658656433,0.0371089624,0.1030442239,0.119504883,-0.3755457503,0.1495996489,-0.3674014794,0.0419951107,-0.4326123484,0.1202387644,-0.3634840552,-0.3790634035,-0.3906015225,0.0750347802,0.0612567921,-0.1193569001,-0.4976195455,-0.0599792829,-0.7551856558,-1.0349325553,0.211687596,-0.9218188036,0.0505669894,-0.5382616196,0.5651216095,4.2396490857,-0.2348403947,-0.0374386176,-0.5101672868,-0.5019479413,-0.1680207815,0.1024095456,-0.0928319789,-0.1048544267,-0.2979097442,0.1336342594,-0.0469939243,-0.0928298881,-0.478021689,-0.1935967753,-0.733022823,-0.2956895232,-0.0945443065,-0.1137120348,-0.3509111186,-0.3171245464,-0.3349102741,-0.5561458356,0.0065972593,-0.2465641692,-0.5671204452,-0.4265202403,0.1335174804,1.8852206406,1.5283293176,0.2858907899,-0.2902442986,-0.0446531919,-0.6027641947,-0.6478964687,-0.7486098422,-0.8751203609,-0.5074410673,-0.4583633473,-0.5657943219,-0.1064888227,-0.027192025,-0.3613626021,-0.1982966569,-0.2088158411,-0.2159348463,0.0824952133,0.1091983585,-0.0591956869,-0.1599318254,-0.4488751547,-0.7029287693,0.071789079,-0.3071888496,-0.0337741471,0.2934408251,0.39195969,7.0632441974,4.9560264457,-0.0831583418,-0.2172434775,0.1341672075,0.1681844391,-0.4612892908,-0.5621421333,-0.5384233528,-0.0247297735,0.0671645279,-0.5273777003,-0.2179566262,-0.1213525147,0.2140928934,-0.5676190248,0.1306705836,-0.3341907167,-0.0018079153,-0.1442853659,-0.0609029634,-0.0191566117,0.0864144369,-1.0844517947,0.1288657816,0.0288096813,-0.6255759624,0.572375003,0.639402149,0.4002226171,-7.2297452687,2.0086318351,0.4821622133,0.2674073575,-0.0738892219,-0.0745970408,-0.3065991436,0.4086698638,0.3956956546,0.296695095,-0.0879775986,0.5682362364,0.4429295134,0.1237513753,0.3379759052,-0.0543561126,0.5055627009,-0.0342947191,-0.2460296269,0.2400481626,0.1851754303,-0.4825757474,0.9144285528,-0.3820951874,-0.1442517431,0.4397500409,0.4039851069,4.7880996899,-2.6352177833,1.5752599951,0.2111667388,0.4015278336,0.049159087,0.2291899924,0.49030777,0.4979212211,0.1221284015,0.0288712314,-0.0591096841,-0.0049044309,-0.0946000441,0.0072592906,0.1460006163,0.5090288552,0.4482003403,-0.0762592172,0.2096207544,-0.1810000315,-0.1182718191,-1.1675579458,-3.6050457532,12.8901284928,0.44258363,0.1285533997,0.4874498158,3.5840989871,-0.0995940238,0.245376363,0.0617584733,0.2405391601,-0.0074497666,-0.0293207021,0.1328453178,0.1727006823,0.2720634922,0.1297503209,0.2159527289,-0.0629124119,0.2086637423,0.2554952004,-0.1003050769,0.1431382042,0.3519159395,0.0041015737,0.2954168769,1.0729484582,7.146908347,5.3464388595,10.2593595751,0.2369381168,0.1306295725,0.4691274166,0.3201431361,-2.6732055032,0.414487684,0.3226006936,0.3307408303,0.1755023994,0.4463446782,0.3129206581,0.4830936301,0.1917778967,0.0675110043,0.3519188665,0.1112630574,-0.7895130979,-0.5568380847,-0.9649294239,0.2020422214,-0.006991012,0.2387254685,0.4830009026,0.5944288826,0.7996255818,7.3776420993,147.1164090236,0.0310865516,0.7533909479,0.3626088611,0.2551046261,0.7074730073,0.5990038931,88.6494400639,0.6326580933,0.1728196132,0.4206701114,0.3934037391,0.358742083,-0.5216715297,-0.510799152,-0.4705034634,-0.2769788432,-0.2154478301,-0.6890689226,0.8337161096,0.1934219225,1.2688522424,0.2347013411,-0.0733770605,0.1658536647,-0.0101161247,0.4370698081,-0.1628924366,0.0377865967,-0.6975664845,5.6148580828,0.8749572923,0.6530004409,-2.7183074973,1.2433863773,1.4190631845,-0.0180792707,0.4274757785,0.0219079655,0.1245844239,0.3253392013,0.0240682701,-0.0523961412,-1.2027327438,0.0613386435,0.3339198094,-0.1444347404,-0.1020953476,0.3532526818,1.7368463785,0.3954821262,0.0871327477,0.2613761534,-0.1349746245,-0.1528686061,-0.0515254168,-0.0509102447,7.7343438895,3.8107564126,1.2762131887,0.1292600039,-3.7042532682,0.0863611279,0.3318120237,0.000689122,0.4313649153,0.1412318345,-0.0611756757,0.3387682886,0.5199647567,0.3540702445,0.2692445748,0.7037739275,-0.0390009502,0.1305787206,0.2206059999,-0.0359459655,0.1575969318,-0.0923855287,0.468400364,0.1927279307,-0.0200628082,0.36083616,0.064059937,0.27309328,6.2853740136,4.8097769348,0.2688901408,0.4069124274,0.1188631308,-0.2500302268,0.6318797429,0.2287547867,-0.036518249,0.1484727458,-0.0819004895,0.0106118689,-0.0131708803,0.4313843336,0.660123448,-0.1857593707,0.4926739508,-2.2260535784,-5.5468290324,-2.3920837699,0.2633419824,-0.2735200389,0.2343354084,-1.8357789698,0.5346336034,0.1078545655,0.6024823792,11.5565916665,6.4416139055,0.106853473,0.5992316253,0.0879172487,0.0456892109,0.6893159657,-4.3515759225,-0.4942616746,-0.2957853703,-0.9428188631,-0.252070192,-0.717197078,-0.185225557,-0.4307831771,-0.5221886641,-0.5738132255,-0.2546088871,-0.2348213523,-0.4605373198,-0.5264084079,-0.1886658067,-0.3017304198,0.1103910901,0.1122455989,-0.2983702525,0.1860405816,-0.2260993688,0.2898307813,0.270199373,0.6645280724,-0.3475466821,-2.946249508,0.3316764789,0.1708984594,-127.815595444,-10.0859210159,-0.5420023254,-0.4884624619,0.0805979438,0.0286271572,0.0472775905,0.4170918951,0.0185275507,-0.4601074935,0.0685726187,0.2536732549,0.1891470974,-0.2632814013,-0.4985967132,-0.0921043222,0.0467680733,-0.2355152112,0.164830537,-0.0237242315,-0.4230315517,-0.1099156684,-0.0251149581,-0.1405503722,-0.1018406742,0.2040630951,0.6181893605,0.334547078,-11.6976184199,-23.0466108091,-2.490304642,-0.2413199135,-0.32672935,0.0567761595,-0.10767646,0.325497075,0.3661475846,0.161841824,-0.4739157158,0.3788498441,0.0391613746,0.087767322,-0.5124361835,-0.2444041232,-0.0524900423,0.1532449367,0.6722858363,-0.1135706243,-0.3379700357,-0.3456377336,-1.8638743143,-3.4887144179,0.4324449776,0.2440452509,0.4923753013,0.1218835578,-2.274241451,-6.2289893973,-0.7206990815,-0.6306044275,-0.1827422954,-0.2227148191,-0.407648724,-0.1435408527,-0.1988277771,-0.1932942056,0.0918496218,0.1349972259,-0.2548164744,-0.0896678037,0.2026573992,0.3805972804,0.2764921566,-0.1950050026,-0.1021277546,-1.245888794,-0.0812271381,0.1990395445,-9.4484608111,0.5743267577,147.6741570228,0.6690707724,0.3059639552,0.0314619508,0.3998502467,-33.6962310057,-3.2779156792,-0.2369784395,-0.1665090957,-0.0300262338,-0.4799519851,-0.2395256528,-0.0572340516,0.1755004947,1.9646105065,0.3122273493,0.3290106222,0.154815632,0.0980794247,0.5503720898,-0.2671658179,-0.4007251798,0.0811664686,-0.4872137279,-0.3022191602,0.2028156963,-0.926865414,-51.395668695,-0.0123189744,-17.5956134388,0.4329158443,1.0647997861,-0.1368515265,-0.3882894189,-0.0445966644,-0.1764826822,-0.1316156731,0.1043411991,0.0684016886,0.3055399274,0.4532840169,0.5255638894,0.2466555102,0.3850638874,-0.1936844215,0.034116347,-0.1758606829,0.5787206094,0.3266116332,0.3156179307,0.381790678,0.1663318857,-0.1916007486,-0.1634725965,-0.2529088092,-1.0469528909,0.5771368943,-18.3716475144,0.3039347279,1.8826403517,0.2330449591,0.1689815339,0.4056648209,0.1654065572,0.1789492476,-0.0177889664,-0.3529423325,-0.0568987424,-0.0838960274,-0.3922229302,-0.0297761383,-0.1455278672,0.4418332873,-0.2393260865,0.3985109135,0.0635774409,0.1464876119,-0.2661136953,0.3708069418,0.233740814,-0.2352563065,0.1845492691,0.1334227458,-0.8501331529,-1.1381451439,-0.5768336817,0.0789442061,0.0815045095,0.293519205,1.2703172873,6.0444096833,3.3202267796,-0.4207856487,-0.4461511054,0.0684704525,-0.024602564,0.2732366567,0.0880418566,1.0116784472,1.7645771983,2.510144234,0.0296186344,-0.0650026375,-0.4946452736,-0.4136490847,-0.062423334,0.2713158015,-0.4457556663,0.3189799024,0.2153455508,1.6043668653,-0.2884184517,0.3168927618,0.5525884212,0.3405692047,0.0567793676,0.2658859611,24.256642996,-0.1074577706,-1.8797332677,-0.6721658956,-0.6948725061,-0.5713896776,0.3802198996,0.0682505371,-0.2612159682,-0.0916991127,-0.2416279366,-0.0027327638,-0.6507076606,0.0347604053,-0.6090343479,-0.4345361081,-0.9990011609,-0.1470073632,0.1990322507,-0.3295395195,-0.5401831171,-0.648301149,1.9617439759,-0.394950113,-0.530034666,-0.3763803759,0.4149028128,0.1217327226,117.5675146889,-0.0451988134,0.1820507902,-0.510462208,-0.2915395801,-0.4532265976,-0.4148367268,-0.5384849949,-0.724227156,-0.1875476935,0.1492089573,-0.3291548162,-0.3875772186,-0.0356260711,0.018429622,0.0425795353,-0.5134931983,-0.3241592461,-1.0619011792,-0.4658640752,-0.2133690319,-0.1394381491,-1.8700275589,-0.1188741712,1.282019216,0.1503399844,0.3150478221,0.1086396177,34.8869261484,-0.2881627928,0.4734897585,-0.1942567545,-0.0157961632,-0.3765073175,-0.5416037424,-0.4089328325,-0.7354576052,-0.5778178562,-0.903873591,-0.6670049231,-0.4286503103,-0.1252692659,0.0115572999,-0.5398928413,-0.4546154865,-0.9354154209,-0.9232591466,-0.8830758327,-0.5331565076,-0.3528242752,-0.3914389624,-0.4773286289,-0.2941011785,0.5609969956,0.6471191733,0.0100918256,5.6958205093,-0.1371140571,-1.257652705,-1.1380080684,-0.1076556365,-0.0739624657,-0.9642323952,-2.3481878645,-1.8459227126,-0.2636899439,0.056162775,-0.0854694816,-0.155422247,-0.7768839943,-0.8000110164,-0.4997245755,-0.1602516128,-0.5367160588,0.1603525187,0.4908175567,0.1749292695,-0.9722419694,-42.8204770856,0.393029633,-0.7994906969,0.289493478,0.3424767253,0.7046782594,0.3388379289,-0.3941203366,-0.9619355806,-0.7197401407,-1.0175131375,-0.7626810572,-0.2907133041,-0.7291651365,-0.8913276854,-0.6950372404,0.0593593977,0.2059969766,-0.5624949891,-0.7698733207,-0.3056312206,-0.7198248843,-0.2533763053,-0.605160923,-0.26912641,-0.2365784554,-0.4693158997,-2.1933475668,0.4261747867,12.414441667,47.8621704251,44.2018391244,0.2061309674,-14.4542321404,0.0134694924,-0.0898263116,-0.7708530945,-0.2581278431,-0.5155628372,-0.7461830582,-0.412567724,-0.4905865915,-0.461864815,-0.6921629116,-0.4998197296,-1.1449978219,-1.0630125618,-0.796942682,-1.1435980517,-0.90788343,-1.1939166922,-0.7813205946,-0.6921981459,-0.8976304267,-0.7915201718,-0.9041546304,0.4068027653,34.4960786721,7.639064015,17.7639047149,0.0996286602,-3.9764200271,-3.2700986379,-6.4682049387,-3.989057334,-1.4809215859,-0.4320081079,0.1426736593,-0.2271387191,0.0702292017,-0.478890229,-0.3769764433,-0.5135717869,-0.2805117547,-0.2273569399,0.0578743613,-0.3478720566,-0.2327526704,-0.2821461848,0.1249744237,-0.61270269,0.1990157837,-0.0708064631,-0.0704687297,-0.5813120358,27.1615713414,100.8296294577,16.4867184119,0.0041607435,0.4908041813,-147.4365627126,-0.7897980891,-2.1958097956,-0.8068083496,-0.5436981554,-0.1338501082,-0.38257798,-0.5721005851,0.0624732426,-0.7836203317,-0.8049284622,-0.4254904647,-0.8420820211,-0.9928000209,-0.8150698176,-0.5606233487,0.0786462236,-0.634594473,-0.3918916669,-0.5797416444,-0.262561175,0.4191153625,9.3777110879,146.5721075559,0.5423388092,0.3921311458,-0.9795887106,0.1969445765,0.4449237314,-1.4217322276,-3.0925295752,-1.7388539099,-2.11967442,-0.7050485852,-1.4743015243,-1.4522458188,-0.7976116524,-1.4480642064,-1.3224437068,-1.3485691913,-0.9189955743,-0.4125757209,-0.1416595148,-0.4289641048,-0.63110473,-1.4089917974,-0.6943781423,-2.615383407,-0.6978363083,-0.7946220005,-0.4750110884,-0.6125372977,-0.6413745108,-0.7580493868,-3.1484613753,0.3134566447,0.0079454205,-1.9928623682,-0.4928097565,-0.4738216563,-0.2413338132,-0.3548152436,-0.2158588882,-0.4941763294,-0.4533455419,-1.0331094209,-1.2151416067,-0.9606358986,-0.6513978552,-0.621390458,-0.3310250597,-1.1916781992,-1.4285384274,-1.1801512665,-1.919634701,-0.9749927885,-0.3086940118,-0.3013069488,-0.4772301202,-0.1299250136,-0.7850604265,-0.1203534646,0.2759495643,0.4699222163,0.7038469828,-4.1576051474,-0.5451768536,-1.3352797157,-0.4700021732,-0.4278242355,-0.3882843103,-0.318607823,-1.1952006051,-1.8896006713,-2.2249282464,-0.9405284375,-0.2787839204,-0.663601645,-0.7572434354,-0.7875017918,-0.9414229058,-0.9341760588,-0.4678654932,0.0391730771,0.1610908134,-0.4524737907,-0.419972526,-0.3075843254,-0.2929720093,16.9674050734,0.4436199567,0.0279595081,0.4812174845,6.0354696976,18.2116462324,-1.9214196992,0.4097739943,0.8198499389,-0.1162766935,-0.5076699886,-0.4781086471,-0.665087599,-0.4136019416,-0.7509952292,-0.8732636732,-0.6429116463,-0.1463987916,-0.5521274156,-0.7167908013,-0.1921429136,-0.0500795957,-0.3149626953,-1.045173884,-0.9373875597,-0.7023769173,-2.2180591639,0.1322498484,9.410771693,0.4750186727,0.3134752201,0.5494637051,0.5714715098,-1.5469354863,2.7182319871,0.6420461384,-1.280931636,-0.8047031808,-0.7504764394,-0.6129939033,-0.3578686794,-0.3455862695,-0.5268924964,-0.1883272704,-0.5896917436,-0.5140764897,-0.8159534696,-0.2184998628,-0.4859284276,-0.5025712006,-0.153325197,-0.4967664645,-0.6140623409,-0.5870747356,-0.8327142881,-0.391025822,-0.5773654452,-1.4576879314,0.004722291,0.2278098788,-0.3609067011,0.2267635224,16.9519542034,-0.2170896098,-0.5008470044,-0.4352742506,-0.8287560225,-0.8270129682,-0.1595136647,-0.5615300384,-0.731087191,-0.2057632318,-0.4305063456,-0.6602120078,-0.7006686796,-0.2639106373,-0.4519395704,-0.1544054256,-0.1192093046,-0.2554141758,-0.500045709,-0.8598305659,-0.7333940919,-0.7694113882,-0.4761539217,-1.2020373127,0.4391932774,0.8600798521,1.718741731,0.5815268559,7.531139002,-0.2755165725,-0.3205311436,-0.24068967,-0.6603365052,-0.9125667635,-0.4234336679,-0.1307309122,-0.4845332317,-0.1457844042,-0.753404304,-0.1274639173,-0.485665335,-0.3095851157,-0.615493178,-0.2047349143,-0.6096121124,-0.5640390882,-0.4871237607,-0.4368448201,-0.5062507048,-0.8846853506,-0.1521459568,-0.9066444359,0.6292158005,0.3144580219,2.2238821253,-17.9299334187,-1.9256233215,-0.6012741458,-0.3865963508,-0.3448244157,-0.8506423396,-0.8974694353,-0.6687927839,-0.6029399346,5.7605078913,5.518715761,0.6656834416,0.6784999603,0.3181814052,-0.8800502871,-0.5406878413,1.6790424974,0.076368526,-0.9971893425,-1.0097422742,-1.0928158703,-1.5626397203,-1.7631860515,0.6506707771,0.2498016269,-1.0248305611,0.1534152361,0.6876253678,4.3791219041,-3.2300406622,-0.3327082221,-0.5149252791,-0.2562029139,-0.1706503853,0.2548441008,-0.0456100105,-0.2227126278,-0.2275382136,-0.0824878926,0.0998665459,-0.1662330628,0.3129785991,-0.2492542169,-0.0329486849,-0.1332333934,-0.0807879253,0.2124404375,0.0784878067,-0.3070142513,-0.0760602839,-0.3914856998,-0.5120287747,1.1128759745,8.8113631784,0.6812361889,0.6916971729,22.3769376753,0.0543833204,0.3998518603,0.2892987976,-0.0723499076,-0.2570881866,-0.4846292945,-0.9116014085,-0.8946788668,-0.4657801636,-0.3588054242,-0.1020720247,-0.1445930806,-0.1843710365,-0.1524898807,-0.0981380502,-0.3562666606,-0.1753154978,-1.0379781377,-0.7826991731,-0.3122571021,-0.9066163591,-0.527337951,-0.3474026069,0.0265531832,0.1268746909,0.5021020374,0.0674743403,0.0728156578,0.5750154132,0.0239595305,0.0283032074,-0.0436127971,-0.2892392812,-0.4241689608,-0.1675676487,-0.0540928915,-0.0206488551,-0.2028350559,-0.0160806075,0.1865215849,0.1223776552,-0.5486136852,-0.6593806828,-0.0955043644,-0.9402711126,-0.1557477811,-0.1240919308,-0.25729455,0.0705030386,-0.1407329133,-0.3518254892,3.1368823206,0.4521454844,0.0904683891,0.4442660965,-0.1186881828,-1.527075345,-0.3631181358,0.0665240673,0.2451686579,0.2218903533,0.6132508763,-0.5684053116,-0.336624816,-0.0007736663,-0.0247892632,0.2564237064,0.0623586461,-0.133515533,-0.3486114945,-0.7077566067,-0.7967036139,0.0119002005,0.1051042431,0.0236693995,0.612796561,2.6888751505,5.3870824854,0.3614358583,-1.077550303,0.4136964194,0.3622787747,0.4058032459,0.4985964631,3.2325060372,-1.4383974013,0.0425648416,-0.5868058551,-0.4268963743,0.3668328642,-0.2466601434,-0.2998659477,-0.3900015584,-0.4863846909,-1.8964938431,-2.6088146841,-1.2981946927,-1.5447625258,-0.3038139203,-0.240322732,-0.5020757268,-0.2289338858,-0.2733988842,-0.1326625572,0.2190960287,0.2264678011,-1.4046569778,0.2631079563,16.2954763342,0.453562118,-394.3845454217,-1.6301814387,-0.1323486163,-0.406514506,-0.3939292036,-0.0516500822,-0.0877285754,-0.0387618215,0.1828040594,-0.2341225932,-0.2443690853,-0.3554243951,0.0535270543,-0.3338379949,-0.2000663095,-0.0311551682,0.1158490623,0.3207682917,-0.0047580697,-0.3332203524,-0.3184562858,0.0775659026,-0.8631547236,1.9768656371,-0.2568759072,0.7751884553,24.6877687708,0.3123246767,-206.4721177421,-12.0754835564,-20.7632523407,-1.4795891545,-0.0465443777,-0.3625097331,-0.1640805457,0.4016686345,1.1544511674,2.9117446152,0.6698625621,0.0833094727,0.0732335716,0.2084492122,-0.1253702104,-0.2175735375,-0.0883183976,-0.63817161,-0.7108222132,-0.6239203965,0.0690478562,0.0326225022,0.1014024366,0.1830477007,0.2790006034,1.1146572475,3.6812342812,0.3614727052,0.053106145,-394.5496293325,-7.8313136297,-0.4923003306,-0.0002151111,0.2566149355,-0.2071892748,-0.2402270806,0.1688554106,-0.1286642574,-0.1787936093,-3.7181346587,-9.8849989602,-14.0152681619,-4.5860635378,-1.5539403482,0.0013585848,-0.5028266653,0.1118021616,-0.2206720421,0.4542701719,0.768749488,-0.4180526911,0.5231709103,-0.2190445396,0.6280359009,0.5172459644,-1.0954553268,0.0278264675,0.5608247065,-0.453362031,-0.1778273322,-0.1326439761,-0.1928734287,-0.1406931789,0.1312549906,-0.5746553509,-0.1134123366,-0.1436116846,-0.1383917583,-0.2776372265,-0.4400208236,-0.736576072,-0.4629247993,-0.4050870169,-0.2228330161,-0.8547110003,-0.6183865607,-1.4151908063,-1.1719239905,-0.8065473422,-1.646735529,-0.7798167976,-0.7122166516,-0.6297184614,-9.6119682176,0.4284076499,0.3245360509,-0.0730642919,0.1250262088,-0.1678826374,-0.6134717968,-0.0543051156,-0.104377754,-0.7096801936,-0.6150594448,-0.6401025605,-0.7015666773,-0.5476390083,-0.6367760728,-0.2021083318,-0.229518724,-0.6789430645,-0.3716090187,-0.7782580105,-2.8579807001,-1.9039531666,-0.8046859709,-1.8549406299,-1.3390917801,-0.8581368021,0.2728428748,0.1755917235,0.6062971989,0.5348340773,0.5419683247,-1.5718088642,0.0871798654,0.8076647313,0.0946189652,-0.0131719905,-0.7420864596,-0.7896341956,-0.9695398906,-0.8059150745,-1.2185952628,-0.4499621519,-0.5611464837,-0.1091964958,-0.1431229583,-0.5363843257,-0.5979591902,-0.469013867,-0.3015369224,-0.051430554,-0.5255915737,-0.2852699651,-0.4576999967,0.0212891986,0.3736132678,4.9241879143,0.5126730968,0.456868288,0.4389918829,0.6226966406,2.8778477592,-0.4110192817,2.0137266076,-0.3575725934,-0.2962947234,-0.4160040131,-0.7169860828,-0.5153130108,-0.6394510168,-0.7568999784,-0.856665855,-0.1709508842,-0.5488965294,-0.5568890553,-0.2197203685,-1.3987370322,-0.6789952943,-0.1327224512,-0.6553760692,-0.336192225,-1.0903009516,-0.1430159158,0.2725707348,0.6726773684,0.6616528427,0.3924799207,0.5416745071,0.1124599613,0.0739204221,0.4283590855,5.9888045726,-0.5749488419,-0.1627072919,-0.8747075308,-0.2543779817,-0.2837653857,-0.5509069806,-0.3232841635,-0.3443743317,-0.5970865987,-0.7383895915,-0.7197470538,-0.6918013531,-0.3628757433,-0.5332348679,-0.1207726235,-0.7223842486,-0.764195435,-0.3353605094,-0.170360017,0.2074722103,0.344053034,-0.1468227104,0.2517428666,-0.9138418335,0.0460249894,0.1256273407,5.9717774488,-0.2186483613,-0.7053812147,-0.2966038835,-0.6602210821,-0.2075508518,-0.5791484281,-0.5939211205,-0.4255084802,-0.3427553914,-0.3367683941,-0.1250374252,-0.646074825,-1.1431346939,-0.2611742109,-0.403833921,-0.3239286509,-0.0487226486,-0.441409977,-0.3749493158,-0.7796837667,0.2658189647,0.0959240525,-0.0263712618,0.216723979,-0.5763495203,0.0996535208,0.4206553137,-0.5799250615,-0.2213313917,-0.1715878033,-0.4269057088,-0.7232423392,-0.0442723665,-0.3204083665,-0.1720401899,-0.7119022283,-0.4081876454,-0.3680063044,-0.393077961,-0.6774231908,-0.506702112,-0.7353988681,-0.1983321784,-0.3942162675,-0.2981414552,-0.6408589348,-0.5212903627,-0.8273999131,0.0585732135,0.2297360986,-0.0402056054,0.5921698066,0.563116474,-0.1786339522,-6.6218479862,-0.296668179,-0.4544128022,-1.3742591679,-0.8215651169,-0.5195599255,-6.3297799181,-2.6215999302,-1.3365054112,-0.0849118726,-0.093053639,-0.2672740265,-0.590638708,-0.2530897006,-0.2172338523,-0.0879296776,-0.4519765015,-0.4377638947,-0.9483042032,-0.6401319946,0.1191601948,-0.3245854123,0.6588790665,0.4952296055,0.2311986635,-0.2765746787,0.6260932144,0.1935764326,-0.9142037636,-46.8398504926,1.1484869964,-0.1207302606,0.3428296492,0.2008041133,-0.435160812,0.0494831316,-0.2539230787,0.253660279,-0.0766429535,-0.0144169576,0.2763813375,0.2263494607,0.082387097,0.0762065007,-0.0300878188,0.3663891796,-0.1598065849,-0.0198386976,-0.1963352603,1.0262713951,2.6138616706,0.1604015994,0.1938644024,-17.8137241112,0.1150096073,0.1617916386,-14.7301365115,-36.730808978,-0.3109871916,0.1856737773,0.1407455575,-0.0467966264,0.1901720316,-0.192174044,-0.2220489836,0.094809672,-0.3475163351,0.4002407362,0.1648335213,0.1340583414,0.2172820585,-0.0726808601,-0.0962199963,-0.0288679905,-0.1905214131,-0.0430115522,-0.1966039892,0.4510407431,0.018053163,0.7779512841,-0.0604589492,0.3578124105,0.3461835369,0.2157502366,-3.1292065707,0.2023717659,-0.3801925658,0.179202619,-0.1644102974,-0.1323114941,0.267231846,-0.1102863489,-0.2689645535,-0.2879803772,0.0103878171,0.1822034822,0.2225155493,-0.300956916,-0.0158799865,-0.1886477919,-0.1083515647,0.1202632547,0.3343625902,0.3740282055,0.2274108843,0.6360656863,0.9046071923,-0.0234081402,0.4228040645,0.4120598113,0.628725477,0.0995315911,-58.6327012727,-5.0508111089,0.8963334921,-0.455264619,-0.6430164779,-0.019495618,-0.1976332119,-0.2982264972,-0.3316345463,0.3005034557,0.1962534334,-0.0514622316,-0.2790488653,0.0990344223,0.0749117297,0.1069097919,-0.0560518778,-0.0732319684,0.1180658992,-0.0825265813,-0.2406689603,3.4705220488,0.3981827306,0.2937212096,-5.784939338,0.1334444481,0.542583546,0.1237265647,0.0047569965,0.620608314,1.4831503946,-0.1431836053,-0.1046318489,-0.0829293932,-0.1396631929,-0.1304695242,-0.0935809956,0.4241180959,0.1302670642,0.4199017335,0.1058039256,0.1388536574,-0.0528366089,0.052129745,-0.2764631052,-0.0721117363,0.0489744644,-0.3524801312,0.0060280143,0.0038070733,-0.3733876949,-5.0614124752,-0.5524692698,-0.66825977,0.2924247118,3.006698678,0.243275641,0.6436118344,0.2224614715,0.1228282065,0.1330126637,-0.0674269968,0.0275161294,-0.2632714096,0.1884616975,0.3113148278,-0.1495529026,0.242114771,0.2836597481,0.3755984196,-0.2465369987,0.1240707049,-0.2102804279,0.2471615602,0.2586382988,0.1790855277,0.1157945298,-0.264829392,-0.6501240339,-1.7518191225,-0.3251474794,-1.9639286763,0.2009380418,2.0492194941,0.6489676961,1.1180765406,0.4521788421,0.1903091358,0.2004580027,-0.0677468732,-0.106952963,-0.7956246604,-1.0434038987,-0.185958688,-0.1301977544,-0.1453406487,-0.234778003,-0.0764059395,-0.0941205433,-0.1652120767,-0.0725145038,-0.1341026456,0.2975659831,0.2509815692,0.1820157773,-0.3054501278,-0.0733552285,-0.67768349,-0.1976552956,-0.8773301179,0.0532328832,0.1231289882,6.2074900051,-0.5603634262,0.2570659195,1.9892294132,-0.0573535205,0.5232317021,-0.2908811291,-17.9547029955,-6.3894998151,-2.5974963878,0.9352375822,-0.1152151465,0.2442980587,-0.3619936457,-0.0198972839,0.0335922422,0.4219981963,-0.1663161368,-0.1640903663,0.3622818559,0.2140708102,-0.2490846707,-6.4289897183,-3.4934700732,0.4420704282,0.1170505573,-0.4860986144,0.7131445716,0.676716659,-0.8472193228,0.021988271,0.6954978078,0.8918124178,0.2209887019,0.2204409406,-0.1855803157,0.1666109831,0.030468803,0.0176849196,-0.6266166413,-0.617282436,-0.3126491965,-0.533584925,-0.3722864395,-0.1102172951,0.1075682642,0.1216145773,0.0269469992,0.0178967518,-0.3739273264,-0.3609069183,0.6098870648,0.4050633858,-1.3715015426,-51.5687383769,0.3292091072,0.5834436378,-13.6065692566,-0.5152821484,-0.4888706312,-0.1257447407,-0.1888341716,-0.362938349,-0.0105598061,-0.0430703655,-0.4091187662,-0.2056014989,-0.0670125972,0.0092507654,0.3684012212,-0.0680724512,0.0333588483,-0.5611546104,-0.5708571368,-0.1834335695,-0.0998514901,0.184236687,-0.3998702191,-0.0715686874,0.3413265635,0.8432421322,-0.2958589515,0.2730770339,0.2615643231,0.6089593268,-52.580515524,-0.2257172343,0.1171003933,0.27656037,0.5271214219,0.512062832,0.1423504788,-0.1741210068,0.3731133198,0.0546876172,-0.1374846047,0.3972987578,0.5316970974,0.3440314151,0.1227450987,-0.2881701661,-0.1624187431,0.1366876833,0.1615682708,0.249765971,0.2607494888,-0.6988264774,-1.2761865996,-3.393900274,0.3273470553,0.5573777331,0.4601886909,0.5776195942,-6.0779477838,-0.6164210888,-0.2016146741,-2.3253721714,-0.9061321792,-2.1152929307,-0.3558385309,0.3050418727,0.1352181461,-0.033812748,-0.2643268825,-0.459236477,-0.0282373464,-0.0080393352,0.3954069768,-0.2593471141,-0.3354294139,0.08086207,-0.1571605406,-0.1897769959,-0.2701373414,1.8473535384,-8.8396628993,0.0758233162,-3.5385579244,0.6889511628,0.5159907179,0.0155332715,0.5268508482,-10.6704016921,6.3734032592,4.0863336815,0.1416490072,0.2060228292,-0.4535612397,-0.546335578,-0.0479895878,-0.1525512251,0.2509856958,0.0830501659,-0.1154021134,0.2332142059,0.1733087828,0.0487677809,0.3068177095,0.0033763031,-0.6642470434,-0.9854799484,-5.9748898216,-5.7970790992,0.0162831064,-3.17976468,-1.1028885321,-0.2561607572,0.5186173279,0.8818576726,0.2190239391,0.1654315776,2.2202589227,-0.0154195797,-0.0469985573,-0.4088566111,-0.2227934705,-0.2671639207,-0.0624252843,0.3648692859,0.22974501,0.4256647696,0.1356468592,0.0960700418,0.4700961045,0.3849869896,0.0137187482,0.258612835,0.5008991239,0.4511057228,-0.1240005994,0.1024450166,-0.562098416,-0.5448762191,-0.1355359823,-1.1315126798,0.3125445592,1.0552197396,0.6111116834,1.9325046542,0.3985782758,0.0171030763,0.3879835094,0.1714902855,-0.2615320383,-0.2481059987,-0.1713303706,0.0066344558,-0.4318865485,-0.0417749516,0.0722195811,0.3532730315,-0.200980715,-0.2824573907,0.1005446791,-0.1205344803,-0.0865921252,0.2319448373,0.2428013771,-0.3899878841,-0.3833744055,-0.8451447191,-1.0112434141,-0.3713003173,0.4536657874,0.6400701411,2.2171779646,0.3794130635,-0.0609668973,0.4476367334,0.0742631278,-0.4656582597,-0.7065012174,-1.2916579419,-1.1091314064,-6.0678013327,-0.8215442514,-0.1370310338,-0.0496026195,-0.5427638087,0.6865616066,0.2476696702,0.1989668835,0.2266742776,-0.217443479,0.0034349366,-0.5600248422,0.5147503738,0.639025871,-11.3074754919,0.1859278915,0.1165588715,-0.4252828547,0.4748771171,0.6017611864,0.2556452456,6.9286845067,-0.2056980254,-0.2432884858,0.0484783799,0.1079529679,0.9113527004,-0.1945196023,-0.5146470357,-0.3426121088,-0.4632273652,-0.227124289,0.109959815,0.0027739593,-0.1976667685,-0.4086300891,-0.0630294013,-0.0994585908,0.1369900695,-0.3730932239,-0.4574169598,-1.0181782708,7.2113282994,0.2274911482,-1.4443935292,-51.3984401786,0.0029901712,0.2314549206,14.4325191039,4.5674242403,-0.1828687091,-0.1980657379,-0.5266690572,-0.493435185,0.1325130317,-0.2016319861,-0.3532950792,-0.0923574976,-0.3832285258,0.1705120501,0.0336123354,0.054990602,0.0698042661,0.0831776975,0.0720529241,-0.1871397687,-0.1390180174,-0.238398354,-0.2617886647,-0.3598482845,-0.4533974435,0.8857844285,-0.4787312157,0.5614714927,0.6637130588,0.2671369157,4.1280862532
