encog,BasicNetwork,java,3.1.0,1,1392901050667
[BASIC]
[BASIC:PARAMS]
[BASIC:NETWORK]
beginTraining=0
connectionLimit=0
contextTargetOffset=0,0
contextTargetSize=0,0
endTraining=1
hasContext=f
inputCount=539
layerCounts=10,540
layerFeedCounts=10,539
layerContextCount=0,0
layerIndex=0,10
output=0,0,0,0,0,0,0,0,0,0,0,0,0,0,0,0,0,0,0,0,0,0,0,0,0,0,0,0,0,0,0,0,0,0,0,0,0,0,0,0,0,0,0,0,0,0,0,0,0,0,0,0,0,0,0,0,0,0,0,0,0,0,0,0,0,0,0,0,0,0,0,0,0,0,0,0,0,0,0,0,0,0,0,0,0,0,0,0,0,0,0,0,0,0,0,0,0,0,0,0,0,0,0,0,0,0,0,0,0,0,0,0,0,0,0,0,0,0,0,0,0,0,0,0,0,0,0,0,0,0,0,0,0,0,0,0,0,0,0,0,0,0,0,0,0,0,0,0,0,0,0,0,0,0,0,0,0,0,0,0,0,0,0,0,0,0,0,0,0,0,0,0,0,0,0,0,0,0,0,0,0,0,0,0,0,0,0,0,0,0,0,0,0,0,0,0,0,0,0,0,0,0,0,0,0,0,0,0,0,0,0,0,0,0,0,0,0,0,0,0,0,0,0,0,0,0,0,0,0,0,0,0,0,0,0,0,0,0,0,0,0,0,0,0,0,0,0,0,0,0,0,0,0,0,0,0,0,0,0,0,0,0,0,0,0,0,0,0,0,0,0,0,0,0,0,0,0,0,0,0,0,0,0,0,0,0,0,0,0,0,0,0,0,0,0,0,0,0,0,0,0,0,0,0,0,0,0,0,0,0,0,0,0,0,0,0,0,0,0,0,0,0,0,0,0,0,0,0,0,0,0,0,0,0,0,0,0,0,0,0,0,0,0,0,0,0,0,0,0,0,0,0,0,0,0,0,0,0,0,0,0,0,0,0,0,0,0,0,0,0,0,0,0,0,0,0,0,0,0,0,0,0,0,0,0,0,0,0,0,0,0,0,0,0,0,0,0,0,0,0,0,0,0,0,0,0,0,0,0,0,0,0,0,0,0,0,0,0,0,0,0,0,0,0,0,0,0,0,0,0,0,0,0,0,0,0,0,0,0,0,0,0,0,0,0,0,0,0,0,0,0,0,0,0,0,0,0,0,0,0,0,0,0,0,0,0,0,0,0,0,0,0,0,0,0,0,0,0,0,0,0,0,0,0,0,0,0,0,0,0,0,0,0,0,0,0,0,0,0,0,0,0,0,0,0,0,0,0,0,0,0,0,0,0,0,0,0,0,0,0,0,0,0,0,0,0,0,0,0,0,0,0,0,0,0,0,0,0,0,0,0,0,0,0,0,0,0,0,0,1
outputCount=10
weightIndex=0,5400
weights=##0
##double#5400
   0.7907337937,-0.1960504237,-0.0605194421,-2.1633280587,36.3701941122,52.9101118176,-65.8734269765,25.5503246211,-24.4898228065,1.3020407737,-8.3283027319,1.104780677,-1.8044676058,-0.9259998082,0.0651578361,0.4642412355,-2.972651617,-0.0813912417,0.0826092236,0.5050154153,-3.0206175527,0.3804562495,4.5541342609,-0.0414689332,-8.7527053086,-35.4908805192,-3.1533663631,-0.7660988245,-0.5763810311,-6.4256171478,-5.1841310054,-64.3594106018,-1.4884585502,-1.9634813016,-1.4082654417,0.5213687075,-0.5670982949,1.9715955592,-0.0144017553,-0.0464047261,-0.2095567407,1.0601486932,-0.8494671855,-3.8658022315,0.6850866524,-0.4904803549,-7.4267777019,0.0358410747,-0.6097680361,0.6429771623,-4.8081137918,-2.1544235077,0.0777111469,-47.2082933539,-21.5452987254,-14.6427718037,-0.7483328813,-1.29561654,-3.5084939992,-63.1890996978,-7.2940474749,-6.5905149169,-5.1663174817,1.6910134668,0.6374017376,-1.6994344841,-0.4109296639,-2.2508311623,-0.5505985471,-2.6603040819,-8.4941669594,-13.3059197541,-9.5012063443,0.1384389514,-2.2544833227,5.3691518634,-0.5453420499,-0.2509586187,-4.7556375063,-7.6843910354,-0.705939823,-9.7386898574,24.9516443379,0.7309452097,-0.2794007918,0.5970309773,-14.0555576699,-29.1693391857,-1.9659739134,-9.1740216994,-1.5643058184,1.046401884,-6.7716305828,-7.7387295872,-0.8670655688,0.4043988786,-2.6048687844,-2.2071254446,-0.3206073288,0.5188257129,0.6077771131,0.1268850764,0.228331395,-5.3866485515,-0.5221549336,1.5453589561,-2.5558412281,-10.3261253193,-1.4904736022,-6.551915868,-5.1221044585,-3.2928064371,-0.6207755712,0.5577590099,-2.4929931996,-32.3175300724,3.2858041269,3.8543869309,1.8136036174,-5.2820014726,-1.9346081171,1.1461483931,-0.4521410256,-0.2328437359,1.1721069501,0.6246927428,2.2092434597,-2.293429421,-0.9281462029,2.2686452219,2.3440512774,-2.6631072453,-7.2829633727,5.4852182297,-7.8353354563,-9.600308415,-21.8489104337,-0.7685012281,-0.4467849087,0.3480375275,0.0757731813,-0.4735991395,-0.7851537509,-0.1919624977,-0.7079956748,0.8413402151,-0.5726405001,-0.4423585307,-0.827493681,-0.3413035275,-0.2662116116,-0.8054768016,0.3274562389,-0.6985155791,0.7805472514,-0.9759874773,0.1260830897,-0.940605967,0.638447528,-0.7564544975,-0.4854287239,0.6367290718,0.228816802,-0.8283297703,0.4742229852,-0.0074420145,-0.4499676587,-0.1580792617,-0.9348081227,-0.8566107628,0.8997828171,29.1619109629,-9.17627895,-71.2566963183,-14.0582631746,13.2506232008,-26.6559171562,21.2587385861,-11.2585645992,-2.2857229432,-2.2721755659,3.7028522475,0.971955183,18.897535496,-7.6662197718,4.5265096926,4.7354332588,5.4037795199,5.6046777143,0.1814061946,5.1724630534,11.0058314478,1.5438544729,-28.2886713936,-4.8132850577,-1.5446560361,-0.5804128577,-5.7994190931,-11.9376702699,-4.6236316959,2.4280625844,-2.7073012598,-0.6582222815,-2.9052638233,-4.8190284944,-0.1333622129,0.6615671359,5.9595137094,-0.9742598929,1.2715473853,12.5309782463,5.8344534539,0.6479747112,2.9936049152,12.6715612969,1.7928609759,1.031141721,0.4258480491,0.9592507958,1.2002940753,5.6553275461,10.0811631412,-15.222866748,-4.2471299117,0.0340071608,9.9838378849,-35.5501732908,-22.6849834169,-0.4509332992,-1.4313144117,-0.3134793469,-0.8464425409,-0.0294143315,-0.7032674783,3.8621928871,0.5066323023,5.0382966229,-0.6970415777,-0.5405708627,0.7058466564,4.6984690306,0.6190085738,-0.7038840674,0.0883076146,0.411611365,-0.9340784274,0.3278716876,-2.8805973521,-16.103072454,-6.6068286918,-18.8496553822,-4.1630831126,0.7197470779,7.8022713518,-11.8540491506,4.8241734804,0.815574276,0.7881944958,1.1974469773,0.9435865192,1.6136094877,12.5245114368,8.8877132075,0.2713088713,0.8000883145,3.2945124044,0.799472603,0.0594311258,-0.1126722945,13.6404518906,-0.1644570922,-0.8079497554,1.0381901255,-6.5471362605,0.8398156897,-0.7518731954,-7.2283954145,-49.4957100924,-9.3225065417,-4.4590298433,0.3773666599,-2.7063959144,-3.4351585444,-31.5777823994,15.3938618739,0.1116278813,-2.0152566598,-6.9687450054,2.4276759926,-1.8513374714,4.1945843769,0.9299699059,3.7737028392,-5.100186326,9.4741053767,-0.0998173911,6.469118758,10.0609124853,-0.9704356747,-9.2098352202,23.7030017568,4.489575104,-30.0541490579,9.8052786442,2.3704560055,-13.6027190901,-2.3550999645,-0.239497374,0.7416070219,-0.2664443952,-0.5255145923,-0.7164821862,-0.1814454671,-0.0498177889,0.7949146351,0.6872451287,0.5233402322,0.7550702216,-0.8419214305,-0.8203601667,0.5602760404,-0.582109623,-0.9838247719,0.973146394,-0.8050090288,0.87038104,0.487640375,-0.8704511964,0.8772663047,-0.3337501714,0.5647600868,-0.5974980277,-0.2927454751,-0.2135874408,-0.1751759243,0.3980559871,0.390394642,-6.2092835875,-14.6389176675,3.4178905132,0.8151532887,0.0314829118,1.0802012543,-0.1560300397,0.9134502587,0.0566667498,0.8171124262,0.8744902628,0.2580836338,0.128408499,-0.2192944463,0.1980041551,0.4064882097,-0.8187917371,-0.4169314212,-0.3883562207,-0.1660834208,-0.1564134495,0.763722695,-0.4487360976,-0.2018060255,3.702782205,-1.2567353632,-14.2518717878,0.6101195438,15.0929302612,-35.5120560072,-2.3851341928,-0.225573868,-0.7720708755,0.0640792329,-0.1386464537,-0.4883338785,-0.1223065395,0.8542190657,-0.2819491604,0.6406515873,0.4251381977,0.5500413401,0.3757293272,-0.811395979,1.2416513663,-0.0285855928,0.2470182743,-0.7213934121,0.3845956015,0.0800896797,-0.226857832,0.3610617757,-3.4927077724,-21.5881311956,-5.9867082608,0.8093753747,0.2881864723,-0.2084307924,-161.9003693378,-0.3567726597,0.2651820215,-2136.9173575973,1.2306299429,0.9822204726,560.9190986446,1.8665414458,4.4376114272,-20.6388798478,1.2936869071,-0.0916574673,-739.1812952116,0.4922134151,0.5020819283,-167.5606556451,-0.0856690038,3.8007721615,-105.6663079987,6.3491693524,0.9427926629,0.4860361481,13.0631210951,-0.0170890627,2.7567664383,10.9887077192,2.0903918847,-39.1345418248,-0.6479856075,-2.9452861005,0.9500635683,2.0843302884,-3.2941746647,1.2323293499,8.1028449731,1.2955001886,-39.8319097762,8.7148563368,-0.705158142,-35.5670673931,-9.2965697641,-0.1234230836,-331.7187127551,-0.9655950471,1.6242684909,-164.4690861053,6.0452710699,-0.3837502251,1.0275384723,-0.3937764239,-3.4756068277,-0.414377156,3.7021400189,3.3483282536,-293.3076496261,-2.3228951038,2.1630548124,-71.9004174841,-1.5291960733,-0.6734517343,-0.9692268723,-4.9852085184,-3.3286815838,-21.4064764739,14.2996314624,1.6864645282,-42.6280667173,-0.8033049217,4.7705640381,-215.8143226546,-7.8203297254,3.4691361629,-48.8959658176,-5.3909239973,-2.2991115188,0.6246770958,-0.6206934946,-0.1495665971,0.4208219671,-0.4853657853,-0.4216440621,-0.7324524635,0.8566389625,0.1285289046,-0.3601749316,0.665314285,-0.2979273468,0.0911536309,-0.9440810377,-0.2450556691,-0.6705731953,0.4467884668,-0.4084015934,-0.0488359331,-0.1634336912,-0.6478342958,-0.3094123599,-0.2699639533,0.3218827441,-0.9145256188,0.0118755535,0.5879757542,0.3874088792,-0.4332825875,0.9170219311,0.0472773485,-0.0596046138,0.084733802,-0.7714175493,0.6534604522,-0.1363380283,-0.5738016313,0.0799640567,0.4097507153,0.6250350749,-0.8980884875,0.1770234861,0.5940069239,0.3961853678,0.8656912852,-0.7082784401,-0.5965932869,0.7511770135,0.2211810541,-0.6918543824,0.3722035506,0.5150415156,0.1118841441,0.6412126318,-0.9921324578,0.8326878916,-0.5102612094,0.3483652185,-0.4090773204,-0.9715368812,-0.0424544217,0.7545739874,0.5837925917,-0.6733261711,0.1805599987,-0.0890429077,-0.4060322087,-0.9966173246,0.262562405,-0.300524735,0.525682276,0.6690996363,-0.4676030629,-0.9800876248,-12.9771809626,-25.0976927075,20.2422353424,4.5515499244,-12.8923995172,9.2012480525,-8.019853982,-3.4374988239,2.2096354979,-9.299441467,-0.7052802589,-4.1496436433,-0.4059934028,-5.7859076685,-0.7177686311,-3.7731722474,-4.0314648216,-0.6341948293,-8.4728431029,15.4981815698,9.1829560639,-52.2893309092,-3.2086061987,-0.8270378515,-0.9621855397,17.2932585076,-4.220278455,2.4530675099,-7.79455362,-50.0579459481,12.4894819262,-0.1540727799,-20.0915844738,-1.1410324388,1.3771105236,-1.3862435204,-5.9459119657,-4.9739288199,-0.904267274,-2.5128569783,-7.2343899802,-9.2533795362,-5.0293650442,-5.0864082454,-0.6525713944,4.2864551505,-5.2086615168,-3.9024092451,-97.9689977109,30.6304687665,-21.0424318478,-3.520396381,0.8653817803,-1.8637362083,-3.0599588004,-4.7185751947,-39.0413513738,24.3699239174,12.2685409755,-21.5037816041,17.3330753502,-0.9407271113,1.4226661995,0.8293907938,-1.1134745875,-4.7354455907,0.9922936148,0.9914612084,-5.9728970049,-2.3978065885,-2.1779308302,-9.1509400035,-9.4414284777,29.8575786114,-41.1453700766,-14.2518912746,-12.5962857558,-7.5110735282,-2.7700469542,-0.3438142755,0.0448494276,0.2064445535,-12.5685007386,-25.1043488805,24.5976543181,-9.564275122,10.8217021949,2.8927371519,-0.833647422,0.2908332846,-1.9891050022,-4.1307993945,0.698623399,-12.2440679821,-1.044664589,-11.5037134712,-8.2538474448,4.0140328514,-1.6961491505,-0.7410796879,2.8647920103,-0.8759047441,-19.3019053779,-13.9362226236,-0.3407378423,-3.5080647543,31.0124891602,45.4824946748,-0.164504105,-0.4545193053,-0.5794232996,-22.5130682074,-18.9825666991,1.1109107923,2.2681706238,4.327783323,-4.48372749,0.9709871896,1.2726963321,1.4217377193,0.334503207,-0.7900628306,-2.6815850151,1.1413680268,6.4772979267,-2.9075368432,-1.0461851971,-0.4981986184,12.3962724238,5.0198988082,7.3178879724,-60.1273897551,-13.6190020367,0.3520147225,0.7232895581,0.9904554023,0.0027394289,-0.8077489296,0.3809117541,0.0507612481,0.2690978033,0.8483128955,0.5642772753,0.9602375707,0.8101563803,0.372290814,-0.4221801633,0.9990147634,-0.6634343017,0.0472462005,0.1733826803,0.2881115024,0.3699197558,0.2824920148,-0.9413109092,0.3490833886,0.9556333506,-0.6291877629,-0.4959203737,-0.5954837779,0.6654922634,-0.509568143,-0.9446717501,-0.9478235459,-0.852311436,0.8345510669,0.8603502093,-1.1543686332,-9.2673883302,-25.0476470942,-8.6540125847,-12.7949652773,-10.7122149176,-22.4095006397,-0.6966557298,-21.631403513,-32.6639958645,-35.1920236693,23.1477545567,-41.4852901462,-67.8415100376,41.359275186,-56.0549441961,-54.6086845258,-21.7201493022,11.8707050738,-2.4686453808,1.3299662079,-6.1529280519,-42.0872140416,-2.1291843887,-0.0084788381,0.5410942747,-0.5775693727,-2.3477591445,-6.2244191763,7.8949491048,0.6533201691,-2.6330888595,0.2607905556,-2.4879436885,-8.8401994508,-1.4704395982,-10.4766511836,3.0477195073,-1.9671822713,1.0708947873,5.0346491021,-2.6591148736,0.3711981858,-1.0674910446,0.5913865719,-2.5013882853,-0.6115716986,4.9527766734,-0.3900190001,4.5628558063,-22.1818789406,-21.4604491936,-9.4028477731,-0.4698221304,-3.9034285929,-23.2343341504,-2.4570926436,-0.9859561565,0.158880236,0.274161664,-7.4664205777,0.8496300244,0.3369098316,-0.2755205202,-0.4475265984,0.0361880597,0.7389367561,0.8392097155,-0.016187252,0.204971736,2.277212863,0.6688814095,-0.9187793437,0.3615381202,-0.7948767658,0.4793216142,2.4499429048,-0.9175965962,-5.3480056299,-19.6782662382,-7.0512248831,-0.8019777192,-0.7733590496,-19.2834090165,-8.5208496963,-0.1020111015,-0.9103268106,1.1193494736,-4.2185073769,-0.3913579326,-1.8228506114,0.2495609871,0.3611967278,0.037285971,1.757700171,-1.0787026652,7.1161508833,-0.4347602913,-16.8746217778,3.2772749506,-2.9140450429,-1.250484906,-5.0487805814,0.5828532612,15.6610271429,-7.3499472996,-52.8285817918,-6.9543509736,-2.505978595,-0.5447854461,-0.5364868832,-2.8845712217,-11.3807536237,-14.4338120957,-1.8228397243,-1.3850579388,-7.4825878764,-38.259939488,-28.9233678609,-12.5405971588,28.8243922728,-8.746506478,-5.7382485438,-5.3453317178,-6.5595337692,-8.3973722425,-44.4540960486,5.8951845555,22.3480317122,-1.8120737655,-33.9395241754,55.3655682477,-59.8031203738,-6.7116403376,-0.5332878667,-0.1393217533,-0.141029601,-0.7565734518,-0.9166282808,0.5020139458,-0.5112899359,0.5304734902,-0.8890528857,0.2811303902,0.596946951,0.9190335872,0.7959387554,0.1005038182,-0.7609190378,-0.6358215192,-0.3658586975,0.5008263982,-0.6285525656,-0.3314060698,-0.5310968274,0.4832366067,-0.6219930285,-0.6617205539,-0.3705509273,-0.2020590042,0.4160043673,0.0560456311,-0.107920811,0.1670403588,0.2134103972,-1.8581651436,16.6632560702,-13.4107950947,10.580675243,2.0119262516,-0.3734361943,-1.7478881764,-2.2091697869,-0.5081531775,-0.8107638561,-0.3819527958,0.1872862323,-0.2888213909,0.525059771,1.2107983426,0.5798290896,0.3172436673,-0.0468820153,0.4653290254,0.6872120004,-0.6772145306,0.5771589896,0.7183149715,-0.4305416228,16.0502315782,-12.1417161184,-2.4257913931,0.9691043931,-0.7224232274,-8.1634641694,-23.5645613673,1.5802903455,-0.6850610448,0.7923758954,0.6308403486,-0.3597666919,0.9110572016,0.7703072087,1.5086178062,1.7149772,2.6906736118,0.0613437523,0.508112556,-0.5778913997,0.1789952405,-0.1069209821,-0.03378795,-0.4634959786,2.3438014466,0.416179476,-0.5382450738,0.2776767667,-2.307675088,0.8906510556,-21.5317420356,-10.2342736742,-0.9446001916,-0.0537361129,-0.5352524841,-4247.9233198334,-0.7659905238,0.6454037923,810.7612137537,0.8275435909,-0.6038173191,-251.0433439762,2.232116276,-0.5950135082,153.7990907271,0.1434132191,0.5318617649,244.6151676932,0.1409310874,-0.2213029048,0.1471532745,-2.4986349099,-0.3107727762,-20.4926692492,-6.9184342226,-6.4018908005,-4.6932874864,-6.6473266342,-3.421408909,19.0927209294,-7.6931412657,-1.0729443706,-1.4963568639,-0.0537229347,1.7468857637,-0.1557129342,-0.4170773819,-0.3739416857,21.1330017197,-1.8820615257,0.6879471326,-364.7407646728,-4.6958050498,-0.5915966949,-176.0191363146,-6.5881779568,-4.7246850553,23.2197399882,-7.0492223588,5.259833231,-0.6311955612,-5.2363978433,-2.5615204393,-1022.666855261,17.7257924017,-0.5840782126,-8.4422964006,-2.3408659175,-5.6264538491,-0.0522968599,-0.6025422803,1.8918661044,-1.9459410479,-2.1684176423,1.6338836388,-10.792029,15.5272193198,0.240085981,62.6119371106,-4.7401097371,0.3605872872,-1.1236935908,1.2054313735,-1.6192682374,9.9220945454,7.4660062093,1.5789820582,-240.8130319482,3.6586034104,0.8802148419,0.4629035089,0.2398886943,0.2318055353,-0.1009873757,-0.9267973467,0.5440193923,-0.3951049793,0.4494640929,-0.3157268215,-0.6383310661,0.5984658816,0.0722911812,-0.699359687,0.7111694852,-0.00963337,-0.782506217,-0.2011490834,0.4424851844,0.3652294016,-0.1065877707,-0.3219905868,0.247910647,0.7061313348,-0.5507848331,-0.9429821766,0.4370512255,-0.8256336029,0.3755759881,-0.5736675697,-0.3911013975,0.8351401383,-0.4936500073,0.1620496226,-0.1461869021,-0.4130005301,0.5040653673,0.3101331952,0.6182259305,0.0528108284,0.012039793,0.6485957855,0.8648736329,-0.3099018188,0.3559358693,-0.4645529019,-0.338622634,-0.1214459302,0.1775670907,0.5502209251,-0.170020858,-0.7574638235,0.8837678484,0.4368940178,-0.2087518674,0.9663614323,-0.7068610018,0.3560088613,-0.7654311239,0.3602107927,-0.6365181728,-0.0461866372,0.7482243987,-0.5655434649,0.3827334947,0.2562291336,0.041886614,-0.2597747495,-0.4937845159,-0.1045380146,-0.1055292685,-0.1163771785,-0.0739987406,-0.0685353242,-40.244801767,-8.705176752,-4.612487057,5.8290647612,-1.6814815661,-2.0435167532,-0.657557969,-1.8266646346,0.6014810171,-3.0527711536,1.6745030543,-0.7486128579,-0.1671784727,-0.9924999511,-0.4670770625,-0.267853603,-0.9645755711,0.4862617636,0.2458453989,3.2802613418,0.283186938,-9.1813357945,5.3641380444,-28.1597590847,0.6955025828,-2.652602099,-24.0156988232,5.7074734326,-3.7478539202,2.6988450928,3.0652908915,-3.2480462578,0.5908141594,-0.255813277,-1.1161832221,1.7350694297,1.494252421,-1.5777822854,-0.2997378706,1.7901981673,1.0830912267,1.3580615423,-0.5741472441,-3.1545910946,-0.9903951633,-0.3459713857,0.1635461157,-2.8888553338,2.6141673157,-1.5124219638,-9.3242754543,-12.5209826596,-11.5628226346,-0.908265592,-3.601411544,-38.4717418611,1.1775273902,-3.7830495221,12.5259430439,0.1126441241,1.7293982557,2.953943278,1.717574478,3.289198081,3.9048474617,0.3048900154,0.172428489,1.8287469403,-0.7848614124,-0.9530084305,-1.0099725082,-0.2293626043,0.9931767638,1.4056151664,-2.3306851613,5.1054820177,1.2302287706,8.2522012761,1.652032238,3.6270321329,-0.2063815896,-0.0227391647,-0.0510957031,-5.990755907,-0.3039117734,-1.065816992,-5.5676414374,1.6685246924,-0.758505198,-0.3410333892,-0.7543783449,-3.1797394746,0.7605404351,0.0972514417,0.2920156416,-0.4018440681,1.568545665,1.3863508602,2.9725043173,1.1088479848,1.633667743,2.5861322184,2.2622202593,2.6484345043,2.3909287034,-1.1022996366,-5.162060161,3.5561737659,-2.934047914,0.0940130047,0.9335157934,-25.108920195,1.5572327108,-2.7910059581,0.9793950125,2.5613479297,-1.8930846362,0.9436694113,-0.3606508058,-2.2289024589,0.3650030382,2.5129796642,-1.8313636846,2.1907838785,-1.5536768132,0.9526866745,-1.0528286107,-1.9176850328,-2.7823367314,0.4654517262,-5.0492078399,5.5570114217,-0.8807041186,10.7587672142,-0.667330785,0.4702355926,0.8649696651,-0.9167352204,-0.6204873772,-0.1377176549,0.4980993142,0.1839102884,-0.7817630417,0.7494721548,-0.4531005681,0.1262136748,0.7982224696,0.559910702,0.405292253,0.1248429928,-0.9565482015,0.5056288879,0.8723148978,-0.0035687957,-0.2240567021,-0.3434405999,-0.3845915538,0.9775106414,0.7052242787,-0.1049938044,-0.0150962714,0.5205960048,0.6791570473,0.5709200474,0.6250154184,-0.8612699084,0.8914296211,0.1782919975,-1.2768890775,-1.9411809623,1.0149846789,0.0543061452,-11.3886677052,-1.8374370231,-2.5453402655,2.4004496516,-11.358204613,5.2102958556,-4.9303876824,-1.8815635848,1.9185064877,-5.4138632514,-1.0548256582,-0.1304151977,-1.0906226492,5.0164331259,-0.7699465091,0.2304799619,-0.1546477062,-5.8417004453,-72.935152992,-4.4815929249,-1.3170102681,0.4885094851,-9.7375622104,-6.6914079044,7.2223032074,0.7119962638,0.70483765,-1.9292714077,0.6371970881,-1.5840993638,-0.2511063194,-0.8027142569,-3.6588684851,-6.3612454496,-4.7029621369,-3.6879527407,-0.551941395,-5.25095054,-0.7496760125,1.1836261766,2.750428598,1.239534221,-0.7093489995,-1.706861211,0.0164053922,-0.6004789907,-92.4855042504,-10.9764397159,-3.6635339002,0.591514845,-2.0459069314,2.9960784223,0.9177365223,-0.7090583441,-0.1345133825,0.0249163337,-0.8118162292,-3.1826907628,-0.0079657364,-2.283364214,-0.1894260011,-0.0350560508,-2.5443512391,1.2299678802,1.7159397853,1.5013789597,2.4585610879,0.8981428361,0.2455763403,0.9393201329,-1.1768849371,-0.8569606707,-1.647403821,-4.3057894496,-88.5638579088,-7.2564352277,-3.3678730024,0.4155589015,-41.8690396532,-11.8095893329,2.5218186695,-2.4527739593,-2.2854021551,0.3157762335,1.0022872137,0.1528194755,2.5032429815,1.0434661132,1.6113419219,0.6987901794,-0.2322278149,0.3634330368,1.7207261337,-4.3324360376,0.5206994794,-0.8875042297,-2.4352279491,-2.3207572098,-0.8039611258,-0.751088172,-0.3280577231,1.5335116428,-28.7452952514,-12.0204113377,-4.9722978069,-0.3357029076,-0.9102507753,17.4274637779,6.9641720026,-11.9286420087,1.2183857815,-2.7109927522,-7.0055859929,-0.0001980473,-3.562698774,-2.552035408,-5.8101044423,-2.8042198796,-1.0747202007,1.1940165518,-3.5626422981,-3.4278628274,-4.9188234205,1.6518767787,1.8893033725,-6.402874606,2.8138701142,-2.1907269052,6.8115560015,-11.776770688,-34.4359655435,-3.8220660138,0.1889354343,-0.6797900307,0.2734450334,0.639094454,0.6551320707,0.2495200927,0.8148508595,0.1452390708,0.9406773404,-0.9311040724,0.5509294507,0.2169769187,-0.0921078923,-0.2498567248,0.7149835041,-0.2762450838,0.849865921,0.5944081004,-0.7917320583,0.0618248649,-0.8819470596,0.6714483946,0.2303323308,0.3316138696,-0.6958110262,-0.3098194659,-0.126158999,0.1690248812,-0.5781574692,-1.9957320564,-23.0818169856,-0.7669112734,-0.2158528366,0.2353487037,0.2138295342,-0.7123531132,-0.2515224331,-0.5679842534,-0.1455355115,-0.4228694367,-0.3244965697,-0.0258228305,-0.3074751389,-0.7499706427,-0.3870256569,-0.2308579907,0.6608384097,-0.1067873049,0.0757383433,-0.3232300164,0.2243914279,-0.6118727051,0.2297335925,-0.3353172844,2.9092782213,-0.0259366245,-34.4908667068,0.0852792597,-1.6894652682,0.2582888228,-1.2162955436,0.7341779868,0.7691236769,-0.1014912138,0.650264508,0.3364460248,0.8181445926,-0.3774872128,0.7819869599,-0.8165298698,0.285358834,-0.3879913762,-0.1218165493,0.6484782517,-0.0781459314,0.547145641,0.470698048,0.4121150763,0.1252068533,0.3700546624,0.4299792515,0.7141883553,7.6189934811,-12.6513902378,-3.7970629625,-0.2913291078,0.7646521664,0.402020912,-365.0054965711,-0.018036868,0.816920288,194.4621911357,-5.5574735946,0.7079366955,-12.4986350931,0.7369098944,-1.2671375967,-49.6821832872,4.0583079116,1.4304277301,45.0630984443,0.8831640111,-0.379285323,0.3668256491,0.6651866565,0.4467433522,3.3336507789,1.876414264,0.9475322516,-4.6258477191,4.3665680316,-0.1873484843,-12.1311813144,3.3895295003,-1.5483370222,3.3672403047,-0.1245953167,-1.3646759251,-12.4897115803,0.6674735605,-0.1292316927,-74.4358881858,1.6487550611,-0.5989112839,-6.2553646874,0.3538897738,-1.2656334307,3.2066627053,-5.473662212,0.7331160555,-15.9470703816,-1.588676006,1.9789064421,-0.0895108941,-2.0634435907,-1.4940940081,21.272192624,-6.0094526144,-2.2960361501,24.3637599596,-2.213491515,1.1127688258,5.933050252,-2.7745883227,-1.0801405078,-43.6482511287,-0.8804253459,-0.4487961184,-38.4466101417,-0.6120059679,1.3247922532,-0.441245432,-1.0629767954,1.0835872378,0.8026603672,0.5000720966,0.0750285118,-10.7662953479,5.8436952025,1.6714961727,-0.6332670875,1.502776828,0.9761069455,0.0186648336,-0.4381761856,-0.4894944222,-0.3346905984,-0.2958395256,-0.5982684633,-0.8883060334,-0.0295675121,0.9682735927,0.2325576333,-0.6485795132,-0.3554193253,0.2956455904,0.0685928656,0.8395452387,0.8153751106,-0.4540563081,0.6610355723,0.7016869919,-0.9747369033,-0.8677922274,0.0090105412,-0.6430039183,-0.4383105374,-0.3343725633,-0.3172786135,0.6100141706,0.2595583987,0.3870626652,0.9040496179,0.6269336298,-0.0287024692,-0.794380251,-0.1700879855,-0.133431501,0.3998370799,-0.3354041882,0.9836897137,0.5363501838,-0.5101832865,0.6551035631,0.2800407636,0.6436598928,-0.9276678309,-0.8023105481,-0.4115907659,0.2128105115,-0.0414652799,-0.8877423478,-0.7194570805,-0.2620095931,0.1773955488,0.8966116642,-0.2926674953,-0.5575183638,0.5529474273,0.6339272282,-0.9497157584,0.4144650402,0.3163168866,0.249467964,-0.5070607382,-0.8102749947,-0.0521413939,-0.0631432674,0.1575513779,-0.1484344437,0.9447049203,0.0742154269,-0.1796883054,-0.2543230059,0.2322387311,0.9032644944,31.2227021215,6.2853097511,-0.7856061977,1.4382977328,-0.4929589919,-0.5843291382,-0.8452665414,-1.0155825898,-0.0998122602,-0.3525192818,0.519102082,-0.8616555429,-2.0365215366,-0.0127084968,-0.3010653053,-0.3772332766,-0.4501166829,-1.8436198813,0.5134187148,-6.5837926481,1.9337638665,-37.0113797842,-8.4244405114,-4.300770757,0.2476058847,-9.2916067119,3.4511479476,-2.1661760421,1.5544164869,-3.798088157,1.1402436921,1.1703458852,1.3994409416,1.7672163184,0.6041891713,1.9611898912,1.5153362354,0.3505025454,0.1408180713,0.0097539274,-0.2721639515,0.7520429896,-0.6273901281,-1.7676337717,-4.0929588587,-1.5582293797,-2.5938162421,-4.0015090547,-3.1872662044,-63.3221155593,-16.5478643827,-48.7429612608,-6.5049833873,-0.3681944642,-32.9883428856,4.693844311,-0.6266656602,-1.3889653125,-1.1453233429,-3.1804885445,-1.9782643136,-0.7835373721,0.1622444511,-0.6470628841,-0.8420677304,1.1260676155,1.074689963,1.0558185054,0.9076268161,0.5326836658,1.3945807665,1.2335424654,1.1384521335,0.381787138,-0.3666038471,-1.9824636268,-6.8559905613,-1.4457782393,-17.7596109909,42.4327347616,-0.5960640815,0.2976517462,-0.5815773307,-4.7687608893,2.8201244331,-0.1783253803,-1.338828752,1.0712814918,1.2993876977,1.5626991165,-1.132097687,1.2834716548,-0.5055674814,3.8402606223,-0.6679714034,-0.8608881825,1.2037595872,1.105810728,-1.1867971938,1.7196135983,-1.7745708762,-1.5154736085,-0.9007887188,0.4361524445,-7.6717186087,-4.410266391,-15.150419763,-72.0168278321,-18.6528625578,-0.0675390673,-0.976813884,21.3685205848,7.3731794122,3.6390944068,7.2923563583,1.7032058463,1.9449418784,0.9555705429,1.1468663322,4.0320667993,1.0758996837,1.8670781174,1.6847835034,-0.0697646686,-0.5839851907,1.1552862936,0.6147003606,-0.8587244097,4.1441642628,2.1205831109,-0.8510239116,-2.1061172979,7.3760523707,-27.4822434765,-0.8872488171,0.2225712152,-0.6974924959,-0.784013799,-0.1119401151,0.5916510503,-0.1268686604,0.9646466794,-0.8606630225,0.5881383406,0.792948293,0.0816063314,0.8976531415,-0.5943007705,0.266224185,-0.0822455403,0.4468991019,-0.6638276113,-0.9343337739,0.9984706925,0.2735402473,0.9169861235,0.1983031019,0.8178316611,-0.9869246112,0.5928576602,0.5094754877,-0.5989939392,0.901012195,-0.9754126987,0.98274962,0.0176507829,-0.2638282461,0.6777593961,-36.8440339591,-4.098522905,-0.647828118,2.23323734,-0.699010792,-2.1865125695,2.9797538878,-1.3468663788,-0.8392434314,5.1492097027,4.1527064776,-8.023563305,-0.599990669,3.9785356666,2.479317713,0.359636562,1.1551387809,1.4226177442,1.4529796327,-2.4741261331,-2.1336305154,-5.0955822574,8.9039823453,-54.6261683157,-1.9676147089,0.7851566579,-6.0837456369,-68.136033186,2.1465124194,-3.1546762795,-3.2312531372,0.1475067217,-2.2910279658,0.5565489466,-2.7160867862,-2.7467619806,-1.6394345638,-0.1497424358,-0.1987901923,0.2056723712,0.575870185,0.6590279405,-0.3044806225,-1.0441848605,1.1021765378,-2.8640883047,-2.341304236,-0.8674473631,-1.8477494092,-0.8715481582,-1.8057269608,-10.6844637789,-12.9442878049,-0.9842645985,-12.7556600705,-5.8260511556,1.6769130855,-0.4304757968,-1.6968631563,0.0658648171,-0.2337552194,0.605359367,0.4677125426,-0.5193576452,-0.4479009724,1.7869351383,-0.7967844547,0.6076988897,0.3124115655,0.1653297065,0.4336429306,-0.7400247966,-0.8728155298,0.8672572328,-0.0795403295,-0.0073029153,-0.1279122919,0.4525130522,-2.9435743041,-13.3030107868,-17.490096452,0.3647276799,-15.8531691214,-6.6469694834,0.6491395452,0.1379585062,0.234158863,0.3618806306,1.5097481357,0.3854213148,0.30978935,1.7739625832,0.1316494983,1.4770083841,-0.4635602939,-2.3803164834,-0.7175800912,0.7301391236,0.8730109093,1.6869772406,0.3558437623,-1.2715220259,-1.5324134959,1.7062130967,-0.2312498653,-1.3248154889,1.1157312724,-11.7929821078,-10.1155308822,0.446179425,-2.1513830631,-32.0781771405,-36.8063613402,-59.061171833,2.6585327124,0.0086571901,3.2573092619,-2.1495344924,0.7760705542,6.8365894248,-3.3518445877,2.1195383142,-1.9416526301,2.7540228794,1.8631058603,8.8031358756,2.9250975821,-0.2455030649,-0.0000506494,3.5093219331,3.1658091708,-7.4342919101,7.5538411071,-43.3810222086,-34.3729510281,-36.7089087625,0.3479611263,-0.1198576521,-0.7114117122,-0.894012511,-0.2054308943,0.7173994577,0.7891650627,-0.0381499664,0.4376310906,-0.9315716191,0.8711331275,-0.6869049667,0.1387635297,-0.5685512652,0.5312701278,-0.1599948103,0.6955054235,0.93362682,0.7964925258,-0.9041172221,-0.6156042051,-0.0092392497,-0.4134257524,-0.8017099532,0.7702864953,-0.6867208412,-0.0904931684,0.2455090643,0.5397027514,-8.7344253732,-4.381528116,0.1140012209,-0.7427807976,0.4436809087,-0.1740142386,-0.304828165,0.0557464061,-0.3798116371,0.5806280095,-0.9752750081,0.6537755217,-0.2503781072,-0.0650172782,-0.0993065093,0.3753561863,-0.0963171552,0.0657196403,0.0709519479,0.3439228747,-0.0839825704,-0.1156359865,0.3427388364,-0.2024634643,0.7229112872,-31.9688137168,-0.9100501301,-18.2008204053,0.2640672443,-21.3014751586,4.4432610042,-0.6277336998,-0.1913930254,0.8236979088,-0.1968471422,-0.0981566533,-0.1804071265,0.65675197,-0.2314491158,0.1560201986,-0.1630872254,0.0520080219,0.1544455895,-0.2933112941,-0.2866121751,-0.3951196459,0.1593932083,0.0912851874,0.28290322,-0.0489548831,0.0920659961,-0.8414723984,-0.007104686,0.8318414039,3.6065211753,-17.0440604872,0.9574713741,0.3531962889,-0.2855804048,-691.3214573978,0.998282184,0.6967639656,239.666088263,0.3506687194,-0.9675981776,-93.5039365778,12.6808773761,0.8184017273,-54.5902448339,2.3190411231,1.1006748875,134.0253354021,8.931167903,-0.9033935042,3.0323489673,0.0436633682,0.5158921981,-0.1432992171,3.8810593553,0.8674261977,7.3290526358,1.5798555746,-2.0242505895,5.2133767587,-0.0880523457,0.1408768762,-89.8348519907,-0.0910867299,1.115275291,-21.1286435983,-0.0484003699,1.353985015
   11.8868224821,-1.6160519101,-0.5741386281,43.7663789703,-4.0637710941,-1.2136747828,-36.3030790751,-1.3321841677,1.2479627316,-0.6716790523,0.3193214443,2.0281272083,-28.702342746,0.9958086826,0.2576649314,-1.6001231701,2.1344390231,1.2997791784,-90.6664413836,3.4383148643,1.0071703978,-74.8034091422,1.5289749851,2.437277369,-14.9851659566,1.1361878493,-0.8401913592,58.6704096427,0.1143052197,-0.9217966493,0.2581054415,2.1101856818,1.0946163002,-20.0811855737,-0.9037591317,1.5217006504,-2.1555808383,-4.422421109,-0.9782609545,-13.981754088,-2.1213988277,-0.7636428351,-0.9456153737,0.7228891203,0.5904451231,-0.6915664195,-0.542677698,-0.5896659607,-0.9242589416,-0.2228700695,-0.5051776676,-0.8912685699,-0.4307149648,0.2759312565,-0.1593326422,-0.8832312154,-0.5785431992,0.5978943406,0.5501587946,-0.4705294308,-0.5830259219,0.9850397752,-0.6461038027,-0.8968247932,0.5396803228,0.0356266524,0.9892763177,-0.5429401702,0.7789582703,-0.7356194345,-0.7974754594,-0.1309748131,0.8605821626,-0.1765112877,-0.4459292445,-0.5762461917,0.2848207804,-0.6078261356,-0.3399171961,-0.2292467689,-0.4453960246,-0.257339857,0.0029693706,0.2501969279,0.9765654393,-0.00965729,0.9436652634,-0.3556238456,0.9177734355,-0.9640260016,0.0685114113,-0.6874260252,0.9009630799,-0.7923205567,0.5035420347,0.9671752614,-0.5789183265,-0.3893857813,-0.6710086379,0.8488238527,0.8659602102,0.1920746715,-0.2731668638,0.5584408896,0.4239232343,0.0298759431,0.9941642565,-0.696084799,0.3611499763,-0.1481911409,-0.9447542744,0.8224120338,0.3879469984,0.5870549972,0.7643884528,-37.4677737198,37.0663534764,-5.6280725841,-4.0531396353,-6.4239006575,2.917247524,3.2739847906,4.7421960848,-14.1638394181,-2.3273627231,-5.5722450193,-1.3555143791,-2.7197386711,-3.187636135,-5.2401425091,0.9311163291,0.1725961396,0.6970960186,1.5453358613,-5.5973182543,2.7663758678,-5.6513799565,-5.1821503844,-41.3518103994,0.1481902063,-6.607397886,-59.3438456575,-9.8576832445,-6.7840034949,2.4963829759,-0.528571839,-7.459917418,-3.4674756336,-1.0657221229,-4.0164976912,-0.7361716036,-3.6627521555,0.0512285222,-10.1528066294,-8.2798091984,-6.2667581001,-3.1651982453,-0.2722552459,-3.2018184458,-1.5623666079,-1.4875517823,0.6470081195,-3.2162532359,-2.5715708885,0.7378741431,6.2389824327,-5.4410656388,-18.1654496576,0.153764323,47.0990270065,-12.8058018414,-10.7105777956,5.5290481622,-0.9865319141,-0.2582697743,0.9298990342,0.9221701231,0.399820418,0.673151749,0.5091785264,0.9955662018,0.9304342741,-0.6190109894,-0.2658395854,-1.3914975083,5.2161010587,2.2621897638,0.5766365858,0.8860132492,1.4786181063,-0.9598882978,0.6217690515,-6.1699576849,-0.3929354765,6.8120725671,0.8752796144,0.3960348415,0.983800822,-35.4587348716,12.603627589,2.5157736738,0.1995453424,-3.9618184871,-1.1010541801,3.2536912033,0.1981400105,-1.1987348343,-2.3517394428,0.4041651648,0.1396369932,2.2270315961,-0.8683382137,-1.5091488059,-3.11288174,1.5331003106,5.3701730038,-0.967061822,-2.23197021,0.254238435,2.0536607314,-5.8426046797,-2.2433172462,-11.3094758819,-2.4782055478,-0.53439878,-0.7780724033,-0.2429064807,-15.6581216848,-23.9672129211,-0.0450486346,-1.9237583821,2.0142537691,-3.1993989522,-0.1539276406,-3.154778097,2.6419029218,-3.2514462981,1.4920461777,0.1943006811,1.6182548077,1.5258479545,4.7373026869,0.1749588441,-5.3946858897,1.5976703377,4.7719907851,2.9974584375,17.8557667529,34.6133995267,0.4264233109,-0.6054519707,-0.4051266104,-0.7155081254,0.7263217868,-0.0857225765,-0.9329327468,0.2349963254,0.6609400357,0.0943113236,-0.1492452538,0.347105275,0.4587424307,0.2139885059,-0.041964217,0.6186820053,0.5507950281,-0.3799393176,-0.2654210124,0.5019056435,-0.3329192114,0.5931802388,-0.5696366824,-0.5360885894,-0.8507543144,0.7765211603,-0.1654932586,0.7697210957,-0.1999119929,0.1118468991,-0.4555059587,0.6827759359,0.0901030141,0.7283367065,-5.9899667264,3.7056297512,-5.6930414389,-15.6834192124,12.9935739798,-15.8340345115,16.8129233696,-17.2671490213,1.2755082152,11.1140565655,1.6160787632,0.4128099641,-4.823703812,2.5436260231,-0.1898024837,-2.4764119444,-3.0556171626,-28.4441173671,-40.3612366879,-17.6851096566,-5.8547374466,-38.7166235936,-32.4685286307,-35.9504062197,-7.667647358,0.0413682438,-8.1616411687,-30.7926831457,-42.3068625761,-7.886975801,15.5639351423,2.8615811444,5.9512901983,-0.5566008827,1.3103961214,0.8369998431,1.7044161882,11.3194569731,0.1098979525,5.2513061043,-0.2065663036,-2.0634935905,-2.8966295456,-1.185357187,-0.7235975195,2.2145406919,1.913954441,2.3388036303,-0.5467978324,-1.4353806325,3.2959709027,-4.1308389352,-14.9090462978,-0.8252972776,-41.6099634676,0.3732016586,-5.4900253109,2.8120667452,8.1523219882,0.0501870944,0.9080575183,2.0160080412,2.8754879184,0.717689123,0.1131343149,0.6714172033,-0.441282997,0.6052432607,-0.6667855493,0.3095267319,-0.3588192533,0.2852362457,-0.4034357341,0.8053289955,0.4060054122,-0.2164169194,-0.1569717436,2.3604587983,-1.5488677241,-7.8536248089,-14.9810965951,-0.3045387589,-7.3829723051,-65.8182786643,-5.6630670069,1.3200560895,5.8119450502,0.3805898038,7.8647188825,1.9907539087,-0.2549785846,1.2585734993,0.4529950669,-0.4063348132,0.6689977255,2.6459591187,1.9286022329,-2.6438159365,-0.5317214689,-0.9594237766,-1.5039423686,5.0282933518,-0.2794489587,-0.0268511233,-2.5895017137,-3.1920131561,0.5251442085,-17.3625263569,-13.1782952204,-0.3964543036,-6.0564050957,-23.2681809727,7.7701791697,11.031629585,7.3892926702,1.6475215453,4.4300985932,0.7140945696,1.4075077657,0.3480624663,-7.1432977618,-3.1343887622,-3.6006317675,-0.027613189,-4.8034429311,3.7245104223,3.0908291893,2.4254219761,-22.0277409281,16.5271167019,-4.6646160638,-0.9954983381,0.2659237558,-33.2936892245,-11.46858184,-42.8223306902,-0.0382498036,0.3414808821,-0.3860109598,-0.0538414726,-0.5679831577,-0.1410325751,0.2441118053,0.3014591483,0.8808646455,-0.216900379,0.7904331723,0.3776306662,-0.4652581412,-0.8778933516,0.9025275958,-0.900298058,-0.7088520321,-0.5353485459,-0.0124154691,0.427451632,-0.9799119132,-0.9592851421,0.3554302466,0.5108358974,0.3827395475,-0.2921048691,-0.1465827354,0.5559877739,-0.2623572315,-7.1286400937,36.6744591658,-21.1811977339,1.5329910221,-2.4837498436,0.6008530708,-0.1733749989,0.5166190683,-0.2434819802,-0.2553414664,-0.1009639173,-0.6837683365,0.1636510586,-0.4057719496,0.0310052332,-0.1003931711,0.0310251186,0.1813282431,-0.0639293105,0.0263620022,0.0391304515,0.0183064089,-0.0979942335,-0.3593571077,-1.1488679141,1.6408533082,-1.2732152486,-22.4284731818,-0.6749524336,-49.9395971171,-25.4475653374,-11.5863926875,-1.1734251115,0.404171761,-0.159012721,-1.0009753083,0.299866835,-0.1304185417,-0.063839103,0.6800978403,-0.0318410712,0.6026360763,0.0815237519,0.3827284407,0.3830649818,0.0462966602,0.1795944015,-0.2694678449,-0.0216031971,-0.1467665106,-0.0526635792,-0.7992965332,0.2735247638,-0.553732862,-1.3322058526,-17.0082398711,0.0412467037,-0.3176420653,0.2482578239,-6.7666743987,-0.1070433413,0.333180924,-29.4936471351,-0.0286909826,-0.7500495943,608.4307051187,11.0421138344,0.8836878574,592.4570496505,72.9825666649,-0.7467470846,173.3616188877,1.2324665859,0.4523022339,-134.46463146,3.4830517426,-0.6638593856,-25.2317428321,1.1463569328,0.2657764656,-91.1761077691,-3.5771524156,-4.2989372437,-154.2369967047,-9.7120563526,1.0734895042,-0.3361571514,-1.396835551,-0.752803096,12.4794237227,-5.013596271,-2.2841496673,-0.8068261747,-4.1080144187,-0.7038371237,-95.0166942714,-7.5081329087,-1.6159043959,3.7717884719,-0.6036228184,1.1911662901,0.1433081841,1.4509829097,0.9617060356,-0.1004856119,-0.4996928011,-2.7277873176,27.0650452689,-7.1826278054,1.4926970351,-0.6329390449,2.3069942039,1.3725412229,-0.2343833074,1.0580570279,1.6531583243,-0.4210240731,0.6423746904,4.0795637072,-192.7568025081,3.9371990816,6.3757259666,-35.9507435553,-6.050087184,-1.3379711348,-30.4419482577,-1.4054656178,0.2764715419,-15.4564156864,6.4695020553,-1.9043801125,-82.1689338691,3.7638612051,1.0538022023,-0.2453024117,0.7526783738,0.421932888,-0.0938464003,0.5393120371,0.5947709241,-0.487222444,-0.2454442876,-0.9237297904,-0.435361648,0.9095463105,-0.1794157501,0.4680857896,-0.3795678689,0.5647041967,0.7751218835,0.0022448629,0.396010674,-0.6210047291,-0.7843100225,0.0732355481,-0.6356674399,-0.6394061478,0.5523148722,0.6276485655,0.9008737235,0.7174827781,0.016074633,0.5776620125,-0.682618025,0.5783725038,0.1106390798,0.1282220704,-0.5637193692,0.5374719388,-0.672884563,0.4632327772,0.7760343393,0.7184248751,-0.5574879254,-0.2639331547,-0.0822109295,0.55272372,-0.7778667975,0.8097105238,0.1235991381,0.9679132697,0.8462162588,0.6918545286,-0.2234463804,-0.8191029121,-0.1188746547,0.1102439076,-0.2868852383,-0.2083410892,0.1154128535,0.1735989963,0.0179805728,0.3727115982,-0.9189387207,-0.4365794441,-0.6482154085,0.2495859489,0.5802188727,0.2019906975,0.3819450194,-0.3323276086,-0.9622596673,-0.1581169729,-0.6248109896,-0.4512679383,0.9373051831,-0.8448955076,-0.6251401209,-10.7248485731,-26.2668262236,0.5172672201,-1.1619532238,-0.9336748256,-1.7717147229,1.261392204,0.9003309193,-2.1789929212,-0.0378968155,-2.6179399453,-1.735180374,1.3720719127,-3.4450635312,0.0254304806,-2.1841153363,-1.5719491183,-5.2896230431,2.9278758647,3.5170786359,-14.5990375027,17.178461061,-15.2645346353,0.0880356664,0.7968162085,-11.0962714539,-20.8746505754,-49.5211394447,-6.3671294961,-4.0780874016,0.9396138607,-1.2114361946,-0.2012939639,-4.200824482,-7.6211278506,-3.7512001521,0.0597345306,0.076859335,0.7950915461,0.0883490193,0.7388238692,1.5906978952,2.5959564174,1.7336195765,1.5634360791,1.4789295175,1.1608937097,7.645057414,7.5726113521,5.0574841964,-9.0818517709,26.4331176054,-0.9721173898,-5.4946967429,-47.6133659316,-1.4865608422,4.9813507836,4.985982062,0.6017963541,0.3904955346,-1.0916355013,-0.4296780722,-1.0394744883,1.6306038236,0.7120548009,-0.077472682,0.4621383231,0.5389036325,-1.0823968485,0.4492388098,-2.1793628567,-2.7071131294,0.7738421432,-0.0607908183,-0.8380716294,4.9767590752,-4.2738402848,-8.8533183025,9.3986814382,0.1787923053,0.1841850813,0.6892423426,-7.2383095138,-18.7187787377,-3.7968042405,5.3129350405,3.2321295612,3.8051440207,0.0657024197,1.0573517767,0.1968726845,3.0347742205,0.3757949885,0.2346759788,0.4855120458,1.331605011,-0.3146635369,0.9539263786,-1.9724550278,-1.1803105967,0.0523514964,0.4037115942,-3.004748925,-2.326861571,-2.310154855,-2.3052900102,-54.5539186053,-8.4534075051,-0.150088763,0.6165491013,-10.0724393331,-11.5635940149,6.0156962404,-2.3214451283,1.8802959435,-3.2184686187,-1.6992773704,-0.721345427,-1.0389207162,1.9057482549,-0.4013698844,0.1072818509,2.581463577,0.804537287,0.6980720813,0.9714765067,-2.2668165947,0.5937186663,2.1654344727,-1.926604417,0.4027530029,0.9999379361,-37.3471204562,0.3107539717,-0.0698994295,0.1202614737,0.6185205388,0.0430726229,0.5771067173,0.4840922223,-0.7834602662,0.8287290243,0.5553612947,-0.8111765843,0.4750083927,0.6299379314,-0.4834562539,0.5539005039,-0.6177700261,0.2796297156,-0.2945153622,0.7969130274,-0.3843548305,0.1619483303,0.1493611413,0.0601011765,0.6483251161,-0.3195307178,0.9334405384,0.2284880026,-0.7415815325,-0.8530503964,-0.1788159608,-0.57754938,0.9493648918,0.2234227175,-0.0234764278,-10.5433889567,-21.7811420999,-21.776163363,1.9974520557,-0.1405516162,11.2443368457,-3.5224501629,0.0208716359,3.1164632436,-5.9518705423,0.3966466668,-0.04636724,-4.1719009162,-6.8681669796,1.8696216262,3.8108805212,-1.7486565408,-1.2644190989,0.2029627553,-1.1719366464,0.8643193056,-3.3739323634,-55.3846826082,-8.4699777592,-1.7525662512,0.2432784874,-5.2351166335,-16.0162272087,10.2002110066,-2.6409301711,-2.5661821594,1.4936888304,2.0591386687,0.9842351798,0.319432111,1.9052154333,1.8559113459,-0.1523350142,1.7792014248,0.3228704068,-0.2191156907,1.4987371033,-2.6939227291,-2.9646643411,-1.8471710322,-0.5757453399,0.0416571621,0.0224393683,-0.1833175158,2.4766514112,-2.5164645626,-1.1652054864,-2.8063066247,0.1668254999,-4.8618703003,-18.5721115456,-1.6711082518,-3.2806488557,0.1478392376,0.8257093037,-3.8297718236,-0.4618675506,0.305060095,-0.281293976,0.1537156345,-2.6105209285,-1.146550768,-0.9625195936,-2.331312906,0.1744344065,-0.6619318879,-0.7675129102,0.1553802355,-0.3444577239,1.1317109169,2.4318234217,-1.2397260475,-3.7066704529,1.1180584908,-3.1076017537,-9.207661639,0.6548918655,-7.6566940768,-24.1328322106,-0.5573588301,-1.5738876749,0.2527180218,0.0471507516,-3.4393742749,-2.8531298288,-6.8506404055,-6.9014140136,-5.4858892876,-1.4137802176,0.6926919407,-2.5160274206,-0.9350080011,-2.4876561837,0.355774863,0.0289466696,-1.4714285451,-0.2316879927,0.7564742359,-1.4546616724,-0.326892747,2.2096635083,2.2859740179,-13.1787232876,-14.8526256785,-0.4786902007,-3.6844210582,-8.5097054602,-2.5518045914,0.7198142235,-6.6847932758,-3.7637589675,-7.074440877,-5.3468418775,-6.3130904795,-1.2277099595,-7.4870435958,-10.1220516145,-6.6223509836,0.2018595319,-4.1688294245,-3.1618859439,1.757710456,1.805576043,-4.6569531871,8.1055874811,3.1876696874,-1.065467364,2.4229446691,-40.1921608013,-9.7167103619,-23.862393431,-0.2555772972,-0.8927981701,0.5115281847,0.2353030757,-0.6331272635,-0.7058242912,-0.0787228362,0.1378831979,-0.6178975521,-0.9664492487,0.5813907162,0.5398293763,-0.2770212835,0.3140806466,0.0244271648,-0.8303679888,-0.3887517553,-0.0826564644,0.7650551457,-0.6988829226,0.9338974606,-0.3251298518,-0.2178123609,0.9688870407,0.9892634328,0.956350374,0.4997728882,0.8562468457,0.4857081922,-0.2032681418,-11.732086799,3.9209413465,3.746272173,-0.0070875486,-0.2815546463,-0.1883485025,-0.1376118452,-0.0299870616,0.406413156,0.335978415,-0.1956496729,0.6768409715,-0.3342445423,0.302961929,-0.1391237311,-0.0427150149,0.6162494672,0.4541082651,0.3231789617,0.1377954341,0.2493252823,-0.0346084764,0.0465010013,2.2045390257,2.492844324,6.0136483514,-23.5301250174,-0.470048533,-5.9430121245,-26.6597048537,-0.2354077144,0.8962763155,0.5076080437,-0.2675190115,0.2024333068,-0.4401679005,-0.0358239929,0.0354077646,-0.6004690722,0.2677887155,-0.0773421354,0.189394189,-0.0175461794,-0.7691759812,0.1973688287,-0.2649794587,0.0364625253,-0.1537956824,0.0085586408,-0.8059147018,0.0596683644,-0.0400849578,-0.1849828736,1.7428074112,-35.8251531565,0.1424278706,0.3414677577,1.068916929,-3794.2257725708,0.0007405799,0.9373887198,-1048.1619321186,1.2200495209,0.4320014269,268.3051355458,3.430986013,-2.1987385091,78.2356920677,2.8144041713,-0.2965485302,-127.6303029755,0.2294833392,-0.0218922272,-0.5380182007,-1.796507536,-1.6652185469,38.3710547118,-2.8352405765,0.3243739292,-25.4987704095,-2.7494275094,2.3740490483,70.3553609755,-2.2792329856,1.2134937953,83.3286409151,0.5718146633,0.7181180178,-11.7159541372,1.7367439239,0.7476145062,33.7937106195,2.1152882945,1.6461049719,27.1836114164,2.927037273,1.190525949,0.4447946839,0.9178327379,0.0446307965,-30.8601738064,4.4146952237,2.2493124894,-14.6489153694,4.7045601678,-0.3892728711,-3.104218283,5.0605635578,-1.2439994436,-106.1501291113,-0.6231049428,2.4928174083,-0.1528368296,-0.1317700667,-0.3107233303,33.6692550621,-0.8042990117,-1.0253112202,146.5277156485,1.2241898982,-2.0661857338,1.1184010696,-0.9950812271,-0.4040712037,-2.054325187,-0.7312829583,0.9214578123,-11.5115314494,-2.6789860993,-0.4889126977,68.6937750339,-1.2431020758,-0.8096261962,0.9296880552,0.9572869557,0.1942167145,0.6829174453,-0.838994385,-0.7622853934,-0.1053489996,0.3084373445,0.0715236043,0.6401140322,0.837032543,-0.6640387412,-0.1134069534,-0.4761411915,0.8357880708,-0.477745935,-0.2793949714,0.9450106484,0.8065206209,0.0538553152,0.7855951238,0.0987192494,0.9036303106,0.3804093136,0.5848340216,0.3266858948,-0.2906731626,-0.0080348437,-0.1507849032,0.0725027659,-0.518153765,0.7730586961,0.4742531217,-0.3323189926,0.9706839451,0.0663895074,-0.7844946536,-0.6688206907,-0.1933427485,-0.9210952028,0.4002279703,0.2652466587,0.974609182,-0.2368967074,-0.5869192007,-0.7696096164,0.3765666121,-0.1936287532,-0.7863082177,-0.5177168728,0.9931646907,-0.1388368118,0.643894832,-0.5465794231,-0.3488490381,-0.3511602193,-0.2175473283,-0.9376573257,0.9047802155,0.0699757018,0.105077618,0.0332310116,-0.9610855897,0.9539493556,-0.2924369888,-0.8913056477,-0.2983617315,0.5806277001,0.3498369359,-0.5613674186,0.2614821279,-0.1628834403,0.5841646666,-2.563564871,-40.9717214153,0.2426349374,28.1826857044,-8.5759358524,-1.7574820568,0.7476970955,-2.8589906062,-10.5944727076,-0.8781902073,0.8759152663,-5.5018107876,0.0164207827,-0.6038229952,3.8299841158,-5.2168240962,4.3498054062,5.3102598684,3.2986468591,2.5936392962,-13.1246164125,-8.950994865,-23.810545778,-20.4448436455,0.8727768515,-1.2060299622,-10.3133281232,-3.6090085627,-17.0636797939,-10.1931523878,-6.7479552358,-2.2248615517,-0.5903476425,-4.061667207,-1.7860020774,-3.3935995433,-1.9295443078,-0.2562710744,2.1505377235,-0.7435853977,-1.6543505759,0.0351968128,-0.5911868428,-0.780999378,-0.7655817022,-3.6144106543,2.0043610359,9.0084863833,5.9942599013,-2.8251004243,-1.2215793438,-16.3904944575,-2.5723232628,-0.6435202384,-0.4953971589,-5.3038690435,-13.6759229511,2.098758325,-4.0223930331,8.6871219937,-11.7940444502,-0.7534780589,-8.4664237401,-5.3441185057,-0.0309087626,-6.5304004778,-0.4798624698,0.4805646796,-1.0923557725,3.6441654481,-6.0716017155,-0.5057539869,-0.6825970322,0.4507396302,-4.5099821316,4.0222468301,-0.3973355605,-2.8966961645,-14.2425962157,-15.0505000235,-0.9803282663,0.1485509292,0.0827164468,-6.1019941286,-13.1877710763,-1.7297813383,-11.1214533477,-11.6685239397,-2.508006911,-3.8162187844,3.4110461504,-0.7525812153,-0.4936267044,0.5958630706,-0.4226177388,-0.1332279353,0.2910960959,3.6022640271,0.3509626013,3.518885914,2.0672612712,-0.0112160002,0.1519135313,1.5628474221,-9.9259950361,-3.1526834811,5.0907624442,-7.2042365625,-40.7646105891,0.880622457,0.0309863035,-1.040179321,-2.4935156858,-2.5530903195,-9.3556701155,-12.5259656136,-43.7644114129,2.8122347067,-4.2107269535,2.2644533997,-1.3126570348,-0.4871668462,3.7107009855,5.1262670118,-2.9242803164,2.3537828287,-1.1073700727,5.9837429607,-0.6856571372,27.0829136467,-40.647075578,-19.8065240841,-10.4621698108,-4.3202762367,-0.3363978246,-0.7347485417,-0.7979775997,0.33028319,0.8075073639,-0.7513150873,0.9753114912,-0.1872097222,0.8965121643,0.6047567106,0.7295131953,-0.9627465536,0.7047334996,0.0154523706,0.9770929192,0.0070014342,-0.0993276915,0.3476806912,-0.7778088052,0.7139524223,0.5747118362,0.8596356794,0.6002434471,-0.057551007,0.0396871734,0.0571823899,-0.7991728041,-0.0542264329,0.3498385652,0.270580469,0.769049754,-0.6843427193,0.4834610804,-0.4781437216,-26.3952010505,-33.7579029343,49.9757455452,-46.190738684,-1.7116647318,11.3275738214,-13.413985603,0.2364322254,-1.681404072,9.7405595903,-9.4326129922,13.7829429025,-2.2244102089,2.1105774082,13.2121140038,-2.7485977795,-1.5863309708,1.8332234978,6.3139681081,-38.8655514192,-7.7719333114,-4.1471004656,-2.7301460285,-2.920929475,-2.3298286765,-0.8568899128,-13.1168293748,15.2510127168,23.3019468864,-3.0820839849,0.6363989426,-1.4665876453,-0.4558866672,-1.4394048181,-0.406925727,-0.4590139371,0.3368321627,-0.9173506798,0.0999763932,-0.8692611498,5.0226962145,7.2599736203,9.5739596909,0.433965644,10.2093751908,0.7462392826,-0.0732646967,-2.2738057607,-4.071743682,-52.9648641804,-6.7506096578,-3.2736640826,-2.7798829156,0.726463481,-10.7249673134,12.6275320892,5.2684526345,-0.2653003534,-2.1198484697,0.827351509,-0.0316354456,-5.0327995228,-8.1172107294,-0.2382667083,-0.8075334171,0.0544899549,-9.7111129293,0.4363919472,4.4168789671,0.4428234826,1.8624743699,8.5313264087,0.6849361584,-0.4366138483,0.0332462806,-5.4649657773,-5.1108047145,-2.0482086146,-18.8098398165,-4.798494698,-2.6251357008,-0.5050931312,-20.3236792731,-1.4644998008,-2.4196156076,-0.362207417,-0.2672039642,-4.5147328677,-0.1293840797,-1.4056853143,-4.5891316997,-7.9039504405,-6.0414011676,-5.6454774201,0.5580743277,-2.0426473592,0.0097325758,-2.5200993211,1.1737141283,8.9882902801,0.6714920591,0.5010979403,-0.6498165678,0.8665231689,-6.5538069601,-60.270379661,-11.7439635571,-5.0315806933,-1.7333440906,-0.293207614,34.2588689399,-19.7495995703,14.4191130477,-5.486636339,25.7147530153,-4.8649306493,-0.4658741287,-2.79350814,-2.1184217337,-0.0531940702,-0.4107340557,3.1786060742,-4.7030194301,1.0794446719,-2.6864618116,1.4660010999,-0.8927170234,10.3166712856,7.1710708637,-1.7311856837,-57.0980034688,-28.506555088,-9.7967074073,-5.1563428179,-4.052129894,-0.4749631204,-0.6965120644,0.2865014453,0.1634453602,-0.3021088589,0.967013684,0.3892579214,-0.8251428701,-0.0947032526,-0.4449674456,0.3145868446,0.5527004639,-0.3080983425,-0.2766932091,0.6405836443,0.8489254728,0.2529920204,-0.5702824815,0.2605514452,0.3772273699,0.5409417247,-0.066496161,-0.3715137251,-0.900202308,0.4148117603,0.1808541764,-0.1696319979,-0.5644158268,-0.0365890378,-0.7278370508,0.2215696236,-9.2639484227,-7.9523589883,-18.7821612761,-0.6919345501,0.2424469291,-0.3375728344,0.8867395357,-0.1967296639,1.3074184657,2.0310284486,0.4796314296,-0.2453916751,-0.197591851,0.061363534,0.0334533801,-0.0045577726,-0.3442298061,-0.2447223809,-0.3758107237,-0.4121912659,-0.1503472282,-0.8849310735,0.1639354791,0.0877256327,0.4787563608,-1.2245603263,45.6563610693,0.6972582474,0.9107074311,1.5605463396,-0.3252834652,0.3387737317,0.2704309494,0.6419717,-0.2764945816,0.0812651986,-0.2756218953,-0.4112972545,0.4757474508,0.9213579518,0.6120260102,-0.4705784424,0.5555220648,-0.6150331396,1.479116903,0.1104021952,-0.5166503597,0.8390852044,0.1308079804,-0.1503813318,-1.0076908645,2.8193350626,-19.4494762896,-6.3073440226,-3.7277849884,-0.594240325,0.5749580914,0.5602952935,-765.4967538999,-0.7117914971,0.9519120272,-854.4088662441,-4.0238525267,0.6230480664,-528.9429175523,2.9052190701,6.3695715627,342.5594187249,-37.9834874417,0.6876660619,414.2978323012,-7.2742855289,0.5847278618,-50.7988372027,-18.4772160572,-7.0269232706,-58.5519506372,-14.2872247814,-3.1207781243,-0.2979015335,-10.2555182712,-9.0349191316,-21.0393269167,-2.9991687895,-8.2300947992,-33.0704681609,-9.9372221735,-5.7617277965,-71.3783383612,-14.5770224292,2.3546816415,-339.9036898689,-5.1043089978,8.3236032185,-299.2067620937,5.9684388765,4.8217622456,-25.9220591147,-1.4028978649,0.6546101441,-16.9983208514,-2.9033027281,0.141453939,-120.7149474963,4.6156221083,11.1869360566,-6.6315010236,2.376882485,0.8788157324,17.8945192194,3.0762852627,-0.6031367158,-13.3114782519,-1.4239736818,-0.5536811806,-38.0126101606,-1.1425177792,-1.3416898773,-0.9450764749,-1.3697613845,1.355606461,-4.1266848546,0.7799912978,-3.9376518186,0.5418112616,6.6716963093,0.698051471,-0.1057921878,1.8279768549,0.6691639114,-168.3313098482,-5.9853119979,0.7726117861,-0.6017925911,0.6122642662,0.3647969717,-0.1537600151,0.4051739681,0.0243982184,0.035835657,0.5996916285,0.2420030847,0.5907007134,-0.5385486141,0.2399989946,-0.2621401597,-0.4552949742,-0.4235429274,0.767192151,0.4507531405,-0.7688068807,-0.6123345919,0.9683015352,-0.4006386626,-0.8978612817,0.7336562056,-0.7577806195,-0.0191801011,-0.3931846861,-0.9968376599,0.1038825727,-0.55521682,0.1713818602,-0.3676141632,-0.1869106896,0.9940734317,-0.0367415206,0.7015576625,-0.926738078,-0.9177708211,0.635604681,0.4510526407,-0.7545312968,0.1782651915,0.7472126346,-0.96262688,-0.9769833928,0.1689572988,0.0531278988,0.3493126808,-0.9880717379,-0.3310361601,0.361310369,0.2046134968,0.1626149535,0.8090966861,0.1506476222,-0.2525708438,0.4980583771,-0.4269460286,0.6456333186,-0.6330943486,-0.9161861732,0.252927541,-0.4569768502,0.9571930412,0.6851471913,-0.9062029679,-0.9142191096,0.8392002424,-0.9433819776,0.69772349,-0.4276556855,-0.723787084,-0.3206822416,0.8129126191,-4.8691616582,-28.0920592317,1.8027336634,-8.8790271077,-1.1425706538,3.119008466,4.4883893417,3.5260731403,1.5898202635,1.62825398,0.1296655371,4.9033714722,-0.2398653591,2.1697348106,-1.0495836181,-9.9938548868,-69.4827150398,7.3436073734,-59.1926128859,6.1432416346,-23.8088891954,-10.5289525305,-11.5254762568,-2.218802383,0.2480656435,9.0679988416,-16.0783553688,-26.8129141046,-0.6085236938,4.2930689875,1.157551154,-1.343774347,0.1146475737,0.166091688,1.7081651919,0.5887385672,1.0832591512,0.9654060673,3.1521121477,2.4983364629,0.2581817537,0.660222076,-0.7108221876,0.0794963417,-0.0362022391,-0.5373183831,-3.4804147358,-1.6206311188,-0.7828702606,-12.1432692088,-49.4445706403,-28.742155216,-6.3860347171,0.5163129287,47.2243432757,-4.7038017242,1.883272598,0.7173551507,2.9419220671,2.8749992877,-1.1766736866,3.6149845562,0.0823078827,-0.4335386525,1.3661854411,-1.8268425418,-3.4074611653,-1.2054645998,0.1570183318,0.0857529013,2.3961043912,3.3137818528,0.3166017085,0.3687479681,-3.0698345004,3.4382636494,-5.1019097727,-14.2952051628,4.5554372468,-54.7046081759,0.0340674298,-0.5809616824,-0.6233564303,1.8496678973,-9.9652438044,4.1737947848,0.3326297187,1.3488958325,-3.1494655607,0.6283164074,-1.0830681342,0.4616691111,-2.1043148392,-0.0375597673,-1.2509278488,-2.9355058097,-0.9239266685,-1.4415131653,-2.3630757104,0.1025708669,0.0022680121,2.1733769072,3.6066098297,-8.5716211286,0.0272715695,3.3636883328,-4.8833096606,5.0989861547,-10.9210706401,0.9792682102,0.9607181803,-6.1373908786,-44.5478922632,-7.1126569552,-1.8696075528,-4.6868604561,1.2878597422,-0.2388223111,-0.9766233144,-4.6669269663,-0.1873938847,0.336675531,-2.7115929265,-2.8459831659,-0.1774150244,-0.1033175702,-6.8508487672,-3.6841355574,-1.0395513485,-3.6560705305,-6.2613486556,-9.6092731191,10.5042735875,-14.890104478,-0.5206697902,-0.4068361797,0.2526819608,0.8124094814,0.1740141897,0.4146936994,0.5742895319,0.398504145,0.648682586,-0.1743398559,-0.6115709694,-0.3686368107,-0.0487781105,-0.7968525542,0.9106455209,-0.7633964378,0.6005288665,-0.3176096155,0.1079899247,0.4681885993,-0.6306661245,0.1108928529,-0.7141415016,-0.6715229833,0.8020099232,-0.6823896649,-0.5237757128,-0.5177585383,-0.7748206711,-0.9199921914,-0.3649275703,-0.5025304951,-0.4910690847,0.6718065004,-11.0424684512,-5.7651509866,6.5657966433,-4.9216838522,4.6102088599,-0.1899454147,2.6455267751,2.8587646626,0.8993142131,-8.7161050865,3.6432798403,-1.1741280987,-1.16092183,-3.4632087443,-1.9594722742,2.8950581022,-17.1972750448,-2.0752678352,-25.0636860752,10.2547209255,-6.123288135,7.0369593788,5.0578421424,0.0661237859,11.126720569,-0.2858607947,-1.3885618618,-4.3943883778,-9.5103344203,-57.3699353441,-4.2087832552,-0.3746045028,0.9853278752,0.6202446421,-0.2603618105,-2.6854242994,-1.8695199839,-2.2076878419,-2.9056098276,-0.0547024495,-0.1098080055,-0.3151641028,2.5578515408,2.1971045241,1.7421105828,0.3121658739,0.1085487271,-0.7252026187,1.7331213476,-0.1859868252,1.0548882984,3.5273754934,37.3997234949,0.9507990681,-2.3515223785,-3.4237719836,-17.5825688979,-11.2574156383,-3.5821861284,0.2991141738,-3.7529217178,-1.8980342105,0.2651973738,-0.4190722578,0.1876283071,3.1306868067,0.0968780478,1.0894219795,-2.5326675138,-1.8017598985,0.5159765747,-0.1499385835,-0.6203785699,2.0941666126,0.4000543202,1.7954904827,0.0387770883,2.2083561624,-2.1603170718,0.0425700716,-3.7573876058,-0.911864656,-2.6082335782,-3.9568610931,-8.9756157738,-52.5593506387,-1.329797815,-1.2019395318,-1.7110690511,-1.7994606813,-0.9312227786,-0.767561277,-0.9368148929,-1.2667526551,-2.0712672175,0.252063587,-1.345775484,-1.446990741,-0.8823902332,0.079074475,-3.0288057038,1.4504413029,-0.699303093,0.9076984481,1.8059476965,3.1629934718,1.0337890131,0.8968423359,-0.9945614424,0.6630541642,-1.1958077288,-2.4124168785,-1.8967017103,-10.9570521705,-23.9376298323,1.6883394567,-2.852459384,2.2820686053,-4.0810310442,3.5928291109,-1.6817813876,-6.1241878048,1.6405447221,-1.6569615559,2.5850561447,6.7269929679,-2.3432667945,-12.7842908439,4.1607342011,-6.492404319,-52.148994062,-48.6482306386,-1.5251114013,-44.4460314239,-109.2797778588,46.7465611303,-0.4070695024,0.1175808794,-0.3234155246,0.0414213443,-0.669663287,-0.0924781441,0.6202415585,0.112582835,-0.8151769402
   -0.7369033026,-0.1101588282,0.9074430748,0.6328485993,0.0381658223,-0.2287693397,0.0617584506,-0.7646864824,-0.9475753177,-0.461484329,0.7879231427,0.6094083722,-0.690256405,-0.3540587215,-0.4434953087,0.0299804408,0.9886024837,-0.2593039115,0.0537806136,-0.3317713301,10.6569933553,3.2442838291,12.461700377,0.2816816556,0.4835311626,-0.0890499364,-0.0439185051,-0.2284613741,-0.23945527,-0.6496774162,0.1225160855,-0.3118010493,-0.2115767309,-0.2070019593,0.5532545173,0.1696199799,-0.5578794233,0.8634288766,-0.4624267493,0.0763675964,-0.1101986984,0.7396026426,-0.3535126151,0.5608482866,6.2924943228,-2.0532545949,5.5453819019,-15.677544583,-0.7150491812,-8.2827986948,-5.5579193156,-22.002279831,2.4184893536,-0.5089680308,0.1810522744,0.2462645786,0.5847758156,0.0776893604,0.7818398344,0.0443946279,-0.2984337672,0.1905702116,-0.4898119437,0.1443567287,0.1968452568,-0.000662718,0.0149004752,-0.0673574615,0.2936373278,0.3179480269,0.2062867374,0.2898733659,0.7191605427,0.7496374036,0.0126086847,1.7395174599,0.0310815614,-0.5800293446,0.1792498842,-7.4548045056,-0.3812615788,-0.0559601995,-6.5433994797,-0.0856758253,0.0370951642,-8.2042787936,0.6350202887,0.4794019358,-6.9434577977,0.5009087831,0.6815476694,-3.7523205212,-0.9165491973,0.0290632542,8.9015455387,1.5975142902,0.1665883999,-22.5009394421,1.8848479208,0.2658627601,56.4248296439,-0.9176474517,-1.0896792684,-48.3539455062,-0.1641686697,-0.1184573443,11.9044330336,1.5169776938,-0.3257314936,-18.099559578,-0.0171484459,-1.0108579448,5.3143771039,-0.8801395457,2.3974783759,24.4278465456,0.4447808107,-0.3003418852,28.4217659563,-2.233828659,0.9296484354,-87.3454384809,-0.5161977258,-1.204153076,-0.6099841538,1.9122232351,-1.1624766729,50.4873718746,0.2146147076,-0.3682291192,-75.0843024173,-4.5051004772,1.0846839721,41.5429056554,-2.4012688198,-1.0137735071,9.0634702015,-0.4577320244,2.0673204353,-93.3900907191,-0.4878093825,-0.7103304031,44.0032927397,-5.7504333149,-4.478529185,-29.9627109035,-0.0547807535,-0.5859749914,-48.2901941877,0.3564338917,-2.0118270296,-185.9552953481,4.9071630112,-0.7622300189,0.4597140418,0.8123326889,-0.2931042691,0.3749551076,0.7927749648,-0.1051273208,-0.2866357024,0.6917296116,0.0468347863,0.604173,-0.7631707213,-0.0915981791,-0.3549581143,-0.3858327274,-0.7792191066,0.8814483962,0.3168729093,-0.9860794388,-0.5745931027,-0.2392791053,-0.5865426379,-0.5040903579,-0.7919338442,0.2454138755,-0.1885964038,-0.5058679768,0.021169773,-0.7687315896,0.2879379364,0.7798567714,0.7602817037,-0.3931766551,-0.2498301425,-0.4771704145,-0.404748504,0.45652684,0.2012958071,0.3257439943,0.4171920597,-0.5714789078,-0.1734462649,-0.7602076754,0.5341145275,0.5249119722,0.0817413278,0.2691077386,0.7480327019,-0.9276631177,-0.832889977,0.3719104917,-0.5536500562,0.130642647,0.7694476689,0.466170949,0.8403405649,-0.9025133969,-0.5448377529,0.4476016618,-0.0164611677,-0.2333272215,0.5971785521,0.7277907867,-0.2971528748,-0.4019640477,-0.7815383645,-0.6997099979,-0.9248230945,0.4566861276,0.6349779976,-0.1668818359,-0.5378731318,-0.1525760826,0.2990382184,-3.9353924303,-9.475924531,-21.5284651227,1.7160586501,2.8094563359,-4.1685277606,-0.1458725693,-0.6805097364,-0.0038811297,-0.9263719029,0.3536117421,0.1543345011,-0.5495344684,-0.9180907923,-0.8588103914,0.3480589429,-0.7546188727,-0.9322158951,1.1045872758,0.5556517332,-4.1802772522,0.5226368965,-7.9515949555,9.4826834706,0.0813424887,-1.4905520533,-17.8953980553,-15.6574067051,-39.4742775308,-0.685375892,0.1101135549,0.4404960565,1.996132493,-0.8075695827,-1.9087754498,0.0150080399,-0.8154935791,1.0996560778,-0.2474920394,1.826132819,0.48302142,0.7607863636,-0.7447284109,-0.0670136738,0.7227205303,0.7921359177,-0.3094634986,-0.5778016982,-1.6361449687,0.543016936,1.2877666554,2.3797737916,8.560752996,0.7270521173,-1.2202443805,-7.1928040759,-48.972353829,5.4146253612,-2.8906889157,-1.7178621705,0.192001754,1.1788844464,0.6930251141,1.741088146,-0.5970439608,-0.1635319923,-0.3300163288,0.7961820034,0.5947177388,2.1761869496,2.6527427651,1.8099762071,0.2300508578,2.2646533588,0.356146993,1.8338762972,3.6372607215,0.8966274194,7.592864272,3.0279778234,0.1588205354,-0.1913048823,-0.6582617071,-13.4877947943,5.9598248629,-1.1712464267,1.0170893793,-1.2037090265,-0.9044230387,-1.1514953432,-2.297880372,-1.1553849032,-1.190003845,0.3582365394,0.321940726,-0.037678699,-0.0755525794,-0.0934957752,-1.0431282853,-0.8647670561,-1.1308108873,-2.2865411475,-1.8825678144,-0.5330560959,-1.9101157185,-1.2671597272,-47.8397093159,-32.7042671397,-45.9007201828,0.8718607558,-0.7839598875,-4.7176469702,-42.2391206651,2.220140876,-0.6860497756,-1.8335597054,0.595786164,0.924226575,-0.7077287167,0.4386002694,-0.1546494316,0.570653936,1.0254127959,1.0779203031,-0.5552003007,-0.5660321624,1.0665027928,1.0992342915,-0.2119718251,-0.1879887392,2.2910227179,-2.5731498387,-0.6520625125,0.6035854874,-0.9748776035,0.3849135147,0.7380062317,0.2618623574,0.2831311679,-0.809499541,-0.7066491887,-0.3688738972,0.6164238869,-0.8998294556,0.0677657339,0.3299061157,0.9113126801,-0.4535653686,0.9762760651,0.3489275136,-0.2664239684,-0.1296456031,0.1342636358,0.1597023269,-0.4467468018,-0.9520457744,-0.2147967841,-0.85514028,-0.2945994947,-0.939201925,-0.0629832716,-0.5422022572,0.6571222023,0.1060438348,-0.4726411852,0.7569685997,0.6511878223,0.3412878841,-3.4487352856,-10.8850153257,-20.7732807474,-48.0624879404,1.0612812735,-2.694135112,-2.7893345766,0.0543019104,-0.1101819895,3.4762888334,-5.7099951228,1.3679921954,-1.6128330055,1.5844356026,0.8777475041,-1.2955672771,-2.4721924524,0.1924961553,0.0529095165,-2.6423997215,0.366514811,-1.4586410258,-46.3090767942,-6.7662654038,-2.2767425363,-0.105258543,-4.45381246,-33.5094145462,2.3027832392,-0.3415815705,1.3166096946,0.2834685436,1.4120942903,0.7108122033,1.3159129254,2.8720337183,1.67813156,1.7370072769,-0.0655074484,1.4317886279,0.3277604539,1.392504218,1.8422381089,1.1259455295,0.5214337724,2.074100515,1.6583867229,-0.3669117961,0.5658772325,-0.8705890809,-3.3903227314,-14.1675926108,-6.269664021,0.807773337,-8.6701718835,-39.3776689213,1.1350333524,0.0401394909,1.0725021893,-0.0577480675,0.1781019169,0.628134748,-0.5889986613,0.6866300298,0.9448117836,1.6968175505,-0.3063802612,2.348234694,1.5844588871,0.429641772,0.2892173861,0.7737387857,1.3841371541,-0.4033556693,0.3434446899,0.692555563,0.9110835031,-1.5617388646,-2.2114642513,-25.4858650096,-8.4623433673,0.5610111776,-11.3894064298,8.9381462825,-0.3561712501,-0.1617819668,-0.5430267802,1.0988858506,0.1314072992,-0.009441105,1.758448302,2.0162455672,1.1555263044,0.2658814441,0.5362702506,1.0658344343,-2.2180363555,1.1400714284,1.1152411182,0.7925439911,-0.0919978832,0.3107427292,0.7872857853,0.3173972073,-0.6088445573,-0.5386889322,1.6378250339,-17.1710123234,-6.5387747627,-0.5171447787,-2.1168581682,-15.3839739646,-33.8810120676,-1.5314390958,3.183934878,-0.4275058263,0.8824681888,0.2854832569,-0.0645853807,0.9709871417,-0.2714433342,1.3337299455,-3.0128306206,1.3663708817,-3.1779188996,-0.7921500034,-1.3114107907,3.9024144662,0.3676708735,-2.4733106409,1.2608025423,0.1633225161,3.2107141001,-44.0515735502,-35.4334438354,-1.3383918876,0.0883895899,-0.5177808176,-0.8749484208,0.7524093071,0.922082052,0.9679199785,-0.4812801323,-0.849878351,-0.4496631841,-0.431638098,-0.4235222311,0.1489432449,0.5987451312,0.4182133448,-0.8373689013,-0.6446819134,-0.8340819737,-0.9600688169,-0.7127183982,0.5525421614,-0.1977520828,0.2196476833,-0.5303288583,0.9934592771,0.1504134924,-0.4844963735,-0.1390744843,0.2357597039,0.067940218,-1.0522595991,-17.7919162131,-17.4736511889,-5.2343869676,-0.3008823975,-0.168265082,-0.1108565472,-0.661529002,-0.2080816483,-0.0804241701,-0.2173296264,-0.6693522051,-0.2652408202,0.2191207374,-0.6846802684,-0.0304358112,-0.2017946861,-0.7345944596,-0.3249626655,0.0609017093,-0.376693811,-0.2946777692,-0.1082596355,0.4587567363,-0.5859449815,-2.3202314976,-0.6098477625,-4.3734257327,-0.5066735539,-13.0874652661,-10.5657243379,-2.1295112399,0.1060162954,0.4944363325,0.1421042657,-0.0622348549,0.0978468057,0.2959518604,-0.1326073989,0.3939172654,0.1579900977,0.269654629,0.2177560339,0.1471799012,-0.5160246503,0.6598395438,0.0422515708,0.2409666981,0.2656261928,0.2455991847,0.6909829688,0.1044040681,0.4496090162,0.077213191,-28.283954543,-7.4210648855,-0.7737735493,-0.5046603297,-0.6915126789,-5297.972544097,0.2812947909,0.6177811906,257.2154807678,-0.2455826428,-0.053954974,135.406751044,0.7831203405,0.1737658919,255.1224728228,4.2477538814,-0.1107532698,286.7527941615,-0.3964516539,-0.6053743156,-46.1112796485,-1.578087465,-0.0888612185,-38.9179492414,0.2365127335,1.2053318807,-24.3933615181,0.9561803151,1.6292477364,-28.0541077159,0.8046612657,0.0280086453,-29.9430698074,1.2806067606,0.323793213,-27.7323067418,1.6233810727,0.3448112833,-43.7868551785,-0.6354626152,0.25743737,-0.8601961862,-0.2215961361,0.5943452231,-57.6080536966,1.4305730116,0.0604321311,-13.7810097393,0.7693977341,0.7029268645,-55.5633309048,0.5299401192,0.0901007548,-131.022599803,1.0772659142,1.2621464734,3.3587658807,-3.1268155775,-0.0777524006,-1.8747262926,-0.0466638677,0.944813787,-21.8956416472,1.5403949809,0.2670140454,-71.7046380685,0.77875157,1.9180244679,-34.5090649566,0.563279372,-0.0418329532,-41.3692712337,0.957578275,-0.7060185991,-6.5807481693,-2.7963865419,-1.1347995276,-0.7752223762,-1.0939237806,-0.3279845332,-0.4564284148,0.2920976526,0.5998575982,-0.1933119371,0.2013930137,-0.4422646933,0.8763535263,-0.1064438126,-0.8674176411,-0.980095471,-0.1373743604,-0.6916230408,0.8429998636,-0.4884179401,0.4942570757,-0.4200423282,-0.3593219185,0.628637435,0.643189958,0.5187831501,0.9763695143,-0.5036854147,-0.9198396337,0.3719856674,0.1391965814,-0.1697313222,0.3273917011,-0.3794727713,0.0027169406,0.6124713799,-0.6531403566,0.9889059205,0.0167159934,0.2022970241,-0.4905592452,0.7376994609,-0.8599603323,0.2031012344,-0.2097425426,0.8092579026,-0.090220285,-0.0953940071,-0.3644683361,-0.1031416,-0.657876057,0.6214023674,0.44625975,0.0076344541,0.8601840824,-0.252115912,-0.8759785153,-0.410408243,-0.0558862746,0.8499242212,-0.3757649117,0.7930240185,0.6988285414,0.6136076392,0.9621709274,0.936640047,-0.965358032,-0.0286685436,0.6170368991,0.7487156903,0.6561280611,-0.7744136732,0.7794472219,0.4535825505,0.554524568,-0.6587015466,-0.3677325502,0.9524172167,-0.5497876125,-0.9626723231,-5.6656282933,-4.5059431665,-30.0731821731,-60.3967469886,2.304744097,2.0545614071,-3.5752456018,7.2476314813,5.8008449733,1.0987230219,-0.0918222329,-0.261115036,1.8503866367,3.2616555189,1.1097337924,4.0672411387,0.8458974458,0.0682865081,-42.1668964697,-10.3025753402,-7.6158647353,-6.6114686932,-0.9387156774,-0.3213023167,-2.9811715419,-19.8695483325,-45.7400637128,4.747779917,-2.4882489362,-0.3502164258,1.3547725896,0.1508951136,0.9108028273,1.7442889918,-1.4560567584,0.5433693056,5.7894769698,0.816383845,3.3744081369,4.9716552024,3.0314893988,-0.2638826331,-0.7639025315,-1.8017521478,0.0797015236,-1.4660664928,0.2655413484,-1.345597519,-1.3523926687,-55.4561074786,-14.8623126542,-6.5649016386,-0.7334851773,-4.4691847042,-42.0626597702,3.2439605519,-1.4216923778,-0.3122400004,-0.2685945314,-1.5073137636,-0.2381900441,1.004829472,-0.2921195331,-1.3810419095,3.5472282973,3.4625607563,2.7082517882,-0.1817161029,0.6920743384,-3.5400477209,-2.5162854437,-3.3323921887,-1.3761617257,-4.1640862777,-1.7172053975,-10.5846073119,-2.6646608355,-18.3013302659,-16.5079802532,-0.976229212,-0.7512123835,0.3060839636,22.09746623,6.7584761484,-4.9785059329,-0.7765631464,-0.2046575487,0.9708868669,1.1277479405,1.4793442746,2.0888085378,2.6285881014,-1.3086004523,1.6039645702,0.6234814049,0.5282676629,-1.4740971985,-1.11929107,-2.8976466075,-1.2016950968,-2.0907852632,-1.0196791937,-2.4719473984,-11.4598563463,-0.1914439004,-57.1754679497,-12.6155261065,-12.1650069444,-0.4487475844,-0.2767729045,-14.895916062,-37.5289220646,-0.5339260407,-0.5271151415,0.5158419727,-0.7568020621,-0.009116719,-0.7448736171,-0.9052591013,-1.5402854437,-2.1259281626,0.9155825546,-0.2491697011,-1.727751735,-0.7413585271,-1.8767611066,-0.2583604316,0.6595385928,0.6287248352,-2.5642172517,-1.859909335,-5.7080755118,-3.1097195481,-0.0880903786,0.6299932031,-0.4118004697,-0.0221938407,-0.6410785743,0.8901197868,0.5595037337,-0.4875117802,0.6811990164,0.7058759589,0.8285916637,0.0436977517,-0.4012847475,-0.9738459629,-0.3955025167,-0.3699144974,0.54688983,-0.9745364113,0.9841809146,-0.4349774896,-0.2463671963,0.9914304079,-0.6302803876,-0.7932133006,-0.3451107829,0.9121243144,0.3529089266,-0.0500148091,0.5314969116,-0.7289710795,0.200081307,0.0960243747,-0.2498293923,-0.9425348518,-2.2340420299,-5.4992669219,-5.5983376753,-45.0048383421,-6.8165365491,1.5465823081,-2.381595069,1.922881457,2.7159066023,-0.0491000874,-1.1054570149,-1.3861945071,-2.0486279927,3.6369976608,-1.3190670047,0.9269390883,0.4583268739,-6.0734303755,4.9678172264,-0.5257483765,-0.7362338689,2.7255683447,-3.993034522,-0.097854137,-10.2487340621,0.9274362224,-0.8658452282,-4.1360403727,-12.9249221675,5.5522397096,-2.950756029,-0.908959085,0.3587698027,-0.0763510551,-0.8299147275,2.5018743322,2.8665979506,3.3294342525,1.216876863,0.6247688802,0.1588928873,1.0088413693,-3.155734598,-0.2681989627,0.7422472854,-0.3763973651,-0.2428426376,-1.1442522812,1.0602937745,2.6721017148,-0.0617595872,0.2548146158,-41.9898870551,0.1872381048,-9.6478418419,-13.9025047931,-15.2696189798,-8.3430927131,-4.1386955254,-0.1790722727,1.2644505317,1.1740346826,0.4670262413,0.8102142954,-0.2671888727,0.0209183003,-0.5686266328,-1.3818220624,0.282470805,-0.0382176426,-0.682848922,-0.1247775588,2.497239184,0.1741881238,0.7512648954,0.4027140352,1.0388999686,0.1405882004,0.1068505359,0.2521234483,-1.3273927155,-0.7468664887,-10.4204212564,-5.58383032,-11.7367533255,-7.7841510445,-3.9402978422,-0.8966824328,-1.211119605,-0.1464362451,0.1966445769,1.0068618797,1.3309622674,-0.8656360056,0.2291318052,0.499038969,0.692042592,0.9082918687,1.2498673212,-0.8452789052,0.2885022776,-1.3907993453,-0.1054995034,-0.1906618107,0.2024038316,0.2465745993,-0.130241091,-1.2962703497,-0.2221626143,0.5429860043,-1.8390505876,-0.939896465,-2.0434164835,-6.0550894027,-10.8698403498,-46.4506948465,0.0194907945,1.8800734153,-0.3237360446,-1.3918433095,1.5845022434,11.1507463456,-3.2826408398,9.6373384368,-12.2926746206,6.5875021866,9.4583606311,-0.3952783251,3.531060879,3.0278633175,10.9746909107,6.8272471104,-1.9431785523,14.0522139674,20.8385182412,13.0241055966,-0.7603311494,0.4809731827,-0.2955839041,-0.7986983169,-0.2428846477,0.3659890761,-0.6446189617,0.4206996983,-0.5402846172,-0.3334735703,-0.3644047395,0.5602095655,0.5901688753,0.4253154609,0.9307338494,-0.5866978461,0.9263065405,0.0787917163,0.1102351126,0.0212578607,0.1809484419,-0.3042699041,-0.1604265272,-0.2919960314,-0.0527051213,-0.3147605903,-0.3080289375,0.1507191853,-0.6773385741,-2.9929331625,-19.1188659836,-21.069243297,-2.3442623859,0.3591515883,-0.6036756445,-0.0849299863,-0.3073225429,-0.1050670988,-0.4634493646,-0.0355970984,-0.6396296619,0.1687346204,-0.4319440102,-0.1986829206,-0.0044116584,-0.0103080108,0.1826680177,0.3782683986,0.3372380658,0.4196972785,-0.0607907648,0.2787125714,-0.4008255111,-1.4229823289,7.4479633403,-21.0133834958,-16.928095222,0.8835649376,-17.9091230479,-13.0607789755,-30.8912084671,0.6427497889,-1.0517375746,0.2888281542,-0.3578583676,-0.1196289977,0.1106611601,-0.4332221164,-0.0349415941,0.6174944906,0.4115578691,0.4397271707,0.3125079782,-0.4437168787,0.2615798119,0.0099585807,-0.4680042549,0.252963721,-0.4101585488,0.2421277348,-0.0100387031,-0.5238855109,0.2033983271,-0.423896788,0.9049942725,0.256246454,-0.6519874207,-0.2734272259,-1.8377061508,0.5949565581,0.3752078341,-5.6186466608,1.0770495792,0.3064694307,-10.5172664334,0.5523285219,0.8138520843,-7.3972723885,0.5942481803,-0.103557386,-5.0284071454,-0.6753622301,-0.4514072373,-43.0107157638,-2.4298122812,1.0211247539,-0.8547295775,-0.9574934107,1.1104130907,-3.6734047171,3.7912829926,1.1279002666,-74.248533138,-0.2559827325,0.8084173782,0.7822057111,0.2973005104,0.6053518576,-1.6446649219,0.0294541404,1.4395394567,-50.4822685426,1.9608547765,-0.4060566515,-40.6670568374,0.9294342361,1.5367157775,-42.9253559234,1.8892651967,-0.6972109179,-1.7216321795,-0.2736377119,0.1552213056,-3.4538494321,-2.7435042221,0.0623651072,-46.7994927576,-3.3198108559,1.4972379942,-14.1431122311,5.2111405292,1.8499222953,-33.0826440518,-0.9065967754,0.4673144152,-36.3175135199,-0.9380244083,-0.2079039932,-0.3889662524,-3.1647816349,-0.4874435622,-97.8398412378,0.2622222718,1.742082523,-56.5588667592,-0.529090313,-0.0435900847,-42.5441853811,-1.2001844761,0.2909063387,-34.5984320423,6.9773818798,3.0218930394,-0.9276548466,-0.9788973486,0.3653199403,-0.1227617824,0.2328573856,0.5975081161,-0.5599508095,-0.4880039267,0.937508289,0.0788894797,-0.3451464473,-0.8387019423,-0.5760360966,0.8276724084,-0.0724277895,-0.4549763729,0.6566575729,0.2532867758,0.5104862628,0.9908103276,0.8860420762,0.4850962919,0.8789774798,0.4295540192,-0.4438923123,0.0361731414,0.1598596231,0.8856608324,0.5679798715,-0.9092704223,-0.6428050922,-0.6551381405,-0.5925918219,-0.4519806746,-0.866590918,-0.6175957645,-0.8560403281,-0.5444785925,-0.5964841613,-0.5655693323,0.8097285941,-0.0357815111,-0.4997349947,0.095359982,0.1653751877,-0.5612176611,0.1680254189,0.3240807294,-0.6386937032,-0.1445204979,-0.8567839477,0.9417713906,0.5018099972,-0.8793915156,0.5790972391,0.3041586086,0.6199566463,-0.5577175481,-0.9272650783,-0.4689734116,0.0710793701,0.3883684069,-0.4480497973,-0.8242101493,0.8526458233,-0.2366032657,0.7800667801,-0.2820578031,-0.1416657745,-0.1128160298
##end
biasActivation=0,1
[BASIC:ACTIVATION]
"ActivationSigmoid"
"ActivationLinear"
