encog,BasicNetwork,java,3.1.0,1,1391718991931
[BASIC]
[BASIC:PARAMS]
[BASIC:NETWORK]
beginTraining=0
connectionLimit=0
contextTargetOffset=0,0
contextTargetSize=0,0
endTraining=1
hasContext=f
inputCount=448
layerCounts=10,449
layerFeedCounts=10,448
layerContextCount=0,0
layerIndex=0,10
output=0,0,0,0,0,0,0,0,0,0,0,0,0,0,0,0,0,0,0,0,0,0,0,0,0,0,0,0,0,0,0,0,0,0,0,0,0,0,0,0,0,0,0,0,0,0,0,0,0,0,0,0,0,0,0,0,0,0,0,0,0,0,0,0,0,0,0,0,0,0,0,0,0,0,0,0,0,0,0,0,0,0,0,0,0,0,0,0,0,0,0,0,0,0,0,0,0,0,0,0,0,0,0,0,0,0,0,0,0,0,0,0,0,0,0,0,0,0,0,0,0,0,0,0,0,0,0,0,0,0,0,0,0,0,0,0,0,0,0,0,0,0,0,0,0,0,0,0,0,0,0,0,0,0,0,0,0,0,0,0,0,0,0,0,0,0,0,0,0,0,0,0,0,0,0,0,0,0,0,0,0,0,0,0,0,0,0,0,0,0,0,0,0,0,0,0,0,0,0,0,0,0,0,0,0,0,0,0,0,0,0,0,0,0,0,0,0,0,0,0,0,0,0,0,0,0,0,0,0,0,0,0,0,0,0,0,0,0,0,0,0,0,0,0,0,0,0,0,0,0,0,0,0,0,0,0,0,0,0,0,0,0,0,0,0,0,0,0,0,0,0,0,0,0,0,0,0,0,0,0,0,0,0,0,0,0,0,0,0,0,0,0,0,0,0,0,0,0,0,0,0,0,0,0,0,0,0,0,0,0,0,0,0,0,0,0,0,0,0,0,0,0,0,0,0,0,0,0,0,0,0,0,0,0,0,0,0,0,0,0,0,0,0,0,0,0,0,0,0,0,0,0,0,0,0,0,0,0,0,0,0,0,0,0,0,0,0,0,0,0,0,0,0,0,0,0,0,0,0,0,0,0,0,0,0,0,0,0,0,0,0,0,0,0,0,0,0,0,0,0,0,0,0,0,0,0,0,0,0,0,0,0,0,0,0,0,0,0,0,0,0,0,0,0,0,0,0,0,0,0,0,0,0,0,0,0,0,0,0,0,0,0,0,0,0,0,0,0,0,0,0,0,0,0,0,0,0,0,1
outputCount=10
weightIndex=0,4490
weights=##0
##double#4490
   -0.6607812012,0.9189866738,-0.7582681583,0.2289612127,-0.3096963483,10.021425883,-2.8701221991,-17.2462359656,-10.4034810895,-11.5803707215,-18.8600414866,-0.412489269,-3.9399285022,-5.6479445695,1.6405599024,1.04538071,-6.6742705206,-3.8665424434,-1.4084562721,-1.7539480622,-1.1099430576,-59.0345313947,-18.9750464074,-14.193269845,-9.8507400417,0.8359124573,0.8287651845,-0.2945707249,0.3062435015,-0.8103836904,-5.3848807391,-7.4848781379,-4.7158959905,-5.760090358,-10.0245590769,1.0726968721,-2.8013798803,-3.8109381662,-1.0068479693,-0.4851286896,-0.473747798,-0.8862855753,0.2908906803,-0.1368782092,0.3339571997,0.9965136152,0.6266987172,-0.1907698954,0.3180864101,-0.1735744378,-1.349377164,-2.2017322262,-2.439224728,-41.4972575031,-17.324485744,-14.9554168488,0.2943987042,-6.1503275182,-3.8801686974,-13.5809901509,-5.5161051394,0.0976496859,0.201811709,0.235419316,-1.1555581858,-2.6747405578,-0.9437888547,0.7666972841,0.0783801192,-1.4056872503,0.4633173,0.9269484119,0.5661129192,0.4805361642,-0.1006346264,-0.1797231064,0.768535831,1.0324764489,0.7544488879,-0.7488566118,-2.945538312,-17.108287701,-2.9011476135,-20.5203153632,-0.6853542689,-0.5750924905,-3.0535371219,-19.550752001,-0.0551312993,1.6072837916,0.8571761663,0.7827071529,0.1816180472,-0.560349064,0.8693984682,-0.7689180769,-0.6854994994,-0.8742723741,-7.4005260038,-9.1819106253,-5.9581288005,-4.640536058,0.0959278448,0.4051528392,-0.0277506734,-0.3602331259,0.7452979786,0.2130229431,0.2598903409,-6.2583296758,0.7567085758,-0.4243996807,-0.3014386792,0.7673605164,-12.2185056468,-4.8354161833,-4.2663185477,-0.0959519977,0.1309694059,-0.803653321,-0.5277890841,0.8893164307,0.651541849,-0.5011043579,-0.4994104938,-4.4491439502,-2.4674875105,-0.4720544306,0.1996476229,-0.6940214119,0.0766063448,0.5275350391,-0.8791806656,-0.7016469206,0.6963558784,0.255029537,-1.3663410879,-11.2792751465,-48.1873758681,-5.475598104,0.967217001,0.926443744,-6.9647903989,-8.7192993431,1.0338980534,-0.140430728,0.9489108293,-0.9295282318,0.9394641046,-0.2161494255,0.3650201017,-0.8216153978,-0.2123543668,-0.3607845618,-0.1471018896,-0.1030017402,0.6390839614,0.6623955819,-1.2400652855,-1.7973129772,-1.2440275993,-1.2945352325,-1.7673109474,-1.1849303668,-1.6328405036,6.643111075,11.5407473913,0.7251351791,0.0961764952,-0.1195260917,-0.9751043289,-10.1553481989,-27.186799511,10.6454085681,-4.4533975618,0.4675920946,-0.1456279485,0.5302193704,-0.4797514262,1.1619217242,2.2170302488,-0.2029214175,0.2828129881,4.8726267122,-0.2574180327,2.3860742294,1.6943313657,-0.2701180075,0.003316866,-8.3595500524,-7.12089177,1.0197657751,-4.6661900834,0.6756046776,0.6941649271,0.6114828595,0.918798921,0.5767626685,-0.0728255438,-0.3586703437,0.9951423677,-3.4777829112,-5.4059078909,-9.3219020883,-6.8165841549,-14.0835571349,-9.7518442411,-5.9270903435,-9.8001487615,-10.6800290356,-20.1575599163,-15.7143171601,-15.6935292531,-32.2336966492,4.3995392317,-2.7318374436,4.8294313932,-1.6275010446,4.7414023533,-16.0440191529,-11.3831717736,0.4769053201,-0.0034598572,-0.2064948826,0.9100350979,-5.3539133038,0.030730763,-2.5438475181,-8.3027195835,1.1457025071,-0.0227218783,1.5773722983,-1.5073791077,0.7590750477,0.8896703034,-0.583619034,-0.7797012598,0.1133847498,3.1686706299,2.1197938046,2.4318215314,1.1425486557,0.266485053,0.2317157385,0.8785032751,-0.6351711176,-0.0102221214,-0.1259397791,-0.9975202196,-50.0988638684,-7.9401608124,-1.9610363622,0.0929045619,-6.3976313932,-8.8135311071,-7.5623667626,2.6737446261,-5.4151502466,-1.5136913971,-0.7909730764,-0.2315359406,0.8949569501,-0.3528616592,0.0637136312,0.4595940434,-0.9504555108,-0.3129245854,4.3034559258,0.5074178784,-0.1298674024,0.4741157162,0.5636611702,-0.7062856734,3.5045145438,-0.4891525142,0.3219148424,-0.1559697304,-0.0828877759,-14.416916672,-3.1934291145,0.8098405607,-11.9534504056,-35.546213534,-0.2291970653,-0.1130343629,-0.7477327684,0.1842343455,-0.7190283198,0.4460498139,0.0468441962,1.385616033,0.3238763616,3.7739526493,-0.097473971,-0.4543459453,4.587152641,-2.4654488744,-5.0197825739,-0.3687148549,0.3054708056,0.8019935995,-0.713502048,0.5601652367,1.2672240612,-4.545526883,-8.6737211581,-20.3867870931,-4.0504565998,-0.3989088834,15.1454656818,-31.47739161,-0.754935837,0.1446067138,0.5181893612,0.3091312548,0.501946734,-0.1803499178,0.9788646281,0.3524965415,0.9145022313,0.3024151798,-0.3602863431,-0.9708141669,-0.4539159075,-0.9184274823,0.9794423009,-0.830412874,-0.4359993535,0.0493496833,0.620816048,-0.0822226406,-4.089695191,-1.4840461451,-54.8078142659,-14.0060903321,-5.1927536059,0.932362643,-4.6753349198,-9.8416439983,-1.7162433034,-5.443971772,-1.082471506,-0.0979782358,0.6696933869,-0.2974649165,-0.1056126393,2.4824184051,1.6580938455,0.1229299854,0.2081441598,-0.0789180345,-0.0526145782,0.354407612,0.5618069559,0.3872738127,-0.403906371,-1.0901221151,-1.3889684776,1.1294307969,-2.1301038894,-1.1565321417,-28.349484599,-8.7804068389,-6.6028970078,-0.9861050985,0.9210345896,0.7918928732,-9.2913559943,9.0320037951,-5.335177759,-9.0754131125,-1.4235981777,-0.4104006226,-4.3706726424,-3.4522272111,2.512579884,0.2544093698,2.6712474624,-1.2246015884,-0.2218177146,-0.7966529351,-0.9127044617,-1.039934915,-1.1347357627,-1.3103411334,7.0863855254,-31.6226926112,-14.7848061372,-4.8464578021,0.6118961301,-0.2140733668,0.6959119802,-0.0468464092,-5.7392394716,-12.0222037735,-2.5707941266,0.2167425978,0.9292713103,-0.3481407113,-0.2471586418,0.9584576442,0.9497380649,0.8223394259,0.2715359369,-0.4145276721,-0.704885648,0.7211820989,-0.6464622801,0.765741077,-0.6577287966,-0.0834238297,-0.5339181151,0.700331301,-0.4485514839,-0.0624672298,0.4398794847,0.4152307331,0.347492175,-0.4740333532,-20.3299639656,0.9833289232,28.3567154027,-37.1235467708,-1.5982470359,-0.0529192139,0.5474345404,-0.5598631375,0.3126021645,-0.1088410964,0.3082181055,-0.2587808757,-0.4261511546,-0.1877120737,0.977924589,-0.3769206419,-0.4292776781,-0.728194682,0.0029497941,0.5854487955,-0.1162613846,0.5536402692,-0.7471179803,0.5773330119,-0.5445394038,-0.1109538633,-1.3087200034,-20.746676067,-7.1630053889,-0.1164108458,-0.5123129699,-0.0919136937,-0.3047299958,-0.9676286247,0.1347268566,-3.1196776468,-1.9543369449,-4.0874477894,-11.5494747561,-45.8578622957,7.5635208267,-5.0990949031,5.8901843112,-5.0276541855,0.0069289451,0.5784089102,1.668324899,-5.3584229215,2.9216486119,-3.7897502063,2.9573760402,2.186083399,-3.6837434797,-23.2259281978,-10.6947961155,0.1854446868,-0.1781268975,-0.7915150679,0.5374616533,-0.7464575122,-0.7510373984,-3.697962202,-17.4042689266,-54.825377734,5.598172775,-1.6823867384,-3.53797265,-1.2556239286,-2.5995228241,-0.6470910771,-2.4253791675,-1.5018042482,-3.4663106584,-0.9556815367,-2.4838016833,-3.6227802339,-0.9216563158,-0.9030953496,0.1737591947,0.0603384945,-3.1441799838,0.4382584583,-0.6901538276,-45.207208787,-7.0314288922,-5.1267710215,-1.8910020908,21.6656668654,-2.3126337677,1.9357248663,-10.860054717,-60.0718964117,0.2586608135,3.023368466,-1.1714053335,1.1925754853,-2.7764448378,0.390482575,-1.0602662261,0.2391144141,0.6822343554,0.7170854584,0.8749717654,-2.5507878924,-1.8843596148,-1.0232779499,0.6336458144,1.2490095932,-2.4399452478,-53.9727349859,-19.5154624411,0.4871428748,-13.7651261498,-3.4789110507,0.0238266845,-1.8361722217,-2.1166749127,-3.6618928934,-29.977473012,15.0451735431,-2.2087970369,0.9913097468,1.6684440455,-0.8052296943,-3.1130722628,0.5532368705,-0.5528423169,0.332315118,0.3547023368,0.1472816015,0.5710323245,-2.2838971031,-1.5293763832,-3.9826945341,1.3562471807,9.8943329387,-50.239481393,-9.7210235082,-4.8882282227,-2.7743921196,-8.9266709622,-0.9883467865,0.5371921326,-0.8106895065,-4.5384292767,-5.9507796625,-49.4612162647,-2.4111743344,-0.6392071944,-1.3635710111,-1.2858290908,-1.7605582122,-0.9023860138,-1.0198201727,0.2154287833,1.1766437986,0.6941157644,-0.0563346972,0.1121473871,-2.3387557443,-0.7111758219,2.6305884734,2.7640305847,0.6415561883,-1.4507052782,0.4048209436,0.1066607351,-75.2416275167,1.4094055006,67.7839842839,-0.1920053152,-0.5694914135,-5.041553442,-2.08946422,3.6889033393,0.1307367287,0.2604487586,-0.3342268492,0.2542011287,0.6385359248,-0.4653342896,-0.4485854948,-0.8608741331,0.1218211253,-0.6485130146,0.8198935398,0.8160754071,-0.4635826617,-0.6005909253,0.1740296981,-0.290638317,-2.5154725996,-2.2321858548,-0.4465600183,0.0640475771,3.5577231701,27.1324392403,-0.8100989018,-0.8361985947,0.8078403513,0.1922961424,-2.496876615,-14.8991805373,-1.719256021,2.9585000794,-0.4298500946,-3.1578144128,1.9155469284,-0.5141828087,2.9483574304,-0.2984633449,-0.5227947716,-0.2063586153,0.9443913575,-2.8055101451,3.736945107,-4.4073269825,2.0574985511,4.4140652104,-44.2911719203,-12.6723868962,-5.787830356,-3.4357413036,-0.5603759482,0.1626261575,-0.6151299447,-0.1056128877,0.5603831473,-0.770640014,0.605423988,0.4361365611,0.0250422003,-2.6756401957,-2.7855293234,3.1624366787,-3.9010376801,8.1611399952,-2.8516870123,-3.424418492,-3.3185307913,-1.0504066593,-3.2815581387,-2.1855530249,-5.2764885456,-5.0819558784,-6.4984296634,-50.0784793358,2.5866862593,-0.0818624926,-26.960981599,-2.9066296801,-0.5536019839,-0.974390392,-0.1841644443,0.0689015757,0.4199504281,-0.1026699439,-2.6303983728,-43.455111901,-1.9618466816,0.1307592182,0.8690831893,-5.5356841278,-0.3201529911,-6.0533151429,-3.9010724051,5.1540618325,-4.2467338195,-5.6785505724,-0.2286224579,2.735860647,0.2322514762,0.3705394982,-1.21311483,0.1944241242,1.035788755,2.236786046,1.3770032947,-0.3632772296,-41.0432189634,-7.1059336819,-2.0725960735,0.2970065894,-1.651476775,-3.0181377231,-4.8505656231,0.3299731872,-0.2830621915,-0.1456039699,0.4511544745,2.0089710073,-2.703114336,-0.4193994743,-2.0231032698,-1.0868949746,-1.385945525,-0.8325150649,-1.3885231111,0.1309205545,0.0265648354,0.6544114813,0.4345628446,-0.3165471473,0.6596839925,0.5382257822,-0.2126897874,0.6982447715,-5.4213844675,-17.2728665784,-7.7363372861,0.3636701518,-2.8539814189,-14.1260012023,-1.0669993514,-0.5629761898,-0.3758657516,-0.1100271198,-0.5714603953,0.4181317801,0.1740452077,0.9313213457,1.1054989176,-0.2954416897,0.6821440182,-0.2116088913,1.0430262732,1.0858877832,0.9516997063,-0.3737305089,0.0294941536,-0.6642748637,-0.4212928859,-0.1024902189,0.0687884903,0.4873098043,-2.307279095,-24.4075282366,-7.1946051911,-0.8326945513,-8.7784466502,-18.784021287,-0.3451523317,-1.7017536296,0.2669219262,0.8110730503,-0.3059932174,-0.3337011682,-0.2773859279,0.1682211403,-0.3284007141,0.5422075794,0.5802009673,0.4901700733,0.1646138698,-0.8913089265,-0.9118331328,-1.7369935518,-0.6307842445,-0.0988725641,-0.7057767797,-0.8770309575,2.1184480943,1.2177709068,-45.0347789234,-11.8321106448,-2.1852729746,0.8909420966,-1.5936508968,-8.9835923297,0.5764552053,0.2779556916,-0.0911623443,0.5004015409,0.532417691,-0.1356866221,-1.5769325224,0.4119991661,-6.4691715835,-4.7556873713,-46.5205372397,-0.2556377954,-47.4573448096,-37.2929492206,-2.3850333237,-0.4314349815,1.0519880888,-0.1730879217,1.1000190762,5.405510731,-4.0276418509,2.872543548,-13.2229458496,-2.32043294,-1.766356999,0.8361169371,-0.0107644095,-0.4062356389,-11.4936585288,-0.9690317079,2.9179727155,-39.3990100315,-32.7269848157,-12.1582391491,-11.0812944809,8.6130553396,27.6278109228,-3.9098670986,-3.4761180282,-2.8206184354,-13.1290791144,-8.4410451054,-24.0769026554,-34.182736973,13.2472015319,0.3734138239,-0.6433542107,7.1918136984,-28.1925639382,-2.0456906917,-0.9014217853,0.8976223072,0.7703285043,-0.6414837564,7.1460554979,-12.6020867768,1.2199981342,3.2991849497,-0.9013658359,-0.1320483075,-0.1516429838,-0.0970545448,0.0257026438,0.5962344708,-0.2360240747,0.4534453252,-0.3589813794,0.9602555435,-0.3273993739,0.2524561398,0.593957604,0.0678397385,0.2215712769,-0.3951336235,-0.1585844064,1.0701828018,-0.9105162568,-0.5101040325,2.9906008593,2.88062808,7.9009895736,0.7696487351,-7.7374027283,-25.8650955828,-1.1139267674,0.4335974375,0.6517092719,-0.6257301024,0.1503892979,0.4242448191,0.4303436065,0.1240855731,-0.2390871328,0.3423089284,-0.0249426776,0.0185494247,0.3328301207,-0.4431962967,-0.0992038683,-0.2518274333,-0.3737822535,-0.207849503,0.1836844823,-0.7671459309,-0.5377988589,-0.586863931,-0.8473715197,-26.7308952018,-7.4554516058,0.9702767252,-0.4281232288,-0.3657522244,0.6681467877,0.4003695088,-0.5838630032,-7.2374170801,-6.1229552211,0.2307322802,-5.5864903656,2.5750569857,4.3778241527,0.1495145618,-0.1851665815,0.2293821004,-2.0969435381,-0.0216968098,-0.2352256237,0.1152649887,-2.9612151035,-2.020610585,4.8397086455,-8.672124389,1.178150935,7.0542925889,-20.7185441981,0.6965119325,0.4143504586,-0.3333669368,-0.5188382206,-16.0556727326,12.6465533952,0.3487472954,-0.8248824253,-3.5615163063,-0.5005310776,0.401822745,-0.5894429609,-0.9285305456,-0.3330243036,-1.0775159711,-0.744055447,0.5792594279,2.5635678393,0.9712482831,-1.0296594983,-0.8611928517,-1.1220869326,-2.1129246952,0.2928406586,-0.7348248183,-0.8371967609,-2.6104607969,-11.3258986485,7.1498439794,-28.9046527938,-5.9890530295,-0.1232910091,-11.1984686442,-54.6210897169,-10.1470078408,4.0065808269,1.3138031475,-0.9294520201,3.0053773424,0.3804509705,-1.0639127669,-0.7326187351,0.322041679,-0.7268172199,0.024105907,0.3945092774,0.2049051174,-0.3305122856,-0.1347067588,-1.1621694885,-0.2107041875,0.0831076077,0.3648453985,-0.2473959155,-0.8379072758,-1.6077445097,-3.3370506732,-12.6836041481,-7.6162407087,-0.8183412564,-1.4476871751,-13.3965427576,0.0410809455,-0.8929099133,3.7901790343,3.4430770936,7.1262698083,0.508518274,0.2674158893,1.1625107106,0.3965624418,0.777334161,-0.5817827186,0.5441660403,-0.7363887025,0.5448394488,0.8126016502,0.7319944632,0.0797402184,-0.4435910986,0.9790703886,-0.2834270402,-0.2161561158,0.2808286057,13.8440051947,9.1661091533,-0.3259076201,-0.0681830261,-0.3542991853,-45.8340952883,-0.6561378307,-0.2603246082,0.8935922006,0.6313246849,1.3037603741,0.3658144203,0.2639540565,0.086949979,-0.4608858967,-0.1729458204,0.7115823925,0.9601628552,0.6139630945,0.4684519422,0.247114845,0.0969770665,-0.388278686,-0.0499316546,0.7483270861,0.9376321278,1.5580865177,4.9535708739,4.5300724579,-1.4345304963,-4.582599001,0.791623263,-0.2109945683,1.4163105945,-0.7590780149,-2.8510448747,-0.4976219167,-0.3443827465,1.053249256,-0.6766407354,-1.1102675071,-0.8923406368,-0.0904784408,0.0056111988,-0.5051118575,-1.1617117707,-0.2862935853,-0.8375859049,-0.8596943407,-0.1729416205,0.4916390454,-0.5779016344,1.34493698,1.4785990206,2.0910128387,1.3505034717,12.7837065864,-16.8080927065,-0.8434586793,0.4978771751,-0.2202310954,-0.00227041,-29.9523213699,3.093665768,0.1076926914,3.7815972801,-0.4720827107,0.4935666222,-2.9634953661,-0.1300952862,-0.9339550611,-1.9164512198,3.0850352351,-0.3187680876,0.2818893762,0.8712180097,0.9987706037,-1.1903819978,2.3936063492,0.804671688,3.2058769362,-1.7664532549,-1.2532592733,4.9895473204,0.2869273943,-0.8799783813,0.1871069077,0.5084116961,0.8578154455,0.0006369125,0.7280104229,0.0972978557,-41.46488153,0.2674793923,0.7463096725,-3.8125815696,9.6693645617,-35.9878535101,-59.9861265939,4.8407773335,15.8284639013,-4.8586604653,-0.4368728575,-0.0199739654,1.6188048723,-3.1194443895,0.43339379,-0.0023457641,5.5145143323,-7.5085626799,16.8993707456,-30.4411176523,-0.6315902851,0.4215310662,0.8172627395,0.7528998161,-25.4012655498,-0.2083601459,4.2032495473,7.2361721459,-2.1920842586,0.0423950479,-0.3367641532,0.2619556589,0.4393407851,-0.2151856846,-2.7234609457,-10.061810105,-2.4333146928,-1.1022439319,-0.5509454791,-0.7699286933,0.8459554432,1.1241622862,1.2339596221,0.4978793982,-0.6254250667,0.9191548634,-0.4018784351,0.561300924,-34.3331887004,-4.9308367879,-2.3841474116,-0.9370173383,-13.8975927898,-7.4787743763,-0.2106791692,-0.2998671271,-1.0290368739,-1.4962620019,0.3479552289,0.7401832279,-0.8256178962,-0.1965751011,-3.4814261495,-5.1051889531,-6.670210008,-0.2565880819,0.2888602199,0.1630455916,0.6766549455,-0.4598005198,-0.1875000666,-0.1251732351,-0.6108793918,0.3270410414,-1.5819039223,-1.4020317861,-38.7309093971,-7.6908896921,-3.2893506638,0.8989064288,-2.3614434512,0.1117481829,0.1924423574,0.5315836147,-0.7851436624,0.4439300776,-0.5440444989,1.3991534498,-0.2916533884,0.2216824422,-1.4508196335,-2.5033996033,0.5625102542,0.0895928918,1.4052017576,1.3821148073,1.5047321813,0.4241671228,0.8185053963,0.0385284068,0.3571035946,-1.1308090661,-0.9294209654,-0.5610011032,-41.5166951438,-6.734579574,-3.4708877927,0.4898554624,2.6260466279,-2.1943054719,-1.5987005569,-0.9378267571,0.0865951596,0.3601248171,-0.707072365,0.3958267378,-0.9987268174,-0.1535108209,2.9012656565,-0.5639462719,-0.3356467012,-0.1823923005,0.3686437811,-0.7176460478,0.3938999232,-1.0641955506,0.2297653422,-1.038577482,-0.2620357057,0.4625348249,-0.170373938,-0.8919184456,-5.5557021014,-16.4852707773,-4.6987435144,-0.9948306525,-26.0028242051,-11.6931803026,-0.1752864247,-1.6475584816,-0.188143209,-0.0355754863,0.0474616688,0.1665169612,0.5729313867,1.2926616602,2.0824181143,0.8005999699,-0.6349921966,-0.0060223385,-0.2169163072,-1.3730147659,0.067568696,-0.8462270836,0.8483732154,-0.8257498524,0.4390961747,1.0970508017,1.1867418521,-0.1461823969,-0.6420052786,-5.3528639826,-2.5171908818,-0.1263688972,0.8545777868,0.70070914,-19.2776750165,-34.1483201341,-2.4467692171,-2.2101437805,5.0335288036,-45.1717674176,-2.505104202,5.5820463713,-4.496344808,-1.7923378518,-0.6969998132,-0.8808490924,-2.5195591795,-0.2613958849,-2.5303726289,1.0125816721,1.7338846374,-7.6411141928,-0.5983068385,-4.1112933449,3.1874603485,4.3475558777,-0.5140624348,-0.1450448803,0.630185627,-0.5919857937,-17.0853902101,-0.9020546066,-0.1235716866,-0.3077105875,0.459026439,-0.0810584246,-0.5886433703,-0.15305511,0.4145545562,0.6714804008,0.4577297745,0.4023003732,-0.6732251627,0.3511957616,-0.6251076031,0.0794541686,0.3153625697,0.3709643964,0.1811950346,0.1499173028,-0.5932844294,0.6977372068,-0.3678776717,0.4341645202,-0.0227872827,0.372788003,-26.4570980089,-0.9279241102,-0.2137690646,-0.8051309941,0.4591402104,-0.4410980675,0.6589403675,-0.1059426586,0.5597485147,-0.960956088,0.3670253895,-0.6665468631,-0.591058978,-0.8847339112,0.1917754998,-1.062363448,-0.6443522784,0.3092772757,-0.3442490436,0.1722493941,0.1691328924,0.7101160715,0.3871761194,-0.2311025181,-0.1453166548,-0.1180614905,-5.3004156714,-25.1453127959,-5.7056656557,-0.7834216343,0.0281903699,-0.6063341941,0.5086197941,-0.3601657731,0.0033583738,-37.2849999501,-12.9478076062,6.1863650133,0.570239626,-7.1011496338,1.9654929654,-0.2716044587,0.2452754092,-0.1753377435,0.1973046184,-1.0170588468,-0.6926075779,2.6168793192,1.7905049732,-1.4216933099,0.577647698,-45.3853437076,-23.506913294,-4.7627851197,-14.6210487607,0.7091031523,0.960756246,-0.2525859581,0.5545977102,34.7902897586,-4.2971849959,1.7009961237,1.8270926543,-0.8175327044,-0.570840817,1.8897318634,1.3866523048,0.0432637864,0.8545519741,1.6475721489,-0.3809485014,-0.3583388428,0.1009254691,-0.1850746182,-0.8212787731,0.1309509218,-0.3537017321,-0.6026831508,-0.0006223255,-1.1018557587,-2.3532524612,-0.4825083461,-26.4962128651,-6.7151630759,-6.3774125939,-1.1301473327,-4.8865272345,-73.1391932057,4.1290474067,0.8647175554,-0.0984905198,-0.9502946163,0.8237841673,0.9357115286,0.878097299,0.0779624949,0.2349760862,1.4713654004,-0.1545855608,-0.2265379463,-0.850563077,-0.2206453844,0.2780044227,2.7672028685,-0.8434968105,-1.0065240949,-0.1651510848,-0.5024687554,-1.0643658902,2.0796371999,-29.5749435496,-7.3904696987,-7.2905646442,-0.9845662506,0.3168308633,-17.5056089502,-4.1475782896,-1.1100811945,-1.7800654648,-0.3869173127,-8.2782691554,0.5962517697,-0.9607652459,-0.9732919989,-1.0064396247,2.2319338654,-0.6426643537,-0.3142983002,0.4086020044,-0.7263778741,-0.4324168965,-0.5220199348,-0.4242547452,0.204476114,-0.2975103661,0.343592687,-2.1790456411,-3.3252772389,-1.8525004803,-23.3204732037,40.5698579305,-0.8011464399,-0.7361104781,0.0640538324,-4.0466373794,1.5801876711,0.000539679,0.0111043386,-0.588023689,2.0473679025,0.6464733491,-0.4753288992,-0.1902973808,1.0124644308,0.0517376163,-2.5684038715,1.1462314012,1.9027074806,0.0216376201,0.3449255415,0.4293462914,-0.5344072471,-0.4887241506,0.8257776244,0.9056998458,0.3512382852,-6.2104471372,-13.6839159854,-21.896451529,-15.7922037485,-0.0643678988,0.1603509258,-2.7378563928,0.7974510435,0.492630341,-0.2071571112,1.3266143186,1.6271011193,0.3389420263,0.7806066742,0.6019191949,0.7821549287,-0.5604263296,-0.7916141295,-0.8337472666,0.2562050545,-0.3693099869,-0.6368938221,-0.2677794086,-1.4674579739,-0.4633850312,-0.2159815278,-1.0631953924,-0.7394537846,-0.7500858276,-7.9934938616,-14.4784332301,0.900882,-0.6934561789,0.3270855422,0.8827376639,30.558771086,-0.9317024217,-0.080804319,-0.3343138435,1.9289256153,0.9089968336,0.4965901876,0.8991424834,0.2890161001,-0.3832266079,-0.0569559074,-0.9703895472,-2.2186720971,0.9210190239,-0.0944419014,-0.5918477796,-3.3160049409,0.4312738509,-7.6712727325,-0.6406512165,-50.132343723,-11.561208013,0.5920344189,0.3667087222,-0.1628524063,0.8422088109,0.5523487547,0.9677928996,0.7621095809,-0.3520435011,23.7663740677,8.9615454387,-3.5236237342,-3.9217022738,3.2499616847,-2.1260430084,-3.9790235309,-0.9105410643,-3.1230463507,-42.3343516574,-3.761579328,4.0837234805,4.0500612259,7.4428362843,-1.8055282551,0.7850052035,2.5550385101,1.3180661254,-4.8069172716,30.9776310526,0.2086026545,0.4999317238,0.3800469303,0.3994545987,-0.1411025514,0.8369314544,5.8010397697,-1.5396227704,3.9460140756,-1.0619359108,0.6340618903,-0.1697337716,0.5652849139,-0.9232636965,-1.5982197997,-1.7471752526,1.7848970076,-1.4989222968,-2.163344298,0.1894095676,1.0872490517,0.9361013515,0.4460250614,-0.64640664,1.0765632647,0.5416978763,0.2587481478,0.3084279356,2.5269740573,-7.7642450299,-8.5919338913,-0.4822680538,-2.265012944,-51.3879710344,-0.7083488588,0.8217874124,0.31834646,0.07361399,0.5139710583,-0.5631165793,-0.3246095153,-5.2319315384,-1.4585458914,-0.6819658387,0.2320386895,-0.4686347737,-1.0144391972,0.7345181302,-0.7837048492,-0.6136658409,-0.6236254924,-0.3061891455,0.888471332,0.7778715173,-0.6730895293,-0.2351165695,-1.114393131,-2.8801390905,-9.8024824402,0.906417674,-7.9237946155,3.0742835441,-0.4032512735,-1.5282792734,-1.2404371994,0.4350555523,-0.8183807422,-0.2981843776,-0.7374900741,-0.1223256363,-0.8944650611,0.0748142013,-0.8939182355,0.3882025032,-0.9751068787,-2.8081893713,-2.5051239332,-3.1123967774,-3.1825989017,-0.7575861051,-0.9539544287,0.2650753428,-0.9548223965,-0.2417235465,-0.4282921171,-8.0611684515,-17.199441151,-0.5672721397,-11.6492050329,-4.155683373,0.0428014811,-0.563147991,-1.3977340871,-0.4964759115,0.4743320803,-0.6592403025,1.1255192828,0.454692787,-0.8641665887,-0.6637872934,-0.2502818253,-2.3065325515,-0.4046410109,0.8772447914,0.9062538669,1.1410702314,0.473896806,-0.5176561234,-0.4125189517,-0.7138554926,-1.1179392533,-0.1668417698,-1.2933598386,-7.0807041645,-18.9692762739,0.4149287452,-2.3342488708,-31.0588510143,0.9554629318,2.5416220537,-2.3262356386,0.223905166,0.9335065891,0.7381868723,0.3223799693,0.9009586215,-0.3387176313,-1.5234236584,-0.7352190561,0.4622940567,-0.7169949025,0.2990856827,2.7262642001,2.0309926711,-0.1876903223,1.0128963178,0.9384302481,0.7047972661,-0.5487721307,0.6326071936,4.4120829486,9.7146084015,-6.1450026968,-0.4744668721,0.8277837796,-0.4106749427,-14.1158907074,-12.9788341885,-19.0851000022,-24.399758629,-19.2071746973,-23.7441157896,-15.1108395605,-15.1384786685,-14.5846974529,-7.762457113,6.6224567554,-10.1840313417,3.6286072549,-0.7874307721,4.7952191115,-0.9073953417,0.4424702574,-0.8815685565,-52.034481592,-32.7673046156,-18.986636627,-11.2101297143,-0.0376543834,0.1550270787,0.3913859651,-5.5748304877,9.77160457,0.4958351513,0.2789858636,-0.12247445,0.670045125,0.5231275526,-0.630649508,-0.7176233711,0.1643694693,-0.1993038725,-0.7136144538,0.3125540178,0.0160106148,0.1537336851,0.6811555975,-0.033898598,-0.4423609243,0.6565439054,-0.2281017071,-0.611339874,-0.3496927344,0.4191393159,-0.6702101084,0.6789886184,-25.7272841868,0.8669572659,-16.3968238626,0.219811595,-13.2573939684,1.6461325451,-0.5019156772,-0.1297430613,0.2326778283,-0.2011021452,-0.3132585334,0.3920446078,-0.9940607742,0.7994935916,0.2349307235,0.2390704769,0.1912354319,0.4840506338,0.614344171,0.3501671051,-0.9563404257,-0.9970734704,0.8770907278,-0.0439609135,0.4846757584,0.1983004269,0.5336564817,0.5835322408,1.2382133178,0.3207907975,-19.0402145733,-2.27210578,0.9149397871,0.1771174272,-0.4579726829,-0.6182854714,0.0546472972,-1.8863835773,-2.6059242524,-6.004198304,-8.6065960351,-7.7997065294,-14.03973831,-16.8255883894,-2.2582183209,-8.3926403137,2.0583348344,-2.9656399916,-2.354759061,-4.8863865196,-49.5326943448,-0.6508807305,1.9147519224,-3.0842893687,-9.464615598,3.6554231396,2.5889504936,-0.7980745222,-0.9522850712,-0.7826645843,0.2686223246,-3.7951762205,-23.0695446591,-3.7234734692,8.3040915796,6.8546555837,0.6707979166,-2.0491431271,0.4904521408,0.3741808937,-0.6933346245,0.0618692015,-1.6096264922,-2.8618224814,-2.1970666991,-3.0172508039,-4.2656716678,-2.7158575846,-0.3486437489,-0.662467628,-1.3446291708,-0.052310693,2.6069107295,1.659931753,0.6891824995,0.8417160027,-0.4728057986,-3.1701354706,-4.7480179947,-61.7847340613,-18.67066365,7.8066436745,-2.8349637746,-1.4459379457,-1.3886521938,-0.4294572113,-0.4469400895,-0.5885007362,-0.8980641067,0.0705607818,0.6772664568,-1.1549944661,-6.2103491146,-4.0777909242,-5.3875258146,-0.0745044894,-0.0844807714,0.2252900877,-2.1247129196,-0.7190143629,-0.562171776,-4.8409815818,-0.6679647042,0.2738942995,3.3599001819,-5.0902883165,0.2023362561,13.2873344858,-32.0088844512,-1.0931709498,0.5505449713,-0.3446842465,-1.0807264241,0.5136002617,0.5130946156,0.2001469926,0.5473347171,1.2984370587,-0.3169576076,-0.4356702399,-0.8077086218,0.0249597599,0.8210995008,0.2888471765,-0.6162117976,0.0579087357,-0.0717053872,0.9063630284,-0.4160995402,-0.6521186168,-2.4186341829,5.9365631104,-50.6595213568,0.2975726545,0.7279499597,-0.9008478424,-26.6404873527,2.2388613374,-1.1011199642,-0.2339098359,0.5014696431,0.5527052343,0.9009912965,-0.6252787545,-0.0006056576,-0.1108154627,0.4764251105,0.2458148307,-0.0958657583,0.751353648,-0.6911129743,-1.0036723364,0.8020283689,-1.0886838808,0.8203685412,0.7176532096,-0.7330558317,-3.1013610452,1.0004704559,-14.2307949992,2.1150037174,-15.8845893961,-0.846286463,0.1978761955,-8.6767145569,-11.9164467135,-40.5760269907,-3.2204323325,-2.3912141599,0.027069065,-2.1500679177,-1.234093436,-0.1467733039,0.1186472716,-0.3122474643,0.5589774342,-0.4431445911,-0.7554184343,-3.7146646448,-0.9593515922,0.0012662398,-0.5262652307,0.598357418,-0.915915487,-0.9880115186,2.2989784504,-0.6897325822,15.8034233015,-32.7020316621,0.881892019,0.3316340393,0.3877953186,0.2691901352,-3.2194260786,-16.68971036,-40.7993841857,4.7564892575,-1.0551983712,2.5581995643,0.7858591892,-0.1151570223,0.5837628818,0.0605597649,0.5475110984,0.5739522898,-0.8706152295,-3.3434734908,-1.811783637,0.9913515535,-3.5677331151,-1.9295780188,7.372733455,-0.5090553358,4.6146073607,6.3723124401,-0.0805337412,0.4432106006,0.0478510782,0.3294974237,-0.6415921154,0.5646056626,0.0609056405,0.494690857,-8.8990689979,-5.203928878,-3.4394487347,-2.7349979588,-0.4709094167,-4.3539029871,0.6645265114,10.3589419564,-2.6658619117,0.9174529233,-0.8427434,-2.8293827087,-2.6448574411,3.8292091764,0.2722619745,-12.4831125874,-9.0645506805,-8.1547140821,-8.0326506763,-3.6551464904,0.8725722487,-0.9393290634,0.6432992947,0.3161663932,0.1610193543,0.9506621762,-7.7348676421,-0.9174094307,-0.1231864106,0.5759593005,0.2726709385,1.2734990959,-0.480576913,0.2621592978,-0.971297856,-0.8764629942,0.1038666787,0.6752739658,0.638471045,-0.7718467685,-0.8303591866,-1.7951585328,0.2104860941,1.0846196015,-17.6356487534,-3.5445762438,0.2199543919,-0.9379858617,-0.6329704357,-37.6893576543,-3.9049784339
   0.0890901276,-1.4818206582,-12.7187676263,-23.7413169214,-2.322988611,1.0075538327,0.9962058406,1.6691777085,-0.2121810978,-0.7627829868,-0.0806082599,0.0655232342,3.9334536017,0.613692584,1.437894738,-0.2221320825,1.6330362745,0.3235582865,-1.0990773085,-0.7834945684,1.1236786085,0.77928725,0.5434398442,-0.4750545353,-0.0558923004,0.6765323939,-0.9768740662,-10.5540683153,-0.2637866604,-9.6083872512,-44.5294214875,-0.0626931695,3.3099214218,1.1755206158,0.6066572793,0.2515354953,0.581817758,-0.3246997517,0.7079300954,0.3674664669,0.3205169111,-1.0638165984,0.5164426991,0.4507850426,-0.3029087641,0.3153898459,0.1712523648,-0.6369245016,-0.6472991411,-0.1200421355,0.1173308213,-0.4975850413,0.5078671791,-0.591999502,-4.8449189289,-18.6887587766,0.4244723086,-20.5802368827,1.8322652039,0.2856282645,2.6164060445,1.1704508027,0.6473119491,-0.3499243793,-0.5256678854,-0.9153272012,0.2333462623,-0.8294523399,0.8438205214,-0.5627554862,0.3363103554,0.2844328911,-0.8569487823,0.3009560137,0.2331081532,-0.3968858121,0.1047441394,-0.1681317642,-0.5239517225,-0.3364249619,0.6398654466,-3.3050524442,-0.8689245284,-9.2767147884,-0.1929347474,-2.2923370729,-31.7250646171,1.1799908733,1.9583474628,-0.611115186,1.6012084069,1.8068011819,0.1313351484,-0.0144108577,-0.5811847865,0.2142551983,0.3846399131,-0.7954829593,-0.1442393589,-0.3919875087,0.5485952453,-1.2741509672,-2.176314689,0.2211579849,-1.0478147235,0.7906921104,-0.7241694545,-0.5936740507,-2.6970072619,-1.9524951766,-45.1015993369,-14.4638126643,0.0416848522,-0.8773078751,-0.0832602781,2.6823549625,14.842551954,-1.0166918483,4.6422188293,-0.0556866865,2.2700615267,-1.6433629621,5.1521855664,-3.303473238,-2.9941958081,-0.9395199134,-3.8005693735,0.2917065471,6.1504109089,-5.835128656,-8.3248734279,7.2317309173,-0.2789351535,-0.6430278031,2.6526831299,-8.5965086823,5.706820723,0.2494933748,-0.3863027031,0.013119743,-3.5414894002,34.4830894091,-11.728704064,-1.57717359,-1.6400933826,-0.4660998815,-1.0463991432,0.1827331898,-0.2369895981,-0.8216232475,-0.2293098475,-0.5085145185,-0.6854110116,0.1938425409,-0.8659074747,0.531339088,0.5464381573,0.7058984298,-0.5279740625,0.3029611203,0.650066777,-0.2017508225,0.1974516332,-0.1738075168,-0.4184353529,-0.6209841567,0.0006346691,-34.2407858671,-0.9561265761,-21.6819003126,0.5033747497,-1.7815399624,-0.270523653,-0.6459698126,-0.1462812986,-0.2018423334,0.4139285513,0.0323839333,0.3841270527,-0.0193882499,0.6390747888,0.5704447533,0.9229356068,0.3637674746,0.4000986468,0.5221647854,0.451661824,-0.9326700264,-0.8079749821,-0.2197223457,0.1049366508,0.7684814179,-0.4109497675,-2.221204058,-2.2135383178,-19.7912372011,0.5803089697,-0.9098884372,-0.3467828567,-0.2617719671,0.8272312383,0.4619576547,-2.3333099787,-2.4557989799,-7.2462702912,-8.4953148835,-12.7495392467,-54.271709708,0.13667167,-0.2518717411,-0.2742161781,0.7068628694,2.3442119106,-4.0027401141,-2.0817151156,-0.4253281624,-0.9144352079,-2.675768718,-2.2039367479,0.6471565384,-5.6666660789,-0.9488818219,0.8466912315,-0.7604307221,-0.2819233975,0.0849218123,-5.2174940409,-5.3928950048,-22.1151052776,8.550327015,-8.3091368541,-2.5035896025,-2.1857127871,-2.0191084017,-0.2510822193,0.4394180954,-0.4306048033,-0.5124482701,-0.3493278088,-0.4930216461,-0.719779302,0.0947355128,-0.0131210527,2.270039811,0.4879384657,0.8297615322,2.3393061575,2.2676600095,2.2061860905,1.0572601847,2.4904207488,-1.4556741683,-0.4384078338,-3.0442938353,-7.5967209897,-8.1119515647,-25.471686923,0.6175933906,1.9786573165,-3.6535282937,0.1320166177,-1.1618298599,-1.9472794392,0.4037566104,0.5135320485,0.7923344199,-0.1505607814,-0.6775891383,0.7848843196,0.0808660291,-0.4929909757,1.1688206471,2.1928242877,0.7629462711,0.8092007392,0.5302802146,1.0580364373,5.5215195996,5.1155983272,2.4863789897,-3.8049332276,-0.2990071753,-4.3706686599,-30.7326061183,5.7493780271,2.5627525789,-2.1812958415,0.0116571381,-0.1465493038,-0.1117740588,0.7621906876,1.3517979936,0.3857920147,-0.4353679394,0.1593368406,-0.1117870767,-0.2025520116,0.5732621814,0.6211022006,-0.6500016112,0.3506601162,0.4599196647,0.1028500354,-1.586926155,-3.4840485928,-1.8905985854,-0.1150300567,3.2111041173,-0.2008873924,0.8244326258,-0.246631929,6.012310804,-1.038303983,1.2942465477,1.8897184247,1.074523283,-0.4255908421,0.5810783898,-0.2104090039,2.0089494408,2.1561783212,0.5387645856,-0.4364776278,0.463518302,-0.5905256502,-0.0943705633,0.7730152188,0.0880899233,-0.6214584342,0.4211821403,-0.2048611589,2.4407786818,0.1423245326,0.1475115113,-3.636652638,-57.0781880747,-26.2588786501,0.9126885555,-0.3099993416,4.4420962762,-0.8603213344,-0.5324520396,1.3532313453,-0.2078168248,0.4133161856,1.1855644952,0.8414254669,-0.0605528158,2.2163048377,-0.212013643,-0.5017579817,-1.0571921649,-0.2822653405,0.7785423772,-0.2558393136,1.0200220782,0.0300317991,-0.0518645737,0.1619938827,4.2164114241,0.617994763,-3.6410711602,-45.6087689218,-35.3448030881,0.364352391,-0.8291557446,0.6464811491,-0.7798096564,-14.7470997456,6.6428902955,-0.6560688219,-1.0977866046,-0.0624100307,-2.6758494863,-1.2816252525,0.0069433804,0.1027993093,-0.7991915973,0.2590344425,-0.6922113607,1.1492897757,-0.9770708584,-0.2145075053,1.4007669781,-0.3125009529,0.5070495248,-4.0382095665,7.2357710077,-47.3779508159,-7.6996393326,0.9446043883,-0.453199223,-0.6487383577,0.7924560432,-0.5544391358,-0.325262055,-0.582731709,0.5235450788,-5.124680356,-16.7244983347,-13.5849803759,-25.7525268281,-9.7652095931,-10.9678178432,-22.8435780568,-8.5201568949,-31.5111301787,0.796696151,7.0209088076,0.4912461567,-4.8606925464,-4.1732595263,0.6483969429,0.5075453449,-0.0695381863,2.7855200099,-9.6349319624,-15.5327002167,-0.8155205688,0.1273112095,-0.4118836465,-0.7218756283,0.6632970889,0.5697072429,-8.5540325605,-5.7896787536,-5.8670715562,4.3115802659,-2.3782961591,0.3399108013,-2.0279168274,-0.0046690725,0.304692953,-1.00225476,-0.736415696,-1.8664470513,-3.6902821962,-1.3539600053,-0.7207960541,-0.2957008122,0.137294154,1.0152210442,-1.0746348258,-3.0431604238,-2.7387165752,-1.5486604082,-4.2762894679,-3.6025824949,-7.0580264086,-0.7511844092,-1.280863277,-6.078095249,-0.6188429945,-0.168822659,-0.2269158013,0.6301171204,0.8202164113,1.1734409257,0.6525316629,1.2544422256,1.2111350395,1.6175554758,2.1182116135,-0.297399882,-0.4723051286,-0.486596845,-3.053253325,-2.3409603173,-0.2385398825,0.1173003213,1.0322851159,0.1747179342,-0.5405961191,-0.2761555893,-1.9137959907,0.9181127937,-10.8884096309,-0.5663773964,-2.0632336501,-19.9874026869,1.2842285809,-0.699137377,-0.8578505816,0.5301565621,-0.7489934404,-0.9838007512,-0.4370563773,-0.7345535693,-0.1519271303,-0.299649645,-0.8187369525,-0.0132846734,-1.8638263072,-2.0827028571,-2.1463239602,-0.8596075234,-0.1882264453,-0.0580247624,-0.0488835539,0.5816382649,-0.5427439706,-1.3006714416,-0.1033808571,-0.1434410236,-15.8493475279,0.0116514915,-7.0788408505,-14.9964417063,-0.1590871368,0.1226087831,0.6827319898,-0.4501835124,-0.5948463809,-1.531217044,-6.1710098864,-4.6201535102,-4.0812424534,-1.6172094243,-1.3852333393,0.0984722784,-0.1359234762,0.0474097273,-0.0442802015,-0.524656651,-0.1702633555,0.1071758351,-0.1929027487,-0.6638894543,-0.6774022068,-1.8468280133,-1.9634481456,-3.035891739,-13.0053542038,0.987721253,-1.9843725349,-17.818359019,2.1485279505,-0.6542753707,0.7743158847,-0.214600079,-0.7582678331,0.7151610781,-1.3511397757,-3.9163962991,-10.0923507321,-4.1755774554,1.5269094736,0.6030249196,0.6407344048,0.0611875076,0.6776686425,-0.3206949862,1.7510601368,0.384875939,0.6560974694,-0.0440098957,-0.1111001759,0.492448257,-42.0016664432,-32.4609392371,-9.9868336546,0.7815650288,0.6089242434,0.4902612617,0.6922290748,0.4250020597,-1.3730124868,1.8317521141,-2.393463445,-0.2005323111,1.5366669479,1.2949839605,-3.2580703211,0.1280050973,-64.813622327,6.8658990752,3.777238073,-0.4633393072,-0.571755076,5.7598097488,-2.6715527556,-1.5461221586,17.3368754374,-9.6393713898,-60.6941808641,-7.3744322524,-0.0153503891,-0.7537253295,-0.539570864,-1.6563252348,-9.9441436416,0.8890028055,-0.0350605831,0.1162925524,-0.6183275296,0.6181850759,0.5781536547,0.2286167068,0.0760882472,-0.4303093299,-0.0494444667,-0.030476247,0.3540242649,-0.1267702981,-0.0158945097,0.081013397,0.3215451923,-0.9510974412,0.0563434585,0.1546841976,-0.6446233981,-0.4777515962,0.13886356,0.1424780794,0.4590394471,0.8711909923,-2.1502418022,-0.456710084,-7.3967045935,-28.3559602476,0.4368529065,-0.0944862723,0.6681246526,-0.6708737471,0.7340393332,-0.073966994,0.6319606127,0.3336579734,0.5763558948,0.3257443443,-0.6158571781,0.2789917105,0.3465431442,-0.832958674,0.50308254,-0.38236169,-0.6666089764,0.3417556938,-0.6661848157,-0.1711187491,0.8446847293,0.2741738338,0.628372346,-0.1177773581,-19.643762247,0.675201338,0.8713686677,0.7399737261,0.7572118763,0.6600602728,-0.084622377,2.5438858583,6.6015280372,-1.6742883147,-0.3142218037,-4.1538048947,-0.5603221413,-0.6620899608,-1.1455011911,0.7903267537,-0.8551626958,0.6015584788,-2.3665735632,0.1384485949,0.6374193411,2.3654370759,-2.1035980302,3.6378686875,-0.6701650241,-12.0879507393,9.4983362093,-0.29292602,-0.359844871,-0.5342445926,0.6194313875,-3.0354405749,-2.1850520097,-20.6491116779,3.6249349995,0.8092314151,0.5040203125,-0.5448113209,-5.7067861253,0.140173074,-0.8529073866,0.4735712444,-1.4977808729,0.357655174,-0.8590686599,-0.6178893202,0.1640726675,0.7243084285,-0.6346831472,0.7737125093,-0.5621405805,-0.8001458436,-0.4301491423,1.4038789312,4.5108345473,-13.4447788527,-0.7793035807,24.3986234096,-0.801245427,-5.6751164292,-2.2668351253,-13.3011929067,-4.6064646588,-1.2521461657,1.3583146613,-1.3770192114,-0.0782002584,-0.717335569,0.6936772417,0.297523729,0.0222880675,-0.8242889144,-0.2073922589,-0.021964873,1.452217464,1.213290769,1.0177214673,2.9529944435,0.1837553027,-0.6732787198,-0.0608634474,2.2396668624,0.5747466369,-14.2236333011,-43.0766271363,-4.934085482,-0.2330590974,-0.8131139628,-2.6234397984,-9.2914459741,0.7441551057,-0.6551340965,-0.2961384385,-3.0990350266,-1.0606217946,0.1154106076,-0.0322791912,-0.3576808978,-0.959588845,-1.830638577,-0.5992330325,-1.2135227211,0.278203595,0.1197454644,0.3916905981,0.8125864647,0.2387824976,-0.2813149525,0.3581259188,-0.7764956767,0.0474851962,-6.8133581205,1.2867588066,-0.168560664,0.6396060118,0.2801933522,-4.4007121222,-11.5923702166,1.7950173278,-1.4380811026,-3.6038050327,-0.4698629499,-0.4565961853,0.1488472666,-0.2991772258,1.3417694401,0.9559544917,0.0730281876,-0.3778814572,-1.0610360909,-0.932411294,-0.0101286304,0.6281319339,-0.7284909822,-0.3831027729,0.0703655948,-0.5646978808,-0.7890196805,-1.5697363745,2.0598759453,-7.6712353964,-31.2981585207,-0.2485972385,0.7325204868,-2.9517319647,-12.0509161207,-5.2021627274,-0.8909352413,-2.2336801918,-0.8605840998,-1.7933748935,-0.307167356,-0.8238547933,-0.0856988264,0.4734036498,0.3570242,0.8774872062,-0.4500193665,0.2317474053,0.2470334566,-0.5469796439,0.1829233455,1.9714477952,-0.9944958657,-0.088309299,0.6974487375,1.655609745,-30.4332262171,-10.1530864284,0.1101864789,0.8268351427,0.0247972888,0.6179344915,-3.1268343736,-3.9578809018,-5.2611152807,-8.2241335884,-8.6402407542,-9.699515786,-10.3379058027,-10.4664147308,-21.8913218396,-2.2918587502,1.6666667798,0.6692548947,2.0068229077,-0.1758271244,-40.2533281466,-41.1759893361,-32.2633958395,-20.5563299877,-16.0581283257,-19.4228974778,-11.6775282868,-5.1071563721,0.3633455356,0.1734627865,0.3825882355,0.3080501928,-0.2058542843,-0.6797568808,0.1046966931,0.5111304002,-1.9982773875,-3.5139495569,-22.2336598923,-10.894612881,-10.6252861216,-5.8426064583,-4.0249233708,-4.2440348663,-5.1172227388,-5.0015390201,-8.2276508997,-7.8770198934,-7.8787238193,-8.7119922055,-13.2566531655,-9.7664604563,-11.3464788641,-8.8121070183,-5.4175813982,-1.6810638166,-0.8548671738,-0.4105655834,0.9632799644,0.3467946025,20.3148347508,0.7742509345,-5.8344583033,-2.0258924128,-1.0433443983,0.9131157189,2.3442846816,-1.5879197978,-1.1591256071,0.6748654304,0.3171090283,0.5674381358,0.2778387206,-0.2680558214,0.4405088258,-1.11753391,-0.7261708792,-0.126878533,-1.8263078292,-0.9601958084,0.2797066527,1.2332597707,-39.7424411648,-7.1825091314,-3.8952940746,-3.2732532947,-0.61818536,0.3077238347,-8.7983017523,6.4931492725,1.719263107,2.7244897911,-0.9427058382,-0.1460013049,-0.9692735692,-0.4568497915,0.2829942618,-0.971581406,-0.0609312575,0.9556870767,0.8115703762,0.3201454402,0.5030363568,0.8761627769,2.0780613982,3.2288053843,1.1777371144,1.4277171725,0.393794437,-0.8028406759,-1.5053045364,-21.565643925,-6.4491254314,-3.3167242605,-1.6673245225,-0.8497483272,-4.4091061375,-0.5989404631,-1.0386669252,-1.0354338141,0.1470019724,0.3724576079,0.2182006862,0.4431479399,0.5659767288,-0.9415728047,-0.8567267546,0.8126467909,0.0159953787,-0.1481995562,-0.3981862002,-0.7199302838,0.428896071,0.0123455985,0.7370560693,-0.4465963678,-0.0864837692,0.4184106907,-2.4091176221,-1.8040236918,-18.532109905,-6.061488605,-3.3381427774,-0.4438732176,-2.8938639036,-1.0306929102,0.8260130315,1.2138656678,-1.0154358831,0.0947234049,-2.2403478322,-3.6074608932,-3.1345042895,-2.7358155349,-4.3754040826,-3.4790844136,-1.7451814644,-0.6836522526,0.2219055143,0.7066365652,0.1752150991,-0.9602864384,0.8665933512,-0.0807842903,-0.2232964322,-1.264857902,-0.8957375377,1.0621838113,-22.1340520367,-7.5195202555,-2.9415326674,-0.8300751551,16.8860317449,12.4520711143,0.7472154697,1.6249840127,2.6308525427,-0.0842522346,-1.6806097765,-6.9313112984,0.6791032221,-0.4551987683,0.0619071314,0.7045644022,0.7236104179,-0.7204599147,0.0114513759,1.0694881384,0.5538486163,0.5548697602,0.0125888419,0.2691069764,0.3274672604,-0.5355689686,1.5508569975,-24.6242759666,-5.8463824416,-12.0448015458,-2.2626898172,0.8196427419,-0.1585064049,0.8065034024,9.9789211752,-60.1086077374,2.2952997054,-4.9564307817,-5.5356055246,-0.1969731974,-2.9328490437,1.4806017972,0.8580781604,0.2631295664,0.7491875385,-0.5445230855,-0.5459481222,-0.3981729502,0.2114158167,-3.4315033719,-7.5759182107,1.8139224307,-43.0453259506,-26.8359028921,-42.2047336767,-3.41038265,-0.5602117685,0.8120880857,0.2779699296,-0.4954169331,-5.8544165462,-4.656444934,-21.1726637604,0.4042323705,-0.3773732738,0.4052599158,0.5123863303,0.4370565401,0.3196109053,-0.1395881074,-0.0212051746,-0.2670937711,0.2720286465,-0.0156935649,0.3582384055,0.4866402929,0.0703742241,0.166582773,-0.6242919459,0.7131911716,-0.3544431652,0.3434131425,0.1112468599,0.5397196754,2.4794971595,-0.9099419887,6.9923802478,-0.922283887,2.7957470002,1.4796235612,0.8379366327,-0.4281311412,-0.1123595427,0.3675223166,-0.3009245474,0.1378855747,-0.2765564433,-0.7927992522,-0.3231154012,0.6828201369,0.2456967128,0.0910246465,0.7196854438,-1.0059912024,0.4781258871,-0.6521614935,0.8931611051,-0.9373850322,0.0531846394,-0.1279833954,-0.9069415547,-0.4701646442,-21.7290985405,-11.5420420268,-4.5515542192,-0.3706318297,0.0986958812,0.2866612365,0.9058514923,0.4323400291,-0.3479273041,-3.7779848087,-3.0058829258,-2.1473074473,-5.0121314242,-3.0999733246,-2.8121127553,-6.6887261713,-3.7402893546,-11.6374626025,-10.470665998,-5.3728205955,-5.3303505076,-7.0291800387,-7.4562945409,-5.346739147,-2.0876090814,-6.1112843698,-5.5193100858,-1.0112382777,-2.4974012766,0.392568906,0.6295719679,-0.3333675091,0.4729886714,0.6678873207,0.3398821363,1.6523823934,-0.7598278163,1.0582118676,-2.286534231,1.6169070319,1.2367989529,2.0249709338,0.8048277146,1.4034233651,0.4368562095,0.1219935596,0.3366146218,-0.8657891373,-0.4061880405,0.2770878808,-0.0945502682,1.571201634,-0.5691094121,-0.4740131294,-1.0513982006,3.0102636291,1.3955746617,-37.4271930132,-13.4105955243,-4.5678562009,7.9628684606,-3.789338964,-0.302717775,-0.9971217859,2.6794910163,0.749686824,-1.0181970035,-0.7992505915,-0.1073759626,0.2299892696,0.4609404562,-0.1514187297,0.3500217262,0.9038161662,-0.7307249025,0.7383364717,0.9883899288,-0.1430303248,0.908369918,0.4678201793,0.3848835667,-1.4662435198,-0.83816424,-0.4816619866,-0.7125059165,-40.032196835,-17.874490921,-10.8894290644,-0.1935511588,23.0676928972,50.9054502966,-0.2740636507,-1.7712276377,-0.3331132565,0.1601012047,-0.6205872764,0.5981746146,-0.8094631389,0.4861554517,-1.4869049729,-0.9882502039,-4.8914202729,-1.9143518299,0.5847677851,0.8866941126,-0.9238766896,-0.4956985642,1.7570975375,0.4349688845,0.9921809247,1.0006325821,-0.0983591553,1.6776085398,4.5501165836,-33.2963760159,-0.7727782073,0.3240818844,-0.6423666223,6.8274476122,-3.1973771019,2.276173661,-0.9444123178,-0.396656204,-0.715165241,-0.0423591135,0.0020525338,-0.4251976733,-2.2988461802,0.2150865556,-0.2154842229,-0.8983432725,0.6742685477,0.0039674202,0.0170479645,2.3145539353,0.6274736778,1.3457254871,-0.7057867393,-1.4893039681,0.3998630002,-0.6220943192,-4.3548241667,1.0179041419,-9.8312502341,0.1475676879,-0.6616349858,-5.1951570625,-23.4206495396,-1.264007696,-2.8904097088,-0.4728911835,-0.9223228422,-0.319148857,0.5734819263,0.1620880666,-0.8260035969,-0.9344017749,-1.0220178114,-0.7234297497,0.3031599531,-0.2850170701,-2.2088739695,-3.3390758792,-1.4948747725,-0.3662918481,-4.9756760598,-7.2727624375,-0.4429763577,4.6340402033,-5.5429295075,-4.6805307777,-0.1293606698,0.1398178129,-0.9979042351,-0.0148571393,-20.1303522207,2.0626108193,0.9233398129,-0.9823095888,-1.3964263669,0.6090079429,0.8192369349,-1.262544202,0.3300461118,-0.2644281506,-1.9760508779,0.1034038116,1.0534132725,1.0206066005,-0.8526894049,-1.6277123558,-2.8449772418,0.4005751546,-2.7769889446,-3.4453313583,-8.2848533985,-8.8165971629,0.2313859895,0.9689348232,-0.273528647,0.6196606922,-0.7083959025,-0.8254278628,-0.9721824732,-0.2736514849,-40.4062983785,-45.6595031066,0.5596568022,-2.3106924816,-0.2018282731,4.0884701399,-2.7146288997,-1.4359274712,-0.8695611751,3.1150119769,2.1309053505,0.7584142307,0.2864153398,-3.0778441288,6.3694431637,-16.9282928561,-18.0589610767,-12.3005917437,-6.1218477127,-19.9025174076,0.025517139,-0.176705624,0.7638356031,0.9264758146,-0.504297321,-0.5753270486,-2.8424747785,-42.5974695149,-4.7451501019,0.5307710285,0.9118054466,-0.6635991124,-1.9734144363,-1.0330962524,-3.5274767633,-1.0735186935,-1.3705936843,-0.5488282365,-0.2410255205,0.245608544,-0.5103443346,-1.5749506031,-4.6901403707,-3.2137920862,-4.7406978028,-0.9166152009,-0.5386653737,1.3875815478,0.5177198401,-1.6180222,29.245868424,-0.2606552774,-0.8492029754,-3.4609966184,-6.1205565545,-45.4138816368,0.3023545061,-0.4015470572,0.2827101075,-0.1879182154,-0.1532360959,-1.1787482092,-0.7540976112,-2.6877243248,-0.5500397894,-0.0335959575,0.1898214019,1.3978434177,-1.1180815116,0.2742503553,0.2533236004,0.8571176549,0.9102312704,-0.3686797356,-0.0665647228,0.1270248445,-0.1803834689,1.7742350486,31.5573666691,0.7054061213,-1.4781338054,-5.8276426961,-12.4925966086,-2.1489361166,-2.395598721,-0.3654541693,-0.0800559561,-1.0468963254,0.4634190597,-0.7787703487,0.0855301126,1.4227035495,-1.0650971214,0.1831460161,-0.1156494676,0.7283391989,-0.6363328766,0.7072943955,0.9148076855,0.3296397717,0.4369531812,-0.0185375871,-0.8436892877,0.821059733,0.6610945818,-1.1401577231,-2.2717007978,0.432102225,-4.5067044727,-2.795300825,-7.8343156329,-72.8670598756,-5.3816782089,0.3825974632,-0.6024503368,-0.9392297636,-0.3012812562,0.9476098071,0.4616275017,0.4265880712,0.5173397601,-0.7890479497,-0.2772425269,0.9018892458,-0.0093731251,-0.2044489421,-0.5838413848,-0.1934953411,-1.6835143719,-1.3800989829,-0.2664089582,-0.7241374643,0.5471816222,0.7312174881,4.8407927914,0.3980048173,-1.5862675898,-1.2062422234,-5.5380448567,-45.4223111263,-3.4098847957,-0.0145854066,0.4776123089,-0.2105672373,-0.4099133038,-0.1706391273,-0.6015840851,-0.4951330579,0.5605461941,2.2465932344,0.4507333045,1.5684198147,0.5436206512,0.2093987271,-0.5938493292,-0.2361142392,-0.2831595202,-0.2752687196,0.4432689544,-0.1329857775,0.0989536467,-1.4610403302,4.11936695,0.8369073618,-0.0080772956,-0.1124410262,-2.0370287852,-29.2405747248,-33.6424662228,-44.8509657823,2.0393322004,-0.8454103654,2.5248339938,2.3627993363,-11.5617761057,0.3312505618,2.4914658826,-1.1075687851,0.8132862139,-14.0348202191,3.0935784691,-5.5106683564,-1.1682409866,5.4007152419,-30.8152651431,-30.9181247627,-7.6848430525,-8.2385135112,0.97184911,-0.6349826834,0.324895671,6.7898715943,0.3133958212,-0.8628426976,1.0208658582,0.6967651627,0.2325580834,0.4774280925,0.9201245144,0.3218843566,-0.6775839053,-0.0079417801,0.2786591873,-0.2347656514,0.3148847339,-0.0408208704,-0.3434109626,-0.2639274391,0.6271231474,-0.0478159586,-0.6756009328,-0.0916725563,0.0387248137,0.2481601074,-1.3697483067,0.0798119899,-2.2885500095,1.5501556839,-11.9804557169,-0.100084575,-4.2554912762,-6.5142275802,-18.8216084035,-0.0473040526,0.422641561,-0.0008023353,-0.7660271265,0.9515025284,0.4157695727,-0.0656365901,0.8506259681,0.3271668122,-0.234785442,-0.7229975229,0.5269475614,-0.6429305381,-0.0225301961,0.1402950571,-0.5861894989,-0.1486440652,0.2484322397,0.7746894254,-0.4653351641,0.2274951054,0.6319615777,-0.0029016394,1.0398299952,-0.1913531176,0.0690923328,0.493447143,-0.2950052455,0.5341849487,-0.5722256937,-4.8601975744,-9.3781721636,-4.1336961224,-28.1046031391,-19.1901590125,-51.5058948078,5.5120620745,-0.2366242464,-2.9869211045,-2.5388482588,-1.6382389459,1.4454051903,-6.2287564131,3.1912158098,-4.6924108283,-3.4794498176,3.3933624019,-3.133963174,-26.4192173901,-8.983296058,0.4084357724,0.5102940298,0.207555273,-0.2095899096,-2.2522027758,-2.7137125886,-6.7235529377,-44.7807458597,-2.396011349,-0.1547810651,-0.502939186,-0.6432346327,-2.6125274499,0.223733646,-0.2816496791,-0.7577426993,0.9093090305,-0.3843286552,0.3708550856,0.1687523531,-0.6636571427,0.9474637293,-0.7644593936,-1.1529185745,0.2505397704,-1.1543885302,0.2592869507,-1.5598683234,-0.8028599597,0.5209519284,2.2270548985,0.7480152158,-13.3834738669,-4.4746853457,-16.6393467429,3.6674423285,-1.2811921517,1.5067781925,1.5789267378,0.0970224061,-0.763292175,0.0051369009,-0.045536083,0.301042618,0.5835960009,0.303015426,0.3465229862,-0.2689259898,0.9259776186,0.8419347013,-0.1546344238,-0.5076964881,0.6319823061,2.1276500438,0.7162632397,1.2987904914,-0.7369250311,-1.9395819732,5.9851344397,-0.6428209252,-1.3593255451,-2.8335641602,-18.9334138039,0.9201063971,-0.3637735364,2.1117087179,-0.3753952479,-0.697111395,-5.5889707889,-0.8904682468,1.7951145389,0.3822604968,-0.3197170948,-0.6289684362,-0.6004267957,-0.8520912629,0.5335801283,-0.6100396476,-0.1131341575,-0.0962166262,3.7972977287,0.4493460984,3.1219732244,0.3864143189,9.7916054399,-6.5995021329,-0.9405500551,-0.1639053072,0.4464836056,-10.9152288401,-17.1167631431,-1.2886153784,-1.4598754347,-0.7985670317,0.61140643,0.0280098751,-0.0296895146,0.483143923,2.3594447477,0.0728346774,0.19088003,-1.1109931345,0.3113588286,0.72659237,0.5286823787,-1.5551569106,-1.5915310652,-1.0294833912,3.1851026023,-1.460407957,-0.2594527819,-1.1327704167,-9.2103120309,-44.5730274427,-40.5934672213,0.0492435403,0.209870816,-5.7724770745,-0.3712717286,-3.3200641134,-0.6738119795,-0.4327975256,0.6156525539,0.4398315106,-1.6489994892,0.7585478171,0.7756296297,-0.1587318914,-0.8678355913,-0.1574587867,0.5277942893,-0.4381999296,0.6293187624,-0.4300605902,0.1344782119,-1.0290440166,-0.2186737466,0.7543068924,1.2871676251,-8.5181762805,-44.8054867439,-20.7941082687,0.671634533,-0.5890572726,0.86488127,0.7197966475,-7.1315539169,-46.2067814048,0.8789396699,-0.7262803814,-0.2740156665,2.2405010665,-0.6575755918,-0.6772003043,0.6148612981,0.3678378247,0.7370297757,0.5851459788,2.356291733,1.4103099078,0.3169276808,0.7112573741,2.040616154,2.4393809262,-0.4001982154,-5.0425053001,-37.7413840032,-6.698531941,0.0143511755,-0.7876901855,-0.8959903129,-0.2087396378,0.7490298054,-0.0192403799,-0.136142216,-0.2575790289,-6.3299826986,-7.0096418211,-7.4320969711,-15.9566484996,-5.7853597451,-12.9017307454,-5.4948036053,-16.7898231944,-12.5764172624,-11.6106603134,-11.8756056401,-6.0539205614,-11.642702206,-12.1116088297,-17.4102136032,-0.3036837346,-27.6560021086,-31.1874192403,-9.3877414125,-8.5879523554,0.9853421548,-0.6858092075,0.2848194336,-0.7335131401,0.4027268777,-0.1500856296,-14.6325682701,8.7087742376,-4.823021744,-2.8804349581,-0.3542294522,3.8398838954,0.9247283686,0.8323933497,3.32969099,0.9244588479,-1.1545999814,-1.1064248871,-3.3686020306,-0.8535805361,0.1455460655,0.3050814274,0.8799997784,1.3405036059,0.389916088,1.9824714763,0.473281719,-0.9329935611,-0.3809496056,-12.9733294573,-2.9328253842,0.6563491066,-4.9890959469,-31.858901782,3.7694311816,0.7185993084,-0.8668642813,-0.9474808653,-0.0046777476,0.9254142221,0.9448823051,2.4086992336,2.2665597279,-0.4824360128,0.0197927688,-0.2289207843,-0.4443046049,-0.0651135257,1.5565584335,2.9833271135,2.6944933533,0.2709176439,-0.7355794062,-0.7326411036,0.3295347588,-0.9788722206,-5.8290671136,-13.7669691965,-4.8308302648,-0.90984469,-3.8540006787,-45.4835675435,-1.978107833,-0.663074,-0.4653712425,-0.469936129,-0.787116017,-0.187332399,-0.4231131415,-1.3275186993,-0.9559363907,-0.0614111803,0.6753627302,-0.1423960984,-0.1282179575,0.4283997954,-0.3322702053,-0.3950516234,-0.4674439589,-0.0589661567,-0.6007752692,-0.847188775,1.9201592283,-0.5356585503,-2.6655426869,-18.5421813092,-4.2780400909,-0.6559416197,-6.8316263302,2.0218791283,2.993022557,0.003228507,0.5142992262,-0.2126099133,-0.95431959,-0.0938177761,-0.6330669408,-0.0914038192,0.8148773969,-0.9686229331,0.1584482902,-0.0361178233,-0.6798558809,-0.1674508103,0.2074493864,0.1568932756,-0.625095938,0.9416344488,0.24272375,0.1046025947,0.058680052,-0.1297465967,-1.8255415765,-23.6693662951,-5.1801587395,0.1916244058,-3.6765168848,-31.7571488665,-0.710735518,2.1867525528,-1.5960110173,-1.7194577696,0.3457941131,0.8891598017,0.9660472619,1.2129464139,0.6523152,-1.1468983905,-3.0515239391,-4.9307731847,-4.3184590796,-2.3992485989,-1.6565447797,0.809277144,-0.6527116973,0.3187841202,-0.2504630687,-0.5442668985,1.3901860828,1.1073428156,-6.2415982071,-12.000552635,-3.7065512537,-0.4901052027,-0.8901415839,0.2347757189,-8.9500974358,6.1636916836,-2.930094297,-1.248225467,0.1182922788,0.4871359538,-0.1830965833,1.9865276645,0.9981447442,-0.27878144,0.7148525548,-2.6629767826,-2.2992381995,-0.5664282044,4.914413152,2.4460520119,-3.7571424194,4.7622618878,-0.0952751762,7.2811891449,9.6796460922,-5.935074165,0.8799436332,0.2973043091,-0.0692086263,0.1831287406,-14.4935027564,-10.763950517,-0.0556378926,-0.4656507301,0.110360913,-0.3734739718,-0.5083716815,-0.9718393945,0.7094036754,0.4736468409,-0.7281129235,0.4339442762,0.9449471873,-0.3868917015,-0.1599305048,-0.0716125218,-0.4497909891,0.2228220743,-0.1881421445,0.5498474383,-0.5480553415,0.7105378474,-0.2816120385,-0.2418362512,-0.8013297882,-0.2686269352,-0.3496231738,0.946414069,-13.9028560493,-4.336330798,0.1047540388,-0.4757428281,0.7181478719,0.6124876645,0.5784649006,-0.7315856574,0.9325966383,-0.4717920804,-0.3775966906,0.8208937863,0.646006371,0.088462779,-0.148685277,-0.3361927493,0.7182400607,-0.3415620565,-0.7128549126,-0.34454647,0.5228192135,-0.2370815164,-0.4482412423,-0.1515641953,0.2881611025,-23.5836602522,-5.1369869924,-15.9246012086,-0.1725821348,0.6003195614,0.7100254003,0.1986984474,0.6128812459,-3.0063203769,-2.5263243762,-2.1290350524,-2.1932328169,-3.1943490145,-6.2890431943,-9.9880412437,-14.6766099865,-10.5374584819,-13.7524430332,-8.5603613811,-10.5740873968,-12.0230593577,-7.5508436472,-8.9532507995,-4.5404270269,-9.0294760922,-4.0729587793,-3.573789746,-4.1505467285,0.3363002759,-0.6346140088,-0.3562555907,0.2293667421,-6.8007998737,-2.6232507587,-7.0862295918,-50.7736829986,-3.1213708658,-1.1702782676,-2.1220919261,0.1900703165,-1.9519111762,-0.5273708847,-0.5552129667,0.6967942276,0.7971148718,1.6750543963,2.0979827179,2.1526968418,0.051257949,-0.5383283141,-0.0880877624,0.7386807632,-1.6452438782,-3.0470104579,-2.642305229,-0.9012882608,-34.5219241496,-12.7395872234
   -8.2654686482,-3.2360325693,-10.4923770049,-33.9681830183,-3.3492097037,-2.9509881348,1.0147687891,-0.6976039582,-0.2119129181,0.2536059794,0.7225227449,-0.2481048063,-0.9004114434,0.3814009898,0.6827719715,0.0330628413,0.314576292,-0.9411487067,-0.1801519171,-0.9860309262,-0.5008332753,0.0818586222,0.9043805483,-1.1594359191,1.2544210838,-0.8903083028,-54.560344492,-11.8039270947,-4.7685674727,0.2541638955,-2.5676746325,-46.4379074485,0.3004275126,-0.6332218546,-0.8946616266,-0.3338009778,-0.2494623591,-0.763516322,-0.8754336093,-0.2268716984,-0.0538663869,0.9770443069,3.8627923401,0.0112061932,-0.6154515462,-0.5889670428,-0.3417369381,0.5377833433,0.4699657664,0.5929021985,0.6583415909,-1.2499349798,-0.6309996049,-5.9669270461,-2.265242045,-16.7312076417,0.228837881,-0.1023651807,-0.7405864213,4.2992754282,-1.5545979615,-3.1418603576,-1.2638213748,0.6884775497,-0.6179313213,-0.7021479148,0.3371745997,0.702141591,2.8624396748,0.1325011619,0.166424721,0.0560139658,-0.5825809914,-0.8579576739,-1.0123169036,-1.3302611526,-0.7046737801,-0.065845448,-0.8266456302,-3.0141367098,-9.1760168272,-5.1301975224,-34.3753218873,-6.8616524594,-4.6084788113,-0.9125288766,-0.1686897829,-24.8890190795,-1.0964620776,-1.0287277033,-1.1186188764,-0.5104736973,0.174476199,-0.1331129191,-0.8396469832,0.3800746593,0.0288518543,-0.4179095719,-0.2352988212,-0.6801795999,-0.488019234,0.39705874,-2.1172097299,0.0187198557,-0.0298755227,-0.592136144,0.2343673217,-1.9256611561,2.5255762681,1.2230574255,-73.0972717416,-4.3271520024,0.0954793498,-0.2586178601,0.3056632421,0.3600288822,-16.3325151628,-1.6131813521,-1.2807192751,0.1030166807,0.0050878998,0.3076483443,-0.9693501849,-1.439313524,-1.4818091136,0.2375730801,-0.0639388421,-1.4920370957,-2.3303822859,-0.2015567409,-1.5384234774,0.6400688624,0.7570145432,0.6845497876,0.276357692,4.7185306203,8.5048854594,-1.1577247315,0.1887202248,0.7545137888,-0.3250157033,0.2912353275,-0.8744013599,0.6531630739,0.832173306,0.4397820018,-1.4662648627,-3.4513529012,-10.8777029258,-18.4886959596,-26.590120225,-60.1386980016,-4.8667758681,3.7600943339,-0.7126397033,0.9345779834,6.3493094663,1.0766655759,-5.1970199249,-6.5623344649,0.0024434187,-0.8090527638,-39.0348831583,-19.120094806,-28.5150365146,-15.8596785824,-0.1684745701,-0.6280127838,0.7513732606,0.6885780638,-1.3032588369,0.4247009512,-3.8577495179,-20.8081629211,-55.4132318545,-0.7743322662,-2.7754530964,-1.5324022382,0.3474349305,0.3899941687,0.3294709232,-0.1039676239,0.9090988404,0.7443915063,0.2104716624,0.419413331,-0.3894647549,0.7173422566,-2.0582513995,2.0304801594,2.0286773045,-2.5424639831,-0.7651993399,-0.8571266544,0.2781754987,-0.5717766699,-33.1265183041,0.080691725,-3.4547647619,-6.2462642762,-10.0113637254,-0.392705449,-2.5401813602,-2.4953807769,-0.5502095314,-2.6541208376,-0.059891744,0.0338461749,0.6087125119,-0.815790583,0.2781348551,0.7765056136,-0.0404635382,0.676887773,0.5797712557,-2.4465500686,-2.7249599935,-1.9570701222,-0.0683469082,-1.0670892779,-0.1334121995,0.3021198818,0.2133578174,-0.4756327815,-40.5781143851,0.5868652502,-2.3142213915,-6.7473589161,-14.5236441407,-6.7780324043,-4.1140211364,1.0192064412,0.5667812634,-0.6682409896,-0.4158362039,0.55366827,-0.9002334472,-0.1400716439,-0.593489952,-0.2851271182,-0.2492958338,0.2428346111,-0.9654794466,0.4829787094,-0.7697374695,-0.9878381824,0.4020430518,-0.1588474962,-0.7033245354,0.4686917226,-0.4073208985,1.3352620838,1.4141267885,-0.8954236756,-11.4497543573,-4.9473667044,-10.7846117511,-6.4682914187,-5.853098998,-0.9263715203,0.3367251693,0.3224381582,-0.772827104,-0.8321806185,0.6401953285,-0.438651566,-0.8228386469,-0.3506062829,-0.7071642047,0.8683294078,0.6959966303,-0.1662251573,-1.1130033592,0.3430491122,-0.5231738873,-0.2963944602,-0.0410605943,-0.8004893258,1.0230976517,1.0471136584,-4.5627515536,-0.4247331452,-3.8908764042,-3.0697154422,-7.4562402731,-45.1797562744,-0.6352163565,-0.1836865059,-0.2427020773,-0.234249241,0.4090561294,0.4005219837,1.1212967707,0.4913088511,0.1748118655,-0.2892010177,0.5069306121,0.1681073254,0.4558906356,-0.709360374,0.5162150258,1.0663259876,0.5383307488,0.0648518449,0.7912708895,2.7921427306,-0.5482426915,3.1587552867,-4.1967357445,0.6394009187,0.8715227066,0.4487683323,-4.1542218886,-19.7283547658,-35.3430219615,-41.0519457357,-1.825707866,-42.6603782237,-3.0827557468,-0.2042866625,-1.2795708501,0.2020871977,-5.3976719442,-7.268735464,-1.72373662,-37.2953683869,-45.3395950675,-33.8251656641,-2.0599677111,0.4660241709,10.1687572932,9.7342434101,0.8240543586,-1.4758367065,0.6061548742,-0.6416144515,0.8274450481,-2.6143702498,-12.2942305597,-0.2138733674,0.774280095,0.3800569822,-0.2075170653,0.0535251677,0.0373606145,0.322128157,-0.137173243,0.5361436627,0.2348538944,-0.0623117175,-0.5948233509,-0.0236281629,0.4842039858,-0.5292072101,0.5388723171,0.0491299308,-0.1019725367,-0.2982123105,-0.3476576317,0.5262990929,-0.6987268448,-0.9924032424,3.7046988966,-20.3514627951,-8.8786641723,0.1977901925,-10.8716541747,-8.2001713004,-17.7408013848,0.5713738705,0.0160749625,0.2167830278,0.4129493082,0.1879060274,-0.275059358,0.0282423328,0.7180714395,-0.8552129251,0.8465004707,0.4770869322,-0.6282756683,-0.4220593855,0.3138466954,0.3851951834,0.0839472742,-0.6456893611,-0.1530999572,-0.2138378193,0.1728779794,-0.289967633,-0.0717513764,0.048051071,0.9244156526,-0.2910060179
##end
biasActivation=0,1
[BASIC:ACTIVATION]
"ActivationSigmoid"
"ActivationLinear"
