encog,BasicNetwork,java,3.1.0,1,1391806914861
[BASIC]
[BASIC:PARAMS]
[BASIC:NETWORK]
beginTraining=0
connectionLimit=0
contextTargetOffset=0,0
contextTargetSize=0,0
endTraining=1
hasContext=f
inputCount=448
layerCounts=10,449
layerFeedCounts=10,448
layerContextCount=0,0
layerIndex=0,10
output=0,0,0,0,0,0,0,0,0,0,0,0,0,0,0,0,0,0,0,0,0,0,0,0,0,0,0,0,0,0,0,0,0,0,0,0,0,0,0,0,0,0,0,0,0,0,0,0,0,0,0,0,0,0,0,0,0,0,0,0,0,0,0,0,0,0,0,0,0,0,0,0,0,0,0,0,0,0,0,0,0,0,0,0,0,0,0,0,0,0,0,0,0,0,0,0,0,0,0,0,0,0,0,0,0,0,0,0,0,0,0,0,0,0,0,0,0,0,0,0,0,0,0,0,0,0,0,0,0,0,0,0,0,0,0,0,0,0,0,0,0,0,0,0,0,0,0,0,0,0,0,0,0,0,0,0,0,0,0,0,0,0,0,0,0,0,0,0,0,0,0,0,0,0,0,0,0,0,0,0,0,0,0,0,0,0,0,0,0,0,0,0,0,0,0,0,0,0,0,0,0,0,0,0,0,0,0,0,0,0,0,0,0,0,0,0,0,0,0,0,0,0,0,0,0,0,0,0,0,0,0,0,0,0,0,0,0,0,0,0,0,0,0,0,0,0,0,0,0,0,0,0,0,0,0,0,0,0,0,0,0,0,0,0,0,0,0,0,0,0,0,0,0,0,0,0,0,0,0,0,0,0,0,0,0,0,0,0,0,0,0,0,0,0,0,0,0,0,0,0,0,0,0,0,0,0,0,0,0,0,0,0,0,0,0,0,0,0,0,0,0,0,0,0,0,0,0,0,0,0,0,0,0,0,0,0,0,0,0,0,0,0,0,0,0,0,0,0,0,0,0,0,0,0,0,0,0,0,0,0,0,0,0,0,0,0,0,0,0,0,0,0,0,0,0,0,0,0,0,0,0,0,0,0,0,0,0,0,0,0,0,0,0,0,0,0,0,0,0,0,0,0,0,0,0,0,0,0,0,0,0,0,0,0,0,0,0,0,0,0,0,0,0,0,0,0,0,0,0,0,0,0,0,0,0,0,0,0,0,0,0,0,0,0,0,0,0,0,0,0,0,0,0,0,0,0,0,0,1
outputCount=10
weightIndex=0,4490
weights=##0
##double#4490
   0.7899584913,-0.4910903798,0.6510613555,-0.6582596155,-0.4971988176,14.0458591722,-0.3757983983,-31.588932235,-21.4806379002,-33.6295899125,-11.7332509943,2.848550301,-0.3837519921,-6.9111770497,6.413775848,-0.8440338519,-5.9453023848,-2.0403032769,-6.0839375013,5.3959360146,-3.317499271,-45.4905152419,-18.862493606,-15.4991323095,-8.7446499597,0.4886383275,0.0949788933,0.462437109,-0.4987820851,-1.8669147184,-2.0204426709,-8.2706798065,-28.3776826613,3.8916887784,-20.2559607829,2.6982900491,-6.1609346773,-0.0842545618,-5.1957859582,1.0504938199,-2.5295411626,-1.590734409,0.3849901657,1.9281746458,-0.3478868942,0.5191099251,-0.4451375443,-1.7312179486,-1.9522113082,-1.7266915277,-2.5975014169,-3.1248457635,-0.5852657392,-79.3292492773,-21.7926067666,-8.3539186502,0.6014837931,-2.1677863437,-2.392664668,-13.6518778893,-5.6984648162,-3.6196287245,2.5381350981,1.7164728846,-1.388189808,-2.5836290312,-2.2224947451,0.0351239059,0.060332772,-3.2326478592,-0.1260967819,-3.526230839,-1.3167290634,2.2767021192,3.8485107486,0.7574685839,-0.2134811135,-1.9865388923,-5.2564607083,-5.3256411537,1.7449125682,-35.670077666,-45.7086612942,-16.7241032153,0.5926078673,-0.957455121,-1.3474378465,-22.7259533,-7.2652171719,1.4555382689,-6.1950447941,-2.6486474578,-0.6050229306,-1.627034857,1.0487890107,-0.4804801812,-4.8808169174,-1.6245619352,-6.7545403038,-10.9131952622,-6.7169107082,-4.883322097,-6.9679979506,0.6298429233,-6.9003536063,-0.1064956749,-2.1648258758,-0.5031598664,5.0242766142,-44.8628942152,-32.5295553783,0.0339989665,0.4606752399,0.2965571634,-23.906616904,-32.3674262696,-2.4322800456,-1.4134895398,-1.7014088394,-3.6155443668,-4.0074309139,0.4429632866,0.5269834587,-1.6274132931,-0.2324016146,-2.7189889088,-4.5023184855,-4.2181052496,-0.4415802619,-0.7225151763,1.0907367293,-1.3014643074,0.977891515,-8.1435811739,-1.9661376778,0.0245149211,-9.3696647507,-70.497964803,-46.8847814349,-7.4047420394,0.6403120253,0.6146018876,-11.1077398034,-27.3085033536,-5.5697724989,2.0779813669,-1.6972682172,-3.5970537087,1.1368327417,-3.1977250636,1.0552893596,-0.6299329223,-0.7275753637,0.2087178291,-0.7103906036,0.1076863511,0.5331481878,0.9159603477,-6.759692323,5.1973873122,-4.3327511022,0.8453584991,-15.0896637037,6.3576261212,2.072010075,8.6112964619,-19.4447722926,-0.6044138163,0.838001889,-0.1924888248,0.9665257914,-13.4293183188,-16.0320423485,3.718399584,-1.6158767507,-5.2404082707,-3.9626396175,-3.6392511312,-0.7427819782,-1.4005662141,2.1506707909,-0.0699425482,1.9324606964,1.0365703947,2.1788419298,0.3818744749,6.3898656041,-4.5301709066,-5.2730369918,-13.0924357633,7.2185131341,-0.8500139286,-6.3549402015,-0.5271541427,-0.4360465386,-0.288970238,0.131599029,-0.2176454869,-0.9265228837,0.875155072,-0.6154334484,-1.4735923951,-6.3021483252,-7.0108673671,-8.9156406655,-12.6900568423,-13.6700705033,-11.6009159653,-11.7431854673,-12.5887259379,-24.2438083361,-17.4471222153,-19.8654606114,-36.1205620403,24.6913039253,14.3300303841,7.9666970304,11.2258361927,9.8735251872,-27.0042102504,-13.709491038,-0.9838513927,-0.706381344,-0.225757446,0.8632245988,-1.784467406,0.1176937958,-1.3198943566,7.5091757161,-1.0331775463,-11.1708696311,5.4799744619,-4.6797332751,-0.9266103744,2.1216744801,2.5242491182,1.2004950293,0.2414857605,2.6581992556,4.5426128256,1.0534633587,3.8551528979,-0.3549827147,2.3111241408,0.9135256001,4.3517513352,-2.3362702938,2.0069026578,-1.4884460356,-41.2642617434,-10.2001024729,-1.2413863915,0.7427350652,-3.4719939905,-13.248623289,-10.2152525158,0.0381365287,-3.4552357586,2.8608536697,-2.0130354392,-2.7672612096,-2.1407366305,-0.383592588,5.5039007737,0.1677145911,3.2529219301,1.7245492302,2.6652400631,0.4428163641,1.6568957373,4.2216364356,6.3857088366,2.3893044205,3.1462101782,-1.2997354908,1.5710544552,-1.6904771802,-10.2103501934,-22.6852272809,-4.0627045756,-0.2210514993,-12.5986134142,-25.8822533928,-0.2498449901,0.7936652577,-0.6203052508,-3.0596084999,-0.1077341659,1.1216685502,-1.621755708,0.8297937402,0.7454143522,5.8283584416,0.5222126585,-3.3029177434,-0.5365725631,-2.6159978899,-3.8388033434,1.4176934347,-1.3771586204,-0.3892123086,-0.8338849657,-0.9028952214,0.6743323766,-8.7380528575,-7.0644666201,-17.4453251963,-5.7951677192,-0.8441822015,8.0305602315,-19.1036263496,2.0142622986,-0.9019373522,1.3077757419,0.4291033017,1.0334354528,0.390607942,0.4048966344,0.5872302354,0.353990529,4.1063551472,-1.0022825897,-0.1613621665,-0.175248708,-0.5394705389,5.6329156222,1.4477700433,-1.5673067235,-4.7221806017,0.0974678572,-3.7627229018,-5.8212536953,-3.7922114874,-78.7892031285,-11.4831501286,-3.839623719,-0.3292624636,-2.5982406432,-9.8039980246,-8.1694692958,0.0656591295,-0.7327734332,0.9355223264,1.6549210944,0.715996434,1.7410931523,2.2847808563,2.3852143579,5.6758667897,7.2081408242,0.1360431562,2.5264286505,1.4199389934,1.2476891138,2.9011530524,3.5591954766,0.6206806526,-4.5290277019,2.9677793781,-7.8643096728,-2.6576094896,-40.1913668429,-9.8883493913,-2.5317173518,-0.1478280252,0.9920721937,-0.2724828518,-8.7284480454,-5.4930303081,-3.8021113584,-7.3387985973,4.6395688655,-1.0091306714,0.3641189057,-15.5127926736,9.2821521498,1.6742365601,2.1496346246,-6.8820366666,5.4184357635,2.3780693407,1.9167473107,11.9558231468,-1.6161996409,2.3332052736,1.2719728067,-38.5166638784,-16.6364520825,-5.9047265045,0.8695866962,0.9274355209,0.4154572467,0.0737919427,-2.832456527,-23.5601755129,-2.2317354858,0.8057596675,1.299262044,0.7127834299,0.3604290518,0.5457038456,0.4186631233,0.2284001024,0.2204174614,0.8584109997,0.3702515434,-0.7308679556,0.5740542204,0.7443763004,0.1606183583,-0.0082020758,-0.1488415687,-0.3511924963,0.2048261929,1.3706558216,0.2696901298,-0.6043457789,13.9112911606,24.2663304274,-17.2878577323,-0.1176918881,25.4003121268,-30.8029001095,-1.5566326323,-1.1035676349,0.1286059866,-0.6639128708,0.6461704372,-0.000931788,0.070678063,-0.1485245933,0.4617462723,0.3282209428,-0.8731602059,0.5440579196,0.0864629627,0.4176110204,-0.4927074052,-0.2637981414,-0.0464755995,0.2769184394,-0.0072916224,0.2462485448,0.2516173975,0.9299123806,2.991117378,-23.2264675532,-11.8338920319,-16.3551677826,0.2386801268,-0.6904940112,0.8301466099,0.5235905488,0.7927922732,-0.8745488908,-3.9153269576,-4.4586733759,-13.7468375505,-41.5616197931,0.6589756541,-0.5250131857,5.5215676068,-10.2978253707,-5.22541407,-6.4190891299,-2.1196222391,-2.7426961182,7.4874103432,2.6166981595,-0.0989846571,12.0548613502,-28.1866994649,-16.7274083632,-7.5600675711,0.997615395,0.4276828117,0.9979774895,-0.6434818022,-3.0800910446,-3.9183940586,-2.8007967528,-19.5350774152,-61.3172113342,2.4287707461,-0.0787642587,-15.2485412376,-0.3144925828,-6.6468618331,-8.1456008571,-5.5690853402,-2.0048409628,-7.1409673232,-3.002068564,-8.0077493379,-5.5640101202,-0.4947721595,-0.346097777,-3.1991080517,0.077082122,-6.0968790506,0.4796598214,-8.4249835415,-50.8968981202,-7.370277701,-7.109370529,-0.7039808115,15.1532377447,-4.1652219133,0.2854678768,-12.5507812176,-65.9292416491,2.4494129734,3.3483047034,-2.8568756523,-5.0982940707,0.7205048983,4.332481606,-6.6445541764,-3.2405262284,0.885838727,-2.239207573,-0.5065153823,-0.7025596319,-4.3785233223,0.2749766445,-0.36862429,-2.0190902258,6.8746914534,-79.112619632,-35.6924026483,24.8666970458,-20.9178564967,-6.2022479008,0.2931048995,-0.1780951893,-2.6588080423,-6.8683050164,-45.7716721851,50.8801909167,1.2755427485,12.4137604193,6.1399952011,-3.668888025,-5.5806023239,2.2829972453,-4.953199196,-0.0684666702,0.0172491282,-0.3855814465,-4.6233859018,-5.1160188005,-5.4477925886,-5.8810191119,-1.8218222321,26.927126046,-53.0931508891,-8.4519995931,-6.3058349256,-5.4710540236,-21.8613153403,0.2883323021,0.0827879793,0.8529192642,-2.7432865005,-9.845830867,-43.9191640285,-0.8982831572,-3.675873297,4.8964993102,-1.6810064774,-5.6387662254,-1.4844509955,-1.3491101862,-4.970553151,-0.0634514211,0.6311212192,-3.9051600112,-5.3277117606,0.9921573532,-1.2193337509,-6.8707120321,15.399794756,-0.1299085186,-0.3252088472,0.8263906004,7.4856588309,-82.3934602737,0.1269603412,77.5175076628,0.9794187041,0.5833199067,-13.195237467,-46.0871207116,9.0395042696,2.7245043236,5.0010264692,0.6761778925,0.1885424838,4.1064667745,-2.5152978854,0.6575550396,-0.5312234049,-6.099955823,-2.503693638,-3.8517451439,-0.4584962861,3.303584121,3.1385920903,-0.7829316519,-2.1812438722,0.0283780875,-17.9851172845,1.8065300643,2.4728731659,2.6992990827,8.3585251176,0.1018476374,0.4153551686,-0.1304036244,-0.1464710945,-8.4848850465,-30.0636155203,-10.6664288372,0.0139183964,-0.1261727511,-5.1546890326,-1.3661468609,4.1416618365,0.0542848179,-3.7325375123,-2.8905182954,-0.456364646,6.3482698682,-23.60713858,7.6215413012,-6.7341811565,3.1062341621,2.1752704149,-46.5733374953,-15.8028764199,-13.9910587751,-5.7090816798,-0.543026368,0.0151873588,-0.5466292343,-0.5372565317,-0.841518871,-0.4681935428,-0.9436096827,0.8637476,-0.5635847222,-3.196176368,-4.4618126293,0.0869082675,-5.3612329124,2.522818469,-3.3942204704,-3.4620993765,-4.332137664,-0.7294150042,-5.1592067285,-1.7642502078,-5.2539969571,-4.9713563686,-11.3965164744,-67.204303941,43.4655905929,29.0022984256,-42.9255043817,-7.4662633776,0.4172973091,0.3665504549,0.3826926208,-0.5969039899,-0.4784100121,0.4184150486,-5.1286412773,-34.738430287,-2.9794678464,0.1445458254,8.713355663,-6.0587506927,2.317347304,-28.6450503799,-11.7057459196,-11.6778484381,2.9518870177,-34.1167913191,-13.0242142502,6.8225821627,-9.2576984303,-3.4828497406,-10.3779019116,-3.8906812202,-0.2067478727,11.6241723099,-5.102132112,-2.61843484,-42.5893336212,-6.7158136852,-2.7342218481,-0.5306451581,-1.6165738161,-2.5863677561,0.4125560325,4.2553522172,-5.1085361555,0.0636124677,3.0502990904,5.6406884157,-7.6506115691,-2.3605435803,-9.34489696,0.1444225874,-6.0155213359,-2.7629630635,0.4914671236,1.1864994825,0.624668233,0.8437336119,0.4723939906,1.5750146417,-1.0953320246,-0.1605077783,2.3636732162,0.4938625161,-24.3889041629,-17.8715207289,-6.6627928953,0.5651282725,-2.9080277757,-15.4524365064,8.26048618,-0.5218945415,-0.4668124795,-1.0032921396,-1.1263022639,-1.211583683,-0.4083275058,-0.4370123867,1.4101207577,4.5047927958,-0.6488795011,1.1487574123,-0.1458216142,2.5354362033,10.5124082731,0.5110619138,-0.420660786,-0.7805503314,-0.6600555606,-0.745170846,4.6712962673,0.4458140291,-10.6455408866,-19.5933391893,-5.5819398851,0.2657873623,-8.5537033929,-20.4287185952,-1.6947281391,-2.540023722,-0.5897306941,1.2926712574,0.261322411,-2.6355899877,-0.6907332305,-2.6583380489,-0.1283879086,0.306580849,1.617470156,0.9434449243,0.2101864512,0.5374791924,-5.0759331622,-4.2605442441,-1.7154377561,0.0066271209,0.3738399276,-0.497117889,3.9351697838,8.5856485367,-55.1034054023,-11.6823069858,-4.8182252348,0.9061106572,-0.6365517584,-9.8748879644,1.7757522696,1.460131575,0.7721269633,0.4246673719,1.2277044584,-3.7508464524,-0.357587529,-11.8257037129,-27.9912610578,0.9496449444,-67.8911152123,-8.3916072799,-57.5063628245,-34.8056978428,-7.5023430068,2.5354666398,5.272375693,-9.7250388468,4.8961131119,4.3339790495,-3.7734415675,0.9590131801,-20.1139766838,-1.5513680086,-1.8108553848,-0.9408359698,0.2444117729,0.7445180604,-7.8966691271,10.368077342,0.310112568,-44.915905881,-38.5212720635,-16.4954506844,-11.7191704207,3.1376469085,2.20075945,-4.1983514053,-6.3450353588,-5.4782924356,-18.0941941885,-14.5753972543,-39.181257667,-43.6070937149,6.6338677165,1.535090228,-8.1959120543,9.119108232,-26.585293084,-5.2651678835,0.109558301,-0.961357632,0.0879641826,-1.6088964873,15.1463045678,-14.4813917311,11.449666973,3.0853395704,-3.4231561561,0.0846014957,-0.5460847253,0.3053088575,-0.7691353599,0.2616470593,0.0461656633,0.3410696675,0.2286259226,0.7321519417,0.6870404011,1.1192157412,-0.6138885566,0.3122728282,0.2053575024,-0.2974309697,1.1502030901,-0.3376808504,2.8699033934,0.8867945978,9.550827664,20.822818191,3.0494177297,0.936588381,-12.0032437946,-21.4172608078,-0.0755598391,-0.6028021343,0.1335871998,0.1534911082,-0.3647169421,0.8723421356,0.419802735,0.5371365105,1.8641868336,1.7581902758,0.3422276426,-0.0973722959,0.9775779703,0.1852010663,-0.7783688133,-0.3230735186,-0.0411963814,1.2915143804,0.1616132643,-0.770570132,-0.3502860988,-0.1463029884,5.0507216585,-25.5485819658,-6.5914842366,-0.1945219613,0.3665270908,-0.6879886257,-0.1120674834,0.2218060299,0.9268804269,1.9849628568,-12.1902235339,6.9314119795,-9.6766973171,9.9851172462,-1.7267571875,-1.4825213172,-1.5575155948,2.2548805033,-4.9302466888,-2.6860059605,2.2744098608,0.5140942708,-3.4317677353,3.4339490894,4.3596890168,-5.8736518627,2.1892894184,7.5438452525,-21.3187883181,0.1900928718,0.4275842615,-0.5903458614,-0.5974030301,-7.5818210438,6.6932507796,-1.5913474791,1.9577277753,-2.9456550893,-2.7699006341,-0.7512664965,-1.0447636347,-0.5035736181,1.5531947128,0.5443080071,0.8779130649,1.0839016899,2.385484102,1.948150866,0.6293562462,-0.1887732355,-0.372966359,0.5675889111,-0.9646807025,-1.2716749174,0.7600904254,2.4246044219,-16.3769470341,-1.1321590121,-37.5543999202,-7.8047490654,-0.4024998004,-11.5444288949,-46.8557847506,-8.719560346,1.9084369747,-0.7338140322,-5.4941355895,3.9656814569,0.2116137756,-0.665355074,0.0218701505,2.1831198271,0.2332859476,0.4575103749,0.2664762994,0.9061251858,-1.9705709411,0.0373289755,-1.3053126748,1.0074250281,-3.0735782048,-0.3747624169,-1.3602197071,0.5085038414,1.3499524089,-6.519834574,-24.3267513323,-10.8136433268,-0.5307885033,0.3612160852,-17.8750183783,1.6680114463,1.4544776273,4.8495646362,2.1193629225,6.5951328431,-0.0233871432,2.1978819189,1.8502244131,2.9016241456,0.770133166,0.1309727747,1.8688034912,-0.2388407602,-1.3491750156,-0.2029494206,0.641604519,1.3468565316,-0.3966955972,-1.5885506696,0.4961341229,0.7856626319,10.7682007569,5.7800957284,-4.4831562412,-0.4989524525,-0.9501896575,-0.4853528184,-49.9458390499,-4.6898708488,-0.7143094686,-0.7915836806,-1.539528973,0.5899197969,-1.8408424083,-0.5373147107,-0.4218935886,-0.5281838065,1.2159651303,1.4347806939,-1.1405679761,-0.0706151223,2.51611365,0.7583835866,-1.1971362752,0.3453100004,4.1147604278,2.3540858277,-0.0481735841,1.6962112224,8.3299586885,-4.1003671299,-5.8120547343,-18.9015774734,0.7440452599,0.836335506,0.5291688839,-1.2325729799,-1.130174644,0.0107679511,-2.4684579698,-0.7669425059,-1.62480557,1.4038344644,-1.7948560777,0.2822967497,0.5812030833,0.0813520414,-0.1129585425,-0.3500842695,0.2828030894,-0.0075383506,2.0362849777,2.3092087701,2.6252032458,0.6855585615,3.3656491673,2.8139965038,-1.4151392801,0.0611623882,-10.1174804285,-0.1358564585,-0.1152023317,0.1101884695,0.1942913891,-26.5778387906,-3.3927407769,0.2724307304,2.491559145,6.6489759609,-1.2258895854,-4.1074897284,0.1791325201,1.251685433,1.4285391356,2.0329088246,-2.3477843961,3.2539318025,-2.3911967422,3.3461203273,-2.2118524261,0.6810341068,4.6160546654,-1.9622324981,7.265289961,-11.1671172077,7.6330242021,0.1738422228,0.776987722,-0.2861444809,0.2776326077,-0.4449383003,0.5110996885,0.2469554836,0.5664266821,-39.2995357941,-4.5897505428,-0.3655064423,0.983895421,10.2034426981,-36.7674570027,-60.5630196645,-7.880663091,16.2568505796,-4.8171186872,-8.9694764355,2.2206050588,-0.1619399849,-3.6060931543,2.5026254151,-1.5156840626,5.6358777616,-6.3989825046,9.5757475713,-27.6073282338,0.8378770443,-0.1235506179,0.9408782315,0.126623664,-29.7404481121,-0.3555471265,2.2802364158,-1.1421187301,2.1687136159,3.4201714974,-1.1546066771,-1.0596042563,3.3121112387,-1.7705495522,-4.4011980478,-7.0634219752,-1.850964474,-0.4407019208,-4.3187071761,-0.4128116262,0.3797418576,-0.9417878362,2.8270632675,1.1707273597,0.0884571915,1.1640862268,2.1860057737,-5.6152481755,-45.9971006949,-5.7780311139,-0.8603017766,0.6336403571,1.2226327605,2.1523754382,0.2590723996,-1.6691879392,-0.9041930487,-1.6205770434,-0.5734939052,-0.6716898589,-1.3448182211,-2.0648990299,-2.1187745342,-6.2109996328,-3.3757156246,-1.4996815254,-2.417887694,-0.1666903416,-0.4567945297,0.5750651655,0.5166963798,1.1429703556,-0.5255037734,-1.343565864,-1.013584967,-0.8244675299,-47.7042901517,-5.3739446379,-2.141287915,-0.2367157638,-1.4220450334,2.7790342953,0.7155349641,0.8774400544,-0.5693651352,-1.1309577331,-1.8847991953,0.3847496386,-1.0917251613,-1.7935586781,-0.9469751443,-2.0679907231,-0.1899586122,-0.7559671076,1.361471268,-1.2144747714,-0.4814843555,1.0307518195,-0.6654735689,0.4939336246,-0.9873264303,-1.1432828727,-0.8835552209,-4.6838658998,-53.4775312082,-6.7532093342,-3.4055560266,0.1656624631,3.8401379516,-2.3214547122,-3.656517838,-0.825636508,0.1830427513,0.4351550933,-0.6114568234,0.5635784073,-0.4447596769,0.6080288997,2.9502794319,0.6087354219,0.8368005633,0.9738007596,-0.6382162122,-1.9557589413,0.2529169891,-2.0523512535,-0.4116912017,-1.7890861452,-0.9341891101,0.5096317474,-0.8534589757,-0.0905111571,-6.5465493686,-8.9488640754,-3.2600779909,0.7491854138,-17.8792359442,-6.6875583216,0.433674556,-3.1320371947,1.9829520496,-0.5928995601,0.8556562186,3.3868389819,-0.0306392654,2.2951722526,2.1981014737,1.5356023025,2.353277871,1.9486142074,1.2234452275,-4.4405293112,-0.0040564571,-2.2999636531,-1.0529754234,-2.9081718465,1.2369655458,0.0853941684,1.228941817,0.3107228233,-0.9145702393,-5.0426316201,-1.7127499507,-0.1044233248,-0.3949882927,-0.1743435497,-20.3432079504,-38.0317085525,10.0503832409,-5.3670539967,6.5366566723,-45.8109824299,-8.4926871776,8.1708523099,-4.8094343102,-5.3634290457,-1.1170513189,-3.100609313,-4.458030351,-1.3566960408,-5.3962384968,2.0072774933,-4.9244928709,1.1181431128,0.6051602829,-0.6420965247,2.3225947708,7.1635485823,-0.7418076357,0.0225015454,0.1862650243,0.5092816847,-24.8639933257,-0.2011033774,0.9142544182,-0.2817438931,-0.5128814148,0.3839439328,-0.6985359193,0.0951031052,-0.1643166358,-0.2072457021,0.212676645,0.0561593946,-0.5537679754,-0.2650227591,-0.3029616019,0.0957180729,-0.4093724027,-0.1922550566,-0.4925997614,-0.7624034372,-0.1772359161,-0.4221928575,-1.1469063183,-1.0739772866,2.7224322332,5.0859892118,-17.4420372674,-0.0065357911,-1.9879335106,-1.3798854239,0.5688821492,0.4025012397,-0.0383712553,0.2930437272,0.385783384,-0.4618212736,0.7675400392,-0.0954247291,0.2176199233,-0.3032748665,-0.0156485201,-0.5314021557,0.1792153168,0.5303752948,0.4733759675,0.7489395082,0.5403229414,0.5996718741,0.2729216713,0.457424777,-0.0777257709,0.3591805878,-1.0091547873,-32.0235671753,-5.1936952068,-4.0534619231,0.2777525571,0.7662591644,-0.1984550703,0.5030771303,0.398105382,-40.2307633428,-10.2916816413,3.6786793152,5.9414803579,-9.1684839839,7.7459201901,-4.4046270346,-1.5652697968,0.2907943325,-1.0234475224,-3.9190139748,3.5049396718,3.9898412614,-0.3472154836,3.1412049878,0.4209865416,-41.060263714,-26.1160681394,-7.1226250632,-16.404469119,-0.8676665467,-0.5443817529,-0.1865366938,0.5482215634,46.1983160832,-2.7123976441,9.6959232012,-0.185556763,-0.2095012356,-1.2551615614,0.8052820814,1.1323791635,-0.1578511052,-0.453388744,1.7107828972,1.010163646,-0.1840331233,1.540138239,-0.6987663173,-1.1405853874,-0.4970942121,-2.08119072,-0.7294217005,-2.0949529519,-1.8614481926,-2.4530940846,0.2739307599,-27.4462023931,-10.0271484004,-8.0020856691,-1.9890855809,-3.4202935002,-61.0879362396,-2.9235781367,2.3196605172,-0.7295922234,-0.4233227632,1.7637554497,0.2133000895,1.1136019596,0.9475047932,1.1719856191,1.4037847139,0.7395054721,1.2468664691,1.094020673,0.9143832104,0.5462572938,0.2738098662,0.5644312502,-1.1788374566,-1.1368528083,-0.7376057875,-0.8412256354,0.4913209833,-38.0899923163,-5.2591750097,-18.2809573546,-1.4668959245,-0.8811379686,-11.1836783084,-1.15157673,-2.0907556467,-0.2585171337,1.3548758544,-3.8909361764,-0.4835064729,-0.6207238013,0.4189977848,-0.7897942322,1.0418579176,0.4795879893,1.3446779911,1.4054930777,0.2710613948,0.3395393154,2.9637576609,-0.1857507256,-0.3379032951,0.4497147264,0.8367596694,-2.0498834524,-2.2048937759,-3.940082797,-18.2050179645,11.5479489178,-0.7017675226,-0.6611155777,0.4555398707,-3.350234998,0.0875928658,-0.0907703119,2.0915436175,-0.8314550163,0.5742733559,0.9883073828,0.3068283831,-0.1472375384,0.6309127073,1.6796597177,0.7087722789,1.1578673393,3.5586976008,-0.3875459546,0.5459267021,0.0139843977,0.5891559915,-1.8581585117,-1.8971795879,2.7035596991,-0.8873201341,-15.1718849125,-20.7662187883,-88.1834200069,-14.3114559927,-0.0864240843,-0.3693441573,-5.630464037,2.5630790395,0.1722852288,-0.6692000063,0.6991388421,0.0969312361,1.1151511991,0.9966297823,2.0996992393,1.143854645,-0.2462942786,-0.0208920265,0.9018739833,2.0556969697,-0.6684512623,0.8186145833,-0.5025231881,-1.8678574174,-1.2109822745,-1.3630704821,-0.5173357582,-0.9241381537,-2.7358664223,-10.6887073719,-17.974102466,-0.4397912224,-0.1716528057,-0.0538232606,0.1685084711,24.3861920818,0.8566339241,0.7446258086,1.9403310922,3.2143934308,2.196423366,0.8014476447,0.0779697533,2.2908927859,0.9368684249,0.3065988322,1.1633981869,-0.3022394819,1.3033955818,1.6901571839,0.1220670706,1.1868690121,0.5623075925,-0.6010992177,0.6190145212,-47.7063130378,-8.6824570944,-0.1194762504,0.20777507,0.7697345082,-0.2921535464,-0.7879039789,-0.3842006696,0.985083273,0.7613639711,25.9453263971,-2.565975092,-9.5688381256,0.5638213742,-1.1417722359,-7.3303531385,1.0035740666,2.0713587168,-11.0781191035,-41.6452631036,4.407157033,-2.5105825969,1.9902959516,0.8856948536,-1.7560606763,0.4087295855,-1.2622646646,-4.3872533775,-3.9830735749,24.1228556669,-0.3250116117,0.0450301799,-0.5646197236,0.1399012221,-0.4627910387,0.1116249534,4.5204696506,-1.5886143224,2.0107160393,-1.2441291488,0.0132350834,-0.3275934414,-0.6699979072,0.5384878778,-0.5475822045,-0.965042585,-0.1552561394,0.4482726292,-1.6671825428,0.5801477391,1.1346471802,-0.2506024342,0.3455604513,0.033630911,0.0868089029,0.7609519504,-1.1314586073,-0.2524348992,-0.0059088389,-5.7898687266,-0.9830187313,0.7754618063,-3.2594790459,-44.7505880968,-2.2306445764,-0.9673518815,-0.063924432,0.5824605577,-2.2138375894,-0.8973345999,-1.8282291344,-1.5661899938,-1.6410642975,-0.9951912196,-0.296243091,0.2920825351,-0.1766705901,0.030075319,-1.6415437088,-0.5857551224,-0.7174405381,-0.1330347211,-2.0025019294,0.3938336598,-0.61676233,-2.5248415137,-0.369187473,-5.347561427,-8.9197281798,-0.1157672561,-10.7675409635,-0.0266179757,5.1631277768,-1.4165437359,-0.4071603953,-0.0798133815,-1.0641497842,-0.5923437738,-0.5173039459,0.3620679015,-0.0104862974,1.1606130215,0.992879457,-0.6689112733,-0.4108718819,-1.5064428678,-0.1566668863,-1.0887492984,-1.9509963449,-0.5118228683,-0.8021982228,-0.1636172161,-0.6139221531,-0.2951453963,-1.3844938352,-8.8750582277,-24.8606805638,0.5456805053,-15.8927841167,-6.4538347806,-4.502905243,-0.654229943,-0.2765896882,-0.7131309834,0.6100616319,0.7666769541,0.8362701219,1.1543300538,0.3332245665,0.0642739975,-2.0258338702,-1.2866395524,-0.9411555153,-0.0841630832,1.2784473506,0.3159667924,1.0093480478,-0.1268133691,0.219941229,-0.7151586113,-0.6185912973,-0.2023896446,-3.256047805,-7.4362679097,-13.208665265,0.1551045266,-4.583480069,-38.9644020821,0.8788405754,-0.1842229451,-1.4407798997,1.8657280719,0.6541191519,1.2831812393,1.8880884299,-0.3874044887,0.0267878503,-0.4161795777,-0.3985290767,-0.5325692083,0.7115069835,1.3072282393,0.9807154338,1.4615722686,2.0621207606,1.6179633886,0.1005424465,0.3732444053,-1.0389645157,-0.4050455273,3.2035853828,2.2723224635,-4.5060068647,0.4244593513,0.6682037994,0.4825381445,-16.6530157847,-12.4044507945,-24.5625231144,-21.479772007,-19.241503119,-24.8417520645,-17.5583129401,-41.0773415559,-17.0523211009,4.0473390282,-1.4206453316,-3.3805546235,1.7084998323,7.7000067995,9.5278242819,-4.6437267846,7.0249268915,-1.1859211842,-46.1453940903,-41.8056759178,-24.2048711121,-7.9841803448,0.8173471095,-0.2744907219,-0.1152851136,-3.0423848119,-1.4462750576,1.4092208478,0.6232419104,0.4688748403,0.0936380876,-0.0671109715,0.1631956514,-0.1419690232,-0.1878002875,-0.128869524,-0.0905902094,0.0114842205,-0.1050120621,0.1966657364,0.0204857307,0.2551021287,-0.0423948976,0.3858067243,0.1744603822,-0.1377500534,0.4934698674,-0.1463576913,0.2491362441,0.9774689833,-27.8523568164,22.6211384649,-14.8423163707,0.7797442596,-18.2788714596,1.8281759244,-0.8079111038,0.3543982165,0.1616425008,-0.0647296167,0.3753917703,-0.4808543349,0.1434838831,-0.1650006237,-0.0644875916,-0.1860479205,0.169252091,0.163352984,0.0275096723,-0.4997286457,-0.4729938432,-0.2239497042,-0.3537267658,0.0180384793,-0.0597621282,0.0288364424,0.2613281482,-0.6471246784,0.681609745,1.3720233168,-24.8350641876,-12.1813089374,-0.741884544,0.9791906914,-0.3128243543,0.1399604918,-0.1984479576,-9.2117745175,-10.3574228408,-6.8810853122,-15.4289458406,-10.3723058932,-20.765733416,-23.7329559039,-6.0302142278,-18.8340135908,-3.7402260699,-8.8301721365,2.5467665019,2.8511613867,-46.1668890285,-3.2081209256,10.3794085526,2.1649579696,-10.4124850398,10.2288026459,0.2844179741,0.8677707218,0.6856827096,-0.8445912524,0.9542374748,-3.9923677045,-29.3504764132,-0.9737007851,3.1106278634,4.5490565651,-2.9678828369,-10.7362811105,4.5693439863,-0.5170195711,-4.5359751403,-3.8893288414,-2.5535562835,-1.8267785205,-3.0099456398,-2.9013027091,-7.6617325399,-2.4477650289,1.6834225374,-2.4770012477,-2.1514132933,0.9453587573,1.2030550397,-3.0860925751,-1.4261509275,6.1962383989,3.9745499706,-15.1092220735,-3.8692293991,-47.6362715326,-30.2332545369,-5.4986032711,7.9485254895,-1.2249604223,-2.8668349717,-4.8878612764,-1.1745389649,-2.036941923,-1.8536588913,-1.5576457168,0.1510144534,-2.7398028752,-2.5922773265,-4.4914274335,-4.758679301,-0.8836910643,-3.0205899317,0.4360433299,-4.8529431115,2.3883099701,-1.6578508073,-4.4483533289,-7.8291659587,-4.5961886111,-9.5510421363,-24.237189188,0.168103616,65.0803738791,-39.2384688575,-3.8522184747,12.1290194533,-2.6297354396,-0.2490949324,0.6911077977,-0.8453315226,0.4339917329,0.1062487801,0.742591839,1.0345796701,-0.355855667,-0.2180246721,-2.8034274792,-2.0243216884,0.2289315856,0.0380781157,1.2941705389,1.4273402204,2.235582259,-0.8202926134,0.8832512408,-1.4186851516,5.9646328223,-53.9361298416,0.8059888851,-0.2452701738,-0.1526743036,-24.2356809261,16.5944674174,-1.5684642137,1.3234009265,-2.4213111055,0.936037816,0.5018977076,-0.8206735528,-0.4221448194,-0.5975618088,0.8798387377,0.3227415098,-1.6100289923,1.9200131448,-0.4830687441,-1.7554029406,1.3229332439,1.4019917688,2.7054450119,0.6333156314,-0.9578948415,-4.303267925,-4.0155719287,-15.2708975743,0.8159333855,-4.5154330652,0.7065095462,0.8208616143,-3.5139777001,-10.8720144226,-49.813143799,0.4843790777,-0.7321515182,-1.2340411411,-2.8433488526,-1.6425246858,-1.0354247913,0.5866884909,-0.5189013747,-1.458289484,-0.6887406373,-0.540495228,-4.5989259795,-2.6854834812,0.7850202673,-2.3634581087,5.8493759944,4.0605948645,-3.9511839886,4.4162203814,-9.9321884429,10.5433415229,-25.7816278543,0.6806845454,-0.4300628745,-0.2257072741,0.9027841059,-3.8524627378,-11.3160024583,-27.3511304265,-2.7087816191,0.2699452198,-0.1584407612,2.0067021191,-0.2345816378,-0.4995388383,-0.2481071994,1.0728546717,-0.8149348291,-0.0766888909,0.847334293,-4.3516566748,3.6345487987,-3.4617810224,-4.0680274838,-1.9183091852,3.4953412803,-2.1464402242,-0.1280235433,-0.5807245538,0.8496174065,0.3433013275,0.8964501078,-0.405055498,0.6788689782,0.8935486686,0.0183291931,-13.7680457665,-3.1227191493,3.0816175434,6.3721654325,9.0725805731,-14.1190944312,6.9717108085,2.6536248364,11.429556841,2.9811465064,0.3960471134,-7.0139227768,-5.3048844221,-10.4143317832,13.5151287958,-12.0406615332,-7.5807569492,-6.1879703917,-2.9728706552,-3.8054229873,0.6608207909,0.832990369,0.2497449733,0.548350599,-1.8252301371,-0.3788158138,-9.8190641182,-5.0761269283,6.2154091985,7.2236167236,1.7254669456,4.8096502529,1.1113276341,2.1294736028,4.0311955493,-1.4487693063,1.0056907921,1.6837643637,0.1748883475,-0.1449289064,0.0596410901,3.0745678367,-4.4044748737,-0.5698365499,-19.1588898432,0.4397018,3.3124628065,2.5724968883,-6.5460961031,-30.7439035742,-4.9401009604
   -0.9526707192,-5.7713458751,-18.3689795056,-26.732776493,-4.8897043934,4.8020575876,1.5786141188,6.6619148991,0.5576181138,-0.0039840051,0.5063673694,0.3908463341,2.1997809761,4.3449372451,1.199080447,0.4139007028,-1.6878391835,-0.835379257,-2.9224569369,-2.7514250269,-2.8090384836,-0.0335103963,2.52091287,-2.5168957113,0.9629092543,1.7132234548,-11.6347283396,-20.8526407603,-0.6672201935,-6.7857102334,-45.377421852,8.023233315,4.0198329836,2.5799738826,2.7815659251,1.8452390676,1.2592563598,0.616542459,1.8394759567,0.7881139713,-0.1623326942,-1.3847600262,0.9104361002,0.6956095816,0.6941471077,-2.2289359641,1.3923963119,-0.4512408326,-0.1255533211,-0.392389992,-0.5275677023,-0.6356530992,-0.1421995592,2.7014620357,-11.4507148872,-22.1939209894,-0.2029097159,-23.4702469215,16.9700417338,-5.0249833073,-0.0881091681,5.2111222233,2.5324672106,3.8552066886,1.0365758895,1.2986947012,1.5805857648,2.7134883889,0.5957228872,1.2801667803,0.1858627505,0.3148764423,0.1965407505,0.6965805248,-1.8158632098,-0.0641350085,4.1923251976,-4.4504816313,1.4097631966,3.9617014758,0.0189197983,-1.9453562769,-16.3617803242,-14.6095188221,-0.0349000434,-7.4506464943,-30.3477861705,-7.0566725817,5.8876219443,4.3364177879,1.6057870846,4.8892123178,4.4101919186,0.6236395116,1.6642853911,0.2412068403,0.6887182795,-0.1302660229,-1.082344235,-0.6035694787,-1.2111776158,-1.4323659996,0.3667960659,-2.8267131269,1.0895092782,-1.6597423894,-1.6300826685,1.1692689914,-1.0699860638,7.9762590256,-45.7537628443,-10.6990781264,0.6849086035,-0.4358318557,-0.4642515799,1.2083174311,13.2589715655,-2.1099368954,4.4291924016,1.4780830598,9.22464065,-6.639565903,13.2503307518,0.833835348,-1.1583855224,-10.9665789469,-1.0045130602,-4.2276474052,7.8039088801,-4.1244812827,-17.199248866,8.397461026,-2.6555122155,-1.7973957334,12.1754260199,6.0947838216,-0.388586467,0.4744052339,-0.5458655994,-0.996221247,-4.9465765715,18.6149668144,-7.1935597047,-0.8727374492,-2.937590337,-0.3809163713,0.164669094,-0.2351167527,0.391267124,0.3785909285,0.3698551085,0.664348601,-0.5288387702,0.2647049049,0.087141746,0.3378107918,0.2452302892,0.6677738589,-0.0121275535,-0.4625575848,-0.2337514574,-0.2677828617,0.3200280266,1.262027829,0.1985098464,1.408015619,-3.4616816814,-23.2125997124,-0.0495526023,-23.3036652383,-8.8622590865,-1.9314635858,-1.3713353946,-0.8972636758,-1.555099578,-0.4401541043,-0.2631391776,-0.4346744331,-0.8229963734,0.0722988492,0.6147799107,-0.0249594203,0.5401945855,-0.2082849676,0.5302690955,0.3193740705,0.2651690165,-0.344834844,0.1665582777,0.0604437117,-0.5438974688,-0.8899265529,0.5980517254,-1.8024594238,2.1102682339,-22.0642907119,-7.0298225698,-0.0411389861,0.3518206604,0.7620578131,-0.3551569927,0.119576715,-9.1327850857,-7.6431645035,-7.1628261706,-14.1152389056,-14.2948658747,-41.4907168634,-2.5972876111,4.7046027716,-1.6926090571,-0.4556186053,4.3571645847,-4.3801489177,-0.1110052859,0.2847169869,-0.5688646483,-1.3966668256,-6.2424999203,6.5382208611,-5.407112519,-0.5546651018,-0.3244267509,0.9082231267,-0.5568326663,-0.1009538378,-7.7607912243,-5.0684378244,-22.2154432748,-1.3176219665,-2.1543852591,-2.0417144234,-1.0643775017,-2.3015997735,0.3757632512,-0.8517618752,-0.522713425,0.7091769622,-1.6760190208,-0.3567764845,0.5633959809,3.2264620188,-0.9601665803,1.1638584098,0.5169581919,1.1362114506,1.2380554238,-0.0146396601,3.9315223655,1.6979563638,1.3935128708,-6.1239670506,11.4402486605,0.3212109203,-7.7765606941,-9.7333178948,-28.3808131031,0.5411295408,-1.7118694375,1.0431379517,-1.8753349389,-0.6802946718,-1.061469333,-1.8232071646,-1.6689974554,-0.0299526196,-0.2318274009,0.4895978125,-0.4924435146,2.8361910023,0.3053857242,0.819908834,-0.2056990352,5.1960292997,4.4954108662,0.0136704832,3.3219292769,2.4352238835,-0.7951662331,4.9826759514,10.666212446,-0.0412198006,-3.4498955078,-38.1868382627,-13.4893178037,-1.0058903017,-3.3730781682,0.8190261991,1.3535000208,-0.4263463184,1.0355056081,-0.1084316935,-0.4140575159,-0.2076654455,0.8306921274,-0.3305045213,0.5097492511,-0.1637529254,-1.4955316068,-0.0738900625,-1.5781153329,-1.8115058297,-0.9783783711,-0.5925574836,2.5664714758,-13.3370701377,-13.2014565563,1.9065545874,-0.9864298296,-0.4192156723,0.1398253153,10.6219330361,2.0187973128,-2.8896058391,1.8774875078,0.8989572528,2.475676791,1.2124725329,0.9246007845,2.5977586857,1.2581980943,0.2425006875,1.2044482931,-1.2988717242,1.2038208098,0.4565074268,-0.1083159183,0.8005543776,-0.4042217453,-1.7285772341,0.1066310631,0.8576497354,1.7654415279,-0.9206371139,-17.052219713,-47.231052616,-12.9013409333,-0.0063727665,0.4081125518,7.5502226866,-11.511863397,-1.2766790167,0.727922643,-1.0521798125,3.7538139834,0.9619065996,1.4875775696,0.2613561948,1.7772644036,0.6338365157,-0.1249281271,0.7821192012,0.5978665906,-0.0658144496,-0.4981762972,0.3416249091,-0.5300966013,-1.5387669407,0.4738722395,3.7060681875,6.0650963412,-2.951265166,-47.0735075372,-27.6715164752,-0.5531522061,0.9145585367,-0.8615216699,-0.6639169184,-18.0691771268,5.1639719918,-4.3575845917,0.6278375079,-0.0276693777,-0.768049432,1.0303794592,0.8252336576,-0.2337060578,-0.0518902009,-0.6286976249,0.1255871443,1.9273330866,0.9871070961,2.4942695736,1.0273028982,3.008525824,0.2057914562,-4.1643050083,-0.5195191738,-40.7278419237,-7.4824044628,0.4429699244,0.7957750207,0.693085949,0.1715375077,-0.6839974082,0.1758841628,0.8838249599,-0.1033379894,-7.0337240981,-20.4793332071,-12.6542477222,-23.0165620546,-15.1991422744,-8.4667355896,-15.4682398283,13.6501605721,-37.4985494585,14.5524134416,6.5342289984,11.2523567482,-11.7112390657,-3.1285722546,-2.0332104676,15.4532138326,-9.6267336376,11.4201389318,4.6338361821,-17.9039790529,-0.100827106,0.4284880361,-0.2242636419,-0.015824149,-0.6046230243,-0.93634782,-12.6179708606,-6.2139445368,0.9009353884,2.4672112763,-0.5753142812,1.2085541796,-0.0145241722,1.4284944793,-0.2386855785,0.4267625794,1.6642794859,-1.7049263702,-0.6088123127,1.0262228466,-0.9907423047,2.1996198474,-0.3555577298,-1.484701438,-1.3345915839,-2.035123014,-1.0231848227,0.3731344162,-5.6641890473,0.2204876886,-6.9935243121,0.780447289,-3.2385076146,-10.701887675,-1.3845768297,-1.0631565315,-1.2054065194,-0.2232812936,-0.0350888361,1.5848208082,0.7109134748,1.5463729628,1.517381326,-0.159383133,0.2845981064,1.2703239179,-2.0004511509,-1.4729756511,-1.144245441,-3.7423709346,-1.2606821772,-1.6972629941,0.0852659747,-1.0720884773,0.2392981691,-0.5301666954,-5.4746568195,2.0450302754,-12.2808208972,-0.8961487565,-5.0628197533,-22.4022791437,-1.0988763328,-0.7129946803,-0.8018008983,-0.6078129998,-1.614966179,-1.1492055225,-1.1014186081,-0.4325793875,-1.2442474836,0.3119193134,0.1177847928,-0.5566004454,-0.9317180335,-0.1460927601,0.4728566902,-1.5905397668,0.2256627978,-0.0952083399,-1.0175032631,-1.2932186294,0.9514021161,0.0724139932,0.9155807647,-1.6031358945,-15.946121639,0.665717953,-6.6399824811,-18.3305037528,1.2581058764,-0.1411889515,-1.1576358779,-1.1605387656,-1.6760354617,-3.3409022146,-5.1401749778,-3.3499471782,-4.0563426252,-0.8242524664,-0.8626834958,-0.8283187942,-0.5674907485,0.4247985309,0.8583297003,0.3558230436,0.196434095,0.0904278615,-1.5530946864,-0.2191307846,0.7486475735,-3.5769482694,-3.6682771293,-8.0288236586,-15.9288375132,0.0973427525,-3.1779073662,-10.412863912,-0.0725060181,-0.6942519801,-0.8774252699,0.5957256108,-1.9989729801,-4.6534657159,-6.7487046345,-2.4858752552,-8.8774853973,-2.3883814835,0.2814378442,0.4980196582,2.146959709,3.7160757571,-1.9773375485,0.4568006026,1.2357179437,0.8222750081,-0.6741061237,-1.3632812393,-1.8523027916,0.1737756928,-43.5136095875,-36.8900277794,-7.5741913621,-0.5433627729,-0.6385422131,0.0550909097,0.04437691,1.2218753347,-2.6164927825,1.8998945994,0.1492511463,0.5252758538,0.216129241,2.8770972807,-0.9236682738,5.5437907891,-64.9579589105,12.4378876759,8.3149104001,1.6118246037,-0.9208745579,1.8241679657,3.21793612,-7.5394265216,8.0500433532,-5.9932415799,-50.120085716,-8.3579711823,0.2907628325,-0.3835798291,0.1211294062,-0.3560160305,-12.1670429412,-4.9915696317,-0.1901122584,0.5594030517,-0.0459782611,0.3906862366,-0.6848792153,0.6327406244,-0.0716805219,0.0342244404,0.686323196,0.1639875619,0.1544183062,0.147873777,-0.1021124064,0.4248827652,0.2883561518,0.1188546664,0.3717347868,0.5821765845,0.3086590679,-0.2676855107,-0.7768009103,0.9044984287,3.0058058068,-4.6036442941,-5.4743398853,0.5819834099,-7.6384049092,-27.364643523,-0.6870783705,0.1702516711,-0.3239898987,-0.0095531766,0.0874483054,-0.0078998851,0.1804105056,0.2271516865,-0.2195643927,-0.0384937968,-0.1867413754,-0.2836014591,0.065674698,-1.0337382794,-0.5340376472,-0.1620774408,-0.695815046,-0.2003788874,-0.0254000098,0.137365632,-0.4760767056,-0.2382007277,-0.1857863489,0.1327054812,-20.2440856104,4.8591840557,0.1582156592,-0.906157987,-0.6981964263,-0.9872309534,0.3577537637,9.3187357179,11.9698535706,16.0322686861,7.6415712788,-17.9210744343,-6.1817364111,-5.0802544896,-2.7042408681,-1.7752475657,-0.3305933392,-2.804752618,-0.5826340875,-1.793592137,0.8192665766,-0.5213452645,4.5140728633,7.9955874836,-4.2074496033,-10.5800816397,11.8419728284,-0.5764682811,-0.2955421741,0.94314432,0.6135796834,-3.3092676791,-1.2625831733,-15.9855621756,10.82696325,0.5163808142,-2.6335725456,-3.9215105327,-9.0278447562,-3.8523992283,-4.1094505729,-1.5196565773,-4.6061574717,-2.0932555142,-2.0406770898,-1.1339487515,-0.1635642051,1.9340528106,-2.2514894116,-0.301724754,-1.7079478502,2.8793129512,-1.5829784796,0.5109812325,0.8440017838,-133.8530829728,0.7475070313,3.749198443,0.067113843,-8.4727540625,-2.5819412058,-13.3343544156,0.3792943894,-1.9029831415,1.4185999654,-5.5440695767,0.2953806224,-4.3711555154,-0.5342701848,-3.6828775754,-0.1534376512,3.7987015832,-1.2966412075,-1.1123569882,4.9532133057,0.0365718924,0.9850296223,1.2092663965,4.2551905675,1.5267785559,-3.7315016628,9.7481648239,0.1687959397,-12.1520223818,-185.5656258839,-7.0755499525,-0.4714147006,-0.2432164273,-0.3018724835,-10.4421294162,6.8972731321,-1.0723102213,2.7125123209,-9.8470139448,-1.6924933691,-0.0533842776,-2.0094183079,-4.3514344582,-3.0527330751,0.5388111455,0.2945769056,-0.8941130762,2.283894588,4.4502006073,2.6966083506,1.0043056103,-1.861127009,0.0421809323,0.7843416749,-1.0180759609,-1.2338678947,-10.4198190236,3.1248503814,0.1151524161,-0.1462503347,0.9271528044,-3.1616374215,-11.0297730071,5.9228552987,-1.9901993937,-3.656749451,-5.0336671409,-6.0778482999,0.6510541168,-2.9207113708,-0.825342372,-1.0254543103,-0.754901492,-5.5860107177,1.7806875099,-0.9676022307,-0.6712455732,3.0436404004,-0.4765426139,-1.4139260957,-0.0970357515,-0.2259406101,1.0206651893,-1.3131597621,2.5174866963,-9.4575963132,-109.4690158981,0.2563699092,-0.6193062295,-3.0247548064,-8.345917164,4.8012641176,-1.4788150235,-1.6833687839,0.8997698835,-4.8788421783,-0.9729722402,1.0786147583,-0.6206650026,1.2585753041,2.8856322806,0.1827455196,1.7718972864,3.3477265175,-0.2247647476,0.8535161341,-1.4798919893,0.6560336336,-0.2558377893,-0.7425838709,-3.2114395157,-1.8714061952,-37.309091497,-10.7235564746,0.1557508142,-0.7883339522,-0.4845077584,-0.7602730062,-1.9068139418,-3.4806044831,-5.5133147748,-6.8857391395,-9.2553748867,-12.1854630591,-12.6928203652,-13.8368389447,-21.9544904432,5.1472601536,-4.5776368698,2.2220171397,-0.6210214536,1.5601751574,-44.0219042732,-36.19628166,-45.5304053523,-18.0509634392,-9.6884199331,-26.7752476378,-8.1173291699,-3.3156092805,0.0128107497,0.1157389413,-0.5018091336,0.6733830236,0.6526554898,0.4996128687,0.2657335994,0.6463615218,-1.4270710417,-4.2725356897,-16.4435055665,-8.6655638869,-14.2151327604,-7.3647385033,-2.8251752599,-2.5171714029,-1.4442362366,-2.2537693039,-10.1631239481,-4.9306473292,-4.7755278281,-6.7128785149,-11.1421802676,-7.8151468139,-5.5059500634,-5.4176299768,-5.0368306061,-2.1126420418,0.5252839968,-0.9078271373,0.0121655292,0.7866638676,23.1316099618,0.990098408,-23.2623328731,1.1852855853,-3.1460045987,7.8444315502,0.9372795825,3.3702285295,4.952714226,0.5987156832,0.9613165228,10.9641559381,-1.4876032899,3.3840163426,6.6809958375,2.1602621097,1.4265963977,0.8448418672,0.7039065479,1.8954366052,-0.1119631862,3.3607301809,-42.0430411869,-8.3662518423,-3.7490976692,-3.0362096232,-1.3523995314,-0.5810832182,-19.0140825727,7.5362591718,10.7574782894,-1.7913138075,-0.0548631817,-0.4014722913,0.1104497909,0.3703286362,0.730960827,1.1135294384,-0.0527481826,0.0397953026,1.0651068853,1.369376193,1.6437127192,0.8775205487,2.4179273854,5.107152747,1.2555418534,-0.1254231984,-0.3468691297,-0.7970374158,-4.4701084331,-21.0820903118,-5.6350773808,-3.26851781,-2.384408239,0.7508619161,-3.0559137802,0.3294659646,1.6292110161,0.0014416155,-1.3193480122,0.3484842618,-0.4504648009,0.4744969017,-1.0399525654,0.2692636018,0.8724111159,-0.521450312,-4.4867744766,2.3110493731,2.4681575851,-2.7777628532,3.4878703868,2.2426108476,1.3181063427,-0.212407062,-0.9665730231,0.0471249094,-2.4707796999,-1.1980439139,-25.6424696347,-6.0687845449,-1.8874755676,-0.3300526786,-11.0408637195,3.8159491426,2.6597827167,2.1895402542,0.5952289424,-0.3191378568,-3.0012942492,-3.6286756861,-2.4169506461,-1.3442070885,-3.9734930683,-4.0916912773,-0.2843976399,-4.3921306141,-2.5696084569,0.2505858331,1.7461772262,-0.1539899476,0.6399280219,0.4595364395,0.6328997891,0.1496509217,-1.0923888244,4.5506540599,-11.5457526347,-4.3971901411,-2.2006966266,-0.7916803682,38.0903070865,16.8856137677,-7.8958466921,4.0569082626,2.3307937256,-1.8200715668,-6.9373844809,-2.4311600713,-1.5348712905,-0.5374378357,-4.1384170432,-2.2692315377,0.257024389,2.5133080575,0.9401824893,1.0298973511,1.2000839825,-2.302787131,-0.5346259274,0.934601045,3.5905952263,-0.7985645066,5.4567175129,-26.2749573587,-6.2188084804,-3.9451126516,-2.1738778569,0.7675385856,0.5976837297,-0.8833482628,11.8046923622,-55.5194678877,9.6943403444,-4.7515433002,-1.9927672053,4.1140396725,-6.2231275014,-1.0935296234,3.8901058023,-3.379538647,3.6130638759,3.1132267969,-1.9341607968,1.015350019,0.3671449618,-3.0178379883,1.928126798,-1.2374199951,-43.5213048721,-19.5086164179,-32.792080718,-3.0865136931,-0.0941761213,0.9380316896,0.3062772888,-1.2077780359,-7.551418403,-4.0162360326,-19.3539998312,-3.4469181353,-0.1599039822,0.0610434037,-0.8391508135,0.7760303324,0.8817316148,0.6829512409,0.3365535639,0.3150724857,-0.286853679,0.2942787064,-0.080099479,-0.4335953996,-0.2196828771,-0.7517777505,-0.0813248856,0.0890845019,-0.7232392287,0.5740797687,-0.4740699931,-0.9248248004,3.4255309527,-1.5545242953,85.7232400836,0.6948085542,7.398095142,-0.5983033099,0.6950604913,-0.5588446298,-0.4311900593,0.4928427751,0.1605138944,-0.4452125476,-0.7350090945,-1.1196191776,-0.5294725288,0.8277900914,0.6359624748,-0.2326772263,0.4612619536,0.4513481619,0.0956435279,0.7938107013,0.2653514503,0.3179716171,0.4604171385,-0.398727513,0.0540752017,-0.5556450679,-25.4148966486,-5.6589753214,-2.5396916361,-9.9153645912,-0.3004940595,-0.255880509,0.6830513776,0.3256213543,0.6390038505,-4.5820396262,-5.1471059598,-1.2482803516,-3.7065457536,-4.026244199,-6.0431960785,-6.2013531039,-5.8090205133,-12.7017880683,-8.347613298,-6.3460736662,-4.3103995153,-8.6833757693,-6.2756470764,-6.9035388166,-2.9368696179,-7.2644475254,-4.8095556536,-3.4317480924,-2.5962847428,-0.6856976578,0.9472486373,0.0048597566,0.7375587241,1.511702059,-24.3963428755,1.8244932348,-3.4316551445,2.7319817535,-0.0743241645,3.0190959877,1.0070773641,1.425507392,-0.1536249414,1.7938262952,0.3988447641,-0.2233379078,0.4925069875,-0.2897205402,-0.7850948489,1.013076254,-0.2483711575,0.3044713125,-0.1857675996,0.1369659587,-0.7768118074,2.9242872411,3.7048082144,-51.7152012455,-12.0294269208,-5.2989564241,12.6991812198,-3.3664435777,9.9962836305,-0.6792320428,4.6340401659,-2.4499132139,-1.3536158027,0.8651429194,-0.3457539871,-0.2646180122,1.0888830915,1.839022228,-0.2977793306,0.8337174887,-0.4152416117,0.5433931266,1.6507440208,0.6929242464,0.2157737342,-0.5245520171,-0.1295750799,-1.9439884054,0.5533740761,-0.5186692462,-6.1630795732,-49.1554265932,-24.7408161063,-5.4485850358,0.0915510507,14.0222768361,43.8898101489,3.5399338336,-1.6756384134,1.2434326145,0.746874466,1.4255378932,2.5431191574,-0.2573018268,1.1107124327,0.3755339951,-0.5819464888,-5.2001456003,-2.0407558181,-2.2074283407,2.4393815376,0.3443019867,2.9855146427,0.5147011079,-0.7926477096,0.4812828442,4.1597452055,0.9871467114,3.2579463739,18.5014203102,-51.2535632067,-0.7855936707,0.3634471256,-0.2456261632,7.2860208534,-5.9108712865,5.5848545728,-3.313856606,2.6293404243,0.5424257507,-0.7572173035,-2.1794056373,1.8823892459,-2.989621733,0.0054827171,-1.6632122534,0.3064871729,-0.8132317232,0.3764215205,0.9080514124,5.2223179274,-0.4723601925,0.3443574266,-0.3410637469,-3.649379648,6.7925050589,-29.5499755007,-2.6182550904,55.375645278,-4.677721423,0.6942889527,0.4703581222,-6.5571515891,-25.6020105151,-0.4960993838,-7.0368903389,-1.9290209823,-4.0275974264,0.7517695063,-2.0115550907,-1.1696939072,-3.6220125596,0.0176237839,-0.7967015787,-2.3368997905,-1.6560345743,-1.1225708339,-3.7422841981,-2.0068533702,-2.7250995119,3.6993080026,-6.4366675172,-5.3350925769,-9.8186364503,9.3875478676,-11.7801041354,-10.097226433,-0.4977956822,0.5581560219,0.475898347,0.4161735991,-21.921992188,4.2007918757,0.2070357602,-1.1221754545,-5.8251358397,0.0860404949,-0.4915849807,-3.7721798637,-2.226834228,-0.9669200532,-1.1464976346,0.1577320272,0.0431998696,-0.1416989551,0.0786443184,-1.3828093573,-2.0972239072,-2.5071106447,-3.9692319711,2.0562684575,-2.4202422976,-9.6985375622,-0.7655176728,-0.0542267262,0.2089476201,-0.3646898372,-0.2621575113,0.5718060056,0.4268865477,-0.2248000897,-28.8002209228,-37.217669358,1.3696620702,2.1827224956,4.1742055431,3.2145834886,-7.1892302378,4.3080458572,1.5962262252,7.8399886859,-8.4634479922,4.5391498219,3.2036978805,-7.1858943144,-6.7138458597,-17.2912932913,-9.1118368202,-9.9511892543,-7.8270175852,-21.7084648017,-0.7975085992,0.4721471486,0.6107844451,-0.3800365732,-2.3862195281,0.3720751192,-3.3055298503,-44.806965001,1.8607816337,-1.8174337863,-2.3850574602,2.6263544746,-2.6623043684,-0.8627554377,-3.0526003499,-0.7382328629,-2.5235718878,-0.3032599597,0.7947794358,-3.9201672834,-0.2228605225,-1.4487003971,-6.0298560735,-5.2484314986,0.6294075669,0.0990487265,4.4245757042,2.0384553491,2.3216220373,0.3625286702,36.046338887,-0.0201716903,-3.455445725,-4.5652618438,-7.1812686877,-51.1189279764,-1.7677536209,-0.0554573323,-1.5257048795,-0.4655504222,-0.0185134187,-2.5976454373,-4.8077598109,-0.0064644375,-1.8745291697,-0.6871010807,-1.225552867,1.7291410602,0.5301902995,1.3548004959,-0.0200385456,0.9638699194,2.4133249079,-1.1358218927,3.0489424868,0.8102885131,1.7696758744,0.2241097664,40.3169796849,-0.9028625744,-2.3014527869,-8.6930866938,-13.094985477,-2.6926965438,-2.6159733305,-0.2895425851,-1.7357851202,0.5787833538,-2.6603297134,-0.4170122492,0.0041386453,2.0684903796,0.50370323,-0.6466180982,-0.2963406823,0.3511574014,0.7022113496,0.4740176729,0.3207017954,-0.5173720814,1.5315181899,2.9869508494,-0.1389194244,0.9987794421,-1.8305987017,-0.4353000381,-2.6387091129,0.7208206141,-3.0605285063,-4.741823229,-8.4541968206,-52.388440651,-7.2585452669,0.5608214931,-1.3883631191,-2.5326168467,1.0885108764,0.6619717615,1.7969902974,2.0243557571,-1.1395012774,0.6047041349,-0.8604560488,2.302506288,-1.2634795943,-0.3816108078,-0.2819026109,-4.1303297231,-1.5430418052,2.4334569703,0.4520438562,-0.8303989153,-1.4158324987,0.949000647,3.8064472711,0.1595267537,-3.7254951153,-3.4630874722,-6.1688690518,-44.7080756118,-6.3473004099,-0.0761641339,-0.0797520871,-0.5358837352,-0.719157217,1.5052940912,-0.9444594408,1.9035409669,-1.1467342211,1.872064038,-1.1093925008,1.2564697457,1.775068087,2.1953613783,-9.8648349233,1.1566150521,-0.7994442143,-6.2028113533,2.6755720279,2.1495707634,1.3010793108,-0.7141425649,6.2720401357,-0.8548223757,0.8185425829,-0.5954476805,-2.6857828591,-30.4810441105,-36.0320891427,-46.3932358717,4.8107878456,3.6161089497,10.9146577159,-2.1094530487,-11.3789305927,8.9114424323,0.1141310666,-4.9710578388,-2.6279637303,7.1587364011,23.0118157747,-0.2125588835,26.2019024272,10.3773626748,-23.5125007138,-15.0211180497,-7.1761450646,-10.4005450652,0.6488050306,0.7092029657,-0.0035183802,13.670892494,0.1486060025,-2.158812854,0.9106953043,0.6371898522,0.530340191,0.3641274644,0.4581443319,0.2893244559,-0.2713124233,0.1127959211,0.3160221446,-0.3371548783,0.33289914,-0.1763787415,-0.0275176335,0.1121831945,0.4442644529,-0.5206640826,0.0742647219,0.1773893429,0.1862260853,-0.6251360196,-1.1389510284,-1.0434756024,-8.3270868126,-37.003997644,-24.3553410165,0.6139155731,-9.1921558743,-7.5992081709,-14.9033302031,0.7784126438,0.3629456283,-0.2720385631,0.3587007527,0.1682073428,0.3866233289,0.7735751367,0.6275181503,-0.613595197,-0.5621234866,-0.4718198281,0.0174385093,-0.2993847917,-0.5364526394,-0.3075659056,0.1280707476,0.8961982133,-0.4523482016,-0.2453401752,-0.2796501613,0.9350679171,0.4643523679,0.0307544067,-0.2258766593,-0.0140955326,-0.806490983,0.1185622468,0.9314831713,0.1916504539,0.6004304038,-7.6722904903,-13.7329500636,-6.1241716277,-44.4663456795,-14.0255662022,-47.0328326319,5.4085761171,-2.9956113455,0.1101707284,-1.2906471397,1.0223215489,-0.3880862166,-2.1900756719,1.1497403502,-2.589052165,-11.6268824215,-6.2446154793,-8.0982539248,-39.3559342833,-12.0571439067,-0.2154231921,-0.9070915239,0.1771563014,-0.1288341634,-6.0715923618,-2.3757824621,-9.1647715018,-59.4244717196,0.3265196358,-0.5021966041,-1.0599611103,0.4812050319,0.6654318114,0.4879957616,0.5234430007,0.9758574632,-0.1774385066,0.9977900825,1.0370712331,0.1812683241,0.1610797474,1.3890144406,0.2443283601,-0.6507397281,0.578525025,-0.2046646198,-0.4401695487,-0.7853269334,1.1508044419,0.5522623114,1.2926447674,-1.5165513119,-10.872119294,-5.3518126974,-15.9298422829,1.9151452993,-0.2901324474,0.0624187949,-0.3026292565,0.4339423321,0.6204703179,0.5611362969,-0.286966739,0.5145947264,0.1382838481,0.8518449675,1.2525094113,-0.3515958962,0.3170843297,0.3770162004,0.7242868581,0.9768461883,0.1129754888,0.476618992,0.2695014834,3.9382702196,-1.4289370407,2.0664343442,7.4906166307,-0.3195704505,-1.4704777499,-4.2789383361,-25.0508990792,3.5076471276,1.0077554199,-0.6354291389,-0.6679641468,0.5858478946,-0.8306338295,0.4774732184,1.2213430409,1.6399932106,0.5690756325,0.7637789572,1.6028633768,2.3256708619,0.6438790707,0.2387307178,-0.7146586112,2.1078738929,1.2675422865,0.8849869429,-0.9256957233,3.6247220772,5.6064079601,-4.8855952383,0.2820395963,-0.0851494716,-0.7744827876,-13.7791374537,-21.6653022887,1.8759965628,-1.3380419255,-0.4365580914,-1.4288137377,-0.6646863653,0.8860373031,0.5013759463,0.3084237329,0.0058731296,0.1339071773,-0.7309524089,0.7118538835,0.3946312354,-0.6350308479,0.3841689225,-0.547063762,-1.5146434272,0.1598475011,-1.5207616182,-0.9196911456,-3.694660599,-3.8398170769,-48.027343791,-47.2564043606,-0.7644122863,0.8013415811,-5.5645746953,0.0097721031,0.2037209405,1.0308470801,0.3836833876,-1.4775937305,0.2405516865,0.0871779222,-0.1124889542,-0.1891458858,0.7621688246,-0.6295504462,0.1435846479,1.4238889368,-0.2007981183,0.3140843614,0.7384877889,0.2536748795,-4.7190707606,0.3068939458,-1.6062180032,-0.3162052507,-12.8427020216,-45.042259893,-35.484295856,0.2025244428,0.897378535,0.8478555227,-0.6143372232,-6.2295548685,-41.6097057927,-2.7655624472,-1.582467616,-1.8589423932,1.9752092335,1.2854092451,-0.0873659229,1.7417755892,0.1965489727,0.6323172738,0.7271359889,1.3282197235,1.3817384757,-0.5514730886,1.411069416,2.1509848786,-0.9062619117,1.8591632147,-3.4286158376,-38.4804206038,-13.0845595911,-0.944894398,-0.6981722292,-0.530981086,-0.9314689816,-0.8238174719,-0.5367690187,0.523383315,0.0067494374,-2.0368076213,-8.4320225188,-8.8915039172,-13.252376878,-15.2605607514,-14.2905112473,-9.504971594,-11.9332880007,-12.5981504385,-18.6825335391,-13.0978890922,-7.1061664432,-8.5365206475,-15.2908411651,-19.3827919789,-0.0352270069,-41.2121816026,-35.2368704979,-18.6426249646,-6.5347507044,-0.1968658565,0.7514291539,0.9878636149,0.5322920664,0.2153035445,-0.2169674571,-14.6082888831,3.6417281348,1.0886947794,-0.6200383717,0.9906667807,1.7784984658,0.2343826102,0.495515117,3.7672680454,-1.3465325996,-0.5002874096,0.550695412,-1.8649582639,1.0591693646,-0.1820372195,-0.007049102,1.7883096219,1.8020029223,0.8715578571,1.193237082,-1.2619522704,2.1513098273,1.6683532767,-18.2354414451,-5.3749658628,-0.1121505339,-1.4561061041,-38.621280153,4.4251986259,-0.0806915852,0.7438930551,0.4990741425,1.1213609781,1.7735610135,0.8749995923,2.2828745034,1.8186902839,0.2340582528,0.2420116254,1.0705451438,0.3306645906,0.6410561585,2.1770625203,1.3906928084,1.8108702742,1.9008069629,0.5492159517,1.5059524443,-0.4447956169,-0.4458914053,-2.6457102758,-21.1204601137,-10.2141698884,0.3681555835,-4.7390461913,-45.0260134032,-1.4314011529,-0.5188438261,0.5968636136,0.0859721599,0.743880349,0.3736280694,0.3319514139,0.4813183021,0.4651623811,0.1398757652,1.626383154,-0.006748738,1.8763949191,1.6980969706,1.3115912187,0.6559861813,0.6635447005,-0.1340988936,1.0836271381,0.6588740472,0.6489682541,-0.7944695948,-1.099440553,-21.700717876,-6.8402847028,0.8917592799,-17.78612609,5.1123157543,1.5821346329,-0.189138719,0.7693939487,0.4143931902,1.409876478,1.2108250733,0.0209981318,0.909807244,0.7695800739,-0.4241271191,1.1296850278,-0.1825191886,-1.061328732,1.0900980565,-0.3759450957,-0.7907100692,0.5124546825,0.8698529872,0.6366017274,0.1814312256,0.092880875,-0.1538951488,-0.4901879239,-22.1067398375,-8.912140011,0.4658346198,-1.8983995351,-39.5849768104,11.833428492,0.5939227977,0.6814361554,-0.4081865563,1.4594075241,-0.1263066703,-0.0079471602,0.946568951,0.790742289,-1.231847717,-1.3780181243,-1.4297377488,-1.6475164494,-0.5362537979,0.85072211,-0.0042699464,0.5467296436,5.6060951853,-0.2953585851,0.6442785501,2.0949845921,0.7723622182,-3.1278978891,-17.1348692509,-8.5017779237,-0.4424069898,0.1452055021,0.1275122745,-11.9360155055,2.05772974,-1.66790923,-0.1820915974,0.0269663885,-1.7426439826,-1.3984674117,0.4903494722,1.7307368017,-1.5889980562,-2.8010006439,-1.9536001213,0.8067570044,-4.6976241505,5.5980023144,-4.1545589755,3.4896133878,2.5595998115,7.5609070503,0.58332034,5.0771222153,-12.7948964809,0.8851811461,0.7207633275,-0.0982793899,-1.3375204703,-13.0117323696,-13.7146199524,-0.9286303292,-0.2549130862,-0.2847900587,0.3389285856,-0.4804325792,-0.1962646466,-0.1261620052,0.1099927378,-0.6706831228,0.1227656847,0.3226830243,0.169360535,-0.370213399,0.0921387087,0.0425951973,-0.1782655114,0.2636898509,-0.1302308803,0.2154607109,0.2618712146,0.7574724155,0.3340376742,-0.602724307,1.1880424385,-0.5806969141,-0.0921485444,-17.7755386174,-4.8875225974,-0.1196547312,-0.1057611591,-0.2832107475,0.1056415327,-0.5755210205,-0.4438561124,0.1724366156,-0.2372461242,-0.3200157911,0.363663871,-0.1268816721,-0.0527045235,-0.2588838321,-0.0576710952,-0.0799011608,0.3232074664,-0.2108998715,-0.5787202122,0.0654658279,-0.3396779293,0.3501785398,-0.6143029736,-0.0586145582,-24.6364232284,-11.7444171243,-33.8119081852,0.3582720007,0.7303133516,0.8841379073,-0.7605569154,0.1556247386,-2.1364959694,-1.193365377,-0.2609881672,-1.1187861474,-3.0648256477,-3.6139361063,-6.6183823624,-5.1912501577,-8.9776333705,-8.9194704879,-8.5986200099,-9.1638904351,-13.4142736128,-8.8464780055,-9.0844776425,-3.2471069302,-4.2102730838,-4.9116016116,-4.2380923567,-1.4903324337,-0.4143635058,0.2483225089,0.0019886386,-0.8208132565,-3.6503544717,-8.149156772,-12.653721122,-54.2414787927,-5.2486812264,-0.2434756162,0.4258037731,-0.8024247249,-0.6950205745,0.1479997657,3.0286682416,-0.0965837292,0.9712677301,0.43625068,1.7297934318,2.0570445215,0.7948950919,-0.9709498499,-0.0953112564,0.259608113,-0.9830771047,-0.1753050698,-2.6939495472,-0.2834481107,-57.1627980844,-6.8483442602
   -7.447305708,-0.7495110083,-8.091454477,-41.2831927135,2.2081082259,-1.5901902605,0.8635387359,-0.4616568178,-1.9513152362,0.5275044664,1.0538693681,0.6467641238,0.7758319544,0.6448265522,1.6113395668,0.2591247433,0.8095963206,0.452801901,0.7596632037,0.1312002984,0.6097911164,0.5240365099,0.5216746061,-0.0155697595,-1.2460294986,0.8333901442,-81.7907367225,-10.2004718289,-4.9867667694,-0.3703436882,-1.5785754716,-45.5338126289,-2.3046619725,-1.0272183742,-1.6277273485,-0.8180948906,-1.4828145136,-0.8465652983,-0.7783725954,-0.3903189146,-0.3989196724,0.8671428324,2.0051560188,0.7272154017,0.6413862661,-0.58065307,0.150585346,-1.0499246625,-0.4486080036,-1.877695384,-1.2842173882,-0.0151838694,-4.4229049118,-5.6744182879,-44.3268729316,-20.271539902,-0.3066152687,-0.4972113948,-0.0261147412,26.6326721224,-2.995226126,-3.3498433843,-1.6104048591,-0.8882549062,0.1413525926,-0.0740966427,0.5630353325,1.00573694,2.7512928818,-0.583970125,-0.4350642691,-0.0783799101,0.1446773924,-0.9357838223,-0.1370263643,-0.9625185717,-1.4682710829,-0.4605398709,-1.0576620244,-0.3862757885,-6.1062223967,-0.200923246,-49.5188706175,-7.4909451721,-8.6163492355,-0.6928057345,-0.9180005806,-21.9268606214,2.2533928959,0.6938503219,-1.5885455602,-0.2712981126,1.2741528753,-0.0777026424,-0.3446181239,0.7923845898,0.5110120288,0.6564833824,0.1583977864,-0.3666891967,-0.1787937753,-0.9465448195,0.6095433603,-0.549573817,0.2043308298,0.1309870209,-0.0834208311,-1.1324736819,1.8441675744,-9.9963976362,-85.7682248256,-11.2718745349,0.8586243267,0.8839613354,0.7281424011,0.9167616713,-20.1571568212,0.2340083477,-1.735453456,-1.0861416755,0.4456107696,-0.3404079398,-1.3414911871,-0.7862775302,-1.553284559,-0.4047789237,-1.485002592,-1.5115168457,-1.1401101744,-1.2126369219,-0.5774005005,-0.4700094038,0.4651632885,0.519118637,1.0850898216,-0.8342617621,5.4905877684,-0.1543048556,0.1143216631,-0.1869623064,0.7900685626,-0.3227982148,0.9751812862,-0.5286589112,-0.2981364396,0.3567751694,-2.3524041646,-11.8846254807,-22.3120161088,-34.2153418202,-34.6503123837,-52.2171640038,3.6016178442,3.9785183389,2.3709140652,4.1778296084,7.5195567609,-9.4831533953,6.1918646942,-5.0239868338,3.2161844858,1.4527296898,-41.3415449509,-33.8025283632,-31.225365653,-21.3051082587,-0.5728908451,0.029513187,0.1473030813,0.8806560599,0.0740011119,-0.8708097975,-1.0190268665,-27.1273633853,-45.6594399465,-0.1679121212,-1.9423801474,0.1550623169,1.4599784878,0.9866311028,2.8619850403,1.2117073559,1.3623776671,0.7135120546,0.3387829301,0.1561823793,1.274761097,0.2546381141,-0.2646640666,-1.7291439913,2.5437464693,-1.1220892006,0.0289177311,-1.1179968722,-0.7595976507,0.6183701649,-34.9183746237,0.1083454323,-1.4334429957,-5.0429097373,-6.1916277036,-1.1853734551,-0.4124526225,-0.0141261788,-2.8030281272,-0.1370095435,-0.1130027776,1.732561246,1.4701301981,1.3077625063,0.5927622199,0.6925238167,1.190842624,-2.0243993458,-0.2220585391,-0.3333241161,-0.9227022407,-0.0016731636,-0.1763053564,-0.4888092974,-0.6386536022,0.9277388487,0.1865603725,1.1267853806,-40.6321589915,0.8939598024,-3.7304956395,-9.4168505913,-10.692165105,-3.1646957454,-0.9612692028,-0.6059281637,0.0478140711,0.3842656576,0.8779829534,0.2949642423,0.0900330006,-0.8074326995,0.2942449905,-0.3902982064,-1.1576334189,0.1726693886,0.4467548348,-0.5006291703,0.6066415124,0.8006541608,-0.6066704318,-0.1678053856,0.0218826222,0.2016761437,0.0059909498,0.3452066652,0.8455809273,-0.1763318312,-3.9688019668,-5.9805470434,-11.9000417865,-5.1108559315,-1.7424946783,-0.5983769992,-0.671219149,0.7356556782,-0.0376904436,-0.5024334784,0.2880627111,0.3615697575,-0.2554335759,1.2069846231,0.7525902118,0.3348999267,0.7935296669,-0.2450262309,-0.8389128287,1.6557864866,-0.7590604767,-0.4705816057,0.0364278669,-1.1346171096,1.1893401822,0.3970308694,-1.478978576,0.6070397227,-4.0542385562,-4.5429868973,-5.2147924571,-45.2453072735,-1.3502687676,-1.9433661348,-0.4692785409,-0.5876060484,-1.1046851307,-0.4448572654,0.1541691957,0.9296977252,-0.9268085331,0.4456033415,0.6449347895,-1.0282336754,-0.8391999539,0.2480264627,-0.7482504209,-1.6746504612,1.8479935152,-2.1559917953,-0.701535876,-0.1805952365,-2.2553930598,3.2069131058,-3.724311596,0.8907625684,-0.5057039357,-0.7308617372,-2.3135528064,-27.1141748433,-33.7926002372,-38.7402032956,0.8578474404,-40.1785851767,0.9448520828,2.3994599757,3.6066704313,4.2200887595,6.0366847193,-10.8825192868,-1.9243930161,-53.3484740293,-33.6822896335,-31.1069913455,0.3246004935,4.4456705102,14.4542111134,4.4580159507,12.0790423366,-0.4913498616,0.8754714217,0.0888167257,0.8903370622,-0.6521521728,-12.8933509291,-15.4571847274,-0.1077989682,0.5458516318,0.5597827929,0.5213281213,-0.186223049,0.2959749236,0.3138923514,0.2241475738,0.1465848569,0.1400702498,0.2465200425,0.4344947496,0.221936276,0.4593704858,0.2746572737,0.4683929653,0.3258378396,0.8587205181,0.4953443507,0.2474718917,1.5025151664,-2.3923940182,19.8134105528,-24.7515972739,-8.1013598846,-0.7489932907,-10.1338780037,-12.5269269178,-24.7824443095,-0.160447445,-0.4652252022,0.1951642624,-0.2008609105,-0.6851812408,-0.4116324902,-0.4693911202,-0.6052202441,0.0611472034,-0.1129607936,-0.1330625458,-0.2897604831,-0.1645248463,-0.084454108,-0.1606226112,-0.2293972358,-0.7304389064,-0.6830065921,-0.2396385093,-0.4221165479,0.1511938672,-0.037822535,-0.0056039706,0.4407014702,-16.3849774315
##end
biasActivation=0,1
[BASIC:ACTIVATION]
"ActivationSigmoid"
"ActivationLinear"
