encog,BasicNetwork,java,3.1.0,1,1384317988200
[BASIC]
[BASIC:PARAMS]
[BASIC:NETWORK]
beginTraining=0
connectionLimit=0
contextTargetOffset=0,0
contextTargetSize=0,0
endTraining=1
hasContext=f
inputCount=504
layerCounts=10,505
layerFeedCounts=10,504
layerContextCount=0,0
layerIndex=0,10
output=0,0,0,0,0,0,0,0,0,0,0,0,0,0,0,0,0,0,0,0,0,0,0,0,0,0,0,0,0,0,0,0,0,0,0,0,0,0,0,0,0,0,0,0,0,0,0,0,0,0,0,0,0,0,0,0,0,0,0,0,0,0,0,0,0,0,0,0,0,0,0,0,0,0,0,0,0,0,0,0,0,0,0,0,0,0,0,0,0,0,0,0,0,0,0,0,0,0,0,0,0,0,0,0,0,0,0,0,0,0,0,0,0,0,0,0,0,0,0,0,0,0,0,0,0,0,0,0,0,0,0,0,0,0,0,0,0,0,0,0,0,0,0,0,0,0,0,0,0,0,0,0,0,0,0,0,0,0,0,0,0,0,0,0,0,0,0,0,0,0,0,0,0,0,0,0,0,0,0,0,0,0,0,0,0,0,0,0,0,0,0,0,0,0,0,0,0,0,0,0,0,0,0,0,0,0,0,0,0,0,0,0,0,0,0,0,0,0,0,0,0,0,0,0,0,0,0,0,0,0,0,0,0,0,0,0,0,0,0,0,0,0,0,0,0,0,0,0,0,0,0,0,0,0,0,0,0,0,0,0,0,0,0,0,0,0,0,0,0,0,0,0,0,0,0,0,0,0,0,0,0,0,0,0,0,0,0,0,0,0,0,0,0,0,0,0,0,0,0,0,0,0,0,0,0,0,0,0,0,0,0,0,0,0,0,0,0,0,0,0,0,0,0,0,0,0,0,0,0,0,0,0,0,0,0,0,0,0,0,0,0,0,0,0,0,0,0,0,0,0,0,0,0,0,0,0,0,0,0,0,0,0,0,0,0,0,0,0,0,0,0,0,0,0,0,0,0,0,0,0,0,0,0,0,0,0,0,0,0,0,0,0,0,0,0,0,0,0,0,0,0,0,0,0,0,0,0,0,0,0,0,0,0,0,0,0,0,0,0,0,0,0,0,0,0,0,0,0,0,0,0,0,0,0,0,0,0,0,0,0,0,0,0,0,0,0,0,0,0,0,0,0,0,0,0,0,0,0,0,0,0,0,0,0,0,0,0,0,0,0,0,0,0,0,0,0,0,0,0,0,0,0,0,0,0,0,0,0,0,0,0,0,0,0,0,0,0,0,0,0,0,0,0,0,0,0,0,0,0,0,0,0,0,0,1
outputCount=10
weightIndex=0,5050
weights=##0
##double#5050
   -0.3725488313,0.9659102571,-0.0236259375,0.5327383979,-0.3608900114,39.8480768438,-7.4686179963,-10.5867157443,-31.90162578,-27.3013133073,-2.6438859601,-1.470655111,-3.0688164709,-0.5683994878,0.5586957269,-0.9377860067,-1.7771321605,-2.20590687,-2.3789241877,-0.5510660203,-0.2524363915,-22.5265305091,-13.4335161627,-12.2364863187,-14.5443367995,0.327519329,0.2220187298,0.1280159552,-0.8299143078,0.0661541539,-2.7144662371,-6.272156397,-3.6091417037,1.3089491704,-1.9563139138,-1.9935397137,-0.5227132062,-1.4888468895,-0.1070122072,-0.816235851,0.2970311511,-0.0661485853,0.2187038438,-0.0314727867,0.427378038,0.8039621419,0.0658820477,-0.4920600207,0.2887685057,-0.6232792745,-0.4576786261,0.4735747918,-1.8562863034,-23.7483272583,-9.2638203747,-6.0805591762,-1.743859765,-13.3171471165,-5.6837536056,-16.9809322712,-2.0664693442,-1.7292542966,-0.0361892082,-0.6020292584,1.1731747723,-0.633066616,0.0748851769,0.6085631767,0.1049381841,0.6008508391,-0.826666733,-0.1551276236,0.6602565691,0.0574802853,0.5964205024,0.7899600376,-0.049770807,0.2094501339,0.553846286,-0.2136481805,-1.1664031655,-21.7981486257,-14.9590583399,-7.6265205828,0.9220774469,-3.4311182416,-7.9037287021,-17.7419111288,-3.0563229249,0.7806637835,0.7051104346,-0.2862010455,-0.15400318,-0.0806177956,-0.1851766648,-0.2710864501,-0.4735552105,-0.2918199065,0.0757151675,-2.331171873,-2.8394575874,-0.8012847865,0.3547484563,0.4565607488,0.0294412024,0.7197342245,0.025438147,0.7622274345,-0.4268204651,-3.6412681251,-4.3655492313,-0.8861888996,-0.6829385642,-3.0903481124,-7.4742539769,-20.8793061831,-0.1958352358,0.4375704692,-0.9529078264,-0.1132107858,-0.4407201191,0.057502148,0.3319268752,-0.0214650105,-0.525463337,-2.3646949386,-3.6984605642,-1.3871493846,-2.1515174524,0.4517591186,-0.0764144317,0.7394718702,-0.4928732612,0.4647579738,-0.2669348008,0.4348572957,-0.771903299,-0.2092312054,-35.3130724395,0.5492537754,0.4712213178,0.0261571841,-40.17400893,-1.1867609501,-0.5091961101,-0.9376796554,-0.8010378222,0.3625941064,0.2315313813,0.2891367669,-0.0820518702,0.01071882,0.6094901718,0.1741135345,-0.1692333289,-0.8971618046,-0.012688655,0.2728897633,0.1617669127,-0.7996956855,-1.0381376501,0.3714098757,0.0315071509,-0.928219738,-0.9741837415,-0.1120921878,-1.3461600545,-28.2090438933,-0.5196970697,0.7601492011,-31.9572914093,-5.1953996504,0.3061972242,0.3381280368,-0.0353011111,0.1643141453,-0.0423767054,-0.6187465136,0.4775975208,0.3231285303,-1.0001731547,0.4567652863,-0.2878798416,0.5431687367,0.8305534077,-0.4645152445,-0.759495124,-0.3373796747,0.2324682433,0.0556230056,2.0986233066,-1.0782750145,-4.0633795532,1.8003213721,8.4756280632,0.6274916685,0.3464953887,-0.0342769828,0.8844563398,-0.7622857503,-10.5926823734,-15.4589516788,-13.0362025622,-41.6796551789,-2.9282629606,1.3268265702,0.591349656,-0.7455255642,2.0743870161,-1.6454851916,-0.93174772,2.0654699196,-50.9372883311,-33.1120287878,-17.1965090809,-16.5903491916,-16.4123176749,-14.3732571682,-14.7621366767,-14.3198474834,-0.5612023455,-0.0238649148,-0.9567393537,0.3949070622,0.9684189502,-0.8948939503,-0.2375749057,-0.6168676678,0.2984632667,-0.7778169845,0.2070246184,0.8318613368,-0.9045459353,0.0205475382,-0.8885296783,0.1314895133,-0.9734984936,0.8539646363,0.1963186954,-0.5562474656,-0.4994080423,0.6625506095,-0.3303683343,0.0838541723,-0.7242784335,-0.6867861996,-0.9019127065,-0.866326899,0.564687593,-0.3874193039,-0.4693456106,0.7938612793,0.7723490014,-0.2497800468,-0.742357264,-0.5173532632,-0.5028303231,-5.8809334544,-6.8421416907,-12.6849981472,-13.9771654262,-12.8919554412,-13.8818551283,-9.0403433921,-17.7065234377,-10.0853837241,-18.7273161863,-18.0581017995,-13.9894643145,-15.6261141169,0.2015434991,-1.8107329096,-1.1076271276,-3.7935767722,5.209959049,-31.0016185533,-24.7793158507,0.223866685,0.9806314661,-0.3857223191,-0.2106374363,0.797858462,0.8329178438,-6.4843979479,11.5917263913,-49.4536270325,0.19466594,-0.2921767919,-1.6728048482,0.1528514884,0.64147273,0.1985171168,0.7492539946,0.1226948686,0.2532173963,0.9436189837,0.4533418426,0.9484110985,-0.2649166099,0.5539805784,0.1017063496,0.3001288405,-0.3005777017,1.2433539394,-3.3048119317,-16.0416600316,-8.4124760419,-4.0471877644,0.4830949665,-7.045356932,-26.1875373162,-1.9715514271,-1.4415616248,0.7356845407,-0.3670644183,-0.3523660941,-0.4107780515,-0.454892325,0.9441002272,-0.6330306247,0.6811370063,0.2312249209,0.9061772497,0.9144674401,0.7775748806,1.710402641,0.4894078931,0.6089219035,0.4703023259,0.2989997093,-0.6993492018,-0.2572292769,0.3420456413,-0.8889641484,-41.5687733773,-18.655480912,0.132794827,-12.7752875588,-38.2319261347,-1.7724635785,-0.7932939778,0.1021413809,-1.038058235,-0.5147218978,0.1192533831,0.477578472,0.5664048493,0.0753092411,-0.2138009733,-0.2835413755,0.8135988751,-0.471614221,0.732946853,-0.646468487,0.1944232218,-0.3050803386,-0.2363776737,-0.2008910812,-0.1242166695,0.9394479458,-0.7572616636,-2.7467204978,-40.7417543486,-18.924177534,0.0763639291,53.4023692187,-87.4314738811,-0.0707298214,0.6412044885,-0.352278538,-0.1052491979,0.9035223476,-0.5696933258,0.9270925203,0.7345516477,1.1405255128,-0.3663141523,-0.2165686786,-0.0740442615,-1.5769721409,-0.6973243352,-0.9302981656,-0.633850448,0.7462651561,0.1529393447,-0.6945846929,-0.7699870612,-0.5842681661,-0.5204896532,-1.3304189239,-36.5890835748,-17.6749519595,0.6180703918,-17.3311506585,-37.1944529571,-1.241316767,-0.152978537,0.1496494747,-0.1506793566,0.2023357717,-0.2957517229,0.6898195155,1.3121675742,-0.1839282263,-0.0597091335,-1.0059075012,-0.9414070369,0.0801347165,0.327156152,0.5431473495,-0.156906547,0.0835185939,-0.0763800537,-0.8564094182,-0.2814508967,-0.2251596465,-3.8696236511,-19.1109901944,-10.2893022528,-6.4128843449,0.9056216772,-6.9887275504,-12.8309958122,-20.7749867233,-0.3299753603,-0.6685488196,0.0613512177,-0.1168215471,0.4514483259,0.0079734899,0.4065521795,-0.3868583793,0.6361459742,1.126576774,0.7625873724,0.4120786657,-0.4589442582,0.2704962572,0.3459428579,-0.3767384377,-0.148676436,-0.6758028561,-1.0249988467,-0.1892275597,1.0242769702,-19.813877025,-11.1113512075,-6.501299182,-0.4187140398,0.9907040333,0.1658329503,-0.2602793722,-14.4869718882,-15.7458450994,-24.3744717308,-16.0347686029,-22.2370892787,-18.7087711757,-16.1769462958,-3.8311065706,0.9077202745,0.6623020223,1.9447360626,0.6737220491,-0.5311854281,-1.4146879913,0.4556873823,1.002496904,-3.2620052986,-0.3433575274,8.2226490235,-0.3805082612,0.9176286982,0.44872631,-0.5792177796,-0.9445221233,0.5117486049,0.7364629127,-0.6639197037,-0.6425559485,-0.4823001731,-0.8075283301,-0.1011049777,-0.5818357004,0.6944173284,-0.3921844667,-0.6843971589,-0.4669947299,0.6145772738,-0.8942149145,-0.6447533348,0.3823957599,0.3369161854,-0.8001313518,-0.2219804376,-0.7702497333,0.3115829295,0.0085824734,-0.7493126061,0.8426594237,-0.348665215,0.3849743035,0.1317622023,-0.854840738,0.2377168853,0.5808648804,-0.5155218069,0.4430098865,-0.119326497,-0.0768604358,-1.4549271985,-3.6165018812,-4.6540574646,-13.5296450789,-41.8299683867,0.5206907464,-1.120106893,3.3433415032,-0.8792040847,-0.8975508098,-0.8690947023,0.1527079716,-2.5655974635,0.4531023827,-4.2212307162,1.4912313532,2.2877289735,-3.0650184902,-29.9320464143,-5.7066108393,-0.4812089506,-0.1869018147,-0.9510530576,0.4557615333,-0.4108226263,-2.2224009575,-3.8757685883,-13.6464167924,-38.275739014,-2.4774717683,-1.1616780843,-0.3422523801,-0.0985548866,-0.9289424464,-0.3643300717,-1.7448818436,-0.9481325949,-0.5370046283,-0.9325043625,-0.7877071134,-0.996353128,-0.0476644759,-1.0295379271,-0.5805526376,-0.8752229723,-0.874021967,1.19773275,0.328461528,-22.5806036011,-7.7984944924,-3.6220451179,-2.230430716,24.7297244188,-9.4294839684,1.3175131245,-18.683791725,-47.230975823,0.3182173006,-0.1422956897,-1.2217557892,0.0807386167,-0.64213891,-0.1228985282,-0.5947589104,-0.5187904384,0.7803514322,-0.5859366002,-0.1871274689,-0.5421537118,0.3709096767,0.6395926759,-0.1368227412,-0.2434380918,0.0216508141,-0.2210099931,-53.7085412083,4.1142357256,-10.626513379,-7.1608798484,0.8042292606,-2.1334518068,-11.3878282362,-3.534273971,-23.8077524071,-44.7141953842,0.7502500478,-0.4538456298,1.9826412699,0.0510206289,0.1580626374,-0.9946245957,-0.8671275924,0.9164230184,1.9861163838,1.1149639321,0.1416788902,-0.224896114,-0.6110277122,-1.1022273311,-9.6433180689,0.2590061805,-44.0326678391,-13.287167611,-8.4174194166,13.306006142,-53.2395921071,0.6161284884,-0.5170214577,-1.0998087297,-3.3202741469,-3.9482736776,-24.6094841874,20.2727244441,-13.439526841,0.5363602247,0.3085594112,-1.2251706102,-0.8295018897,-0.6053322483,-0.8639233804,0.1449530448,0.8022059567,-0.1198442776,0.5068234017,-1.8005796994,-1.4634090366,0.0266256658,0.8284509618,5.1788578342,-32.1790355493,-14.2203980179,-7.6086323561,-12.1193481797,-12.7223894091,0.2296706495,0.7017307703,-0.6090936829,-12.1249353829,-9.4709763832,-44.4600987976,-0.8917097996,0.0540859546,0.2051892736,-0.3428806407,0.2566346538,0.2567008719,0.0608966459,0.3030780019,0.106984064,0.3219308428,0.1393565231,-1.5506245491,-0.3965734553,0.2119840207,0.5954530835,-0.2298562561,-0.3841299581,-0.5634749927,0.9815358004,0.4532815629,-38.9426626342,1.3167869063,37.0211713874,0.4721066303,0.8867040688,-16.2541230849,-3.7140404132,6.1459616298,-0.1829808616,-0.7247005372,-0.1187573392,0.6224693372,-0.0037326697,-0.1937431666,-1.0306971096,-0.6258582902,-1.4499780384,-0.7915280639,0.0599398795,0.2854512697,0.18229458,0.1436287332,-0.8496390357,0.3074602211,-2.7944582105,-0.4330279381,0.7005499001,-0.3378965917,1.1975580775,22.9659990121,0.6694779617,0.9139006664,-0.8311982204,0.9427570918,0.2081583039,-10.5537958297,-11.4067203097,-12.0207933865,-39.9415011863,1.7205063414,0.0280690658,1.3326975043,-3.234615743,2.6298706303,-3.3621852712,0.4388101977,-1.9448980711,-36.8571124262,-37.6732635713,-19.2166359657,-8.5070367102,-10.7199730781,-3.5024900065,-5.9121140179,-4.2908630027,-0.8959305788,-0.2110916443,-0.0201493893,0.8371069642,0.5739730089,-0.0626609829,-0.8159130484,0.8217697168,-0.5305921107,-0.1742526747,-0.1604629785,-0.277799565,0.9218285278,-0.8858952869,0.7172277988,-0.507986735,0.0642701452,0.3546613209,-0.8968039165,-0.855829266,0.5669038616,-0.8366040268,-0.0772730233,-0.8785310616,-0.3512124012,0.494614923,-0.7490542577,-0.5071715692,0.0111262315,-0.9109870661,-0.0949258393,-0.704296483,-0.3626472415,0.6655087822,-0.6863352405,0.8449218691,0.9053433437,-0.8123204271,-2.7250561282,-5.7614943614,2.1465953803,-5.5682214791,8.2438425945,-10.1704039749,-10.9084599584,-4.1941910977,-4.4542227237,-4.4211141634,-2.2003597195,-3.5171629599,-12.7808278512,-5.3883517361,-9.7033551253,6.789267762,-1.1195443403,-35.3541452206,-23.2596747127,-0.5819913172,-0.1663746629,0.8989457708,0.5227407888,-0.9523091802,0.8462256046,-4.1266100438,-28.5367812104,2.5925018101,0.4573346133,-0.6472534144,2.1444790576,-2.600395302,-0.2506841433,0.6677167533,-0.2031020856,-4.7428364684,0.8612604637,-42.0434995487,2.9821081251,1.8191575479,-53.2783985791,-5.5980899318,0.4952905554,0.5334404311,0.553072566,-0.7211935835,-1.0789477981,-14.2046661358,-9.1970261854,-3.0057335699,0.8545996201,-2.2547768705,-22.8074525472,-0.9026910091,1.8412188892,-0.3528504426,-0.1572066639,0.2508548142,-0.4040481889,-0.1523897632,-2.1450431308,0.0850229679,-0.3814355551,0.209666372,-1.5616215896,-1.290964404,-0.0376581113,-0.0493123744,-0.6063501725,-0.7555028362,0.8354202978,0.8102918447,-0.6716999908,0.2615999576,-0.0319162879,-4.9516201898,-39.4985031684,-6.5517610935,0.3040173955,-4.0219129366,-37.8916823945,-2.1878759862,0.3170024803,-0.061367772,0.4446265914,0.4561121448,-0.4356572824,-0.0689104825,-0.8070279812,0.8446362546,0.9547346157,0.1421282637,0.5236698626,-0.1507903609,0.8927371107,0.993975024,-0.1101168699,-0.3358478606,0.8766235637,-0.1910127644,0.4185498186,0.003732076,-0.7553741635,-0.5610007363,-44.8877701588,-11.3571147132,-0.7094656581,-27.1158999614,-42.5713187449,0.5411500014,-0.3272127969,-0.4472151799,0.5935662962,0.0918990638,0.2674346244,0.4340794205,0.9409251518,-0.1836822299,-0.5753919706,-0.1140352961,0.98580262,0.3518998929,0.1376787719,0.7278317089,-0.5133055897,0.0787850553,-0.0668703592,0.6396261479,-0.7144219979,-0.4681640571,0.1436658984,0.1587367242,-40.5267982867,-11.3554380525,0.0371178098,-8.3053435456,-34.8980090203,-0.1231794525,0.6285838323,-0.1412819141,0.8679133856,-0.7800047102,-0.654086449,-0.073070757,-0.2235054646,-0.5655908711,1.3386454477,0.0744321374,0.0163723332,-2.5671424888,-0.7365686684,-1.7394247713,0.8991169643,0.4593557696,-0.2046460032,0.3481105087,1.0728475247,0.8940198293,0.2109505737,-22.6990712552,-6.6114708313,-3.8204906313,0.9704751514,-4.0906004417,-34.5148048663,2.2529189088,-0.6984401571,-0.0648809217,-0.1616255213,-0.2293282832,0.3479824974,-0.9480667666,-0.8302868783,5.9483331066,2.804158106,-44.6803238127,1.3270883671,-41.2448939448,-40.1356435677,-49.2967366683,0.6168430674,-0.4842029682,0.7442447482,0.4909956201,-3.8950933247,-0.6863503077,-36.9391871084,-7.6519526158,-3.5897093688,-2.0303636941,-0.0411097799,-0.4956526166,-0.9448561051,0.3167216232,-14.0722646082,-20.0331489546,-21.0808845853,-44.5364560233,-18.5635813185,-14.8100224622,8.2051261456,17.0949553038,-10.80086675,-5.045780984,-4.2628449387,-11.4326685582,-4.5160249557,-16.5079713932,2.7394359199,-20.3589289246,-27.3500517401,10.565866823,8.286729348,0.9995687584,-0.8859868543,0.3757971435,0.6727345684,-0.0562456876,0.3797722578,0.3085891702,-0.0760142538,0.7984007656,0.2524038523,0.4180069768,-0.9666629572,0.4812048203,0.7027963169,-0.2195296181,-0.8778870751,-0.7434389255,-0.2405832111,-0.7035000606,0.254898599,-0.9830638599,-0.7604552603,-0.8191079716,-0.6506984348,0.7494230783,-0.4886106975,-0.5142689037,-0.2232469565,-0.4922106224,-0.7675970104,-0.7734488161,-0.150338046,-0.2896694774,0.7197475155,0.3384591517,-0.0333446408,0.7845430224,0.1470206957,-0.466373137,-2.0858452016,-0.9365771943,-0.8830906575,-2.1717130294,2.2227394629,0.4827659926,-0.7000105118,-0.8231372745,0.6838052952,0.5061211059,-0.7104038583,0.8815666638,0.1360970462,-1.1432675562,0.1405132457,0.1900674294,-1.0649715376,-0.2236611998,-1.0844121364,-29.379657534,-0.0086014531,0.7428046956,-0.0358375486,-0.4139351779,-0.0420345375,-33.7270139154,-0.9085489086,-0.5597795938,0.4497416995,-0.6736252197,0.1426157156,-0.5006203473,0.9429718755,-0.215002527,0.567368041,0.4536750293,1.0489321765,-0.5365435026,0.6633184824,0.7732332781,0.3568391713,0.0861971281,-0.0017851881,0.1366105672,-0.3282727036,-0.1261485371,-0.8013036365,-10.2066086013,6.2972170654,-38.810593011,-4.035601949,-2.9259960349,-33.2623528666,-0.7279126791,0.7929008121,0.7810711944,0.316877991,-0.0834849117,0.5568111681,-0.1605293323,0.0825707453,0.9217892937,-0.5463284687,-0.6523797952,0.7137544564,0.0124404075,0.3339907754,0.1832168599,-0.9707985161,0.7578809223,-0.2033438588,-0.353327799,0.6745264812,-0.2797494703,-1.7619592621,-2.3046889103,-63.7615768993,15.3990534155,-7.2816474898,0.3618177109,-5.1296875317,-12.396375302,5.1699650755,-0.3652494175,0.3613960534,0.5269226904,1.1280359558,-1.2134398755,-0.0695741126,1.7181394202,0.6717979166,0.1893542939,0.1788653957,-2.1216672913,-1.3814449525,0.6294874094,-0.1985871906,-0.7381262431,0.3134449747,0.8362688176,0.6173505623,-0.6678398346,0.2618487512,-0.8067632871,1.4131299265,3.0483379808,0.5676917477,0.2151400955,-5.0993660902,-45.6990521622,0.7143009119,-0.2404115165,-0.3681406761,0.2139541178,-0.0577217503,1.0661562675,1.1471837419,0.7612709127,-0.4052099033,1.0019019111,-0.5994024803,0.9475782688,-0.4373819809,-0.3628206195,-0.9318942396,0.9065869427,0.0696733411,0.0862309602,-0.3162499517,-0.0153029995,0.8607314727,0.941891169,1.3984055069,3.4777705376,-0.789394111,0.7104738512,0.625173978,-2.8596689559,-0.6180958515,0.1398356897,0.0931001171,0.6311549226,0.3071487544,0.1504606398,0.9611220278,-0.8996233029,-0.0287017365,0.644173733,0.5039199265,-0.4548017109,0.5967282724,0.8703047023,0.2545656722,-0.0860003532,1.0820311628,0.0619755606,0.9193380285,1.231902582,1.0869213601,0.6532174834,1.8405890692,39.368854251,-76.5827556704,-0.576828543,0.3170849453,-0.0497693975,-0.6933138365,-0.6222836297,-0.7399300765,-0.4710679257,0.1744212014,-0.5479316496,-0.0681292348,0.0510510026,-0.6125660398,-0.572087688,0.4031473863,-0.1661210338,-0.2036495056,-0.4372024056,0.2417450642,0.0140176336,0.7149029454,0.9779592103,-0.014535679,1.0802967897,0.6586868007,-0.7082880314,3.6092683364,-79.7352494457,-0.6610505912,0.1497851236,0.761634038,0.2251366834,-0.9064074571,-15.668997327,-17.4801669082,-15.788420161,-17.1914439491,-14.3034673297,-21.0040897396,-17.4289035972,-18.6059741331,-17.490025968,-19.2370139932,-20.1165346893,-20.6500958578,-19.4434762668,-18.7082034842,12.5505867512,-2.2314512357,1.4204545022,-17.9560274739,-15.8016741648,-9.421717184,0.1421037849,0.1500577727,-0.8402992084,0.5532493259,0.75398195,0.0779959258,0.5628255075,-0.9545438402,-0.2088248018,0.9431851145,0.7932264569,-0.5308598362,-0.0189006084,-0.169817475,0.508301368,-0.5642393816,0.201673404,0.6841013921,0.8034046524,0.6573775023,0.7350900414,-0.7760419511,-0.6913030263,0.2899912005,-0.4153028082,0.7492080536,-0.0844888564,0.0489774472,0.6128018634,0.2222824434,0.1400473634,-0.2705710554,0.7572095659,0.5099383335,0.6322098847,0.2642170744,0.0843114127,-38.6713651779,-0.3106630686,-0.0140939366,-1.2564657413,-0.9396419818,-38.5185367989,-49.193439585,0.6323527528,8.1572975642,-9.5585822739,4.6160194928,-0.1384721991,1.0572896343,-2.8608455597,0.2027478048,0.5963391622,1.4941136055,-0.8573086565,0.7956713614,-37.4892966963,0.7051075697,-0.5835271064,0.7604631434,0.3538003435,0.7015162825,0.3403699669,-0.213291067,0.5108903317,0.1231377681,0.1615154588,-0.2084410698,-0.4481992934,-0.0701432151,-0.0083334611,0.4031255817,-4.2185786058,-4.5273260312,-0.5789155105,1.0890374932,0.2120064201,0.5721770723,0.9170914808,-0.2581777227,0.9491389336,-0.279570264,0.1813666762,0.7799967727,1.5583593919,-17.5200097125,-5.512793198,-1.6407866515,-0.9697980598,-2.8937354979,0.5099376592,0.6762298364,0.4353529346,-0.1980809677,-0.6846496456,0.3858305145,-0.0938791797,-0.5440562013,-0.317815517,-0.7936701987,-4.4999045357,-2.6597773097,-1.0792846,-0.5966295757,-0.691615817,0.4297912027,0.1770380475,0.7236691914,0.9553694229,-0.0081429757,-0.4909627742,-0.244196274,-0.874483513,-23.1911512684,-9.1995648409,-5.0607171829,0.46802072,0.3301307915,-0.1542069939,-0.7179401989,0.7818947924,-0.5249587235,-0.3504736316,0.7415356618,0.8924528548,-0.7843718314,-1.0451319744,-1.4223626722,-0.9812741858,-0.7780974329,-1.5394753652,0.7639772909,-0.3900317557,0.7664091686,0.7427066449,0.5538722124,-0.9055600196,-0.0018998175,-0.0594207157,-1.2043365046,-0.5462544701,-19.5417741129,-11.8512826935,-6.0138579921,0.9105667839,0.4104350194,-3.0674523779,-0.528545386,0.5345971651,-0.5640192857,0.7882893389,-0.9734185761,0.738826738,-0.926403635,-0.3298833363,-0.1723886253,-0.1792413268,0.3915038292,0.6632845743,-0.7798748436,-0.228820918,0.8838162875,-0.3159670179,-0.0213352606,-0.6336373179,0.1574293381,-0.9221364081,-1.1632177177,0.6108156275,-24.1184996112,-8.7266962987,-6.0049457235,0.6725869636,-34.1492530437,-3.987453026,0.8213818029,-0.4763291622,-0.8344403619,-0.2176708769,0.8420018839,-0.8063993409,0.5448199071,0.1389208532,0.4502258017,-0.7520158897,-0.4055665274,-0.0444470187,-0.4995706706,-0.1549279448,0.1030262197,-0.8304536839,-0.7102774759,-0.0112922215,0.8295752728,0.317060123,-0.2552097554,-0.1630103534,-11.4293499466,-35.1509203487,-10.3139955733,0.9728740176,-34.4490879646,-1.6868010044,-0.4885028941,-0.4876987802,0.3486587928,0.4236795976,-0.1613563272,-0.3834698189,0.1004438324,0.4990890381,-0.797302264,-0.065711846,-0.8264021404,-0.1128881449,-0.9846561647,-0.386894103,-0.4473701424,-0.722054103,0.459137666,-1.1682248208,0.4942970795,-0.4583409802,-0.7195208337,2.41592712,-20.005715437,-10.6173398387,-5.1203810401,0.7694394106,0.8681033212,0.0098624742,0.788571107,-33.7641028683,5.7896683601,-39.8406813589,-16.9765666648,-17.2760892941,-17.9455529367,15.1440848821,0.1346531818,1.7555070537,0.444531428,0.0511550304,-0.1085545735,0.5004848741,0.319113559,-0.1091671277,-0.1074999301,-1.1494984908,-3.8380551402,3.8688690694,-0.3732739487,0.0612280934,0.6923401123,0.6336531066,-0.1119846229,0.7769367991,0.7359170974,0.3340397279,-0.021310692,0.415763948,-0.2517207413,0.9690652393,0.9148561192,0.8592297296,0.7115872828,0.8009372531,-0.399822369,-0.6263763943,0.7737166171,-0.1805547939,0.6875197708,0.3475399212,0.5652909992,-0.7438316056,0.9470727152,0.3347111903,0.0270924476,-0.2796124303,-0.2262466502,0.6599517095,-0.3693407351,-0.5354860875,-0.0332976551,0.1225452809,-0.4395923272,0.9320649976,0.7410729733,0.3609948873,-0.390373529,-41.9298959668,-5.0233979276,6.8957971538,0.3123837801,-2.8624328801,0.484797075,-1.6534926568,1.7148285018,0.4200361511,-0.6655481993,-2.1641347214,-0.5615395755,1.9259900314,-0.4159890428,-0.3609737258,0.2549093343,-19.8126499335,-13.0912779378,-8.5077142045,-10.450891925,0.3338206221,-0.1273500269,0.0053836004,-0.9267383252,-0.9971810009,41.4617930254,1.7144106472,1.7523658035,-0.1997528794,0.6994180531,0.1718503035,1.1760163734,0.1149507546,0.1148749014,-0.3505213114,0.6680460854,0.806091886,0.2123022074,0.8875985293,0.38319412,-0.4200048802,-0.5540220713,-0.6458871607,0.52700602,-0.2969553285,-0.7220403457,-2.414930599,-41.7097485344,-16.6962973191,-7.8070218638,-3.7053221309,-29.5736709266,-1.0651076002,-0.9848609831,0.908401169,0.6363143527,-0.0023956715,0.356910739,-0.00103211,-0.8706283357,-0.3418867701,0.4354366999,-0.0498501343,-0.4965161596,-0.119468871,0.3339208251,0.6023244804,0.4912878215,-0.3606252469,0.6329527455,-0.9184362485,0.3138302802,0.3353501098,-0.3693510268,-0.4619538072,-49.6780382678,-15.2613594718,-14.0612052935,-5.4398737327,0.5590804805,-33.4529605405,0.6360707194,-0.4337241807,0.8800769626,2.5916811665,-0.3531737853,-0.0882915308,-0.5004146392,0.3983014907,-0.3162229653,-0.4375804986,1.1762658585,1.0040620766,0.0921918123,0.8987294049,0.5548578699,-0.2710849383,0.8210796563,-0.0521614001,-0.6491524735,0.5324426102,-1.0673110303,-0.4321936006,-2.2713786825,-14.9169514005,-6.9315577079,-0.7628806941,0.2899754562,-16.575119611,72.0358603353,-0.3062224136,-0.6407469468,1.1562563023,-0.727792512,0.096283071,-0.2555144707,-0.8612996353,0.2841537465,0.5976993168,-0.778803255,-0.2481123004,-0.5652020618,0.6827465628,-0.168670343,0.0824058206,0.7912444027,-0.2151448043,0.5742862514,0.1032873847,0.3954826053,-0.4242745419,-1.691890101,-50.2515956022,24.9576875682,-0.1042156159,-0.7958643858,0.9624139365,-1.7226424696,0.2105947017,0.3730583056,0.3250130927,0.7098031592,0.9804917055,-0.6754213435,-0.0516954436,0.1093753748,-0.2710226611,-0.4028547389,0.2530211591,-0.6017499145,0.02843929,0.7081461603,-0.7795348429,0.314500977,0.0756061133,-0.7435310275,0.69723982,-0.0725971955,-0.8947952702,-3.1864532332,-21.9609883497,-11.2506931724,-15.8659614371,-0.2075250462,0.1559454907,1.0708998031,1.3382088524,0.7020550008,0.1975302979,0.7791922747,0.8418649409,-0.0200596113,0.943067611,0.7900910736,0.2413417434,-0.7031748643,0.210797856,-0.8588280086,-0.0568419655,0.7005002086,-0.338725051,-0.8444496607,0.0108816542,0.3619481536,0.1031296686,-0.8851301839,-0.9248369167,-41.9936542846,-8.6468105641,-16.5532541246,0.6028274627,-0.5188593944,-0.2010238701,0.5950005809,-0.6292496964,-1.2897237078,2.7956285282,0.1420705434,0.6177896109,0.6675770923,-0.6950138457,0.5260702609,0.6399683388,-0.4396520954,0.91584608,0.2682793574,-0.2957630569,-0.85892985,0.5982334513,3.1008740419,-0.7889626701,-2.5115490252,0.7137576339,8.5380411878,-41.7667060123,0.1286721789,0.4962792915,-0.7620608559,-0.5241392912,-0.0054364468,0.934344417,0.758476723,-0.2030303352,0.7089359096,0.2127351216,-0.2540348217,-0.7947963081,-0.5214483291,0.5541362675,0.0276864114,0.8362383426,0.0383526535,0.0005692432,0.0230827275,0.3639281505,-0.0492828127,0.4837980534,0.8475184832,0.0011936945,-0.9061955064,0.243025153,-0.9222150189,-0.8666452973,0.9092980633,-0.214809961,0.999660745,0.029222184,0.4798614527,-0.91681704,-0.3421594908,-0.4247384956,0.0066178995,29.2887672117,1.5174036108,-0.6278257619,0.0613387524,0.0546753888,-0.9855380593,-1.1882152837,-0.154778046,-2.1390398697,-36.3457147812,-34.4340810012,-3.3986116945,1.9823850074,1.5364936311,-1.1617674562,0.0436010926,-0.7163658241,-2.7348616869,-2.9381044209,54.8916700364,0.9892277983,-0.3407576833,-0.1727832301,0.7597817066,0.9691443182,-0.3801894247,-4.482990865,-0.6924887455,1.7456175075,0.104073011,-0.0959219501,-0.1996534647,0.879796059,0.6577302125,-0.5898317086,-2.1723586482,0.0342039161,-1.1519638033,-0.8534942293,-0.7053945718,-0.1860543441,0.7363114635,-0.1997527495,0.2109103143,-0.0497191939,0.481796365,0.7411579915,1.1466376874,0.0067036156,-1.2838012792,-35.9813963097,-0.4186279081,-3.8019907158,-36.0723435049,0.6947113831,-0.4545274731,-0.099671434,-0.0946860246,0.4727896504,0.4025435231,-0.4659494555,-2.1168298082,-1.3223524179,-0.2377242567,0.1516661553,0.07172266,-0.0521723823,-0.7003128903,-1.6017745428,-0.9820803723,0.0706176415,0.358636905,0.1421442299,-0.3907122936,-0.4579255266,-0.9437366394,0.2627372404,-0.3730426632,-36.3893982808,-0.7724336631,-9.9558658763,-42.1675396262,-0.6825113315,0.1474253212,-0.6233364202,-0.2145313782,0.332084744,-0.8545329778,-0.8240269123,-0.6328793096,-0.4053159201,-0.232891307,0.530716338,0.1231058813,0.358398082,-0.190861849,-1.2468445183,-2.708592618,-0.5267858357,-0.3105192648,-0.1723014729,0.0752415768,0.3336291824,0.5893411775,-0.9840278622,-1.7047614904,-36.9135389952,0.3588722899,-31.4051581654,-1.2066576119,0.1609499183,-0.5921215811,-0.8232351217,-0.5933548591,-0.3759446373,0.5653179199,0.5796588163,0.0925940562,0.0578488815,0.1016355235,-0.9046767622,-0.2957392507,-0.06952266,-0.3456345219,-0.8202271227,-0.3129866039,0.3798758564,0.0182250794,0.8180467108,-0.8813676972,-0.2604855505,-0.1185190855,-1.4174308308,-1.9153284071,-37.3739233548,-0.5476499393,-33.0031120321,1.2170117432,-0.9490960415,-0.3956591004,-0.1222951832,0.6888137336,-0.4826357668,0.4557354278,0.3655633619,0.5849537645,-0.4818728307,-0.6806507925,-0.0235211922,-0.9124379409,0.0005130108,0.8902494492,-0.7048021559,0.433849501,-0.143562083,0.9322141627,0.8658503911,-0.0477034494,0.2489727467,-1.4040960043,-2.1258669058,1.0688840423,-42.4734673508,-0.2949320897,-6.02878151,-12.2801206402,-20.4128839524,-0.8482759827,-1.9884438436,0.0652338201,-0.8865735283,0.5925227164,0.7982863445,-0.103051457,-1.3502813164,-1.645729253,-0.6963701585,-0.0797018319,0.8126416301,-0.5670481665,0.6095028424,-0.4040311984,-0.1621346382,-0.7237029761,0.5801466025,-1.4381583811,-0.1275979248,-2.6457004323,1.3654325767,-44.1389842406,-9.8913512628,0.7692228389,0.2868594116,0.1148373839,-0.1658762233,-10.3923693136,-9.8996101908,-15.5949626082,-13.3757729823,-15.0736937378,-12.6018930454,-16.0362158521,-9.057252979,-9.3024339854,-15.5864141242,-11.0998430764,12.8858795484,-18.9594713059,-50.7072134223,-20.0804777981,-18.4758236448,-10.8757722312,-16.3310024773,-7.7651043088,-0.0175648064,0.0092291099,0.1960867431,-0.8322691984,0.9059859949,-0.8138860103,-0.8618102934,-0.5858666296,-0.8533833297,-0.1611409742,-0.2940405567,0.0117631585,0.3544802283,-0.5752546115,0.7981780985,0.168653574,0.9475800344,-0.7511273212,-0.6193264916,0.5360706273,-0.5897354569,0.9962043874,0.3813104653,0.5724066216,-0.6664573622,-0.1176122499,0.7369589116,0.7485042272,-0.3574668551,-0.5063397563,0.287752423,-0.08527619,-0.0436395131,-0.2111229262,-0.641457456,-0.5493494384,0.4669009864,0.7290336653,0.1139126227,-6.7902440693,-18.1720726174,-8.1305183405,-18.7574664056,-10.992298338,-17.8093165051,-45.2186418673,-0.2044342026,-4.008473894,-0.5894571375,-2.9482981972,-1.5653596851,-3.2575364386,-41.8246714868,-1.7828506062,2.6815703085,0.2381337538,-6.4574443288,4.3192771523,2.9821235011,0.1797896096,-0.3556753049,0.7545463625
   -0.0296258176,-0.2509787611,-34.7481710718,-0.0432326227,1.5703937171,2.333348948,-0.2769887466,-0.5619859195,0.362793038,-0.3861733344,-0.432580904,-0.9078088247,-0.5502023445,-0.8838285252,-1.6111537257,-0.7512953619,-1.5669693691,-1.1027656683,0.3328131532,-0.5490799705,-0.231046942,0.5899204097,-0.0488598844,1.2050409096,0.9896527013,0.1355649953,-1.6819214451,-37.2611814584,-9.34949864,-33.6935385655,-37.185428347,-7.5890359608,0.197964258,-1.7665169245,-0.7514567263,-0.4598679549,-0.5234053156,0.630915847,-0.7006321428,-0.2210853079,-0.572768021,-1.1139177851,-2.5664811659,-2.8065746028,-0.751056127,-0.4641737459,-0.1401338741,-0.7542272744,-0.1912506241,0.3874095543,0.130656872,-0.5512157059,-2.4769371475,-0.4598820428,0.2209758118,-41.8331601788,0.942011114,11.0520569209,-41.1401426439,-0.4615232863,-0.1215158872,-0.27122788,-0.0481349503,0.6493311284,-0.3026031046,-0.1801403868,0.7310306538,1.020931662,-0.0423663993,-0.5912758765,-0.5534889887,0.1905504611,-0.0076669233,-0.0759295949,0.1618776741,-0.2463157609,0.1303420304,0.6988067111,-0.4282876006,-0.2844571305,-0.3228719761,0.4661725841,-17.1603390593,-0.6612916766,-0.3826702168,84.6868598078,-12.0428672683,0.4179462116,-0.3875700502,-0.1365711849,0.2055161601,0.5068243886,0.8528820431,1.1057545379,0.5316796926,-0.6785683332,0.2103537228,-0.3841881251,-0.8107693761,1.0915517868,-0.0658733375,0.9033640251,0.8724885001,0.7020626189,0.7286187323,0.3965915819,-0.1048007029,-0.8871640858,-1.3461031154,-0.4854990611,-2.8231638595,0.9142120098,-0.3167190573,-0.5590524491,-41.4346443505,1.2122411513,-5.4457299128,-0.808547302,-0.6045136472,0.2684131305,-0.4451536412,0.4715748059,-1.1465828222,0.1396114206,0.5563135386,-0.2284985985,-0.2620210745,0.6767751183,-0.8172527058,0.2848028638,0.1955059259,-0.8649378759,0.3703876403,0.4956985395,-0.4330164525,-3.9633629175,-2.7474788447,2.0112595147,-14.2584010142,-13.0161686285,0.4850901815,-0.0059417339,-4.7305458075,-9.0653849929,-34.709992981,-0.8856458427,-0.0513476276,-1.6157188461,-0.7714090021,-0.4733454279,-0.9494025083,-0.6100825181,-0.3249145548,-0.4135151976,-1.1390472734,-1.3575260883,-0.8852072184,-0.4094460009,0.2495395926,0.2175881762,-0.6580791563,0.2776259495,-0.1589101661,-1.7423099178,1.0192664565,2.5676375122,-37.5656499349,-0.1472248563,0.7021349599,-0.8391687392,0.0345145228,-0.8936762508,-8.6886487023,-9.7037834582,-17.9577340285,-1.7432716684,-0.6586841322,0.0640048903,-0.4435631226,1.1381921522,-1.0123765591,-0.9311739604,-0.2343393579,0.1010529292,-0.8806351395,-0.9420591841,-1.110931894,-2.5489200888,0.0632614036,-1.8294709686,2.3633994467,0.9387713069,-0.4127494994,0.9060851251,-0.6231958616,-0.6775367744,0.8774223836,0.0561992591,0.7584003135,-0.2579032132,-0.8734434824,-0.0446899188,-0.7593545416,0.9805477858,-0.5701499719,0.7411984631,-0.4281148383,-0.2355850818,-0.582118469,-0.97891344,-0.4546384427,-0.9949823265,-0.222741432,-0.4964784093,0.5240718046,0.1620306811,-0.3121096836,0.1582132502,-0.4888413328,-0.9235220364,0.059699298,0.4116384216,0.8986460549,0.0309003488,-0.0484161176,0.3862242988,0.5273316856,-0.7054918581,0.055443985,-30.8696319792,-0.6356292485,0.2647457325,0.5170000101,4.4507535098,-1.3089031368,3.5394722651,0.0751045268,-1.4665885724,1.0229731654,-0.5002296664,0.3671292782,-1.963137194,0.2792676441,2.3560856286,-37.245614415,-7.9712062862,-6.7732844609,-8.5622661896,-8.6563771254,-0.980940468,0.5298620418,-0.1056209773,0.3560742136,0.5103819721,0.1371136071,-16.9704100549,-2.2048935862,-0.6144621707,-0.2070869542,0.8706290927,0.4813134562,0.0313781131,-0.4630437368,-0.2451735581,0.5794008989,-0.3756695147,0.4670168163,0.3285914782,0.017448573,-0.1586393964,0.2238330123,1.1802836485,-1.7482280965,-3.4116540856,-2.6173478222,-0.8681599342,1.9630596741,-17.2470839761,-17.9131776209,-9.7839557292,0.7202615866,-5.0622469095,-16.4534195801,-21.0899871884,-0.0147652806,0.0235010522,0.32577844,0.2215610228,-0.7372217489,-0.0303956487,-0.3849606664,0.3541162372,1.3500644358,0.9857698313,0.1000187927,1.0904267575,0.8788093322,-0.5563899184,0.2693567051,-0.5456156339,-1.2990909482,-0.0343233868,-0.6016528369,0.3418921777,0.7203395691,-0.3001594153,-2.9856865611,-37.1630707106,-0.2529027026,-14.2122727564,-37.8588913119,-1.7964224818,-1.0049939018,0.0263400006,0.1158809597,-0.1666359201,0.2574388383,0.1765599081,-0.3888900122,0.2625076696,0.2778700085,1.2361404546,0.5486170399,0.8762940605,0.7822725264,0.7538187403,-0.4308619762,0.0526384052,-0.5134789473,0.748125081,-0.2020921759,-0.1395203431,-0.3040620064,-0.8518180694,-3.1581401318,-33.8006121372,-0.6879482857,-40.5621608307,-2.2478629611,-0.2044095892,-0.7974108534,1.6065696742,0.0512909486,0.6162528458,-0.2110861421,-0.2276774695,-0.0868972692,0.6341391397,0.1679732833,-0.0022207629,0.4803691198,0.4334643307,-0.6282010018,0.958527929,-0.6228356914,0.1327603038,-0.2062703959,0.7003984732,0.1147745546,0.7601665598,0.5595581038,0.1495230594,-4.4188671959,-38.1760354771,-0.6599954592,-11.1918517148,-36.6058565149,-1.1957021471,0.2228236606,-0.4243850994,-0.8022647727,0.4628960571,-0.5169853687,0.0242695209,0.3052575762,0.1838460737,-0.1571429758,0.1829423443,0.0654407554,-0.2381409589,0.6019353793,-0.9431968544,-0.2107375912,-0.1940062589,-0.8637013476,-0.0089677907,-0.71524829,0.8389342881,-0.2157805621,0.1649046919,-2.1405292176,-34.8774310498,-0.4852233996,-17.3556737794,-34.1481562675,-2.2904768115,0.6578645183,0.4516976771,-0.3913739424,0.859218555,0.250037429,-0.422016347,0.1445495917,-0.7422027678,-0.643896761,0.9770605718,0.6645323389,-0.8389522638,0.7270275114,-0.7288738475,-0.5230732873,-0.0205458714,0.6326326726,-0.1411335964,0.1726303243,-0.0539448696,1.0146890111,0.6282699969,-45.407673475,-18.6193839974,-0.6240094231,0.37445019,0.2519496018,-0.923174584,-41.7554696972,2.0096383176,1.7951224335,0.4454915573,0.4994805375,-0.1483316974,1.8595129361,-45.546935632,-44.9140724552,0.5485911629,-0.4453126834,-0.0073562051,-1.5940736297,0.5031774852,-30.6706829241,-31.8985110471,7.5827210004,3.2970260353,-1.6150714755,-0.8454450812,-0.0371832002,-0.7563439603,-0.4171849435,0.6566890558,0.857948745,-0.406018272,-0.9050430198,-0.9955502144,-0.7705990684,0.5699822784,0.8872247522,0.131791459,0.8670721681,0.1710939293,0.4731070172,0.2318788302,0.9347267399,-0.9885898296,0.5186987929,0.2445007237,-0.1291095261,0.4704863118,-0.3810972393,0.2972185011,0.3235604222,-0.1357143286,-0.5136498082,-0.1419371969,-0.4984597545,-0.3559202708,0.1858542184,-0.1424094666,-0.1205287021,0.9519232592,-0.8067756479,0.204291173,-0.3896579932,0.7491993722,-9.646231792,-8.7032655782,-6.5785211113,-8.8025507474,-11.4368989014,-21.271174419,0.7292564109,0.4107071527,-1.2190804645,0.8160866582,1.3067623853,-0.8992176652,-1.2201354032,-0.710612948,-0.5805209142,-1.4594594281,-0.4527916116,0.5496696735,0.9451324146,-0.295546174,0.5129917494,0.3250166753,0.0351102185,0.1932099136,0.1732609868,-4.5971274048,-20.7935094677,2.4293845513,-4.3505395273,0.6399866552,-0.6340513532,-0.38227586,-0.1796537276,-0.1193281402,-0.6707124038,0.5385571646,-0.0995080574,0.0306089723,0.2342813741,-0.4773167976,-0.4431444306,0.5460580982,-0.064765391,0.6954181172,-0.1214539017,0.0404851519,0.0371030902,-0.0685719277,0.8133888761,-1.6398961087,-0.4173769274,-1.8535612989,-12.9694309601,-13.1813235987,-19.7004288211,-1.7225981037,0.4465990296,0.2702582977,-1.0100592051,0.2975029127,-0.0684986368,-0.6817929471,-0.3008735021,0.9015951906,-0.1309292303,-0.6802936665,0.4306121895,-0.8117711535,0.6243583747,1.1497813315,-0.0003729482,0.6760436484,0.4071023763,0.9310045683,1.2279773122,4.4364581213,4.0095160706,1.970092544,-6.9050575067,0.6154142031,-4.4439415384,-9.0584692148,2.465910674,-0.3249417386,-1.9052953094,-0.5374224115,0.5855070861,-0.3748106192,0.9503542098,-0.7242236809,1.0513139242,0.9598442183,0.8850851318,0.9983545972,0.2497870129,-0.5271338432,0.8157052074,0.3248632712,-0.0559327346,-0.353754262,2.4512753377,-1.6759817276,-0.1064808449,-0.1892041594,0.8854396337,16.8989815865,-0.0033159741,-0.0382078869,-3.8564640696,-44.3139488928,0.3648119444,-1.2789840474,0.4064669257,0.4470283701,0.2059738747,-0.4482665787,-0.5510822499,-0.1956344566,0.6646698751,-0.6181293323,0.4606520611,0.3447599258,-0.7009757992,-0.3156015337,-0.4675704057,-0.6067545859,-0.0666384535,-0.2848481548,0.6493429123,-0.5549567077,-1.4469761522,-1.5958402039,-2.1432734556,-37.1588879404,-0.762105707,-0.300960439,0.0696631588,6.3098609012,-1.4663366747,0.1980866979,0.4157067871,0.9632168197,0.2517279067,-0.3424869308,0.6981638949,0.4711173507,0.3496608354,0.05328729,0.2822560189,0.3775821275,0.0347778835,0.1523446283,-0.8926931585,0.8221865861,-0.71737037,0.0571375856,-0.8098415203,-0.5983396239,1.2916915796,0.3968787984,1.2909197633,-33.220127733,-33.7691923593,0.6085762094,-0.0596833236,-41.0592970637,0.0072837574,-0.0507427257,-0.2137255925,0.3073363391,0.1466624915,0.6113086274,0.2244652954,-0.5090252444,0.3135079772,-0.9291717097,0.8512071043,-0.2666466447,-0.3975094208,0.7065138693,0.7566368143,0.0036446197,-0.2806789333,0.7262357201,-0.0577587168,0.6948491408,0.5490797246,2.1444504151,-18.733089385,-13.2887068808,-0.2133907818,-0.5765163942,0.9716243311,-0.9141817967,0.8939959801,-13.257082664,-45.9688243535,3.8090460815,-6.1468986722,0.4537487588,-1.3832512704,0.1919360258,-0.1255716422,0.9327024925,-0.2104804034,0.6706028723,1.0512621191,-0.1802180244,0.4127416088,-0.1268702636,0.8852244033,-37.3858998891,-11.3580884049,-16.3289828835,-15.9081580304,-0.8130801532,0.2368084581,0.2849518622,0.3004367818,-0.1124303147,-0.2700904166,0.6177171853,-0.679971382,-0.8741680301,0.1150701183,0.3735501862,-0.288294654,-0.207838495,-0.2468921226,0.8026916632,-0.7455544087,0.006755659,-0.4965294682,0.2420902112,-0.5540638756,0.6439399871,-0.3059141485,0.8632373445,0.587473772,-0.3352188064,-0.9111068343,0.2633863844,0.7142040415,-0.046759923,0.1733675715,-0.1545322094,-0.0589906952,-0.1488228261,-0.4216499019,0.4320130575,0.2943588279,0.0875233125,-11.376688799,-21.6277108994,-15.306588247,-18.6914979943,-17.8147731275,-14.01838405,-40.5325637413,3.0274360036,-45.2177161813,5.3927629266,1.8518040356,5.9848910223,-3.2903028555,-0.0167711634,-4.3283142263,-0.3238702728,-0.1387174167,0.5539023586,-1.5837113321,-30.8043821351,0.2719957245,0.9849479341,-0.2577657911,0.645922028,0.6650892588,-0.6150268762,-9.6916093797,-37.9636706197,-1.7792836729,-0.8235916438,0.4706150412,-0.8014171839,-0.1750124901,0.6762929119,0.3928888616,1.0472801109,-0.3526337283,0.0663114202,-1.3017740524,-0.4863389631,0.8083153718,-0.37447447,0.7753441287,-1.0333698428,-0.562274379,-0.4714813491,-0.1135225666,-1.0489826128,2.7812808438,0.0018140013,-8.8419519318,-0.5194495639,-3.4300120338,-9.9661313504,-21.7231643304,-0.7802169556,0.4270400532,-0.1459971944,-0.2735479795,0.4669806841,0.2407925932,0.865826701,0.0648766419,0.3142217537,-0.0257761513,0.8760253803,-0.5857188649,-0.1560852208,-1.3461328445,-1.6205665978,-0.3201672886,0.277441071,0.1585986466,-0.3683987068,0.6311642505,0.3967183428,-0.895160161,-1.9681557306,-30.8880263676,0.1001012485,-15.0975511674,-38.6857899744,0.3009488742,-0.5554168223,-0.4469930831,-0.6622495045,0.1548262071,0.6169172367,-0.1248966226,0.9149078302,0.733884783,0.4493784957,-0.3026016867,-0.5992532441,0.343046723,-0.260519484,-1.8109523166,-1.4317254399,-0.1522695683,-0.3313021933,0.6868802671,0.5692027974,0.5430365747,-0.4020261303,0.0886032174,-0.1307135428,-34.0357480216,-0.5494382201,-22.0406784674,-41.315437278,-1.15980508,-0.0944092804,-0.2771634966,0.7414840022,-0.2292558746,-0.7089888765,-1.3208065641,-1.033471491,-1.6316128701,-1.1316467513,-0.8240784675,-0.8483516209,0.0739631681,-0.5961460074,-0.8334584368,0.0438978306,0.4991541942,-0.565843456,-0.2146140609,-0.4351331414,0.5367336075,0.7476882726,-1.7531068119,-0.1874785443,-33.9508441258,0.5912039849,-14.7093431447,-37.0203281385,-0.164940853,0.6007158969,-0.0254372423,-0.3656706977,-0.0439270477,-0.0745010686,-1.0420711639,-1.4462215036,-4.0022096446,-0.4814645563,-0.2065976901,-0.3512375028,-0.5046296373,0.3986096101,-0.2570614359,0.6536991889,0.4381920897,0.1561462049,0.4638716508,-0.2082381254,-0.6965232958,0.4101121442,0.1599331991,-38.5567742128,-17.6590624213,0.596789115,-15.254125833,-34.0742976529,-0.6355843768,1.3947491594,0.0710047702,0.735700882,-0.0798753228,0.7139143603,0.150830948,-1.6818702087,-5.9332387167,-5.6386728133,-0.3088198208,-0.8830972603,0.2879244414,1.0011708278,-0.4335292343,0.7306133775,-0.096999426,0.4014196515,1.2550790071,0.2078450128,-0.6039638337,-0.8096710268,-17.6978918787,-13.4295595076,-5.1948814165,0.6918278423,0.2889016958,0.5871144045,0.5328760104,46.0724049819,0.2053985181,0.1891973334,-3.0503895535,0.2021162938,0.6535174228,3.6296265028,1.3820970967,-0.1129474984,-55.4317470849,-24.6416803063,-37.122917999,4.3079318629,0.411876067,2.8167369691,-41.6752625827,-29.7650991575,-17.9064680105,-18.988995944,0.2703225167,0.0753302184,0.0795645229,-0.8722738936,-0.5198327644,0.3590836756,0.4943344592,0.7513181617,0.2213458312,0.3739829709,0.5987769096,0.8197802074,-0.9992809478,-0.0468240018,0.6276500868,-0.7480331975,0.5586224645,0.7189080017,0.3149503759,0.1002828879,0.8255944914,-0.029445352,0.787957051,0.1270101034,0.5838163711,-0.3144301349,-0.8613543775,-0.721295646,0.403576297,0.8286615348,-0.5072186038,0.5039775054,-0.074929066,-0.3442632523,0.84438978,0.2736053873,-0.8741725585,-0.6550649555,0.5120309082,-0.3441231678,-1.7089431877,-1.7589967983,0.6101758608,-0.4701971526,-0.3196645028,-0.3494614117,0.5558071104,0.8681354067,-1.4387420436,0.6257826075,0.1352612755,0.5689296557,-0.3074109917,1.5072380368,0.3928972758,-0.9759039905,3.8702150867,-7.4987083289,-3.3019694582,0.0272314646,-0.497602203,-0.5461841088,0.5087795339,-0.4791321465,-3.4506993747,-10.4013186737,7.4868054583,-1.4331758636,0.7613320106,-0.2463050553,0.0268399097,0.4472728247,-0.0189206267,-0.1179812108,-0.7341386762,0.0857238063,-0.0691871727,-0.0835150587,-0.4947710014,0.1878168286,-0.6122027699,0.0837384525,0.8582344855,-0.1777734555,0.1966754521,1.0762672751,-0.1282995956,-39.5373278497,1.2510504402,117.1108679156,-0.9519832393,-14.3912904149,-5.3768644156,-24.0383638915,-1.8545448464,-3.9567982337,-0.876676599,-0.9371978101,-0.9193542415,0.6543096121,-0.1887138887,-0.2577956082,-0.0386510534,-0.4141493517,-0.6744384091,-0.9191367743,-0.0294174236,-0.4171559957,0.8727445872,0.8438123757,-0.367238665,0.0857578746,0.7791351026,0.24334012,-1.9950602915,-1.5506661617,-34.6203973699,40.8300578712,-0.2341291324,-2.2624074733,-5.6890651466,-12.6989193683,1.0138055691,-0.6509143592,0.0504278546,0.1509104822,-0.3781318348,-0.5296680179,-0.2124723233,0.4674295892,0.3669448891,-0.4708085594,-0.2970578119,-0.5366246052,0.3875269266,-0.3228741325,0.092550475,0.4592790302,-0.1001572537,0.3969820571,-0.0135362325,0.1791185158,-0.198814207,-6.3998666485,-42.2264382372,-0.6159207964,0.1479309124,-1.8142868258,-3.3303029772,-18.3609728129,-1.5502113924,-2.3839657554,-0.8521556793,0.0247143659,0.322738985,0.6570724228,-0.7512477375,0.6296734677,-0.5206496607,0.2257371009,0.3588439892,-0.7449789642,0.9297399789,-0.8391126636,-0.2446639832,-0.4749738691,0.5039341068,-0.1400992927,-0.2079401023,0.4857595225,-0.327030445,-1.2748687976,-1.5561901936,0.8883957912,-0.5191205631,0.1484543398,-8.6548444291,-17.9536147761,-1.128430762,-0.3895728192,-0.3003735326,0.01232635,-0.4160111223,-0.6023323869,0.0188806522,0.3543947074,0.6220803949,-0.5468563598,0.8209699974,0.691827454,-0.351767368,-0.3624476354,-0.2404561432,-0.7418796091,0.2036962703,0.6707840735,0.8001001548,0.2434106417,-0.351091602,-4.4728573399,-35.026826205,-30.5728615004,-0.9890839761,-0.5413479925,-4.7844417707,-6.9306938029,-45.3632843197,-1.0251058263,-0.8527589594,-0.2166810908,-0.5016220593,-0.8901442447,-0.0559673993,0.3529310516,-0.0510182804,0.3648000717,0.5763004209,0.8198432007,0.1436855818,-0.5049993227,-0.0365820841,-0.2547982286,-0.3855227325,-0.4580540308,1.1229947819,-41.0612997173,-18.8815678339,-9.2885696981,-12.1165170738,-0.0017242284,-0.8997339776,-0.4266604082,0.0711564928,0.5388338953,-3.4656731315,-4.4315021369,-5.0732639824,-6.8319884162,-8.2275234799,-8.4434298756,-18.0224964663,-15.8513691267,-16.3892024929,-19.7885407636,-19.7705309205,-16.3207890446,-16.0937913291,-12.073682747,-18.9184891178,-12.7540355719,-8.686587197,-8.3242713184,-17.597341232,-5.049348463,-0.4464049433,0.317325822,-0.1901043084,0.7608693385,-0.3649537483,-0.3520657908,-0.9766440893,-0.3873390073,-0.8889169089,0.6975779829,0.6247735603,0.0114701171,0.5387143456,-0.0996504363,-0.5301146083,0.758541829,-0.323319848,-0.5239573236,0.4280581681,-0.0500594277,-0.0273171983,0.0818416708,-0.637012094,0.2398728232,0.9770081463,-0.7170190545,-0.2688025816,-0.0731140244,-0.3096479751,-0.5248136837,-0.9438559926,0.7457556413,0.3536625793,-0.608288773,0.0357500821,-0.2521261834,0.6878120432,-5.7636270755,-11.1039565801,-24.3820028955,-15.8161114371,-17.273173576,-14.5011616628,-11.7843420994,-13.6080452786,-7.1305941862,-15.9169825886,-13.0447992905,-11.7368033426,-11.6221555533,-17.2426310745,-13.0025778862,-8.8237515007,-6.8205662865,-6.3907931526,-4.4184826515,-3.8125844558,-0.7643596675,-0.8459431017,-0.1867790945,0.5254274046,-0.6150591494,-0.6452943535,-0.7257055849,-0.5896869447,1.6933308631,0.7559459954,0.323871195,0.014816521,0.0923177869,0.992868888,0.094779338,0.3263012004,1.3266078403,0.2941242865,0.4914781991,0.2484089185,-0.4900799327,-1.09898265,0.1613067304,-0.4633541582,-0.2039644472,-41.0684583512,-30.5264922441,-26.2437482806,-3.9666882246,-3.4566469808,-3.2298871954,-0.0909154443,-1.3229801061,3.5635025669,0.5318247312,-0.2538113542,-0.2994738687,-0.9591106605,0.4579173687,0.6704322988,0.0705530912,-0.8237125709,-0.7088825435,0.9330049743,0.3283252787,0.4928371636,0.3711927919,0.8752320637,0.3463046444,0.8348128295,1.0576695912,-0.5803521256,0.4386983759,-0.6275286575,-0.3975934472,-41.890520714,-18.5560426107,-6.2858325098,-4.2786617244,-0.5790715454,0.4389447375,0.5202298012,-0.3913079881,-0.884731953,-0.1688417676,-0.9790870928,0.2949737399,-0.8401300349,0.5352204841,0.498896051,-0.7525714683,0.1408826416,0.7165784233,0.222733899,-0.5068286846,0.8412043352,0.6992291055,-0.2771927855,1.0883253163,0.2543997394,-0.2916798112,0.122333947,-1.102297341,-2.8299840492,-19.1840049436,-9.2106919055,-4.5409793705,0.442205995,-3.2236164341,1.0966392813,0.4404306491,-0.3776371827,0.5443279536,0.2481301393,-0.4851042565,-0.6457412844,0.0838854582,-1.2526156502,-1.476290994,-0.5610635928,0.1778532927,-0.825359119,0.5747455684,-0.1715958878,0.6907014978,-0.5026830331,0.8579635435,-0.3258931029,-0.4966408732,-0.3385364334,-2.12547374,-1.7338580253,-19.5873216259,-9.3321849589,-6.4885812866,0.1954877363,36.0574595736,1.1474193417,1.5927602748,-0.6921258755,0.7844666653,0.0257731623,-1.4244665734,-3.1836541454,-3.0187934305,-1.2637436495,-0.6795598374,0.0613998945,0.2053583777,0.1111744395,-0.2775714382,0.4356669068,0.3653303508,1.0284511315,0.8019251605,-0.3082013448,0.6021386364,-0.0963799651,-0.9806913066,-44.8391231427,-17.3263385024,-7.9262755485,-5.4660927281,-0.8803032765,28.4514821144,9.0549171027,1.4756025073,-1.1842942168,1.8387015212,0.3131308587,-0.8920752049,-3.6687564976,-0.1637550833,0.5963514103,0.0976830532,0.0489230831,0.7401680213,1.1388021146,-0.3541216442,0.2964692684,0.1325758149,-0.0757300814,-0.6490927457,-0.2570830722,-0.801404734,-2.0385863538,-38.1118855783,-17.2216801096,-7.6061409454,-16.2942372355,-5.5927383306,0.6734816406,-0.5856042914,0.825393286,-0.9080066523,-37.2958796157,-2.0700654344,-1.6302971913,-29.9599911169,-105.9073729188,-52.9736568384,-0.3065688721,1.2467949082,1.913224613,5.7285356137,2.89940299,-0.7461588,-2.0886584041,0.1687399062,2.8191918828,-1.125917797,-22.696042466,-12.5626571656,-10.8493272256,-0.1194537379,0.0055936874,-0.8942263657,-0.8076660363,0.0855913441,0.4966224429,0.5550156099,-0.5454838453,0.0897923977,-0.721405129,0.1327982535,-0.1310369152,0.6251570067,-0.7519101519,-0.6133362765,-0.7904136678,-0.4282507131,-0.8160880128,0.2713592291,0.0993900965,-0.3622394866,-0.6451943207,0.7784317087,0.9202475178,0.0968311584,-0.9542523447,-0.248020023,0.0826628429,0.4654361437,0.5106313649,0.0233765944,0.4133313648,0.5031462507,0.3226670814,-0.6000975512,0.6599373292,0.8897730892,-0.4340480077,-0.8623901684,-8.8178220824,-8.4217386841,-5.3223579681,-11.5177383409,-7.8386117307,-9.7273351438,-10.977603127,-19.3560512941,-19.9436582141,-15.4089857671,-11.2349092074,-10.9339388478,-15.6828792386,-9.7472217974,-9.5504131306,-6.6681750018,-6.4034348937,-9.5884951601,-9.2894942977,-4.7886323112,-0.5943944002,-0.5228782868,-0.4080577731,-0.92641518,-0.514852714,-12.6442059944,-19.8205081619,1.5827566856,-1.8600286109,-0.6719553981,0.537995119,0.4381332798,0.5852172904,-0.6433978827,0.0148032341,0.2922823831,-0.4033328274,-0.8130213662,0.2541428107,-0.7061412472,-0.2110434986,0.3370788066,0.0175780454,-1.0723390692,-0.3242591795,-1.2528625844,-3.5673142011,-37.0071326812,-16.7897590463,-4.7862626283,-5.3766293409,32.2779937253,-2.1207958696,-1.0191594869,0.1383456527,1.670656574,1.1727340282,0.351738487,-0.6576472297,0.8407839871,-0.4875089639,1.1404681906,0.5187020532,-0.2403932509,0.4912322257,-0.5350458311,0.3048037829,-0.2283763292,0.7079448152,0.2246608214,-0.2365270619,0.6989649224,0.0111670574,0.2012428378,-0.0574089327,-1.5098317244,-19.373153655,-13.9560936121,-6.3238483661,0.2851367521,35.3728867998,0.1829628443,0.5369451715,0.1702880173,-0.0805672316,0.3465759011,-0.2541765887,0.298012005,0.4492286819,-0.0257686113,-0.7048234635,-0.2526563372,-0.2547681566,-1.3682921034,-0.234980951,-0.2551194903,-0.6384791533,0.3480900615,0.2987613575,-0.1354298714,-0.045792559,-0.235994012,-0.3337095758,-3.5655959086,-19.4605219015,-8.4105880616,-0.1073951658,-0.5580670666,-9.6868621202,-33.1914341181,-0.9919245132,0.3826403111,-0.1900271294,1.3251166357,0.5348791884,-0.4579981221,-0.7422982676,-0.1560753253,-0.7441565837,-1.7506787653,-0.1786459085,-1.1436940611,-0.7353348783,0.0781229742,0.8465123368,0.6449899543,-0.1216893411,0.8847327943,0.624643502,-0.3243782188,0.5936287074,-2.5383137619,0.8127441052,-0.6289669226,0.8554060213,-0.6118570862,-0.4856248188,2.8027238361,-0.3157803946,0.4599891815,1.6911325374,-0.6804395375,-0.4904849895,-0.6459441815,-0.8709567087,0.5416622083,-0.0048108744,0.2653442495,0.3017233738,0.8285872276,-0.8054091983,-0.068701522,-0.5060984256,-0.1206023081,0.3001008518,0.1473013605,-0.737816087,-0.5072719778,-5.0068387487,5.4886163866,-19.240938173,-9.321391289,-13.496018969,-0.171380952,0.162892016,-6.6896488614,-19.2345130558,0.017374002,1.8358147613,-1.2730274704,-0.2130465892,0.3253231352,-0.5559819845,-0.7803227136,-0.3411842506,-0.3025124905,-0.2354294619,0.5243329194,-0.0326491966,-0.0447001899,-0.3976464883,-1.1084438682,-2.0249928027,-0.5525411958,-0.4472308261,-0.7019345975,-1.1833166213,-40.8723237574,-5.7233114823,-12.8569564014,0.4660502124,0.1145645646,-0.0193450081,0.72171909,0.2224989794,0.1916585922,0.4152924656,-0.4423431558,-0.1331115819,-0.340725287,0.3555287883,-0.1195211862,0.2474984769,0.3212752979,0.8074888674,0.315298946,0.2790210268,0.7782089055,0.5418633226,-0.8110040539,1.3328856413,-0.2214703076,0.2165548875,-0.4512202397,2.62901231,0.2235353638,-0.0753100398,0.3469253037,-0.2033938294,0.205155978,0.5029356637,0.2145685248,-0.328795967,0.551047833,0.9346204873,-0.6539637566,-0.4722456784,0.1766390509,-0.7020838475,0.9861140535,-0.3750192048,0.0495515281,-0.9978462632,0.140568175,-0.6475498562,-0.3416472359,-0.4595806576,-0.8595823471,-0.0140856118,-0.6850738286,0.7964715884,0.637480487,-0.5928692015,0.1107715385,0.3512922572,-0.8984930848,-0.5165278765,-0.1524508568,-0.2654160935,0.3892122185,-0.6973609276,-0.237820767,-8.1019054055,-20.3817473806,-0.4900049478,0.397334114,1.4908955682,1.6913997408,-0.4890022212,0.2123902135,0.2003863404,2.3637061362,0.2506042851,-0.0741331294,-0.9407428256,-0.5440031073,4.1594952415,-45.047641126,-16.5823034816,-16.4353210825,-10.894161756,-16.0050585719,-0.2356447216,-0.0524021718,-0.1180029936,0.092456496,-0.68049452,-0.8227231585,-9.2797119657,-30.7885231052,-3.7306608231,-0.4922861147,0.8008267393,0.2103235604,0.5108276114,-0.6485632035,0.4478761812,-0.432160537,0.1773286461,-0.9535069897,-0.7288673663,1.1047848263,-0.0657418949,-0.0830861057,-4.5946413781,-1.0650095167,-1.3117389973,-0.8176542943,0.9889440779,-0.4597480439,1.6299250098,-1.0502592637,37.1537653429,-0.2375169131,-2.310011299,-8.1608136426,-10.7238752171,-40.9067141336,-0.1560275147,0.1929852848,0.5847132648,0.3756321086,0.1728561368,0.0210915578,-0.6320425033,-1.1381868622,0.0424489833,0.3292038668,-0.2735024636,-0.0783219107,0.0534503704,-0.142027953,-0.1336302665,0.3904020445,0.6482846391,0.8510088507,0.6834765802,0.5718079111,0.788717191,0.6303961503,37.5271019407,-0.009590917,-4.9296296034,-9.3658836519,-19.8186285543,-1.7141072345,-1.1145082581,-0.402085772,-0.4303968634,-0.5242230961,0.1774862144,0.0040688091,-0.146371816,0.7236282466,-1.0519852107,-0.586230628,-0.8532373315,-0.958800685,0.6184129052,0.2615535277,0.5029916742,0.0089222283,0.3899956132,-0.2312440117,0.1090679836,0.0343950621,0.0530303846,0.3409468341,-0.2271882124,0.4446060642,-6.7764259571,-9.9216487462,-16.7351722695,-3.5163772846,-2.130144897,0.6015269015,-0.2676222914,-0.351078786,0.3318028591,1.6680810486,0.1231972331,0.3491171069,0.6750937372,0.624849783,0.0012550876,-0.3954095972,0.3599402195,-0.3568879156,0.0823556587,-0.4103726449,-0.0661364637,0.333199633,0.1824432863,-0.1757290679,0.2134606527,0.3079263497,2.0273115465,-0.641225851,-3.4575317295,-6.3369772635,-9.9864843466,-37.8061590386,-4.2988282003,-0.6060155278,-0.4460188068,-0.5608684039,0.6706143386,-0.1331330053,0.0158299524,0.4177870454,-0.7384898242,-0.2836433986,0.2302743344,0.4294074193,0.03906055,-0.0114396651,-0.5749428461,-0.6893214206,-0.4016199348,0.1439755739,0.2411114704,-0.0888379623,-0.6041740104,1.3878935411,2.2269364173,-0.016811401,-9.4391192831,-9.5860973989,-9.1130010269,-37.0322258831,-1.7176141956,0.3715853068,-0.0113074108,0.2286723857,0.1652337731,-0.8661602432,0.0327769974,-0.5386182846,0.2673164328,-0.0603059102,1.7009613349,0.0675435933,-0.7737426648,0.8018462396,-3.2551650236,-1.7102752564,1.9553533902,2.3875179023,-1.3633850304,-0.9159890395,0.8485115787,-0.1154300681,-1.0444924224,0.5746421499,0.0346393705,0.8826673045,-0.5435225662,-5.1003914054,-9.2968634171,-15.9686557746,-19.4064923977,-15.4762056801,-19.2589080074,-15.6936488357,-10.5054730855,-15.769368319,-18.1469408129,3.602301769,-2.7291670322,-40.717549344,1.7211764408,-17.040612257,-17.2101893279,-4.5706445535,-14.1469168213,-5.8129740545,0.8092147735,0.7810721705,-0.2071727821,-0.1094947469,0.8917664189,-0.4577284458,-0.6396735397,-0.393877131,0.5245783371,-0.4004388407,-0.4836917276,0.3834973323,0.5733563825,-0.6147214431,-0.7552039045,-0.0341557178,-0.0883405978,0.9012871457,-0.8313205623,-0.6348902936,0.8097869782,0.2759849387,0.4198635869,0.4168423633,0.8975191863,-0.6653810482,0.6184279248,0.6960282631,-0.6039784301,-0.4967821861,-0.0938944665,0.3641995922,-0.1857722716,-0.1780330634,-0.2697934519,0.2073515211,-0.5985963469,-0.8043261712,-0.2094612484,-7.8485363503,-15.9337909029,-6.6215873718,-16.6871190208,-10.6002079567,-20.2681315328,1.590576423,-1.5617579591,-2.829319408,-0.881398317,-1.3327366492,1.015229947,-2.579799762,-0.0413576243,-0.3734790984,-2.652564442,-0.667599581,-1.382970052,-31.4060935772,-27.1278252355,0.6438510024,-0.2998169298,0.3367990286,-0.6023666426,-0.5499606783,-4.8195654289,-6.8199299735,-40.1234845718,-44.8636141785,0.2040450658,-0.7541263067,-0.7864214205,0.0639561845,0.2555319667,-0.2246536109,0.7897830627,0.456355146,0.4515322354,-0.1830820642,0.3838855782,0.2763785503,0.0526782311,0.5164469904,0.6293886378,0.6887877526,-0.3782519465,-0.0743470214,0.2246008832,-1.0151122972,-0.004752887,1.341443341
   -2.7776584445,-19.4151671993,-7.1248607546,-16.8560186998,-0.7583751283,-0.8827954944,0.3316116087,0.0123746325,-0.015098147,0.294698673,-0.6796967933,0.8245797698,0.5680857355,0.7861819878,-0.817728284,-0.942131133,-0.0481273992,-0.4737502803,-0.3225653102,0.4774092687,-0.4089351581,-0.4872384253,-0.4537584577,0.6927402021,-0.3676549049,0.2708211868,-1.9202354673,3.8697785505,0.6941270906,-3.0213898372,-6.6139655544,-18.7615071456,-2.0101646402,0.1716265239,-0.4651499124,0.828409283,-0.6923587304,-0.6689307127,0.6033265161,-0.6350836095,0.1227008517,0.08452613,0.8015741446,0.6812369427,-0.2404289468,0.5750189589,-0.4048206162,0.2342974317,0.1721576999,0.485666904,1.0897022951,0.7924506892,1.0640187451,-0.4895168026,-2.2304758127,-0.9447050339,-0.4932401517,-1.6648359128,-4.5565885847,-17.0054926501,-1.5128462787,-0.1856227498,-0.3902968001,-1.361892854,-0.0946734093,0.5649836557,-0.100435925,0.0976807017,0.0830155554,-0.8276939669,0.7572565266,-0.5113439043,0.1983519731,0.5845073588,-0.8983289369,0.2745483079,-0.6797169461,0.5752279111,-0.0473729763,-0.8907936244,0.8139532348,-0.5342871597,-41.9292900628,-0.5119439839,-0.0372124469,0.641989099,-15.8646085633,0.236516234,-0.5809305437,0.0766356536,0.0090811209,0.08132675,0.3328009527,0.4229790396,0.2503111225,-0.4665460132,-0.5206086841,-1.2559785164,-0.6406622876,0.4413174648,-0.0049205819,0.3230389943,0.0577388271,-1.3856381715,-0.5882792292,0.2973943077,-0.470959239,-0.1615032794,-2.6658046,-18.9734348051,-10.7097397638,-17.4577541201,-0.7906364361,0.1569397189,-7.6486541568,-19.97223209,-2.663975338,0.4834894235,-0.5320105604,-0.4379163367,-0.9874296703,-0.505581832,0.8067728289,0.7145853347,0.1126545822,-0.2838505428,0.6051801702,0.338225516,-0.0892942176,-0.3388938871,-0.2073016031,-0.0008713494,-0.1381994813,-0.3713431483,-0.1197288738,0.7775936883,-0.3916539392,-17.4342604822,-16.5155224657,-0.0900029436,0.8565817002,-0.6983256886,0.755596348,0.836181876,-18.7505185481,-41.7536628457,-0.1533610007,2.1962368951,-0.9338530624,0.9258820434,0.7971720726,0.4542865585,-0.8646309138,0.6117685322,0.3331578327,-0.6040526956,0.0631679935,0.3161109903,-0.9549136022,2.6995793099,-1.0991274888,-17.4912196556,-17.6385835511,-16.8699463506,-0.1981799347,0.451949854,-0.9686432571,0.0420963031,-0.299258838,0.6811527756,0.4482045644,0.1713823782,-0.0950799735,-0.0419573475,-0.5539928287,-0.0177905865,0.6971923299,0.3866981899,-0.9860184235,-0.7813000174,0.394345868,-0.4518638347,0.0925569391,-0.741368873,0.5709537086,0.1683889226,0.3580600166,0.1011529987,-0.1243855923,0.052817382,-0.6462863731,0.6871490614,-0.4275878533,0.0444715215,0.3497610932,-0.4399497682,0.4404089312,0.2643114289,-0.1844704079,-0.6250840308,-0.8360184322,-5.2686790684,-6.4246659832,-16.9273458946,-15.3441240462,-13.3843146533,-18.2810212657,-11.7054800288,-17.206054861,-12.950003974,-16.1513997809,-14.9872867259,-9.302475669,-11.0615871414,-45.4989693581,-37.5749672933,3.6515653355,-17.4781657892,-18.620776911,-15.7696368906,-16.9190348932,0.6083779444,0.2041189253,0.6689308791,0.6899677982,0.0415012875,0.389696443,-14.7280731669,10.4717096354,-5.2852801875,0.7618304884,0.6545706204,-0.4380458695,0.7330552917,0.7379523743,0.9628007523,0.1569528489,0.3824329702,-0.6160375299,-2.9233595387,-0.8061004401,-0.1299451975,-0.406353258,-0.796510788,0.0124992794,0.3603970772,0.7439823548,0.3271578681,-1.267992418,-1.4844834246,-37.0378821743,-11.2965356957,-0.9046629969,-3.9206030712,-9.5237986219,-19.7313715658,-0.329793004,-1.1602588889,-0.6200931414,0.4937105663,0.8020518102,0.196710937,1.2580885734,0.1715442668,0.5531308257,-0.5049615593,-1.2594594896,-0.5506854114,0.3209234243,0.3710935895,0.8349783485,0.6954775553,0.8644162282,-0.9253380036,-0.2490147776,-0.5417989712,-0.5465603772,-2.1927618316,-40.8137512854,-17.1499152935,-0.1434466786,-14.6354955984,-38.3029927468,1.1911139915,-0.9905936528,-0.7742874184,-0.6727086256,-0.812846613,-0.663893015,-0.384584978,0.8109117795,0.7150143501,0.8002112776,-0.3319043662,0.0739415666,0.1581689744,1.0163265491,0.3381672499,0.9167894515,0.9398169278,-0.3197158269,-0.9637284649,0.9194207617,0.829153801,0.0357740517,-1.8105570091,-42.0806201364,-18.5591638591,-0.5380998047,-37.7288806759,-41.5739759282,-0.6452660763,-0.941270816,0.6706906264,-0.3156102854,0.048343003,-0.9553711695,-0.5781555947,-1.2026151546,0.196642891,-0.949698098,0.561829155,0.4510498808,-0.2042299291,-0.6755496653,0.2016763219,-0.4202473424,-0.7926993445,-0.7164558269,1.0199773936,-0.707591646,-0.2600225679,0.6826659507,-1.1934683675,-41.9164412156,-17.2989937332,-0.061728167,-33.868851631,0.9654087199,-0.1292887642,-0.9108083507,-0.6588300203,0.1358317679,-0.515426389,0.133106581,-0.3197372212,0.7224150014,0.3079948203,0.4852298305,0.1514604379,-0.9986337224,-2.1342456049,-0.4184322621,0.286365115,-0.5552111936,0.4303952554,0.4465984139,0.4203053351,0.437362409,0.1242760554,0.7653215333,-0.6743411816,-41.2031083079,-12.8343949977,-0.5775395455,-13.7014447996,-37.5322497511,2.2905656937,-0.4118241322,-0.3822282669,-0.8578050837,0.4599405558,0.6613318387,0.657422739,1.6457039649,-0.3901527723,0.3026013775,-0.0994063139,-0.2025818275,-3.4017153973,-0.3758745881,-0.4044778329,-0.0578094799,0.6893557061,0.4527635802,0.3599723297,-0.4932152745,0.8365964428,2.1300340715,-19.6922713038,-16.3099138053,-6.0520509672,-0.6419461966,-0.1415281842,0.7490819114,0.5514342078,-38.7073133976,0.0551090216,1.0904642885,-0.4479010001,-0.4181350873,-1.7262941351,-3.2778405634,1.1066732971,2.0747751589,2.2861773393,-1.1046296415,1.9433489283,1.5654802498,-42.0059238652,-18.8018982733,-19.2681347516,-10.4101885056,-18.2767423644,-18.3842909406,0.8777854777,-0.9583392813,-0.6905261264,0.1688867817,-0.7671089849,0.1226304324,0.0501546139,-0.1116385383,-0.1800692638,-0.2355518547,0.577941399,0.6677083583,0.1148790081,-0.1238654673,-0.845828042,0.8748690607,0.4599352708,0.0906476855,-0.4441682387,0.981568245,-0.5515405023,0.193184006,0.0242713081,-0.7014397875,0.6269242203,-0.9909262145,-0.2776541777,0.6743766726,0.5216955693,0.3840839194,-0.0422092003,0.0403877515,0.4984558843,-2.1635264746,-0.5261066743,-0.4568716228,0.6324743375,-0.427090108,0.84917414,-14.2952781527,-13.22943076,-3.6503397739,-4.9608785432,-7.8229568247,-7.883402166,-9.396952112,-14.4271874447,-14.6501712622,-15.7807188513,-15.231849419,-15.8668014204,-17.0227804914,-10.3223222081,-10.9905945831,-8.0139048007,-7.7116556291,-8.8159263875,-8.4976745194,-3.7412483822,-0.8124577962,0.0308565018,0.1291204812,-0.2697864571,-0.2278158731,-6.0819664832,-7.1706648441,-33.2080563026,-42.0914408014,0.2520317512,0.3202183795,-1.3044964258,0.2541746097,0.5412070417,0.7822369425,0.1841693069,0.338317247,1.6151533253,1.0156109582,0.7594674035,0.6346034426,0.0425821961,0.4701055659,0.410762816,-0.6566966932,-0.1571206794,-42.591638129,-31.1502507842,-10.3585954958,-7.0938407026,-4.3310203897,-4.575177927,-17.7419937702,-10.9378200607,-19.4403043144,-1.2428467857,0.6888094427,0.5374159498,-0.7243899767,0.065546013,-0.5533669315,-0.4630812929,0.002360075,-0.7583396381,0.4295322377,-0.3944221118,-0.3455792721,0.1579231935,0.3264354702,-0.0882668192,-0.0720856981,-0.0921061599,0.0864525622,-0.7344504522,-2.2506301557,-3.0586344628,-22.2426223908,-11.7065171996,-7.7799776947,0.6136245841,-8.5553656465,-41.2720240736,0.243744628,-0.411243672,-0.1329181751,-0.3090465377,0.4814002941,-0.2950804849,0.1750852781,-0.6309948091,-0.3921735319,-0.2413650149,0.5712420292,0.4369102336,1.0587026138,0.1316262559,0.2443614518,-0.7214850203,0.1813729687,0.3685689922,-0.4051562169,0.7865181993,1.7214819569,-2.818503416,-20.2358493494,-17.9583565857,0.7376192011,0.5784623853,-4.7266976785,-36.9214465927,0.9794751996,-0.2751473878,-0.6092067103,-0.3377115145,-0.6504879545,0.8563458966,-0.1032201984,-0.129229661,0.8723263292,0.9219422804,0.9352476005,0.4884397272,0.6490335485,-0.7112707959,0.5005791964,0.143578952,-0.6689043256,-0.1543562191,-1.3666882082,-0.0635762386,-1.453327907,-114.3194746264,27.5990054025,-55.0394691103,0.2036606159,-0.7001525956,-0.2994085272,2.3508481173,-3.9242962502,-0.5071765345,-1.1482429156,-0.5796943983,0.3998585586,0.0365026822,-0.0707279448,0.6254759645,0.3320299577,-0.3294960874,0.4851376346,-0.1826079505,0.555689899,0.6331179823,-0.6430183766,-0.0647120689,0.0938802687,0.6068696746,-0.6680749843,0.0015559643,-2.5218190713,-0.0392516681,-19.7216861456,-8.5108905358,-17.1840258948,0.6023744597,-0.503404364,-9.2849584775,-24.2449494658,-1.2226454576,-0.1700977515,0.7108892306,0.3929764131,-0.7963033377,-0.1147201119,0.4236819347,-0.0701208509,0.2226844682,-1.089493969,-0.8197520002,-0.7426515469,-0.5859296933,-0.3663378413,-0.1383180933,-0.3047750681,0.020731434,-0.3935433684,-0.2232876477,0.8439250237,6.2562125038,-10.4811933057,-15.4238536331,0.7873650284,0.4848466465,0.6318796019,0.1764904445,-0.4535932309,2.1025571848,-0.6550221583,-0.1097684953,-0.0592177635,0.3495252271,-0.91927806,0.4251012273,-0.8834281903,0.8691741846,-0.4909123565,0.1581048098,-0.3063032301,-0.1664783649,0.4592310925,1.147091766,0.4854066887,0.1626862737,-0.1059505713,1.3514343924,2.8392202763,0.2099085639,0.8688152651,0.9604276348,0.6383419474,0.6206854195,0.0014364126,0.8839664485,0.3256873543,-0.4641480175,-0.3514014933,-0.7431068292,0.827999405,0.2466292819,-0.8015986831,-0.4047199558,-0.5308007298,0.9642096499,-0.4833634258,-0.1664764238,0.6999641071,0.3349256552,0.373242286,-0.4897711097,0.3677483755,-0.2793219402,-0.6140307549,-0.1204908346,-0.5233267136,-0.8100649804,-0.9484280316,-0.856987138,-0.7424026058,0.664615199,0.9348364536,-0.5020093354,-0.1313202253,0.1681670332,-4.074023108,-6.9903601833,-16.0022316028,-14.0029463757,-17.1925469613,-22.3735454749,0.4066034549,0.2462664369,2.536486629,-0.5529950469,0.4168894371,-1.3931872824,-4.0740477899,0.615995352,-1.5257002331,1.7695774197,-19.0250953176,-11.7202724915,-13.9223454249,-19.8281542232,0.7484531425,0.351645455,-0.3173911098,-0.6421903108,-0.7307615747,-0.9261093974,-12.8216866241,-17.4218205736,-37.7842671999,-0.5708670275,-3.1508578823,-1.2479182366,-1.10367503,0.3679112119,0.0126331877,1.8202438522,0.5410588999,0.1573899868,-0.0856599704,-0.0425613463,-0.1611519061,-1.0670600645,-0.0548349356,-0.308108446,-0.1581444271,-0.0820065247,-2.3096244937,0.321292659,-0.8943282124,1.6020216573,-41.5579079555,0.9236875827,-2.1911318972,-8.3446222936,-8.6881237996,-41.1849290632,-3.2917411243,-0.8852949188,-0.4927896715,-0.3383581388,-0.8870610772,0.7631596243,0.8240829616,0.7750534915,0.5249467419,0.6560008225,-0.4496660593,0.6892795624,-0.4219442,0.3489181867,-0.1601093371,-0.7636601452,-0.6006483811,-0.2149888532,0.2628577212,-0.5155223156,-0.073607039,0.0997870295,-42.2860491704,-0.2534543404,-4.8418864768,-8.3031880067,-17.5693829162,-1.9551608487,-1.5754464461,-1.0405454065,0.4723423878,0.3532664752,0.8180929296,0.4440780411,0.0384149,-0.4446006553,0.0572943009,0.306012106,-0.2072287108,-0.1399241767,-1.1048178231,-0.0486004336,-1.1346239861,-1.2659956561,-0.4088347946,0.342886622,0.3108353854,-0.1737681391,0.0627462395,0.8511221528,-2.9957938095,0.8252154802,-13.9206201856,-11.3002297713,-18.9023631592,-4.6723125631,-3.7166380275,-0.3471473691,0.8861047835,0.8210698969,-0.1761623299,-0.7116462487,-0.9333620193,-0.9857719976,-0.0846208614,0.651890586,-1.0208468167,-0.3808039589,0.2427257627,0.5589666193,0.4752448508,-0.980938677,-0.3536325301,-0.2089281212,-0.7576457779,-0.2563258944,-0.1871320604,1.7072243861,-1.9011689271,-0.0060672326,-5.0931558268,-7.2223767916,-10.7964330933,-41.4656662946,-3.3022515773,-0.1228451518,-0.7649087756,-0.7162827142,0.7232434185,0.1737854246,0.4899421174,0.6860245681,-0.7509799949,0.2930968098,0.3172754103,-0.7162895345,0.2478768541,-0.0328090332,-0.0860683652,-0.4605782976,0.6114503962,-0.7163765287,0.8735966981,0.1136609261,-0.6986453075,-0.3492573666,-2.0220013502,0.4026058114,-9.1001053436,-8.2257811335,-8.8117208536,-38.1150862463,-3.2223042082,0.0315982517,-0.6395603623,-0.3708969712,0.261075936,-0.2127372984,0.5485799646,0.8837521845,0.2192769937,-0.1306735466,0.1234036532,-0.4904575902,-1.1292291394,-0.0380384344,0.1199298611,0.5591329376,-0.7983832069,0.0778700935,0.9507848168,1.888317111,-1.3413853879,0.3662313052,-3.5937836484,0.248670846,0.7243614905,0.5607104654,0.6367032456,-4.3962983211,-7.9239906388,-11.0459828014,-15.9995410838,-18.688092153,-17.3267616799,-15.1953854223,-15.0251191854,-34.756339252,-18.9766772961,28.0610865682,24.6254227583,-19.456955233,-15.3486168228,-18.7353854405,-19.7845801398,-5.9653120619,-16.2585744551,-11.7165283609,-0.352381685,0.3446502523,0.0079257754,-0.4636822554,0.6507104049,-0.7472782427,0.0365528115,0.3981998883,0.2921383461,0.9038861145,-0.262025849,0.3964233575,0.4057545491,-0.0650312288,0.1582294133,0.9107911373,0.7529449067,-0.286475209,0.9822419714,0.3404112922,-0.1245864167,-0.2403755353,0.8649366083,0.5360411507,-0.2027885106,-0.0124153289,-0.2907435662,0.9625343118,-0.603679811,0.2129595088,0.9613920032,0.2867028372,-0.2338961146,-1.0911694755
##end
biasActivation=0,1
[BASIC:ACTIVATION]
"ActivationSigmoid"
"ActivationLinear"
