encog,BasicNetwork,java,3.1.0,1,1397234567629
[BASIC]
[BASIC:PARAMS]
[BASIC:NETWORK]
beginTraining=0
connectionLimit=0
contextTargetOffset=0,0
contextTargetSize=0,0
endTraining=1
hasContext=f
inputCount=539
layerCounts=10,540
layerFeedCounts=10,539
layerContextCount=0,0
layerIndex=0,10
output=0,0,0,0,0,0,0,0,0,0,0,0,0,0,0,0,0,0,0,0,0,0,0,0,0,0,0,0,0,0,0,0,0,0,0,0,0,0,0,0,0,0,0,0,0,0,0,0,0,0,0,0,0,0,0,0,0,0,0,0,0,0,0,0,0,0,0,0,0,0,0,0,0,0,0,0,0,0,0,0,0,0,0,0,0,0,0,0,0,0,0,0,0,0,0,0,0,0,0,0,0,0,0,0,0,0,0,0,0,0,0,0,0,0,0,0,0,0,0,0,0,0,0,0,0,0,0,0,0,0,0,0,0,0,0,0,0,0,0,0,0,0,0,0,0,0,0,0,0,0,0,0,0,0,0,0,0,0,0,0,0,0,0,0,0,0,0,0,0,0,0,0,0,0,0,0,0,0,0,0,0,0,0,0,0,0,0,0,0,0,0,0,0,0,0,0,0,0,0,0,0,0,0,0,0,0,0,0,0,0,0,0,0,0,0,0,0,0,0,0,0,0,0,0,0,0,0,0,0,0,0,0,0,0,0,0,0,0,0,0,0,0,0,0,0,0,0,0,0,0,0,0,0,0,0,0,0,0,0,0,0,0,0,0,0,0,0,0,0,0,0,0,0,0,0,0,0,0,0,0,0,0,0,0,0,0,0,0,0,0,0,0,0,0,0,0,0,0,0,0,0,0,0,0,0,0,0,0,0,0,0,0,0,0,0,0,0,0,0,0,0,0,0,0,0,0,0,0,0,0,0,0,0,0,0,0,0,0,0,0,0,0,0,0,0,0,0,0,0,0,0,0,0,0,0,0,0,0,0,0,0,0,0,0,0,0,0,0,0,0,0,0,0,0,0,0,0,0,0,0,0,0,0,0,0,0,0,0,0,0,0,0,0,0,0,0,0,0,0,0,0,0,0,0,0,0,0,0,0,0,0,0,0,0,0,0,0,0,0,0,0,0,0,0,0,0,0,0,0,0,0,0,0,0,0,0,0,0,0,0,0,0,0,0,0,0,0,0,0,0,0,0,0,0,0,0,0,0,0,0,0,0,0,0,0,0,0,0,0,0,0,0,0,0,0,0,0,0,0,0,0,0,0,0,0,0,0,0,0,0,0,0,0,0,0,0,0,0,0,0,0,0,0,0,0,0,0,0,0,0,0,0,0,0,0,0,0,0,0,0,0,0,0,0,0,0,0,0,0,0,0,0,0,0,0,0,0,0,0,0,0,0,0,0,0,0,0,0,0,1
outputCount=10
weightIndex=0,5400
weights=##0
##double#5400
   0.0457984779,-0.4877973128,-5.6563889406,7.7009530049,3.2278136796,-1.6964615139,1.0054337621,-1.3445863822,-0.0906999756,-2.4088086611,-0.8423090324,1.2370197746,-1.136142836,-0.6068537751,-1.0836357775,-0.8581090902,-2.48478574,0.9602147065,-0.7535966546,-0.462280985,-3.3172721941,-0.4627762937,-1.0181392317,0.9495560313,-3.9803343729,-8.4697330439,-31.4579079948,0.71375014,-2.9512155842,-38.5411537038,12.5068713351,7.8079287151,-3.9128820257,-0.2066929008,0.0777059355,-1.7846869,0.1076466881,-1.3939983093,-0.6506856509,0.6166233797,-0.301819405,-0.0929451595,0.9981018709,-0.7194448376,0.6202609092,1.000048853,0.42415434,-0.2692297178,-1.9910584949,-0.0468766054,-0.6545454406,-3.2794275119,-4.6783413444,-6.3367015458,-1.2675214602,-4.7556784142,-11.9212375904,-17.1739148332,-3.7697958023,-3.0827727246,-1.3206300449,-1.9986840371,0.243712898,-0.0514067562,0.6040392051,-2.3291234613,-2.3325597976,-0.4460685143,-1.0856560277,0.0885981004,-2.951638921,-3.5394354877,-1.4217756042,-2.5022253451,-0.6041726675,-0.6730033177,-0.5168889034,-1.0227712541,-0.0401576365,-1.2371372479,-2.8219042647,-2.540077136,3.5375241919,-34.7826582723,-0.771512993,5.2392013406,-47.6558208797,-0.5576737667,-1.0853800458,-2.3698024678,-0.4975119112,-1.7252319363,-0.1056235984,-1.2466306784,-0.3014613842,-0.1462422108,0.3710534296,-0.7225694605,0.3821438261,0.2117703348,0.3254179548,0.0999062481,0.4364456402,-1.5957359099,-1.800119964,-1.6531312025,-2.385151972,0.2449835957,-1.4840472187,-6.5296497315,1.7324606684,15.8086770202,0.4914207189,0.6460715241,-15.8282844211,-41.2412237732,2.0323642173,-0.4120305158,2.4745034946,0.2412855308,-0.3147296831,-0.110509659,0.8118063743,-0.8090992951,-0.0506835659,1.8406033786,-0.0118710025,-0.8887734358,1.0783522293,2.9434575908,1.9207625524,-2.337372941,-2.7546101559,1.3674384362,4.4063475617,-3.5745336734,-9.8752170633,-17.4931069664,-17.7026838441,0.2998247912,-0.1510714444,0.0093109588,0.8808446316,0.8628148163,-0.8727033029,-0.4602106484,0.0171047729,0.5305651826,0.3614060133,0.6640472958,-0.2080143185,0.6221003895,0.7390611454,0.8064064243,0.780123679,-0.6291561827,-0.0800426462,-0.2577967558,0.1529703059,-0.4756794317,-0.4875108891,0.3154728534,-0.2723165886,0.666150095,-0.4126982563,0.1640789204,-0.8495823254,-0.544357984,-0.952101349,0.8976025843,-23.2891442497,1.9769181513,0.2220242633,-11.5653486512,1.8176011769,-0.474414642,0.5340736482,-0.8218614117,0.7385198794,1.0936683105,-0.9816732728,-0.5315666791,2.8164117776,2.6861114708,-0.0677837168,1.0799912331,1.272445085,-0.5426865142,0.9762070843,-1.231934182,-0.0850469124,-1.1432105561,0.8527365916,-41.0263366288,-11.583634698,-2.1964047881,-0.8351450446,-2.8184797365,16.1423491917,-0.4593213877,-0.4987795693,-2.8227763066,-0.501891805,-0.6555132799,-1.0330138933,-0.2273281594,0.9023987122,0.8245296109,0.6486046394,4.5784552076,4.3313649609,0.5322321283,2.8256527397,0.4271900941,0.9539624293,1.4695605911,3.0912905718,-0.1612646109,0.544750142,0.8150038524,-0.4591444105,-3.4796116108,-24.5057172563,-8.6770464162,-4.4778236335,-2.9047645895,9.1615932802,-1.9688280044,-0.040629481,0.1061529075,0.8408813559,-0.5774565023,0.6487197208,-0.1663013005,-0.167205423,0.5456474506,1.9585162951,2.3795433951,0.2030387744,0.5106385452,1.012634053,-0.5184712256,0.6592422726,0.5209819147,0.6635288756,-0.3570006265,-2.2970570641,-1.272857599,-2.5041861975,-3.9285166854,-20.5081899871,-9.3697006421,0.797754669,1.7060025888,10.9152348293,-2.3021243214,0.6123292381,-0.0841853949,-0.6758413578,0.8620101224,1.5113401823,1.8519349586,2.5682060693,0.0000239449,1.7833546376,0.6840647613,0.1931648536,0.9116064745,0.8778556621,0.4726468231,0.616503639,-0.2236682088,-2.2893443483,-2.0522243762,-0.1343674541,-3.3850214258,-1.4270748391,-12.3716872453,-14.2660064224,-6.5150049737,-0.209601098,-6.5582880715,-13.3902633507,6.1471469247,5.0788030728,-4.7910732,4.3049521732,1.6234498964,1.2068478813,0.8374451776,1.9480971276,2.2123757385,1.7395668662,2.4181789973,3.2664896056,0.7424398949,1.9550305899,-0.1963604508,0.5196441622,0.8337216305,2.2938276769,-1.9099950526,0.6526656364,-2.2416723694,-1.4161726235,-21.0963547585,-7.4885535492,0.3795449731,0.8829734461,0.2919254434,-0.3685835081,-0.3395311951,-0.4508423243,-0.5035669606,-0.2231772422,0.3489371484,-0.6250807362,0.9067620724,0.7431318109,0.7306393333,0.2892762211,-0.0728772484,-0.750171654,0.2724063347,-0.4575394936,-0.9457857506,-0.4279673681,0.7221575738,-0.9849981088,0.3217150381,-0.2267704412,0.6342630832,0.5166799935,-0.0446553147,0.5255218228,-0.4843671904,-11.4435274797,2.680959091,-5.07362994,-1.2627520249,0.0239564981,-0.3121351662,-0.3445366658,0.2043397879,-0.5409684211,0.3737609093,0.527251674,-0.3921772042,-0.0481479997,-0.2814170264,0.0029535411,0.460477814,-0.3521549676,0.091378225,-0.2857965762,0.4517890614,0.2696360661,0.7049479807,0.3026248003,-0.5546513653,0.9549589323,0.8987399379,-2.2000619123,-2.6596381694,-6.1194082497,2.5096676793,-15.0272678371,-1.0281758368,-0.6380858187,0.8459519264,-0.5425215116,0.1620415482,-0.0740705346,0.2458885431,-0.095500353,-0.0838077678,0.2051194549,-0.155610108,-0.7723887206,0.3263146308,0.0725932798,0.4007435745,0.3801743364,-0.1817262581,0.160694246,0.4245928053,0.3941947396,0.0210140867,-0.1769475494,-0.8426751441,-2347.5988395336,-9.6869623156,-658.446767854,0.1543311423,0.7463702827,432.8078180062,0.4796323344,-0.5685943002,-163.3891116541,4.2282346716,-0.5965145568,144.0035055919,1.5211762722,0.4955832937,177.757343203,5.7576782067,0.0973871616,-160.3074486386,-0.4071504216,1.0209293292,-9.6305406312,0.7141901369,-0.3143184569,-2.0860053787,2.9275546472,-0.0071340877,0.4131840815,3.0098920286,-0.0791270767,9.4324432985,2.6149357084,-0.6693474536,-20.9350288844,-0.8039532931,-0.4743651634,-0.4535352697,0.8384752368,-0.2340120639,0.3422645117,2.0964151429,-0.2071870311,-4.2938321535,2.5244813772,-1.8723600953,-0.1839899256,-1.7526295286,-0.1555720561,-91.1957542909,-0.0617276742,0.1170027134,-27.5917611932,-0.5156046694,0.8012095657,-7.632586589,0.2996107049,-0.7897249854,-27.3647534761,0.3877859144,-0.8842539847,-108.0060592988,-0.5054967948,0.7469136904,-54.8885525196,-2.2960440451,1.1562985967,-13.1992488697,-2.2961039301,-1.3851606094,-53.198186171,2.7572262146,0.4823499851,-49.5974058175,1.5256691109,1.4735018009,-69.9305429328,-2.1544921028,0.6769476964,-66.3055786849,-3.4506130391,0.3664903653,-0.9126491573,0.2819714035,0.8373653108,-0.4514046814,-0.0954553963,0.0971258271,0.4150226582,-0.3937452689,-0.876394987,-0.4182164042,0.9680073466,0.4025963993,-0.1813859117,0.6261482441,0.0854397544,-0.8971527081,-0.1150093372,-0.7290272231,-0.4267599089,0.8885381211,0.6169461595,-0.594226672,-0.9959428747,-0.8083335149,0.6849641839,-0.0997297229,-0.110122463,-0.6027558929,0.5836176379,-0.1356305267,0.7976283484,-0.0404598985,-0.8799651126,-0.7680041716,0.2280850719,-0.6226669246,0.0133278377,0.3640920631,0.5783982252,-0.0265152404,-0.8247052243,0.8660951222,-0.9914500868,-0.0758529944,-0.2572904348,0.3152022211,-0.4679455187,-0.5170845452,0.4315108452,0.0927399221,-0.8487860865,-0.1547582088,-0.7167972862,0.016947976,-0.6427580364,-0.4015826083,-0.6262200657,-0.0285093123,0.8155689899,0.2024405986,-0.4445097349,-0.7749915483,-0.4433606497,0.4470805616,-0.198254136,0.6370216632,-0.5074847484,0.330449562,-0.7745031139,-0.6687592958,0.8140015546,-0.3507458198,43.9199093129,0.1832826205,-5.7971283864,1.5271893992,2.0410030471,-1.3380690512,-1.4335154152,-2.3231518056,0.0968611137,-0.5185011503,-0.3937310716,-0.8441912324,-0.8276251135,-0.5425798596,-1.665813373,-0.5026084047,-0.2488521614,0.0851801287,0.3645491293,0.4033269775,0.0619278121,0.1872108127,3.7234073377,-55.5213584528,-19.3380576643,-0.2755866188,-13.2042171703,0.4217538322,-36.7281062278,-4.0872307858,0.0203950686,0.3522282652,-1.3927262784,2.4182636943,-1.9789067316,-0.8468468678,0.5750514148,-0.3358725077,-2.1195803074,-2.0970703647,-0.2444368348,-0.9823424952,-3.757103825,-1.6759029542,-2.5962458626,-0.8171521157,-0.9802756764,-0.5950131257,-0.4156183969,-2.0657958294,-1.0639267217,-4.957817091,3.2881627133,-33.0398811927,-1.5926118105,-38.58569048,2.1744043899,4.3072819039,-0.7744076053,-0.8816798663,0.9627676519,0.3409071605,0.3329534927,0.7974066814,-0.00244848,0.228042674,-0.5676641237,-2.8658812226,-0.0505786781,-0.5530487257,-2.1862078178,0.2963739939,-1.245246644,-1.3743001241,0.0210320303,-0.7906781542,1.7928951733,1.0555449915,4.0139145115,-20.3217599948,9.621567901,2.6862199666,0.8171615657,0.49182719,-35.2579031018,-0.5721082957,1.3060956632,-0.282911239,0.7133200588,0.5763673456,-0.1455303534,0.1922396186,0.2033736064,0.0656043047,-2.2898801018,-0.9205862234,-0.3150407294,-2.3783925633,-3.0926519314,-0.0779291236,0.0938053293,0.980535302,-0.2821687879,-0.3021234608,-0.7636616032,-0.8611375261,-0.1784893654,2.4448488912,-2.9876332275,5.372931605,0.8012338562,-0.9640381465,-5.895298295,-38.1177183733,-1.2691805817,-1.1629347212,1.6976327266,0.7563820585,-0.0159845272,-0.7805515722,-0.8421375588,0.7057974885,0.8781012407,0.0401686212,0.4231922131,0.0978384342,-0.0035201001,-0.1170140601,-1.0217532728,0.358425303,2.2459103094,-2.4636770074,3.0821674521,-13.886284981,-0.1301392942,14.5185130241,51.8751919824,-0.3978142984,0.909391133,-0.029731352,0.2884418247,0.2858850203,-0.7280361131,0.7884830877,-0.3236799744,-0.6722715889,-0.498050516,0.0501269316,0.4597099497,-0.3891957854,-0.8591855959,0.7239781877,-0.9449672093,0.8285538612,0.2559702205,-0.8293413759,-0.6711270843,0.6928276277,-0.8644460379,-0.2300602819,0.8926728436,-0.955106065,0.9037406932,0.3924088675,0.5718668048,0.3772157641,-0.8105993046,-0.5266911504,-13.9279026192,-59.3556772383,-0.0771006894,1.5438194451,3.8976642247,-6.5584117709,5.3992442643,-0.812203667,-4.2885599093,-0.6660281923,0.5375895218,-1.9619027042,4.2848269432,-6.6082415028,0.6923709461,1.5154779784,-5.3855805843,-2.7870467219,-1.2930750076,-0.2103038731,2.6535806513,0.7883605761,0.7188183104,-42.06662403,-19.8480588965,-2.2996344268,0.1058547063,-43.9258925729,-6.7523974648,-5.3887135672,1.5172026695,-0.3605114984,0.3005362843,-0.4341248762,-0.2092411169,0.1882691148,-0.6410851269,0.1245597824,-0.842743538,0.3334864643,0.0015903474,0.9298115083,0.4173624947,-1.1888689716,-0.5279755459,-0.5351304602,-0.5759544781,-0.403405836,0.3159104192,-0.3355069983,1.0325757029,-1.2273053354,-36.0081841801,-11.3536821479,-3.4743206141,-9.3698806367,4.8645384538,-0.6099009494,0.7238693378,0.8120872176,-0.6679086599,-0.8549288467,-0.7761789204,-0.5200576694,-0.5344405446,-0.1899667601,1.0904310956,0.5877780546,-0.0209975069,0.4182966463,-0.7398591279,-0.5007958834,-0.2865896728,0.2373097284,0.3621019065,-0.9339468255,-0.4958219156,-0.1304248866,-0.675816365,-0.9697578006,2.1610999738,-16.9368667845,-0.3501706691,-38.4581336248,-0.4634328881,-0.7933958208,0.1326890361,-0.0264256936,0.4683639723,0.9427510698,-0.3603203997,-0.3807334787,-0.4365149432,0.7602463668,-0.4675510815,0.756976402,1.0240230222,0.1313460137,0.3157105967,-1.9380331966,0.1098305709,0.4484930094,0.4374034726,-1.1586777558,-0.0361929949,0.5994936061,0.8085904031,-3.3608599451,-33.9341620392,-9.0104598483,-0.5706875148,-2.4756672243,-14.4229158751,-42.4370138942,-1.3963969463,-0.2907063945,1.4847753387,0.9053791364,1.6187802585,0.4998741575,-1.8872409865,1.7256090813,-1.4352232581,1.3877430803,-1.7117489301,-48.485008755,-4.9761834052,-0.0787277418,1.6186519568,-1.1009387664,1.5444683651,-1.7277638971,1.5913941955,-14.2851732664,12.4278406156,-76.231157764,-3.1415678706,0.1909418816,-0.7855311153,0.2919572784,-0.4677695795,0.6248325006,-0.9134918776,-0.8886300734,0.8279122236,-0.8058929106,0.0005648806,0.0109236888,0.9392626145,0.3186812369,0.2067668661,-0.2627540511,-0.3212945183,0.0981357427,-0.072291573,0.4574217298,-0.4349577953,-0.3295925962,0.0671473475,0.3259970989,0.0461250523,-0.6984420849,-0.0826418797,-0.7755322868,-0.5259061222,-0.2855648697,-12.6251477874,2.3451995069,-3.2277824675,-0.6617343889,0.8058832002,-0.681037244,-0.1640007028,-0.6447309511,-0.3098749596,-0.0465698571,-0.2830077229,-0.1892227356,-0.1151490644,0.3227798307,0.1606606416,0.1740889167,0.4735756271,-0.0421141475,0.2463507358,-0.299169309,0.1086445894,-0.0547539835,-0.2991590953,-0.4828427972,-0.2207852942,0.4911195047,0.0517647309,-3.0443171234,-8.1369325039,8.3985396951,-1.5911949635,0.7210170128,-0.2676321899,0.1234302847,0.3380227514,-0.0010009708,-0.0563517826,0.6050289112,0.2998611385,0.3053965315,0.8500034905,-0.1604536927,-0.1832206902,0.2031730654,-0.3561977547,0.6600414371,0.0033263363,0.063301219,0.1632860454,0.5744176712,-0.0997001737,-0.2612110289,-0.2852190966,-1.2717237932,-3.380843466,-19.03804463,-12.6873481125,-0.0067912414,0.8697534421,-4195.2717423649,0.8665239413,0.6960358965,165.9594934129,-4.3091622376,-0.7183390008,-41.3437299633,-2.8593761064,-0.7502447435,-46.4268899772,-0.5131133068,-1.0595899135,-146.2012667117,-0.6655173407,0.7816929095,21.1455113441,1.0577012489,-0.4667436351,0.1038001669,-0.9284669282,-1.4190446248,5.0264550512,-1.0293105475,-0.4496413818,17.3717546714,-1.1397448586,-0.3033030763,-5.5699351952,0.0465249989,-0.1131990089,3.3781981349,-0.3063531346,-0.2081639561,1.1129492327,-0.4952196301,-0.6326822802,-12.1395511324,-0.5204855683,0.1417737732,-56.6140674262,-1.5254860616,0.0785325853,34.0893879157,-0.4664639907,-0.4089486738,-4.1521205901,-0.8200768912,-1.384103094,-52.4664852499,1.2696987763,0.5439405843,9.6849985387,-0.3926446713,-0.8590282514,0.6407208379,-0.7948178157,0.0856687773,-25.4713100181,-0.3587155798,0.1347091644,-14.3043870771,1.1099402779,0.8931851992,30.2956823633,-1.3841706073,0.2994357696,-0.0591806504,0.9582400607,-1.194389666,6.8799448305,1.3554616898,-0.0227666381,-7.3900677978,1.4440714224,0.123253407,-0.0393140599,0.7373400589,-0.3339484322,0.2299598709,-0.6619868156,0.0972478005,-0.1974174067,0.277054136,-0.5206729845,-0.1745547317,0.8016491806,0.8094387224,0.6989360411,-0.1907551331,-0.4765503043,-0.879103517,-0.8885252921,-0.9119615971,-0.4626236421,-0.1079604977,-0.4491342462,-0.4075193975,-0.3180925671,-0.7645381347,-0.4456539384,-0.5649357529,0.068469961,-0.0163098511,0.7943687387,0.7598990356,-0.8379157893,0.4777441692,0.8411933318,-0.3404923962,0.0716030489,-0.3858790904,0.6389774593,0.1664501694,0.6823584447,-0.59198657,-0.4218185716,0.8275909796,0.7640279566,0.8305777899,0.547099256,0.8688189977,-0.3134670716,-0.8219396042,-0.1546720898,-0.5419651705,0.8767819721,-0.2694018673,-0.6580124462,0.0742170863,-0.3509285496,0.9585037975,0.7615054547,0.4903802869,-0.4580446413,-0.966150613,0.4797754943,-0.6217634106,0.7943982112,-0.0948400796,-0.2864933292,-0.9576254875,-0.9059782319,-0.3069702895,-0.5144278751,0.3699984188,0.3257403108,-0.4300013425,-28.9218303871,-1.7236974086,1.8403520712,-1.2204330837,0.5749921953,1.0581215517,0.1458068022,0.6872319146,-0.2123313971,1.4226260075,-0.7213933643,0.2139800715,-0.2846313831,1.0852894445,-0.0688199155,0.262033132,1.7366215797,0.5435762608,-0.133121692,3.0806951401,1.3194466109,-2.3182103701,1.5666716543,-4.9918475752,-33.5376788495,0.9792739854,-3.6010675819,-33.9844810569,-5.348703668,-1.6225299177,0.7287391364,2.1301538543,-0.427506606,-0.3222585312,-0.1918179733,0.2111002099,-0.6603115377,2.0422700846,-0.7565593892,-0.4686901094,0.0757943824,0.6640656355,0.1948214371,-0.3143047993,-0.0579661169,-0.7719566335,-0.9832442899,-0.7307792206,-0.544884404,-1.1496471078,-1.6831256499,-1.7039951091,-4.816657038,-55.1285248604,-6.2001733989,-31.5786648913,-1.1053314796,-0.1975545183,-0.5941401654,3.7244317637,0.8795301602,1.0947911827,1.9217036517,0.8527997278,2.1609092604,1.9107648984,-0.5081215556,0.7644983455,0.7556062848,-0.2589120104,0.0864860726,-0.432410747,-0.7666402479,0.4786271671,-0.8901680294,0.5957653353,1.0683448506,1.3515161312,2.0500087039,2.3404142323,4.0307168667,6.8785399398,-0.4636916968,-0.8080245034,-3.1795770381,-0.0655066168,-0.3322375643,-1.9511752077,1.3134934788,-0.7430059844,-0.1113759693,0.3598839422,-3.9671149116,-0.9318160399,-0.5794998618,-0.1033778697,-0.2213061547,1.983061517,0.9662875674,0.0867513446,3.0539993405,1.5938585946,2.0754602828,0.5676094794,3.5172668497,2.4384106099,1.0855509459,0.9181155895,0.6423236161,-2.505489412,0.6250914276,0.9148544788,-6.0685702542,-0.1702408404,0.072046718,0.0565699461,-1.2076117851,-0.0330705632,-0.5766718174,0.8448480634,-1.1913585272,1.1596686769,-0.1143023975,-0.2349592181,-0.077310421,-0.3356869904,0.6994956481,0.8079817811,0.2310283256,-0.3048301663,-0.0550156526,1.0611698259,-0.40748112,-0.3537843542,2.4430379586,-4.0083026201,5.6223364317,0.6106811282,0.503336999,-0.6429957653,0.9415600988,-0.8592362803,-0.668688541,0.7599288791,-0.1168856978,0.4563309551,-0.2262591644,-0.858625777,0.2225747193,0.1625430379,-0.252039233,0.6884032263,-0.6498154891,0.8933107179,-0.7475092149,0.2890564467,-0.2211851981,-0.2208073035,0.9566666674,-0.6971995368,0.5058743273,0.2879738749,0.0086560303,-0.4486863168,0.2537596117,0.7582362746,-0.9928294719,-0.9000786964,-22.7433628262,3.4780517893,1.3029273407,-1.0736646111,-2.1683104504,-0.7777137502,-2.0534134665,-0.8447164108,-0.5460954683,0.8027854469,-3.524036289,-1.4949102535,-0.2376168159,0.8420836579,-1.9660018823,0.0938686059,1.3926511756,0.4697071874,0.9495484307,0.4154098946,1.0739223069,2.0638590431,-3.3410667709,-49.7451256186,-6.6711848247,-2.1644897703,-0.7518817343,-1.9940142764,-3.9485795332,0.6893154022,-0.7578937633,-0.3617254867,-2.3512191883,-0.6706023801,-0.5734250315,-0.9340798854,-0.0965556249,-2.7314147611,-3.9122921969,-2.0756688763,-3.677070052,-0.990435717,-1.1362056542,0.8081496162,0.550385157,2.9694070772,0.7770102529,0.6140087878,0.275199818,-0.5449119444,-1.9202179255,-11.6122236449,-17.2032307416,-3.7048282536,-2.7642601302,2.7028856187,-4.1523074042,-1.029074025,-0.5316427907,-0.7158549923,-0.1744644826,0.6152748773,-0.4750625774,-0.2697171705,-1.2040732438,-2.0259513836,0.0891640452,-0.1471124044,0.7502714818,-0.2311511629,1.4325361716,2.0585590355,0.3882674964,-0.7284127292,-0.0991290476,-1.604513657,-1.0501221601,-0.8122339178,-2.594990399,-6.5001178677,-16.1018274447,-3.9306860837,0.6430245432,-1.8052407639,-2.801892968,-1.0813785356,-1.0709940284,-0.2718429585,-0.8427272555,-0.7649591177,0.3347011785,0.4140905434,0.6785970157,0.8346701549,0.047748253,0.3788390251,-0.2012536035,0.3174524824,0.0180298103,-1.4944731211,-1.8513724339,-0.6290204762,-0.6855956059,-0.4014171883,-0.2958885546,-1.0967047771,-0.6590728413,-5.4402322797,-13.0990053276,-5.8740705656,-0.088161345,-29.3777400807,8.2333282199,-3.6647157839,-1.3996584475,3.3116690068,0.048215794,-1.7353844901,1.7261444294,-0.2494877464,0.485809406,0.3699336517,-0.7435961131,-0.1173493292,-1.1953043671,-0.8852934871,-2.1248445264,-1.1858384962,-0.3900010687,-0.088006388,0.8593997001,-0.3618605855,-1.0495257604,-1.1932337307,1.3033961376,-4.4643606115,-4.2814933492,-0.977584695,0.1821118597,-0.793548464,-0.8181380342,0.7432440585,0.3289111811,-0.7986862464,-0.3496244385,0.6233295663,-0.7152524013,0.2283896537,-0.7047951807,0.2871787462,-0.0761078853,0.818012162,0.229132443,-0.8947076759,0.182287732,0.4579193792,-0.501743094,-0.8962873787,-0.2666371536,0.6569162431,0.506646792,0.1993769618,0.0853539565,0.6819980286,-0.9773405717,-0.9184106847,-11.2040930597,-2.7356058597,1.5242193769,0.1713939247,-0.3085884053,0.1707165051,-0.3105148439,0.0120634488,0.1008112064,-0.7261114677,0.55426218,-0.4055784496,0.3294669194,0.1397507488,-0.2678169424,-0.2921518631,0.1537749688,0.2334001167,-0.3733054002,0.0349076719,-0.1857844714,-0.4139368214,-0.6371158737,-0.1771570316,-0.659745481,0.3858262146,0.644914035,-0.1917799596,-0.6680930567,-0.1087680026,0.0508655542,0.3104697519,0.1826689585,-0.0878541446,0.3914573842,0.2623034633,0.0608278896,0.4227628491,0.0806481876,0.2825305371,-0.3007572232,-0.1187752245,-0.0432933415,0.3513156333,-0.0103364194,-0.4488714018,0.5962388291,-0.1841183323,-0.0805360053,0.3565303998,-0.1369321253,0.147107933,0.2185602011,2.0185342999,-1138.74136166,-6.3720575174,-3049.9618406579,-0.75937797,-0.2027615228,-341.2226788026,-18.4770466139,-0.3204448328,17.0554190719,3.0634881674,0.3417743068,14.9385554832,3.8566150591,-0.0269207831,-5.6419755372,6.3544293682,0.2667600699,-141.1983980976,3.9679953053,1.0074891867,0.4823189507,-1.1869297804,-0.2659056342,-6.4630282139,2.8220466519,0.4713224969,0.0407596434,3.3338970578,-0.726616453,-5.1969342183,1.5961535586,-0.6394848059,-0.2670249602,0.3565711401,-0.2591637841,-31.6476927784,0.9945509583,0.1845004638,-33.7624599966,0.7194036562,-0.7236817557,4.5110181792,-0.2323636996,-0.0688190026,4.7683392674,-2.5543005287,0.3815690805,-24.317133698,-0.3209351703,-0.3113912891,0.593440864,-2.0760147687,-0.8156347963,37.9682943111,-1.7097822691,-0.8452974524,31.023927628,-1.5333158754,-0.126600801,1.0715681623,-1.2579142865,0.2874881591,-0.8793678984,-1.2942394961,-0.0202827335,6.8263557862,1.4332996514,0.9725644099,-1.742391316,-1.4579590671,1.0578124034,6.9608612897,-0.0234366274,0.0662032157,-5.1457662789,3.81436775,1.1650804392,-15.7505155991,2.8217866453,0.9487820809,-0.5193607911,-0.9094457781,0.7356656702,-0.9794532122,-0.8941541417,-0.9692877382,-0.3468861025,0.4494487198,-0.4579123956,-0.8841174418,-0.5386267524,0.8938141373,-0.0751304175,0.5207710823,0.8110418539,-0.0090386816,-0.3045964371,0.1494320264,0.7912073243,0.7157580412,-0.364386398,-0.4409020249,-0.9566290875,-0.2875285276,-0.7026934859,0.3426281126,0.0546928605,-0.3171074483,-0.9791798391,-0.2101129678,-0.9241286276,0.9010475928,-0.76153854,-0.8516333086,-0.3910319197,-0.5751910383,0.2580473006,-0.6966356091,0.9104923006,0.0747176541,0.2218602246,-0.8019718557,0.4550563282,0.7503306641,-0.5636683421,0.8135836135,0.8049148574,-0.8455950636,-0.2322345697,-0.9699462483,0.8307004939,-0.5047693999,0.2994134595,-0.8122162042,-0.2713319842,-0.7625733067,0.945216858,-0.3299147921,0.7797601057,0.4715107182,0.2155241765,-0.672690446,0.2958067212,0.9725553135,-0.1698998245,0.0626660828,-0.3018292473,0.5182445587,-0.6262634151,-0.7600200291,0.2248685814,-0.8675424328,-28.0994028827,-3.3881583959,0.7450381128,-0.0077046777,-0.4687394651,0.4404705749,-1.0293305796,-0.0138720146,-1.0855177331,0.2303545569,-1.1973988147,-0.0756104683,-0.7058850941,-0.363189455,-1.0251072237,-0.1411437537,-1.3063864523,-0.3361375672,-1.4171870806,-1.0235597129,-1.1141578508,0.3030036096,-0.7321656618,-40.0788579051,-11.0308569184,0.3084128451,-10.4065205045,0.120806148,-0.862425223,-0.6702659561,0.8900325597,0.1513281687,0.3011318874,0.1577905117,1.4573754691,1.2856543491,0.8058359251,0.4945730816,-0.421466588,0.6032643222,0.1419170825,0.9641278256,-1.0540689302,-0.5807353949,-2.7274760028,-1.6284199162,-1.2618605238,-2.588685628,-3.5666278357,-1.4387156087,-4.0233888765,-1.8540385098,-38.5587171529,-8.116289645,-16.232812041,-2.4564847807,4.4731576254,0.6029651007,1.2865350613,0.386875819,-0.9648826635,-1.5054297238,-0.1874885749,0.3106216688,-2.1828901295,0.7058932515,0.2872417879,-0.3498133313,-0.683885835,0.1646723696,0.8196868153,0.6870624061,1.0149046093,0.9925460649,0.8150250236,-0.0887382202,-0.8120906974,-2.3917508088,0.5543550462,-6.0831134213,2.9432536974,-7.6703538337,-0.0521248262,-0.7977431105,1.1395694319,2.414446207,-0.3196745911,0.4697828763,0.5547720486,1.5195974678,1.2433765834,1.7530002398,-0.780865173,0.4518143613,0.2647049108,1.0388637844,0.7325333444,-0.1515267795,0.6385741238,0.1569455047,-0.8311662295,-0.2459982169,-0.5817655227,-0.8605174983,-2.4256312634,-3.6005050906,-2.1724527841,-45.0970756011,-34.1092877087,-10.5026156007,0.8367548719,-0.7415203357,1.142546707,0.4525165864,1.0970007791,0.3996558871,0.577317166,1.035093321,0.6560586311,1.5262460998,1.2528811224,1.0287443986,1.08419605,1.6411561698,0.4514407022,0.5347966261,-0.3720759305,0.9818832945,0.8885799134,1.0401072177,-0.243007603,-0.4028611866,0.4106317528,-7.8832579603,-5.0160772037,-41.9857141577,-29.8666230443,0.1580878336,0.17029553,0.4203827333,-0.1774170172,-0.4212752103,0.466811476,-0.6661723493,-0.5073331218,-0.1626905097,-0.4108875282,0.5863170337,-0.3740969381,0.5402362077,-0.7996691529,-0.4759978595,-0.347025039,-0.1483353725,-0.7433828541,0.5355036149,0.7453772325,0.4401311659,-0.6234883803,-0.7023437232,-0.6947902959,0.6191302386,-0.796886573,0.2191297928,0.7641750529,0.3144775032,0.0168603059,-0.0352623596,-15.2764067049,2.7229187969,1.196475394,0.0119688361,-0.4562477629,-0.9955933458,-1.1075932973,0.168366146,0.366724285,-2.8745159843,-1.0709102387,-1.6604335044,-2.977243702,-0.4081699706,0.5300810949,0.3397438619,-1.0096731093,1.2035626174,-0.6923617501,0.1707531479,-0.7817043197,0.4608584391,1.0306274577,-1.4762688326,-40.6522518767,-2.5104169866,-0.6745886724,-9.3192193676,-8.5495213609,0.9173048416,-0.5760099177,-0.7854097066,-0.7195137166,-0.8786057482,-0.0145933042,-1.067162785,-1.5571979539,-0.8893669485,-0.9494014819,-0.0816749284,-1.045861325,0.5434067143,0.2222348935,-1.1480664224,-0.9470691325,-0.2065028572,-0.514315815,-1.0088204888,-0.1865408017,-0.0776687056,-0.1007059918,-0.5425051868,-0.133441544,-11.0705365476,-1.4887658741,-20.5279426209,-2.882998616,-0.0562140194,-0.9087615527,-0.4705827966,-0.9265269092,-0.0510824652,-0.4312652514,-0.318725006,-0.6094911758,-0.2214721352,0.8311203748,0.2988350014,0.211081084,-0.1946111853,0.1219159221,-0.9124788572,-0.2624856341,-0.393184871,-0.5238009936,-0.1392658233,-0.0417378975,-0.9842538156,-1.4278275722,-1.1267920537,-2.1481239842,-17.0645180497,-0.1126496748,-20.9638597177,-3.4292075291,1.3798416845,-0.7540305667,-0.3013427585,0.1064368272,0.5443731491,0.1967731718,0.7351261969,0.9937902352,0.8310217383,0.1452007786,-0.5917719883,-0.8975453934,0.2105923249,-0.8783316167,0.9859302863,-0.3119823488,0.7454693906,-0.0779250195,0.0298723545,0.5241629101,-0.446792506,-0.1130752536,-1.8261950349,-0.8610940879,-13.9360148162,0.3813067727,-0.8413241041,-21.4628590833,-34.750888295,-6.7585958419,1.3156537063,0.6549977469,0.2313181277,-1.0375281205,-0.9523827552,1.7085508091,0.8263842483,-0.037780637,0.9548718809,-0.3013811974,1.4414055232,3.6061082095,0.8362390216,1.0297243116,-0.2335397998,0.2413548506,0.9562489752,1.6830064032,8.2033461119,3.6560037247,-41.6459012146,-21.1310982965,0.7782868839,0.1170276819,-0.0077423012,-0.8818397031,0.6518944761,-0.7887219944,0.149878113,0.9276481077,-0.4578197113,-0.6373043243,-0.4979172463,-0.9811098508,-0.0103096919,-0.1575719677,-0.4157346627,-0.2347038763,0.5458495008,-0.7853095275,0.3542823962,0.7646569927,-0.2821359257,0.3802097014,0.8505516192,-0.4579262932,0.1857189211,-0.0594093771,0.6261508046,0.3902146635,-0.0759183429,-19.0823929257,-0.5035697243,-1.0824774193,-0.0264129317,0.0169343954,0.5412331948,0.0612006574,0.0131844694,-0.017800623,-0.4475921282,-0.1704399968,0.0983772228,0.3239794465,-0.2319024747,0.0706540208,0.114797826,0.4316708621,0.333511789,0.490034879,0.3112361407,0.0312738179,0.5433571997,0.6597234403,-0.1691939871,0.1010446737,0.059294522,-2.7028160117,-23.8663088671,-1.464594644,-22.7797315604,0.1923470609,0.3634864675,0.016335467,0.5941098306,0.1011350774,-0.0110755495,-0.0455134578,0.2303475792,-0.0738811698,0.1499838999,-0.1520733947,-0.022016085,0.181493936,-0.341663279,-0.5295349546,-0.3674124312,-0.1317160181,-0.4574981719,-0.1749712983,-0.13798829,-0.4258744536,-0.779067105,-0.0854098327,0.062343348,-0.3016595345,-27.8779829666,-73.0308924836,-0.3596148688,0.2334125425,-161.6256051827,-0.7043892538,-0.2411742752,14.2732863074,10.6917483142,-0.3262646526,-2.0240101744,8.2312092108,-0.5134904965,13.5182534675,6.096910945,-0.929052997,-73.4483828182,-0.6831576054,-0.0978198904,0.4128872123,0.0630748684,0.4676156754,0.1618891214,2.6818374345,0.7427229737,0.1712837147,1.9679489711,-1.6504332302,11.8350463805,1.5019959632,-0.4720575693,-54.0370085534,-0.3135373685,1.1991001339,-3.05932431,-0.9891213717,0.893513803
   -1.2796584791,-1.0407846892,-0.6351727719,18.9571563906,-2.2258361394,-0.2765058318,-7.6240941103,-0.7088480422,0.9643046673,-0.3435300998,0.1830155915,2.158084085,-60.0435786022,0.6094367196,0.4742660835,-43.2987534345,1.5063942414,0.3095807186,-9.8506442958,2.1001564744,1.1496862444,-32.3180398558,1.5202713888,1.6244488904,3.9720217003,0.1005728592,0.004963073,66.7939807707,-0.1319693645,-1.3263303138,2.219160082,0.5467555475,1.0645440916,0.5114124275,-1.5981969453,0.458187485,-3.9567980554,-1.4721840309,-0.8250618181,11.1175632658,-2.176550214,-0.7991118195,-0.0402578875,-0.1928896474,-0.8076951289,-0.750733671,0.8175037974,0.6250568931,-0.4096633009,-0.4204282883,0.0389621348,-0.3425625483,0.6168913495,-0.657053808,-0.9470568772,-0.8375204841,0.892187854,0.6285865872,-0.0660049278,-0.9507854582,-0.4513076692,-0.9677696023,-0.3077688321,0.8845142311,-0.161351539,0.0365440999,-0.9869987939,0.117533746,0.6328434371,-0.6371752056,-0.0457950332,-0.3456247809,-0.4315781822,-0.3231719987,-0.3909405468,0.4157826856,0.1035596419,0.5315338701,-0.757866814,-0.9893174142,-0.7631886299,0.9296642834,0.9064589357,-0.8416190195,-0.8510575919,0.3887634037,0.0495387519,-0.0077694926,0.525059022,0.891654575,-0.883947284,0.8775799077,-0.1851506926,0.605085131,-0.3449157812,0.8768177645,-0.8112538866,0.7493726316,0.939674606,-0.5056759305,0.4478262554,-0.4981355774,-0.393480678,-0.1658591387,0.6452567522,-0.6829770181,-0.6763819489,-0.1968243468,-0.3228979805,0.5459501251,-0.0063084903,-0.5408142276,-0.3184420073,0.6202625448,-0.528183491,-36.6608208499,3.1247345249,2.9082989176,-3.6509770234,1.3677379056,-1.7340229681,0.0033170523,0.0986655978,-3.6089537672,-1.4243606242,0.9999465402,0.155641814,0.7690587847,-0.466256336,-0.2984382174,0.0739631573,0.2591964113,1.9577656283,-2.2857717227,0.8333622187,0.8051725162,1.1348704974,7.3240761635,-8.142179756,-0.710153141,-8.5228287539,-49.7731305886,8.5866157977,-2.8451899576,-4.4487634112,-4.4490633969,-2.1729240727,-0.3030495316,-1.0195631565,-0.4362660398,-1.4119750913,-4.6997963461,-1.5316914647,-4.0811140607,-4.5985374236,-3.274264838,-1.3503216821,-2.1877657312,-0.7513087286,-1.4002013433,0.6283261851,0.403039341,0.575022992,0.1423880911,0.8147595036,3.0495340438,2.5649147603,-23.12074583,-3.6926886533,-14.4602797196,0.8015141567,-1.0836718772,-0.8349615892,-0.4291525153,-0.0846875576,0.8864962005,0.7610133817,0.4365082159,0.2972369058,-0.8812357588,0.3171019025,0.569107099,-2.0300141096,-0.6670250951,0.1703106865,-0.040249979,1.465606289,0.0524544095,0.9216671859,-0.2671251073,1.2250688336,3.1391944021,-1.7709047607,1.763627391,-2.2406563347,-21.2224520692,-0.3818771699,-30.7101000268,4.973134109,-3.1330918273,0.861745976,0.1226406191,-0.4704402801,0.5355628813,-0.3705074302,0.634329326,0.3605948033,0.4029244204,-1.1805815645,0.1105718464,-0.4332949124,-0.6565616841,-0.3727475647,0.3146011307,-0.3666021776,0.1600706089,0.8392015672,0.4865133952,1.7509595573,1.2265500809,-2.4953512999,-1.0214102483,0.189959087,-15.89919561,0.174006242,-0.365249008,-5.2199595909,-29.6354177569,-43.4420344745,-2.0687599726,-0.7477829595,-0.6733391619,0.0266439566,0.1694656406,-0.8443248346,-0.6869310184,-2.136426313,0.7564723006,-1.4391107964,0.0658969201,0.4590278524,0.6994293628,0.7969815509,-0.1838897042,-0.7264760115,-1.0796991972,-0.5313693716,1.3438868579,3.1088535432,8.1194699193,-46.0728912282,-0.6371059112,0.7564263068,-0.831315247,0.6010786315,0.106671354,0.929708116,-0.1533532551,0.9273430176,0.3711151773,0.1931775437,-0.4759671841,-0.6492662989,-0.5813876915,0.5005162951,-0.3655717918,-0.4325321836,-0.6061741608,0.1365467195,0.2299014527,-0.0267334754,-0.9569122777,-0.9079493175,0.8906435516,-0.0362279981,-0.636886932,0.2448627069,-0.0259149802,0.2638950701,0.624347817,-0.582449867,0.8988028349,-40.0160461813,-27.3172584607,-9.8868757335,1.4663509494,-1.1794619735,2.7886471108,0.8726577422,1.912921426,-2.0343797915,3.7166542032,0.286622818,-0.6142880235,1.7172650602,-0.691920443,-0.8253862403,-1.4361128217,0.4441011442,-0.9635267046,-3.8363585319,1.4266707606,-0.8481566516,-2.8279171561,-2.0231819666,5.6114434755,5.7173989298,-4.4601779503,0.4431998668,-17.0924027407,-48.4256581677,1.4783842625,-1.0778469911,4.0194082888,1.5013164728,0.7730698952,0.1825620777,0.0825740242,-0.1668409447,4.1426316242,5.3788769139,0.9286587082,1.1216737555,-0.3445252369,-0.8481939844,-2.4543811736,-0.4928692521,0.0445115679,0.1390617734,-1.4967867032,0.4789039435,0.4438039954,0.3215725924,-0.2227662337,1.5335801957,-19.1962053791,-5.3113356836,5.0252782826,-6.6761328365,-1.3407309595,0.3801974342,2.2432173791,2.2334104107,1.5956644686,1.4315559906,0.5689967542,0.9016139764,0.9932918846,-0.057394682,-0.2616092534,-0.8370445368,-0.16816986,0.5195697517,-0.1192431304,0.4642926799,0.5595141748,0.9119348872,-0.6801267266,-0.2973589662,1.4038661388,1.1084616565,-1.1710392633,2.045713686,-23.5388209315,0.3927633152,-65.5075754567,-8.3345025528,0.9115479034,1.042533341,2.0353778274,0.7687932588,4.1639263781,0.6418382959,1.2749080759,1.878609557,2.7107524123,0.417369094,1.1490125169,-0.1463215355,-0.1552099031,-0.1915888871,-0.4286334701,-0.5637805948,-0.6371789951,0.3611248268,0.2258142304,0.2495509231,-1.415571575,-0.7209838933,-0.3805195348,1.7502561662,-23.093511065,-0.7772671853,-11.8988325343,-47.1301464715,-1.8077439142,4.507996827,-2.0612726946,1.2874920908,-0.4079334343,-0.0155046994,1.1475712368,-1.2847301201,-3.6284411097,-2.4504212087,-0.2146581512,-0.5334383901,-1.3196560343,-3.2724178938,2.2723418216,-0.273283438,0.6127919031,0.4792421865,2.4335157292,-0.863313996,-4.7982364905,2.4013039439,-1.0603473075,5.74270555,-0.5184785975,-0.8918493975,-0.6646056269,-0.6663776557,-0.8668763915,0.3240003248,-0.3158847423,-0.6243184378,0.620162008,0.6055452403,-0.7685771316,0.6184949323,-0.9056719555,-0.3582379989,0.1169586046,-0.5014111294,-0.8627840768,0.5849280608,0.7813613268,0.8663073665,-0.074727902,0.8280283359,-0.2019741568,-0.7096207012,-0.4728094012,0.041561531,-0.2525362583,0.3445414091,0.7790680186,-21.3585831992,7.5851229895,-3.0237616321,0.9329834987,-0.4704035921,0.3367386092,0.0445249084,-0.1532623903,0.1207355388,-0.3057436569,0.3899720399,0.0217135189,0.2483150953,-0.4652290937,0.3577244058,-0.126068755,-0.245736982,-0.3949676199,-0.3584450835,-0.037759876,-0.2160388533,0.2196135971,-0.3142702928,0.0842673835,-0.8086593066,-1.3616445759,-1.5460966449,-25.1689349542,-9.3425136468,-4.9218438931,2.1637974057,-0.8527923653,-0.3925499689,-0.3496583375,-0.6824275359,0.0244757783,-0.2452624761,0.3455583572,-0.3054396416,0.7949923915,-0.2338615841,0.1063002611,0.2759225688,0.0281600474,0.7295100545,0.1172591372,0.0119388835,-0.0942954317,0.2434555758,0.3150632486,-0.2202158034,0.6585799837,-0.0510532812,-0.699816849,-3.4743263251,-23.5782309837,-3.6573099256,-0.2718167195,-0.4982256776,-489.5108864614,-0.72800738,-0.6674404803,-279.9534840243,-3.5390707176,-0.4463457224,-205.6709823176,-1.6483146791,0.5452176233,1.0903577196,3.8881395401,-0.4606988248,-151.4469789962,-1.6294654894,0.8811624559,-29.4036982575,1.7455726076,0.0907457561,-26.9616530997,-0.2094844943,-0.3594238442,-34.9946650103,-3.2367848814,-0.8638067314,-35.3299195874,-2.4180011563,0.082616289,-5.1785123883,-0.6020581209,-0.1609882992,-7.2126388646,-2.0554248031,0.6251096572,-0.1271365711,-2.3229429872,-0.9360508165,-52.7377945445,-3.0817267722,-1.6340346337,-0.3655496583,-0.7836533859,0.2019554882,-6.4339923867,1.1163232145,-0.3827783232,1.1045525406,1.0768296898,1.2046486661,-54.1962459928,-1.7893960414,0.7141890773,-16.7740580371,0.4813659415,-0.5346557478,-2.4196075053,-0.0032952444,-0.0953800882,-0.1830350237,1.0800727667,0.9792272398,-108.3250502725,-0.3900667981,1.7192276833,-59.5653082162,-2.5344431557,-1.1979544995,-34.8270082096,-1.4707654549,-0.795720786,-5.6309122389,1.7022925307,0.230207233,-3.3571342825,1.0680888586,-0.7275913248,-0.351699996,-0.3925765979,-0.8646583238,-0.8334825564,0.7146604237,0.8546120022,-0.5483027952,-0.9823498678,0.6004534195,-0.8298402385,0.569367359,-0.6878516096,-0.0732335299,-0.7353924885,0.3907804342,0.0124579905,-0.3978840643,-0.3214682161,-0.6058903781,0.449452635,-0.7470087321,-0.4659576887,0.7023054648,-0.942853495,0.4489542293,0.6765379587,0.2943405982,0.6578219873,0.0426068425,0.1520340493,-0.0710213765,-0.5071152265,-0.5552602595,0.4653736658,-0.1486198094,0.6947590049,0.1549736407,-0.4353651078,0.852858061,-0.604864763,0.3682066724,0.9970470403,-0.2459053697,-0.8351169499,-0.0228203315,-0.818271683,0.8821333397,-0.0190585214,-0.2085277138,-0.7554430817,0.6114574698,0.4154993424,-0.7067577694,-0.6395112332,0.5394679396,-0.7572217807,-0.2499800154,0.0486337441,-0.6333267074,0.1587302449,0.0048720783,-0.6345964698,0.0519039525,-0.1910361158,0.7642445125,-0.5589571721,-0.6871365297,-0.1797908718,-0.2962000501,0.3033303765,0.2387563437,-0.5567784034,-18.3480399705,-22.5843147542,-44.0736178884,-0.3737922597,-2.0514655638,-0.5858892486,0.9804192526,-0.8217306854,1.9747886255,-0.7819817953,-0.1256275464,0.3570981602,0.8844727791,-0.3990446329,1.5777415884,0.1898289964,1.3559542187,-0.5132433218,0.0994289579,1.3192448881,0.7158952585,0.7373293022,-1.5500980767,1.5997903971,-0.0687549019,0.7233501719,-2.9043701599,-17.3267852697,0.6517254156,-59.9001002592,-3.973920772,-2.9292588446,-2.717847935,-2.2763142331,-2.3108463622,-2.6235118356,-0.0855355515,-4.6941360238,0.8632661761,-0.8514530452,0.9581546763,-0.2334064762,0.4120061024,1.3246511964,3.3379551842,2.1448334672,-0.4217029409,1.4702722725,0.2413859499,4.5640535065,2.9251389647,1.7451249011,-1.3068599967,17.5207463124,28.8909579094,-2.1592229621,-40.2590673417,1.0633601821,0.4941136774,1.0243616242,0.2845936251,0.420249569,0.5483736844,0.021165796,-0.5531984224,0.1988557793,-0.7157635498,0.945252746,0.9192994798,-0.296742559,0.0606654201,-0.9276642603,-0.5758083877,0.6644546193,-1.1289085785,2.1716348348,-0.7500265395,1.8780634878,-0.7293540092,-0.6729753836,2.7162795195,-36.0022700938,-0.0025510408,-7.8810671591,-4.3269276917,-2.8930010052,-1.5719686231,3.0233546962,-0.4948407704,0.5793743228,1.1466244257,0.7838419816,2.2667254811,0.817565985,-0.0409183597,1.4508869723,0.050862923,0.3825804534,1.5538134079,-0.2817621747,-0.5890488443,0.0100500106,-0.6438105355,0.9668383548,-0.487090104,-3.6049304917,0.6288969146,-6.2876287385,-4.2867997731,-23.3675109885,0.8071425918,-0.7004244259,-41.2901348743,0.7859700133,-0.4603408574,-0.1186092466,-0.3808102981,-1.4224475458,-1.2115061635,-0.7848251422,0.8391567526,-0.2743807999,-1.1881986678,-0.1798777745,0.6135244074,0.5820289038,0.9545832064,0.945073434,0.0090191972,0.1463233413,-0.3783970893,0.5771351706,-1.9040605654,6.2104600986,1.5986216224,3.2152024279,-27.2013558605,0.0065834884,0.9597530241,-0.1027827559,0.0009883427,-0.3498596073,0.0550067702,0.3348717306,-0.2551430494,0.8930563177,0.6295259388,-0.0932447555,-0.3397548108,0.772568317,-0.119205751,0.3627042946,0.7703002716,-0.4704943472,0.4336733907,-0.3521751658,-0.7860436433,0.7900391201,0.2325102871,0.0913828376,0.8570966656,-0.6113342644,0.1545573667,-0.6966637159,-0.9960645436,0.590241314,-0.2724808869,0.7863212582,-2.3495756725,-36.8687264607,-9.5295183251,2.5348924144,2.4010617742,-2.1626401858,-3.5685005656,1.8489282971,-2.2135823331,3.3624890174,-1.9175026778,0.4821730715,-2.4536798034,-0.6464651809,-1.3176257347,-0.2347724336,1.1795599755,0.2142452112,-0.8755982625,-2.1896206955,-0.226096365,-0.5943508854,-1.4472594382,-1.9083109758,-37.430993954,-18.0754179465,0.0110876548,-7.4694841908,-63.7363910415,-4.1556437296,-2.0887120979,0.2366631088,-0.6875223377,-1.3412217173,-0.2858123211,0.6873099432,0.9129807367,1.486579444,-1.3281182786,-0.1762989002,-0.4960483808,-1.8349237422,-1.0221933097,-0.8173660622,-2.9835986782,-2.2591724122,-0.9139283631,-0.5087842682,-0.3673934803,-0.6598720983,-0.5682657652,-1.5945570234,-4.1416361116,0.4983039465,-1.801175932,-14.5992408168,-4.6036446947,-1.8793465512,-0.1764211071,-0.3763032396,-0.3469631816,-2.3405877188,-3.7473977087,-2.0271859899,-1.5867737472,-0.3406388777,-0.9238638861,-0.1179787459,-0.2995041445,-0.7732607012,-0.1548776477,0.4147250653,-0.2417065309,-0.5678573584,-0.6509171795,0.4725677776,-0.2566648332,-0.8080579307,0.1103531441,-1.3190068761,-2.6852119143,-6.067823359,-0.9593427818,-19.397778649,-4.0694056942,-2.5657855034,-0.4078364791,-0.4952011567,-1.2596986934,-3.4512480343,-4.3989059479,-4.2997803074,-5.8031727688,-5.2661567748,0.2183858112,-0.7899919614,-0.6339291508,-1.1378328,0.4819601142,0.5043548358,0.3576040058,-0.3075796077,0.1798763203,0.1584081775,0.7844235224,-0.6120751196,0.71208991,0.6824567366,-3.7227962382,-38.9420380042,0.4818660442,-3.6280765006,-34.1506638749,-3.2141472516,-0.5864596015,-0.7734400194,-4.0166595805,-1.1758117419,-1.2572558083,-1.8917087064,-2.1202199381,-2.6817416795,-5.9861225459,-2.0727900126,-0.4172025728,-0.871527962,-1.5729298605,2.4623312114,1.1876726597,0.8465564583,1.8130008142,-1.0888581182,3.7702518046,-5.5640438793,-5.1319202867,7.9642782486,-34.8125248052,0.1096468623,0.8602949431,-0.3511064638,-0.2759477259,-0.9728261598,-0.2981844747,-0.6948908077,0.8864735026,-0.7999733518,0.639104973,-0.653616873,-0.0352125877,0.0374612653,0.8054981336,0.5372653276,0.2814205167,-0.423064083,-0.0313943395,-0.2621068831,0.9200825865,-0.9256922165,0.3191495252,-0.4596080117,-0.602280099,-0.4366099612,0.559237149,-0.5589580993,0.5148131717,-0.8573184806,0.7135882857,-19.4510075196,0.8723584437,-0.4030062012,0.3031540716,0.3764539066,0.1872009045,0.4926177985,-0.2207199943,0.4335236862,-0.5029809195,0.5081713496,0.6984285053,-0.1681338641,-0.4448145347,0.1580680086,-0.6247171143,0.0123956617,-0.3876026368,-0.2349722277,0.2041867574,-0.829551666,0.1145418612,0.0049190725,0.2888523178,0.8014753024,0.122164842,-11.9081828518,-1.6201843373,-23.7460067583,-1.2315808592,0.246833546,0.19084425,-0.158511588,0.3583038966,0.6136281135,0.6105765822,0.1090441322,0.5894801042,-0.0385094633,0.0173049616,-0.0267704362,0.2881020482,-0.118910894,-0.5731874727,-0.4781091077,0.1152464992,-0.2026033418,0.3296670129,0.0688531627,-0.3290753694,0.6028744494,-0.0513174148,0.7284732046,0.7459530257,-1.0916223966,-2.7990783048,-0.3426179011,0.2537224838,-5695.5079017984,-0.8296881345,0.1184946149,183.8148080344,3.2859598479,-0.8377964569,70.4284813031,0.7277007657,-0.6442458294,84.5455116518,-1.5606293052,-0.0185796078,33.5391891865,1.5450510748,-0.6397093422,-0.6900271673,-0.8283943892,-0.4002826639,-0.7316959186,-1.6147433551,-1.2715068674,-0.2698050904,-2.3531738001,1.9677125412,-0.3296430679,-3.8741468692,0.1552347696,23.8753146937,0.3153926783,-0.5615369906,0.6985696987,1.3987154017,-0.238436113,43.6409761555,2.4014550242,1.4686949753,11.2718901823,1.5051247104,0.7034295105,14.144730839,0.7458237058,1.0020309354,-7.2614808759,1.083629447,0.7508897329,0.1532467294,3.432120534,0.652466669,-6.5705535605,3.8263860997,-0.7213574519,-11.331339738,0.7719174022,1.3947116223,-0.1565995709,0.827391046,0.6003065712,46.6131171323,-0.1941076527,-0.3046583398,42.7423828051,0.8043947501,-0.26140254,0.7197796875,0.3762465605,0.0983663931,0.3265531003,-2.8256092819,0.3082007944,-0.3907273485,-1.8343282194,0.166571579,31.8871636198,-1.9074814122,-0.1675889589,-0.4016116151,-0.1172975265,-0.1507581203,-0.2082125585,-0.7280985454,-0.5538976395,0.8325071811,-0.1679908739,-0.9309642377,0.9607811764,0.5275434203,-0.2323115552,-0.3326794631,-0.3932665146,-0.6458397452,-0.4255011109,0.6800831461,-0.453044381,-0.9704993973,0.0259739073,0.0559412138,0.6676664964,0.540103403,-0.2974119973,0.9691397529,0.3582015546,-0.8912819728,-0.1430834209,0.8335452929,-0.4116081142,0.0386815211,-0.357312469,-0.4268900883,-0.9587583866,-0.1813277544,0.7155369576,0.7816173419,-0.441285124,-0.6293481477,0.7132815638,-0.0954762195,-0.3415534637,0.8238080463,-0.3764802135,0.0757062112,-0.6208124764,-0.3026887492,-0.4536248831,0.7419301098,0.2127984058,0.8746968339,0.8601929577,0.7078495941,-0.6193966359,-0.7473138839,0.2980044416,-0.265647858,-0.7880833957,0.4472581645,0.9425691293,-0.6769392828,0.8825546424,-0.5602150203,0.6478095828,-0.1801945613,0.2711460077,-0.4539568925,-0.1055503123,-0.5301223487,0.2289350429,-0.7903996493,0.1053483582,-3.1220610844,-29.7787555879,1.0148223822,-1.8135614179,-2.6135599834,-0.0185601984,-0.4877824439,2.1362510623,1.5712213521,-4.6767045368,-1.5136629011,-0.6046677137,0.6123751045,-2.36228818,0.9741362392,1.5486493211,0.3199596993,0.3635635392,0.2519733348,-0.2840038559,-1.3571550227,-1.2615194506,0.7797257263,-1.2805432453,2.5668810554,0.1787058515,-0.9192081063,-3.6977489657,-13.6732406735,-36.9353861304,-0.7016100021,-1.5967216499,0.7677111725,1.5421156097,0.3822427579,-0.7927628527,-2.091740604,-1.4160208813,-1.0812880508,-0.5633277303,0.4131026169,-0.0933455734,0.9557090917,0.1044731058,-0.0934578553,1.056671591,0.3533942006,-0.1760676446,-0.2492243928,-3.3018318874,-1.1697199966,-0.6594135982,-6.5358207797,3.0005700408,-15.2911865427,-1.2263668141,-22.3035387968,-38.7820495433,-2.8619383199,-3.7664333257,-0.1729485099,-0.5071784152,-0.2447412706,-1.2835555224,-0.9162208916,-2.7306514184,-2.5605592806,-0.6863081695,0.1394578295,3.0822122023,0.4843562998,0.044603848,-0.0010870832,-1.105551155,-1.6123672458,-0.9649597106,-2.041107021,-0.4503434205,-1.9276410519,2.9097331542,-12.3848556034,-1.8884756548,0.3873394419,-24.6243056438,-6.2789733637,-4.2977391674,-2.3492599841,-2.7248798519,-0.3959674895,0.3126650683,-0.859106119,0.0408343336,-0.3482939342,-2.6720764001,0.2476629057,0.6152618284,-0.2992964706,2.4120747563,0.9383939836,-0.4382965165,0.841566206,0.7545876283,-0.5003421906,-0.5540727822,-1.1858373244,-0.7357229907,-2.3458947307,1.3944206514,-9.8948015128,-46.2452817759,0.4943443466,-0.4778453705,-1.5192585217,-2.5020935263,-2.8756805719,-10.2193229386,-35.5821996514,-3.3799447973,0.7897026884,0.7068019235,-0.2447828752,0.1572222813,0.8009160135,0.1164880218,0.0265153656,-0.6355643677,1.5674835133,4.6539695045,-1.4050730737,1.408648854,3.462444771,1.771019776,-3.8035774988,-16.6846214886,-20.3427826364,-5.9295580508,-2.1353511588,-0.1591039419,0.8778595612,-0.4008770541,-0.8028181712,0.9858391378,0.797401698,0.2301362863,-0.5624552357,0.8669980567,-0.5702301814,-0.3945769761,-0.9300338777,0.7396025027,0.3218852254,-0.7234464223,-0.2465969831,0.8696244103,-0.5792256082,0.6258032861,-0.8434926782,0.8957796424,-0.4612497462,0.2592205609,-0.2951495584,0.0837410146,0.1190086938,-0.7354365182,-0.5862805719,0.0428762383,0.4969524055,0.1544168949,25.4301660767,-9.2438002419,-3.3723799988,4.8916587018,3.1818846557,-1.1215787696,3.3989164496,1.3134328405,-0.8257208912,2.3910188812,1.4961635596,1.2186870383,1.1441520319,0.1758756435,3.5791531331,3.1578566432,-0.9997358018,0.2605216244,0.2881764788,1.844048421,-10.7025485576,-8.8571776684,-2.5859688419,-2.2321843457,-1.268651467,-1.2058599745,0.4551524214,14.8188582652,4.0006774232,1.1515357799,-0.3125096427,1.8059967596,-0.6461443045,1.1522887616,0.65843739,-0.0815990775,-0.7600640114,-0.3344762391,0.583872402,0.943908811,0.0829594711,1.2268845592,3.3293195505,3.744256655,3.4524249452,3.6539051597,-0.2463450384,-0.6073797521,0.4771866942,-0.5342871556,-2.909386733,-28.8487146906,-5.6725291553,-3.4097918597,1.5664743342,9.9354818234,3.8224260325,1.0778358492,-0.7475413571,-0.593387829,0.4119686394,-0.3991167239,-0.8994141938,-1.1573755111,-2.3426337616,1.64694641,0.9814318895,-0.6669414017,-0.1325782074,0.8347633693,0.8733607121,2.0811016385,-0.1756215677,1.0095252195,0.4659189022,1.0456455672,-0.7251472583,-1.7647734033,-0.9715076343,13.0597495052,-17.3214946979,-2.7257420486,0.6378715542,10.6671519618,4.1454844798,0.8552608944,0.1959782458,-0.0756673697,-1.2976835212,0.1906416322,-1.7394048199,-2.0866331549,-4.3183103429,-4.9617888551,-0.2677335449,-0.2565575867,-0.1643610462,-0.6933765042,0.1863544283,1.238230162,1.2782650815,0.7161976905,-0.5509674975,-0.6699045481,-0.0564767054,-4.6322929845,1.4667383943,-38.9588835574,-5.989454589,-3.7129260569,-0.4615672061,29.4943548127,-2.7553142734,0.5042641512,-0.9296238776,3.3546291639,2.5544206962,-0.6116447833,2.6707595889,0.4767455272,-0.3416878528,3.9490264976,1.287803262,1.2469769278,0.170066877,-0.7642170166,1.7744754202,1.6452991069,-0.569431361,3.1285769845,-0.3087147319,1.8503651248,-7.4606659367,-20.9121576845,-12.0006883534,-3.5961939746,-2.0169335021,0.2152423677,0.7506345272,-0.1269899355,-0.0962741951,0.6274992848,0.5023857077,-0.2069376212,-0.0237327429,-0.6056477744,-0.7408304836,-0.4281935256,-0.3068467729,-0.4236708674,-0.0137601661,-0.6531176241,0.6676021238,-0.1692818749,0.4314211369,-0.565506442,0.7703490693,-0.7144685808,0.3717839253,-0.6639997151,0.8849270611,0.7588067422,0.8638601993,-0.4374932827,0.9516448238,-0.1064419826,-17.2957143664,-24.8069687283,-30.8624947394,-3.2419768586,0.2114096833,-0.4807866998,-0.6941694479,-0.1809780227,-0.3970300994,0.1351175693,-0.1167483362,0.2815470702,0.4624143435,-0.2549436748,-0.5620136208,0.2324932489,-0.4581805341,-0.5038265442,-0.0079567936,-0.105140846,0.2843069379,0.172301274,0.5159001319,-0.1819718162,0.1161196853,-0.6235617779,1.453125038,1.5825748043,5.4972662835,-7.836685122,0.3130242869,-0.2933701665,0.2898854389,-0.4268328943,0.1760319821,-0.3012360236,-0.7376911616,-0.2618773611,0.3144447869,-0.1997631951,0.2575184826,0.5794393017,0.3371688261,0.8488937948,0.2153268314,-0.0198080781,0.5207311111,-0.0264931536,0.1472468252,-0.1486794664,0.3910823863,-0.7078761346,0.1594896573,-12.6000602558,-1364.0523864512,-4.3219016813,9145.5343864443,-0.047715574,0.5550430046,321.9045165564,-5.0280006179,0.5922326909,-10.3556566703,2.948734781,0.0197821508,-60.3459506268,-5.8386399117,0.7755309831,-156.9234492691,-5.2593286047,1.5177782881,22.815580976,-7.8394891731,-0.3284199238,0.4483521105,-6.2313025831,-1.4175994106,-4.3133774855,-5.832136626,-0.9823151913,-13.4991946484,-2.0766730297,-0.6230704137,-1.3325154755,-0.1639713866,-1.5573970736,-26.6961851618,-3.8471311864,-0.4983683744,-19.7047444437,-3.473103692,0.992091019,-29.789327146,-0.8384807146,2.5397621521,-85.0427486652,0.8614391504,2.4132829514,-9.2724901286,-1.3984047877,-0.4371874911,-76.5332112083,-1.9848104948,0.4380210532,-49.9513696234,1.4667627921,1.1831492861,-13.091487412,1.1315405916,-0.647595296,-0.2819112146,0.874120464,-0.9164447675,-0.4496941374,0.4848875614,-0.1687122635,0.5567162956,-0.8757018746,-0.6955497936,-60.7775045975,-1.0078752052,-0.2889348351,-0.0886770938,2.1258971626,-0.102035223,1.195329752,2.7929751853,2.0242228071,-1.1834098745,0.6048399271,0.8677491948,-68.5524141889,-2.9685686845,0.3768593166,0.5386592185,0.7636553001,-0.8627820747,-0.0701078942,-0.8081492398,0.2479937996,0.3116457826,-0.1275463632,0.2030901035,0.6874374826,0.6317058754,0.7423166096,0.0344977497,-0.9012149999,-0.5443625471,-0.7409435601,-0.5124258764,-0.3643488311,-0.0279726894,-0.1232018465,-0.6499174238,0.2774947659,0.7478772475,-0.015219951,-0.8558712562,0.2467958085,0.288023267,-0.4412775336,-0.5792514085,0.2246945773,0.3012205845,0.5833152636,0.5463178059,-0.064594968,-0.1317943812,0.0661356425,-0.573905058,0.169715519,-0.7929516119,0.9633092557,0.1102108517,0.817888363,0.2311072789,-0.1627729447,0.7274170248,0.9822719111,-0.4051012713,0.5666301144,-0.3080948832,-0.260063541,0.4231947599,-0.0706248945,0.628510098,0.6256474332,-0.5813397055,-0.6218067216,-0.0383899387,-0.5945119514,0.5433432311,-0.1702453467,-0.3869654296,-0.7885564808,0.969329171,0.7873508219,-0.2457057277,-0.39273993,-0.5061257952,-0.3824921503,-0.9415554936,0.6324694387,-0.7180733547,-0.3273064682,-1.8182331734,4.021865588,-7.5066396806,1.5719843389,-0.5443403853,2.8566157433,0.1000973147,2.7129859858,-0.4382525545,1.4346934105,1.6238961758,-0.2138816971,0.1653631171,0.3776938089,2.0940999257,1.2374884234,-0.4523536331,-1.2256690007,-0.8525036724,-1.882138449,2.0844922852,-20.4925759623,-14.8103559994,-13.2887316076,-6.3163516026,0.579815975,47.9506867528,-4.7041264121,7.019437835,-3.0279529831,0.51547049,0.2253050877,0.5828132242,-0.6547173759,0.2235787188,0.2272115827,2.6706352246,0.6414155609,0.6369987527,2.8933793971,0.9658057926,0.6503172597,0.8853800224,-0.9134808195,-0.0948117386,-2.0317001266,-0.2472555592,-1.5047864855,-0.0715220815,-0.8736653516,-1.405900719,-1.598627998,-5.3547050937,3.5157622208,-15.8664932254,0.4271592263,4.3390328302,0.8229117132,0.4954301806,1.3581244914,0.8239706741,0.6626050234,0.205136884,0.2363552044,1.6023294736,-0.822417272,-0.5071797435,-1.5422164792,-1.294979528,-0.4952385933,0.0905700066,0.690562367,0.5778240066,0.1224466853,0.5793232783,0.6765800667,1.0909972965,-0.9870897759,-1.0907809188,-1.3269811089,-6.1930715197,-39.1268529941,0.4498274953,-26.5718860237,-0.434301235,-4.8247303752,0.7040543587,0.2357546193,-0.7635754809,-0.7421884383,-1.3845038829,-0.9542839659,0.0553426488,-1.4244230832,-0.8057386735,-0.5746563932,-0.5780566411,-1.0128110784,-1.4362463129,-2.1220336582,0.663854977,-0.1941929262,-0.2743488136,-1.052841035,-0.2322515587,-3.5480762373,-0.0720203567,0.7083011206,0.3414097853,-41.9222162685,-0.0815362501,-0.5393540679,3.2613147751,-2.0376035441,2.1248666797,1.422854402,1.207146024,0.5840826604,-0.4910625512,-0.0599558569,-0.1319101204,-1.2585476706,-0.4483278211,-0.5765382098,-1.7661503448,-0.3131038994,0.5806608819,-2.5273545807,-1.5558952931,-0.9204014441,-0.3992170965,-2.0162351896,0.1207471454,-6.9867360897,1.4097998672,-8.4128573555,-29.2413193671,0.2132551282,0.094999254,-0.4563294947,0.7956110613,0.5938152901,-0.8031185954,0.767540832,-0.8536607555,-0.89584544,-0.2874967913,-0.7984810173,0.1018589958,-0.6203917048,0.2447916799,0.1978649072,0.3093231085,-0.3786614248,-0.3856052796,0.8747318957,0.1898274163,-0.6698838562,0.5679807341,0.6432223489,-0.7074768613,0.7848531208,-0.9073825554,-0.3918992076,-0.3037851365,-0.8513006703,-0.155957917,-0.0250235232,-2.9711289708,-8.8305858908,4.0334903849,1.9482951275,-0.8602461951,-1.7668239853,-0.137972595,-1.1714409976,0.4678257048,-0.7337100639,-2.1626587569,0.9592050497,-0.3558167905,-1.8361626648,-0.6438675629,-0.4273705058,-2.0467373012,-1.2354669528,-0.8931383479,-2.9041147711,-2.2086203286,-1.8141564926,0.3229037592,-0.2298641088,-3.0326928194,31.6913020238,0.9596168198,-5.3222723231,-12.4724137337,-19.4337850803,1.5844656104,-2.7484875987,0.6819099896,0.0519607309,-0.3590030933,-0.4821391747,-1.0939234042,-2.355643084,-1.5850288217,-1.1911939694,0.151170652,-1.2551932417,0.9587662257,1.8012097214,-0.5638836586,1.7359631781,0.0246520732,-0.264230507,-0.6613868209,-0.1794954023,0.5640539494,0.9651235032,0.0276037904,0.8901636943,-0.060503995,-5.5740996679,-8.4672141566,-14.0130989756,0.2887156114,-2.245656151,0.3041444797,-1.8167939076,-1.3748338747,-0.2892440763,-0.5188852138,-0.2504405096,1.0517188329,1.2399611988,-0.2315719885,-0.6191907057,0.101825556,-0.5423882315,-0.6387710187,-0.0502229128,0.8734742286,0.5519825332,0.3529057068,-0.1894578189,1.9371075931,0.39194622,-0.2771758864,-1.1280009161,-0.8929988899,-5.5724350682,-5.6598671226,-14.0375336307,1.9675619721,-2.3198183569,-0.6167852545,-1.0617606143,-1.7139326022,0.4288152816,0.6117503514,-0.3945674165,0.2177266762,-0.9583502116,0.3567913735,0.2278242829,-0.4921696294,0.8555001192,-0.9085032609,-0.5197471715,0.7060256898,-0.9954258038,-0.8394128068,1.2911676847,0.7349145885,-0.3401674142,-0.1221691184,-0.0932265824,-0.7460390752,-0.7731200063,-1.3794948895,-2.6703504845,-9.5687705037,-22.0259811718,-0.1492981537,0.6703002099,0.4535864461,-0.3484021613,0.6485148219,2.0661381927,-1.75741715,1.1600071823,2.5132497473,-0.1718311997,1.0293606086,1.9621257289,-5.7449108057,0.5354583696,3.4873600711,-2.7538362018,2.0174155305,4.9449560385,-10.3127046945,-2.625820817,7.2777028665,-0.7774261412,0.4945145431,-0.7740558929,-0.0506266589,0.2446249804,-0.6918657539,-0.4262180609,0.0622824151,0.3932040712
   0.8735375875,-0.2421452234,-0.5827085581,-0.2011495282,-0.9748725523,0.3810224652,0.1430845437,0.8948573456,-0.9147811775,0.8547514095,0.5874065662,-0.4678429982,0.2542231676,-0.0286636954,0.142123103,0.417082255,-0.5649631217,0.4279040281,0.4438907049,-0.2451837317,-2.9570934058,2.0844910112,-1.9651531451,0.7407911239,-0.2248895606,0.4207045249,-0.1891861037,-0.1855988454,0.1143623832,0.0664563214,-0.472344073,0.4713946212,-0.047566905,-0.0993242192,0.5479356799,0.0686402038,-0.1752455526,0.6440355837,-0.0629603973,0.3028179873,-0.0018339041,0.3271935519,-0.0788223134,-0.3737398016,-0.0688945653,-0.5120618261,0.9623245827,2.7623375278,-1.5061377707,-8.0167611811,-21.2462140693,-1364.059321263,-2.6040926658,-0.3831248294,-0.2317990804,0.2653798844,0.291964303,0.1900306265,0.2956456777,0.0392135841,0.1367783844,-0.3971091495,-0.3443931203,0.1666478816,-0.3351324205,0.0461029149,0.3451205151,-0.4101050463,-0.36117111,-0.1250704936,0.3809945678,-0.1756527409,-0.1666436513,-0.3223621248,-0.1338523165,0.0824552771,-3.4088133019,-0.5577823358,0.1917037996,-10.6502700541,-0.1247808934,1.0997828185,-16.5686357217,1.6048332316,-0.5963142488,-12.505487903,0.6893997601,-0.6139316123,-11.4696290506,0.0392593954,-0.7903656185,-7.4595408167,0.7069570962,-0.4141563418,-8.3198392082,1.827900453,0.1460229941,-10.6713759143,1.2240547837,-0.5019599589,-0.6997973158,-0.3475974412,-0.0276233114,2.1540104992,-0.3812162908,-0.2842631792,1.7057854827,1.2777701765,-0.4606445013,-17.895549021,0.3643425047,-0.3119710635,-0.9163023776,-0.9308254475,-0.0074842788,0.5677588871,-1.4098489685,-0.043549424,-2.6833377351,-1.9086737193,0.4478384994,-54.9708236873,-0.4517136795,-0.5355230285,0.7996370964,0.0235425454,-0.6959967369,26.0362918358,0.0430124712,-0.436647317,-41.1182465932,-2.6741853615,0.315452396,12.1557836903,-1.025887376,-0.9363156494,0.3303879204,-0.4471094551,0.4584827717,4.8652192597,0.8017778812,0.6841478254,33.0688656534,-3.3450705567,-1.7709807324,0.1841050231,-0.128494537,-0.4815396564,-3.1810947037,1.4608950496,-1.5459791623,-72.2998365364,0.3232994897,-0.4339061154,-0.7479626622,0.9693841354,0.0863513479,0.4477400797,0.926692103,-0.8430432159,0.7673188622,-0.7025408261,-0.8325094263,0.3309573143,0.3854713715,0.049903909,-0.073087622,0.5205882285,-0.4815849485,0.6030521961,-0.4575322185,0.3076552889,0.5578420081,0.3672561642,-0.3200783096,-0.9143823127,-0.6916672862,-0.2332146757,0.9646279307,-0.1631730486,-0.1593246759,-0.8615355804,0.0587864016,-0.1892330221,0.6075137605,-0.3397818233,-0.5575643795,0.9861069384,0.3291377953,-0.5576637743,-0.3440071154,0.6993809515,0.6572268625,0.4142700033,0.2621553251,-0.6768944927,-0.8756392763,0.1397744443,0.284973262,0.376148405,0.3871090565,-0.8067931743,-0.6160910006,0.9491609781,0.2705128425,-0.7702045037,-0.4793061145,0.8278860719,-0.3782303352,-0.6173093385,-0.623204787,-0.8028451255,-0.519064281,-0.8803900898,0.2793062451,0.3083844847,-0.4235431283,0.1918911771,0.8930716147,-0.0066109061,0.6533413743,0.8087651856,0.4368603224,-0.6928295308,0.4137763062,-0.7415604583,-5.4212581428,-37.4975898328,-49.9785541225,1.4695568231,-1.4176127356,-0.8442812856,-1.0837081927,-0.3514650802,-0.8608621448,0.7102898873,-0.4531924173,0.510280998,-0.3782094503,-0.7604287155,-0.1342940818,-0.5411399738,-0.7476740414,-0.5398640932,-0.6091933375,-0.6095460694,-0.9892174013,-1.09784048,-1.6044004858,1.3530821979,-1.4187839076,0.116599364,-4.7137786216,-17.1677232771,-20.7304375715,2.6707595301,-0.8772144405,-0.9592521481,-0.4804941427,0.1365494671,-0.5691101422,-1.1402434953,0.3968170801,-0.5438824461,1.2663996342,0.4968312371,0.6325686913,0.4658430513,0.2210605784,0.7644850289,-0.3649555786,0.3381413771,0.5845340863,-0.2353138206,0.0009737128,-0.4381854379,0.5162114961,1.0143908245,-0.0488325028,-5.9295022022,-5.8608756939,-3.8773225066,-13.6716757612,3.5885350756,0.10868225,-0.3800724523,-1.1160981999,0.0628512652,1.0382527695,1.1759539175,0.2707958528,-0.4645623384,-0.6463534283,0.7982341143,-0.1045440867,1.3319842281,1.8207397652,0.6569780318,0.5760755838,0.4560671071,0.9387491496,0.4388686118,0.4667928207,1.6724481749,0.8785735302,2.4290602448,-1.112668148,-39.0307352386,-0.1861914425,-16.6343594927,-17.7110112821,0.6509570847,-1.6581414847,-0.3220063861,-1.0827518296,-0.1132725859,-1.5294845222,-2.1961407235,-0.950632452,-1.0151776711,0.1403101863,0.3529074982,-0.2639661724,-0.2547787482,0.3610380688,-0.3520299718,-2.0650654473,-1.2783653012,-1.3368330206,-0.8275268131,-1.041518713,-0.811930792,-0.2189567592,-1.4087391825,-38.2818105538,-47.9412342623,0.1334693948,0.0497077077,-12.3601166823,-0.9218776517,1.1180526351,-0.151442903,-0.9734444967,-0.4022841201,0.3864246508,0.1079167833,0.0060871354,0.4584640408,0.4844314752,0.191040016,0.5845638042,-0.120771032,0.217973508,0.3435174264,-0.4958236388,0.6610198433,-0.5244967104,0.2410640397,0.3624064732,-4.8413186627,-3.5299710732,-44.8873155754,-40.3410256536,-0.380515341,-0.7602164367,-0.2013633424,-0.8674401891,-0.9655956723,0.5586858194,0.8392119582,-0.7269483947,-0.2569584238,0.6827786467,0.7275360152,0.9671646875,0.4794319585,-0.0376986452,0.5205137302,0.6458757669,0.3435421532,0.4111810758,-0.1816191547,-0.2646218963,0.3298059009,0.3255649765,-0.6317480344,-0.6327725967,-0.3829876779,-0.8968418752,0.9641773683,-0.3630503557,0.3148594563,-0.416320522,-0.4109788583,-1.3185764509,-17.3613259356,-41.9406113559,0.4334025757,0.2418502349,-0.2894497516,1.340037698,0.5519056758,-0.0218165096,1.6982947004,1.8828708334,-0.6302451024,0.9225607776,0.3123078189,-0.2333638554,0.6533069045,0.7759347555,1.1471104451,0.3467979776,1.5528178684,1.1174269931,0.4523237817,1.0596834507,-46.0665909387,-29.0661833696,-1.9203456437,-0.0512631652,-6.5767625462,-60.465321443,-0.2240270817,-1.2181133689,-1.2780235418,-0.3426017112,-0.0340397372,0.0882243769,0.7409526308,2.9943127986,0.2665642011,0.5371140935,1.2335025324,1.1785990691,0.8474415142,1.0695728683,0.9148101684,2.2850952907,1.4757553354,0.7359566712,0.8649323938,0.7890271447,-0.5968455007,-0.6630738516,-1.325923012,-0.5823563788,-22.1596932674,-0.0757800094,-5.8247850725,-38.4895973767,0.9358166701,-0.0660821084,-0.2460978635,0.4709954403,0.3570687903,1.2936233285,0.9486875963,0.5263565347,0.7780705076,0.0809534236,0.7263952415,0.4980723504,1.4730045819,0.0331413737,-0.2053811685,0.7478041036,0.866692151,0.4600089271,1.3369440738,-0.1965120382,0.2137367623,-1.2011545781,-0.38281348,-0.477370625,-14.7324757983,0.1049326533,-12.7553670815,4.84557231,-0.3907623302,-0.8592372182,0.0148213378,-0.3277748999,0.5818668826,-0.0427246133,1.3325726126,2.6406486623,0.8095562062,0.7615606789,0.4714661178,-0.0434021729,-0.055253242,-0.0954413822,0.5038975387,0.3551574512,0.7647636938,-0.1524583822,0.6935254421,0.0897281158,0.3747151897,-0.0211192341,0.7180057926,-1.1001916149,-15.6772675177,0.3750812229,-1.9349773207,-44.7926321397,6.0624024663,-0.1833324089,0.0571856591,0.2866806892,0.8087204077,-0.0426883491,0.0772880957,1.1601489911,0.3052527547,1.1622993343,-0.0407047761,-0.0134253614,-0.3427610318,-0.0089694536,0.2838257412,1.4352538489,0.7855400784,0.2255028198,0.2623412671,-0.5752848238,7.1764855751,-3.189848162,-4.3904206379,-36.271206145,0.5484964389,0.4933347256,-0.4441575021,-0.6481388492,-0.9691559708,0.4106013159,0.3847093048,-0.1351109256,-0.4219264042,-0.2004843219,-0.6867116787,0.3252835167,-0.9820353737,-0.7314368668,0.6222732561,-0.1803233578,-0.5452308373,0.1494451984,-0.0337259454,0.6692551362,-0.5613830144,0.3385120954,-0.6552032223,-0.7856312107,-0.4006017937,0.2921261943,-0.4271431496,-0.3992734883,-0.5595644189,-19.162926522,-17.2783195468,-25.985841791,-1.7085851175,0.0852216996,-0.8130621226,0.2339261795,-0.0633073299,0.0329316797,0.2096905385,0.3347990287,-0.243035332,0.1747574896,-0.0120854078,0.3012563743,-0.0480877053,-0.1282727748,-0.3571219454,0.1994464671,0.0021652884,0.1223547007,0.0846772773,0.1757399681,-0.0834288716,-0.188000871,-0.8019822219,-0.2579382276,3.2544349826,-0.7626227766,-21.1579542661,-3.4804861737,-1.6455952547,0.0872184976,0.3965363551,0.1099294962,-0.4432172508,0.103335939,0.0562942864,-0.1968352164,0.118648424,0.0534116392,-0.2043534376,0.0446539262,-0.3367058,-0.3113527151,0.2440075145,-0.3128846751,-0.0870047046,-0.1220308247,-0.4234243999,0.2393697215,-0.1692680214,0.0058950969,-0.5298143646,-1.2574420234,-26.6158239243,-0.2611476481,0.4548092383,0.3462425388,-4487.7524698175,-0.2510314024,-0.1898580496,210.1466519212,-5.8049859043,-0.1313086768,-26.1025687487,-0.9601346736,0.5256740971,77.4408414265,2.9369296432,0.5898727211,142.0786528847,0.2539456595,0.53119943,-18.8336750943,-1.2059154505,0.002240686,-40.0786467224,-0.7519461035,0.8912630261,-15.7296210015,0.357898953,0.8442646502,-19.6885762275,-0.3856829461,0.074701038,-25.907023517,1.9773975542,-0.615091761,-48.7372672862,1.3914742858,0.4059355631,-41.8502770064,-0.2018010324,-0.1440900692,-23.9031119497,-0.7523381714,0.2806184479,-69.6404304754,1.8254961935,0.190994411,-0.3959288926,1.3771127954,0.6215657244,-35.8885752382,0.0408251487,0.6858834523,-85.1823392239,0.805315303,0.8296160885,-0.1015994509,-2.2069884221,-0.6075593932,-18.6245227326,0.3415773672,0.8650384761,-8.4312935398,1.474697381,0.075694607,-24.2970065788,0.6663691428,0.0862722004,-11.5786445508,0.5399781782,-0.7456313216,-17.3432818289,1.3409000882,0.0503947678,1.4736596483,-1.3577120715,-0.0363995413,-12.3139264603,-0.3546204091,0.4756771585,0.5607799813,-0.5566237888,-0.8060293299,-0.980334422,-0.3627088008,-0.4730977309,0.3810353983,-0.4899273766,0.2298430267,-0.3837262005,0.8013695869,0.0741926622,-0.6597728555,0.4141795031,0.6377854254,0.4197002754,-0.4855638216,-0.2517829363,0.0494412642,-0.8306893025,0.5344992386,0.9401274747,-0.0193185549,-0.5270051647,0.9244042135,0.1473189356,0.2566192006,-0.1223593715,0.8404195106,-0.1280063756,-0.214224675,0.8994731099,0.4161276239,0.3331893238,0.1900849928,0.2445458903,0.1324833548,0.897048687,0.6825851157,0.1226162926,0.2832085427,0.2606286408,0.5130950456,0.5997169337,-0.8941633132,0.5845620421,-0.1977972088,-0.5652640955,-0.3512808814,-0.7301154222,0.0838696302,-0.6546816677,-0.0556941756,0.574339157,0.376964912,0.1484018175,-0.4409871383,-0.236529586,-0.8939553363,-0.2793019916,0.0899896903,0.9918217046,0.6916853012,0.2244330592,-0.3209020986,0.6095469016,0.1306858067,0.543659368,0.11441468,-0.099867019,-0.0017294497,0.8356128733,-2.6607523017,-6.3697765574,-12.3898612149,-20.079261341,-46.3097614661,-45.2786033513,1.5915881532,0.7155176412,0.3926205745,4.6352680207,0.9548890272,1.6062836433,0.6297342097,-0.0741679818,1.275971931,2.843204707,0.5210897532,0.272021672,0.2585476946,2.342891489,0.002446136,-23.1114722308,-12.0983722851,-14.3924040712,-5.9578857767,0.4986091494,-4.4504886177,-18.4718978486,2.1008318047,-1.6406886515,-0.8399823597,0.2866863666,-0.5131619109,0.3838070317,0.6975538138,-0.1724881005,-0.8628959855,0.6926080599,2.3658253796,1.6201370598,3.5184929857,2.7148589597,0.6340293341,0.2647012357,-0.1061796788,-0.7950303811,-0.3822365892,-1.8706878182,-0.4680869354,-1.2146440687,-1.6222210855,-2.4933314672,-30.4656749289,-19.6752320182,-19.5655460529,-9.2165160696,-1.3139329166,-2.5691982485,-1.197159173,-1.7962180698,0.3137928714,0.1417315049,-0.3350712785,-0.1544634355,0.6783159803,-0.0969538132,1.2339302369,2.63508663,0.439316073,0.215848846,0.1833415816,-1.9984645614,-1.6188019752,-2.0586136208,-1.2633807322,-2.6571408509,-1.1489301271,-3.7763160215,-3.5951049313,-5.4877157767,-16.1851273443,-17.3550335872,0.0100843147,-13.0110210441,0.7904891735,-1.1404407158,-1.5865864796,-0.8990488512,-0.6863750572,0.067014308,1.1564257614,0.4400023342,0.662648369,0.2896559308,0.6912908667,0.7378372963,0.4640994388,-0.0321357844,-1.5897578287,-0.8764446758,-1.1432586877,-1.8254951281,-1.4215407992,-1.8368336546,0.1206134248,-2.2734771514,-1.9919716085,-3.5605681179,-18.7402306533,-15.5473999702,0.2658892526,0.1208787774,-30.4058472505,-1.3714868062,0.6408763461,-0.3266057052,-0.4565020468,0.0517135453,-0.6990954067,-1.602148741,-0.2455489805,-0.3974084301,-0.9189076949,-0.656690179,-1.1857396565,-1.5296428374,-1.5957854922,-0.2206383838,-1.1889235845,-1.2113169532,-0.4040700586,-0.2181545734,-1.0220571263,-0.6841086372,1.9411866295,-3.0719222461,-25.9718898113,0.5222598487,-0.5265997756,0.1400529818,-0.3563634057,0.5831790419,0.9044676799,0.4834577134,0.4472820251,-0.3650333833,0.7190727452,-0.7462724612,0.4498820825,0.7524164056,0.5344115741,-0.5587083225,-0.5973745269,0.1544251479,0.6333137795,-0.0492897203,0.246223166,0.7520139209,0.3525045073,0.0562276612,-0.3501341601,0.7008658966,-0.3820392415,-0.9467518132,0.2011825303,0.9661936515,0.2601751615,0.3635474652,-0.569987336,-7.1167430176,-19.2869885701,-25.8399051168,-58.1738313029,-2.5275538502,-0.9327299568,0.4801340967,0.2888198111,0.7619430527,1.7878579968,0.9967327474,0.3460579593,0.9582841722,1.3478571277,0.2610430588,-0.0415903641,-0.3851478192,-0.0138116213,2.1094916601,-1.1045636092,-1.0132910006,0.6950473227,0.03420219,2.2731924397,-44.7965077239,0.7069526389,-3.3299447783,-5.9054262953,-40.8029634845,0.7122718548,-2.3704058588,-0.4239114703,-0.1016847275,0.4407185481,0.5240013543,0.5795532441,3.7261212006,1.9033279985,1.0000622044,0.3471824828,1.7177744198,0.250712559,-1.3382377033,-0.896380277,-0.1054257813,0.4373579083,-0.5217432808,-0.5872870965,0.5625269269,0.232473244,0.7994083163,1.0071922189,0.2678952711,-2.4257999409,-6.8250458266,-8.8845827511,-45.4908746965,-1.8517650491,-2.7733741739,-0.357988768,-0.3708892137,-0.5219067476,0.8403217666,0.5814723842,0.3513880229,-0.6741236628,-0.8152220019,-0.2984536645,0.4542850117,-0.6781596464,-0.1328735564,-0.9310618498,0.137540128,0.2169597636,-0.7705786809,0.6303578913,0.506599029,0.1184421406,-0.1207117402,0.2163643852,-0.5486391783,-0.0482894649,-14.8475674867,-14.2729974073,5.5267502946,-2.2686052216,-2.9291217749,-0.6998345232,-1.7320344332,0.4712020459,-0.0583424038,-0.1331287748,0.7987470119,-0.0292365716,0.2015772922,0.53237005,0.8421298746,-0.6800199418,0.2874478765,-0.2415816698,-0.0255981229,-0.5018245015,-0.4688001309,0.0604262245,-0.3279081604,-0.2266163489,0.5640077504,-0.4668054318,-1.1498759185,-0.3191613642,-0.2268500092,-1.1794111783,-6.0140491633,-11.8115302909,-23.4823118523,0.779931768,-1.0491391914,0.9043122979,0.7656578014,0.9202418097,0.1955884247,3.9701844524,-0.6318121807,0.3145085525,-0.2016311391,1.7980383447,-0.3263727625,-1.5806573218,3.6711966187,0.6900618502,2.2814402818,0.8571023901,1.3251313567,1.4131703335,-2.4372862412,4.9166383683,0.3059085272,0.612558854,-0.6432682514,0.0371535767,0.5402614593,-0.0956386763,-0.8304762995,-0.6394530495,-0.3488513408,0.5143595594,0.3116537789,0.7276731625,-0.0842472529,-0.3396481414,0.5456973921,0.5864782686,-0.6514514114,0.8688251664,-0.9413354707,0.4099905041,0.1655842117,-0.6072423481,0.1228750052,-0.3211189061,-0.9185962006,-0.1453585498,-0.7191181904,0.0931515299,0.4464241201,-20.0897310636,-21.0143594887,-3.0760321887,0.0404863751,0.1629422432,-0.4671514965,-0.0798868265,-0.2097256185,-0.2724282203,0.0329050031,-0.3105373355,-0.5549421933,0.1598063881,-0.1256205577,0.232652591,0.1692264076,0.42294426,0.1717159844,0.4910470849,0.4875518108,0.4062941575,0.4583125409,0.2714850992,0.2429074023,0.1889517559,0.1593786678,-36.4628567032,-26.7312452965,-3.4093822236,-15.3558838833,-27.0793100495,-7.0797365769,0.0772943323,-0.8692246438,-0.0670614214,0.0287659142,-0.1166526541,-0.3889011543,-0.0947352681,-0.2063868162,-0.009002667,0.0823240528,0.2074428184,-0.3409318434,-0.0884635711,0.1986539962,0.2573928074,-0.2399053145,-0.5828381777,0.0340575596,-0.2069173756,0.2824010536,0.0375612629,-0.329877649,-0.052403565,0.0015261697,-0.4555931593,-0.5589076277,-0.1044204782,-7.1944642092,-1.0182066073,0.2017952948,-20.4167415962,-0.3851573945,-0.5644427271,-29.1318132847,0.1632984067,0.9415064983,1.225164896,0.2864159449,-0.178231395,-5406.8749776673,0.9461474829,-0.2187526365,-16.8264880955,-2.5618912265,0.2847012915,0.6927157455,-0.3431670134,0.5844620959,-1.2785734043,1.9506992967,0.5434625633,-38.0879199538,1.6187066517,0.0467044314,0.3886458484,-0.9964390415,0.5165954373,-4.5950750496,0.4929180778,0.0328136663,-35.1057789727,1.0949835257,0.1988393539,-34.7926270941,1.0339177455,1.1421264417,-11.6810110716,1.7598704844,-0.4165133446,-0.5855361347,-0.7871146402,0.5346851644,0.1606011884,-1.5167288215,0.14051637,1.0064489479,-0.9994588779,0.5627742602,-1.2400968243,3.6299320576,0.8939568982,-43.016384372,-0.3387111819,0.3262624188,-38.2900516839,-1.0509575317,0.3309968077,-22.885250471,-1.5964895922,-0.1265865359,-12.7232567938,-1.2096681434,0.3908942828,-37.9021727361,-1.2572149841,0.1998382065,-32.7780685397,-0.3781960542,0.3964512502,-7.8277205619,0.9671625858,0.084788404,0.9883549825,0.6966698671,0.1395299911,0.0521761301,0.0987208199,-0.579091855,-0.6735276109,0.4390146333,-0.0510795464,0.4889738523,-0.9125005554,-0.1141495126,0.3868712248,0.2488648129,0.6591050445,0.4968119418,-0.5062212753,0.8687587895,-0.8221874799,0.8968383301,0.3254868938,0.3458500624,-0.7617634551,0.7847671199,0.1954541573,-0.3318595682,-0.3783234188,0.5807816292,-0.617831841,0.6369964636,-0.6719442164,0.9260313838,0.6438112476,0.3582863259,-0.4559834081,-0.7077619809,-0.5770103796,0.9099077224,0.6799862518,-0.5409011978,-0.8756616477,-0.8064798928,0.1090246717,0.1173006946,0.3478149626,0.4782938335,0.7402666191,-0.6450428953,-0.5395060884,-0.3555122929,-0.9402283091,0.2852802968,0.3896745146,0.6346689258,-0.2284063397,-0.4266988583,0.0201150972,-0.8796135011,0.6718819341,-0.880550242,0.0782051817,-0.1078884204,-0.1111718919,-0.3421913449,0.8858891064,0.9802568327,0.1212695058,-0.4731487451,0.8671527941,-1.1183981941
##end
biasActivation=0,1
[BASIC:ACTIVATION]
"ActivationSigmoid"
"ActivationLinear"
