encog,BasicNetwork,java,3.1.0,1,1384213807540
[BASIC]
[BASIC:PARAMS]
[BASIC:NETWORK]
beginTraining=0
connectionLimit=0
contextTargetOffset=0,0,0
contextTargetSize=0,0,0
endTraining=2
hasContext=f
inputCount=112
layerCounts=10,151,113
layerFeedCounts=10,150,112
layerContextCount=0,0,0
layerIndex=0,10,161
output=0,0,0,0,0,0,0,0,0,0,0,0,0,0,0,0,0,0,0,0,0,0,0,0,0,0,0,0,0,0,0,0,0,0,0,0,0,0,0,0,0,0,0,0,0,0,0,0,0,0,0,0,0,0,0,0,0,0,0,0,0,0,0,0,0,0,0,0,0,0,0,0,0,0,0,0,0,0,0,0,0,0,0,0,0,0,0,0,0,0,0,0,0,0,0,0,0,0,0,0,0,0,0,0,0,0,0,0,0,0,0,0,0,0,0,0,0,0,0,0,0,0,0,0,0,0,0,0,0,0,0,0,0,0,0,0,0,0,0,0,0,0,0,0,0,0,0,0,0,0,0,0,0,0,0,0,0,0,0,0,1,0,0,0,0,0,0,0,0,0,0,0,0,0,0,0,0,0,0,0,0,0,0,0,0,0,0,0,0,0,0,0,0,0,0,0,0,0,0,0,0,0,0,0,0,0,0,0,0,0,0,0,0,0,0,0,0,0,0,0,0,0,0,0,0,0,0,0,0,0,0,0,0,0,0,0,0,0,0,0,0,0,0,0,0,0,0,0,0,0,0,0,0,0,0,0,0,0,0,0,0,0,0,0,0,0,0,0,0,0,0,0,0,1
outputCount=10
weightIndex=0,1510,18460
weights=##0
##double#18460
   89.0060409396,0.1716164349,-10.6225213719,177.4251793364,-0.2754032563,0.3681710938,-3.8046956015,-185.3127356591,-965.7329107323,2.5219377909,-0.2487881347,-0.5232684124,0.0645469975,-0.2746147693,3.3053720566,-3.919080743,-0.2032529397,0.819828549,-0.2192682918,0.2518284184,-5.2235331963,-27.2120714764,0.0279246127,-2.9991435028,0.0373770989,-31.9611814824,-0.913277427,-80.860576113,0.2680822465,-0.3911669282,-103.7496530651,-861.8210002356,-1.9759628845,0.1250188173,1290.0079346466,29.7055436713,0.0491161134,0.1128324671,-342.2633895378,-0.4804863475,-10.5272927168,-5.9791483137,5.5145930735,-1.5213843224,-0.5265513536,-1.0024296226,-0.0980962974,552.1475704476,0.6704066056,5.4278723074,271.7453607803,-54.2476614964,-0.1491826297,-27.8039465153,-17.0811145545,0.1520444594,8.7138948305,-0.064271882,-3.3349255891,0.176171043,465.7712072353,-2.7176053774,-0.2172269113,-2854.6634756178,0.363636287,2.8751260919,-0.1441272732,-0.0151593824,512.5609126204,-0.4918778997,129.3668305716,-701.6575615819,-214.7667754325,-799.6669716149,379.3270831633,0.3712944304,-1.3501044049,-0.8177656956,-2564.685709514,-0.0318887151,0.3044592284,795.2441241291,-0.5200575009,-1.6704216089,12.29218485,-0.2669389876,-0.2142007993,-441.5535590106,-9.8667546609,-4.0856223373,-64.4821260761,-2228.3234724655,-0.7444525727,0.2881804065,-0.5185150121,-0.2783131575,0.8089124357,499.3075360323,1664.8090182725,-2.4729983942,458.248550227,-0.0313755851,40.0314880001,0.2459193524,-0.1974213859,0.2172622826,-0.2112385285,-3.0682979399,-0.1664631787,-0.3555632251,-0.1083136747,25.5859621936,-10.9427612326,-28.2276194832,0.0115492276,0.2017032935,-1695.2378998982,-19.8829525836,-0.2204914004,-0.0775741302,-0.2545728964,-14.9422492613,-433.1935003405,0.6265695007,0.2433852934,-0.2264650689,-1.4394418139,248.3137359527,-0.243185055,-100.6990304018,108.2815985647,-39.7383583601,-77.3910944631,-0.8070872026,-31.4809279565,198.3008017129,0.0024368545,8.0145571477,-35.4320926432,29.274821218,-10.5749253179,-4.890591301,-0.2094878633,0.0199643373,0.3278475456,-0.495460782,-2.0416922347,-140.8356650329,-1802.1193290015,37.5030619823,-0.1315738298,1.0087011742,-41.2627601274,0.1901163309,-61.5612952179,-0.2179733222,-0.4947062984,0.5716550747,-80.9888099948,-4.0488629175,-0.1953512735,0.1943587627,0.6095279842,-0.3482486853,-0.1155645778,33.8640380396,66.9410102468,0.4448738825,0.218949855,0.1230018257,0.2499045354,-0.1359297397,409.8282066285,-5.7932831608,-0.0308509557,0.1467117095,-2.5692098631,0.2438946782,0.1559984777,-0.1378006941,1.6392743089,24.1937478669,-448.2374450343,0.7917783984,-0.1508616416,539.8777313277,8.4429071989,-3.2347448547,0.3050653587,21.354639372,-0.3339506058,-0.8779082566,21.3324832844,2.7035500614,-0.0481138417,-0.0949147943,-0.2638479905,0.6085841537,50.5751120695,2.5999548017,-0.0934876684,72.1961792298,51.8664809323,0.2565900159,-19.9915200643,3.2899822949,-0.3463989005,5.7488738821,0.2185142814,325.4360252419,-0.3495792478,1.5150926791,-15.8197460039,-0.0769707776,-124.0408495597,0.1157130516,-4.7196950842,-0.1879971624,0.0836121753,-258.7357663001,-0.0204099972,-1.7542105078,24.629107795,494.8853685117,70.6382346312,34.3896354908,-0.9073849542,0.0492219024,-0.3570452202,-164.8511392627,0.1592428406,-0.234601798,208.4271525103,5.0291299779,-14.0290071786,20.7756636486,-0.0896572811,-0.2607883169,-1.642664031,3.227036498,-107.8742677751,0.3464611982,24.7605661745,-0.1138767959,-0.1128112593,-0.0803436383,-0.2549171728,5.7907861738,2108.7767016401,694.2269555107,-0.0071388139,12.5883634624,-0.1792915244,29.9333073499,-0.0791671801,-0.2723532723,-0.2116175988,0.2522906002,0.2843771059,0.3005887528,0.4318799881,-0.11785848,1765.65456781,57.6429650861,-515.9819742301,-0.2055676156,1.9175567272,6.2149410648,20.3834077538,-0.5580878953,0.1034250209,0.3309697775,23.0764661476,35.5609431746,0.083380084,-0.0431631348,-0.1565565834,0.1353894133,8.3704490012,-0.5383213354,431.4820820144,-56.3362901388,-40.3790226695,-60.7246309871,0.3865095726,-85.7426267667,-1535.0263612651,-0.2102822938,90.385454263,16.2572897837,-13.1336985693,0.648074661,-8.5721411713,-0.0886836756,-0.141633316,-0.2108289798,-1.3506707918,0.5016957903,326.0301572597,-143.1886981127,7.2887627973,-0.7981785843,2.339581378,0.4074679875,0.7541486644,-1115.9415720975,0.3225792061,0.1374692463,3.2564942637,1.5096751811,2.7095332495,-5.97816116,0.2160690276,7.8462940472,-0.1362572323,0.3077624732,-2.7937727325,-87.7655177475,-10.723133651,1.2172281298,0.4125238496,0.126122792,-0.295965717,266.1167519701,-0.5826028418,-1.1402327624,-0.020925208,0.11755419,3.0587941749,-0.0343027379,0.0208825211,0.2796969269,-265.6256498023,-823.7169384297,-4.0326253135,0.0221833841,3.8149189973,-31.8114808791,0.1292396602,1.5956939892,-2043.0376105651,1.09388594,-5.3047640769,-30.4417738543,0.6226539177,-0.2529693947,0.2734540141,-7.7054069349,-0.0257748316,-2592.4323863909,6.1914188188,-0.6445021042,-1544.1899480291,-491.592955901,-0.1506271375,28.9872004808,0.5874735628,0.3099456509,4.8769348844,-0.0199510948,-0.1588522033,-0.1855110409,-673.6958679635,-4.3195303628,0.2580976824,0.4560978299,-0.2587798631,-0.0881327896,-0.0151782645,-0.062301177,-1768.3284021609,0.2273603989,-28.4426209566,-7.8609802355,5.3976535092,-1241.335435619,-4.9340156742,-0.2930131082,-1.5533843213,1.3725609158,-11.7879898606,0.1291943693,0.3940437065,-1307.9223319894,-0.0008325596,0.4275701898,-40.7898335802,-0.2497389823,-0.1948210143,-2078.3939471146,0.2389315765,1.0637244757,1.4596219448,-1.292308779,-0.4074503938,0.2302422012,-0.3308293767,-0.172401446,-0.5364162638,-180.3849157427,6.4652638973,-4.2695465092,-2233.0254162493,0.1796376952,-4.2758787023,-0.2788822285,-0.7237928591,-0.171142364,-0.2446142201,-5.0159787652,-0.0676086337,-1.02814556,0.4075835647,46.6302730939,16.4633017757,6.2079266456,0.1448471444,0.5517149499,3.4590059692,-74.1558269058,-0.0807405094,0.0789633567,-0.237735495,-21.8466805414,77.049315901,-0.0517519803,0.126089111,-0.2595495454,0.1792619735,7.7030220089,0.3943602327,-2854.6682886386,-29.176714413,7.644403613,-3.8296704596,0.737909796,-3.6038728225,0.5986365276,-0.103389551,-0.1861845324,294.3072929647,11.1925194017,0.1008067071,-0.1587747607,-0.0414945667,-0.3719804895,-0.2130440889,-3.0829345557,-0.116071443,-1053.3771174085,-1250.8237920082,-52.2263485655,0.0418315626,-891.6086726299,0.0521445206,-30.8664546326,-873.561363254,-0.2378826063,0.4310334775,-1.3328504816,-1806.7887652943,-0.1319535162,-1.1218174376,-0.1490672764,-0.67489998,0.3318311365,2.3896713291,-13.1571992773,-946.6302553535,-0.0484320525,-1.0433605658,-0.2289066767,2.3428770934,0.4728262153,-67.4614432968,-0.1168012888,-46.0356128441,-0.1738987459,-1.9464686296,-1.2157501092,8.6827715728,-0.0510595563,-0.80357175,-72.7798527859,-162.9162398504,-81.9663960153,0.3947360106,-11.7996712533,-968.724173611,-2.2573351913,-4.4112551594,-2674.8454476486,0.6167514503,-140.1579110689,-43.5111081373,0.0087988277,-0.0767707602,-0.2460544104,0.1900696109,-0.2034683276,-23.9818210879,1.1416740095,-82.8557009508,-2754.4226936653,-1624.4451054387,-0.0945477855,-73.2712011286,7.1164785816,-0.4139630223,-65.4469985052,0.4206443084,-380.354367947,0.0699183813,118.2765728756,-10.0557271152,-0.1619111715,-1.0444080723,-0.0142211671,0.2914265165,0.2370818531,-0.0875676394,-747.0998286333,-0.1247486981,-270.7538666844,2.4261960764,-53.8243978119,-1041.9494034141,61.6501491925,-0.279913349,-0.1658908941,-0.2940484108,7.8755963956,-4.1580734407,-0.0058859105,-917.9702813433,-1.0183305861,-0.0682763713,-534.8759201835,0.1100143351,-0.0246247085,37.3787712276,-0.7241216672,-16.9227497362,-3.6472061224,-1.2901951814,-0.7435764734,-0.3330144461,-0.0373512562,0.0903966018,-1908.7459600977,279.0889828614,-15.971762733,-16.3150904428,-2218.5525506796,0.0821343,203.8532703302,0.2630887001,-0.165587439,-0.0657939992,0.1798802094,-0.7799869268,-3.292183188,-0.7301714709,-4.8854565012,355.4286964897,-214.0149647967,-2.13871978,-0.1259089012,-0.0737563762,-18.0673609683,-23.7996534827,0.4010381984,-0.0150986568,0.1178120091,-9.2599904433,-187.3301833758,-0.1339544986,-0.0864495908,0.4361651475,-0.3061617144,199.5496802414,-1.5443648958,-112.8488951461,-241.6145774137,70.2033379089,-17.8950235023,-0.1167759776,6.6588527582,389.7079456108,-0.0562790171,1.6823167025,316.2846737739,-285.2084480637,-0.4653330318,-0.0151013261,0.021910571,0.0718552365,-0.1304011937,-47.7231668308,0.3067000593,1.6908607433,0.9659737899,-21.5415014298,-0.1105827485,-63.6882692205,2.13975365,-0.535046646,-2270.1331449125,-0.0277170976,0.2681911532,-7.5234562783,-617.8162301043,-0.1151511928,0.1246029688,0.2435879649,-0.0545368978,0.0707754696,-0.1686929664,-0.0973071139,-86.7014983223,0.4244925522,-0.0054946733,-0.2491541586,-0.1422411755,0.002831212,-227.1374181564,-1.6625859948,-0.1330647942,-0.0541169393,-4.6766681069,-0.1429582577,-6.1287160035,-0.1822303422,-0.3529163608,-1508.4151694189,-368.8198019917,0.9871352625,-0.1048878842,120.2960124067,-0.0323923637,-0.1506735972,0.2264974431,740.2141389033,-0.0993083815,-1415.7139500395,606.6418827498,2.6165505611,0.3832978658,-6.1503109178,-0.6551593818,0.2715775305,-2137.2624126152,14.571186042,-0.4250039845,-1408.831225528,328.4874618776,0.3620170502,-347.6965833869,-34.1628022581,-0.2607834285,1.8192039221,-0.4514940364,0.2469161361,-3.5582053982,40.3249315738,6.5173044489,0.2721959837,-0.0089934184,-0.086095614,0.4073077743,-0.0163484803,-1.0008310754,229.3848101142,0.2475097082,-1.9090150948,5.8845528142,-193.2267538839,-1964.6622164493,-202.9254359004,0.1265247332,-0.472200071,0.5900772968,-0.2166598969,0.1481842165,0.190364881,1.8489827042,0.2536707247,-0.016543143,-7.8508881353,-0.070833169,-0.0498725474,-7.8691406055,-2.2501101609,1.2151777553,1.2773467739,-1681.8488329022,2.1968661775,-0.0470153466,-0.1653711642,-0.1429134292,-0.0999521152,-1025.3850764717,-6.6338347648,3.2048186731,-1.6720009879,-0.2000688244,38.9430912621,-0.0709260168,0.1438115968,-0.0126939273,-2.2833613822,0.6350493336,0.2905651311,0.981521788,-6.6784360657,17.6133622962,-5.7714049698,2.2724928696,-0.1667236587,0.6910623848,-49.6703832821,34.6578174781,0.2872800159,-0.1649714188,-0.4364997884,-118.4574245923,-1147.1367055054,0.1116636409,-0.1087004077,0.0917361345,0.1261233737,199.6623365767,-2.1232245198,-1769.5222131839,22.0443433273,-18.0837348094,0.7106645464,-0.4985600308,-34.2995659945,21.6769641618,-0.0365008451,-20.6836161676,-14.2905487494,-150.8599952199,1.9016747249,1.0760073144,0.1033604338,0.2226921634,-0.1271480204,0.8214495903,0.0167250543,-2854.4746046442,-0.3011728625,68.5225216452,-0.6102746947,13.709633217,-3.9939775383,44.8132827208,-2523.1207657483,0.3149173763,0.3076132376,-9.4595969117,-2652.7822376089,-0.3492788309,0.4019609838,-0.1342697976,-0.2718372684,0.0198953123,0.015761377,3.1238910171,-116.7302831463,-1.3766823624,0.3336074581,0.1673265105,-0.3174572059,0.5017153147,-2155.1038000397,-0.0152884539,1.3185310166,0.3943242138,-2232.8607512876,0.0698574834,-31.6008153289,0.0971162246,1.5410588341,-101.6577869286,-1114.0904151024,0.7520038464,0.1153919227,479.0338875918,26.6055871317,0.1304129953,-0.1583512584,-2854.6754133721,0.0181422016,-37.8519745534,-410.6969798986,-2150.8749636279,-0.9040715608,-0.2365133005,1.8517938685,-0.2886982281,-326.4829977235,0.205400828,9.6884306629,-1992.1490364318,-13.1397831746,-0.2843668859,-34.5143445399,-2.2457452923,-0.086189936,776.6881236262,0.1971369668,-13.2012058741,0.0829685646,-70.7498579476,-23.2602575379,0.0708159667,0.573287871,-0.6018677782,-0.431732286,-0.2273610865,0.3530526771,-2854.9086750808,-2.3724343789,11.0593275189,-3.6012975346,-322.9469403524,-2854.8578089858,-1220.3193741909,-0.0935073062,-0.3682904989,-0.0066196905,-2398.1985034566,1.3572157413,0.2582468364,35.6411391515,-0.1658620961,-1.0055822676,-73.2379616199,-0.0769031759,0.1154432487,-3.8576415709,-3.4236781606,2.1694923054,-21.0860004839,-318.6167523288,-0.2867241327,0.0212714717,0.3569142016,-0.2871617599,-0.0316499996,-1223.1321356494,-12.500100602,1.6771659469,-2398.7412704655,-0.269300918,12.5483122454,-0.0299994852,0.3165137163,-0.0558057209,-0.177138398,0.3953886846,-10.4778607363,-0.13664735,-0.0726650517,-59.2670719751,-285.0404956988,479.7555694241,-0.2245757795,-3.558314701,0.1037433436,-11.6318720936,-1.860628129,-0.0358264905,-0.2519108376,-21.4946806364,-1802.2375181167,-0.1359626266,-0.1692656733,-0.0790345919,1.7332169837,-2362.9254581176,0.0987699697,-466.5957358259,-2321.05109859,-115.6561528608,-2139.2405281112,-0.5443446621,-2274.1226511063,95.0913646187,-0.0723145127,-52.8067931633,-4.7273367932,-2232.9613800193,3.9947561678,0.3182604621,-0.2619295968,-0.1591712187,-0.23544707,-2.7217883109,0.6806140431,-69.2049171365,-132.5706806539,-129.467682484,-0.7873582406,-2.9166366146,0.3465260145,4.2141231806,7.7649186181,0.3453195806,-0.3783892412,-2.1571789979,-7.1177016361,1.0419742761,-0.3003534958,-0.2682831407,-0.3946551627,-0.1896260125,0.685891993,-0.2907894004,-87.3858038242,0.3539733344,-0.3131961825,0.1802782153,0.0851871581,-1.59529327,4.1468610629,-66.5957436954,0.7680668326,-0.0964647694,-6.680228406,-1.7734311059,4.6258806137,-0.2302694412,-103.0282536285,-2512.6632909873,-530.643901312,-5.6159296028,-0.1550887136,1.2069913333,73.6308224725,0.3947538676,0.1440765309,-888.6071648973,-5.5960436285,-36.7109882802,364.1191545169,0.2234992027,-0.3314140999,-1.0318545572,5.1527167397,-1.1583416549,-104.6322328467,-0.3212931722,2.01703179,-686.6303384459,1.207995303,-0.0963693598,-1900.9383434134,9.5488739512,0.410868719,0.2454149872,-0.0585157615,0.1987642511,-0.359917501,172.4925140214,-1.0982132941,0.0003999617,-1238.7716522609,0.2386442774,-0.066423227,0.3191414141,0.0174970588,36.6354099428,0.2114642589,-5.2422093462,-0.1587246523,2.1819805667,-545.6400596711,-29.6180472641,-0.0664295577,0.9214871803,-0.17714859,-0.5997966695,-0.2924237862,-0.0602355276,1.2991014478,0.3432555075,-2.9610142249,-0.3307225291,-0.2422897543,-0.2629049768,-1.9635783897,1.9262405673,0.7205547676,-3.6951313971,19.4648311661,-0.0162817813,0.7187037285,-0.2588598717,-0.3262521993,1.2367960702,-122.0508533557,1.2761683394,-2.1980821332,-15.4324842106,-0.1399252535,24.1412180672,0.2768924888,-0.1104140167,-0.2849118982,-0.375306747,-3.2143704765,-0.0318312546,-0.4810420034,0.1480747137,-75.6140968975,-10.8228811873,0.5094144854,-0.1732972018,-0.2623812999,-0.6063850941,-1750.6420916863,0.1285341846,-0.7629677704,-0.2460877428,-38.1047294842,95.7614248653,-0.2960144631,-0.3222333415,-0.1305277693,-0.0706147693,-15.9171924512,0.9616241889,-1780.5058655191,0.895659322,4.0416134461,-9.0882437537,-0.3292556484,0.0823398858,396.997144554,0.2897534367,0.6198893194,11.5707075145,0.82090745,-0.1717448407,0.2168458921,-0.118280295,-2.2591775833,-0.2009802466,2.6007891138,1.6156590005,-2036.0252875789,-31.1350962176,10.9427128174,-0.1465179455,-0.0301541269,0.3303989265,0.2582600549,-696.0622863035,-0.2526030388,-0.2867253045,6.5581505186,-2304.8952162675,-4.5548604509,2.371402584,-0.1595578112,-0.675532642,0.2623591766,-0.0826824573,-0.391571629,-751.6618466356,0.6133422291,1.3381011631,-0.0658707996,-0.0055886646,0.4462314577,-9.1321105851,-0.2920168264,-0.0362626666,-0.2439867708,1.6086821785,0.4957949596,-1.1666514755,0.0463168634,-4.2867324229,-2657.87786433,118.7537452708,-0.366625946,-0.2186760009,-253.4732735922,30.7230314849,-0.1240883631,-0.185059988,-1694.4093301218,-0.1810119411,-155.5251194143,-94.0217894548,-4.2579630334,0.254937112,2.6452821076,-0.3369253456,-0.2317169841,-18.1485720671,-1.7397941636,0.2139360967,-1323.7849201957,-113.4520954581,0.368260413,-101.9818220796,-0.1259146615,0.2041032073,67.9646859307,-2.5251845935,-16.779536795,-0.3187238272,-7.3860115983,-1.1379234334,-0.0389355477,1.1640730662,-0.1044914818,-0.2509033518,-0.1462527394,-2.4588483903,-114.5576029052,0.0336845031,9.6552930851,-20.6748118613,20.2508079348,-2688.8086058887,19.8796775952,-0.0166057482,0.2892030734,0.805606498,3.4969418823,0.1430828114,-0.2620027465,-8.6867871504,-0.968293144,-0.0328680282,-1.6061106905,-0.1923085563,0.2898033935,-155.5299437814,-2.3251348126,-1.0929975756,-0.354729311,-7.529860331,0.0805220537,-0.4582868709,-0.1426414684,-0.0033193386,-0.3124132829,-1528.4207262134,-10.8611862126,-1.1331570222,78.2832229451,-0.2047590936,12.2338552221,0.1752815202,-0.2472312721,-0.2039711776,-0.2131664805,0.486582202,2.9284721076,0.036939152,29.6348362612,-441.6770510648,-4.6401908665,163.4704202482,-0.1553645908,-0.1514339527,-0.2949156857,-79.2565739474,0.0756718574,0.0887663207,-0.0800211367,-59.931234521,-597.6699104019,-0.1253187805,0.1669751587,-1.5976087901,0.0202645467,-82.1061312202,-0.1938966341,253.2151676778,-2.7477855688,-2.3631724174,2.6035860158,0.3455792618,-0.7696337902,-178.9045028324,-0.2603466119,2.1936403467,218.4181584569,0.2448155112,0.1099687665,-2.5963760522,0.3252220263,0.0388996853,0.0529040933,-0.8966074895,0.340143818,-2448.2704843395,-0.055504335,18.560646888,-0.2291877259,-12.3470712273,0.8062679028,-11.4779163996,-2588.7130221408,0.0555439908,-0.3448717869,-57.6820921402,-195.3380740939,2.314053965,-0.5248632457,0.0539512311,0.0142134497,-0.0128555611,-5.9454959158,-0.2541475159,-1822.9218907539,-0.4868266514,-0.3175571909,-0.165387826,-8.6955810015,-0.3676413254,-774.7291168943,-0.9767081336,-0.103156203,0.0608783645,-35.9500132842,0.435060034,-786.654957885,-0.011049222,-0.3817416453,-73.8819794607,-495.3125936818,-0.8670922907,-0.0323276557,-36.3867050951,312.6212208094,-0.0990778056,-0.1309383995,98.256277619,0.0659392932,-17.508718888,-26.269416455,-32.5825597488,0.3464930575,-0.6366426386,-0.4063419244,-0.2514256174,-2754.6255011192,-4.4842672562,-0.4081651548,-1623.5980055442,-147.2947817093,-0.045973902,-1.3388957636,-15.525682425,-5.2586076265,-135.3023284994,0.2770383403,144.6306621547,0.4569503312,-158.5058932194,-3.0264917573,-0.1334429717,-2854.8439496878,0.3104050966,-0.1456885686,-0.0230593647,0.8448099577,-313.5670618802,-1.21027749,-46.2230632718,-170.4358323736,-1688.5097589958,-1713.9993341836,-314.8124704693,0.4023254771,0.2919190529,0.3057014911,-33.7548548359,-0.261671334,-0.313771043,142.089054358,-23.2162020238,-58.7172635942,-20.2136874057,-0.0273447323,0.1655130521,5.7527464652,0.3565607189,-124.2832211224,92.459131279,91.3826688689,-0.2254717411,0.0761885383,0.7225812198,0.0432044239,-1305.3961361967,-2274.1724456243,-83.6722186997,-3.3862390524,-1857.0420492147,-0.2381548598,-1.0613425718,-0.2620829186,0.3666345557,-0.0689207644,0.6932351396,-0.1701006938,-0.1064665673,0.5400258871,-119.5206327168,-2440.7465243489,-30.9846880231,-2.0254385346,-0.1705927629,-4.6178066938,-10.550002494,-23.5611696973,-0.3408681445,-0.30118196,2.059802107,-8.9244758518,-1876.5728450582,-0.0440951362,-0.2865785436,0.3710356217,0.063348287,-329.1801299416,0.0950542688,-109.1557616425,-1711.0838806277,-44.5194300243,28.7620149195,-0.5768912913,-163.8290998611,113.3669633063,0.2977565879,-217.5313620841,-1390.5811311915,-1688.4471608579,-1.4702870455,-0.3690943193,-0.0172088733,-0.1815723563,-0.054556445,-0.091180139,-0.0190422301,-211.07146421,-225.8186026317,-81.3744814055,-0.1131539319,30.0620235276,-3.5677845955,-0.4859866301,-448.2634818629,-0.0839727951,-0.3806152297,-19.2369528123,-3.5488760786,-490.1089121004,-1.0374962086,0.0871161915,-0.2809039454,0.0631274272,-2.2718831356,-0.2720893351,-25.1130159518,-0.1787997275,-6.1633924915,-0.2008217141,0.3179923234,-0.1389961615,14.7410921614,-28.6749313033,0.4975102956,-0.2159509158,6.1294501569,0.1394034218,-1.4268911404,0.2423219943,-0.3185089412,-281.407907723,21.8281919378,-1.2760293299,-0.0268896227,-10.6574532538,-1045.9164970901,0.4419792534,-0.2203356157,-2523.1196749785,0.2293189444,-101.8865614857,-274.0735324825,-14.4692548483,0.3582953915,0.0979668379,-0.8372373301,0.1079025041,-1873.7251520413,-0.2808831695,-0.5083713297,-2087.1542702098,-1387.1900165444,-0.177574073,-197.2191818276,45.1203844068,0.0220657756,370.3457416343,-0.1730811075,-172.887213571,0.3464742317,-4.516293835,-0.5053031693,0.1922110473,1.3127199089,-0.2466210649,0.0437402598,-0.1548861995,0.4668859935,-2172.3719662999,0.2413240225,5.646018929,7.7974728769,-47.1141587439,-2363.6481830581,-1654.9736692212,0.0008014354,0.0783523131,-0.0392755255,-2564.4377431456,-7.1150612757,0.0291598189,18.3338389572,-1.4086120099,0.7400956323,-611.0093776112,-0.1557093619,-0.172115513,-1986.6154152601,1.1965744794,-2399.3441693752,1.5861335077,-473.5803113151,-0.305609237,-1.7724026155,0.2810109494,0.1857101093,0.3513797184,-461.8458042934,-15.4095874944,-0.9274604584,-6.2920261076,-0.2824028442,0.8339898461,-0.2638605317,0.1691186076,0.1649321669,0.0171576947,-0.6435703842,0.3004813185,0.4550202953,-0.0093856012,351.560862788,665.0688727784,-2.7187735418,0.0165666643,-4.1586810158,-4.0772595115,-108.8274032084,0.0631805942,-0.0266631532,0.2466682483,-72.3622547289,-1126.4390745456,0.52191721,0.0626696675,0.1653884276,-0.817026848,-1880.0147149011,-0.4871953125,-2854.3954313668,-7.1767580389,-3.7588142689,4.1161551553,-0.0321726145,-779.9046875852,-189.9354995092,-0.2867550989,-755.8653551891,-50.0428084032,-6.8432180417,1.3612663129,0.4481465073,-0.0179730952,3.3211364469,-0.0920666788,-0.1565670821,-0.4150905015,37.6522582062,-701.6734332775,-1.134365405,-0.9064663661,0.7042086869,0.4554688971,2.6484298399,-98.258086075,-5.1296862561,-128.7046519219,-0.1264630403,0.262667493,-0.8615048157,-0.3840208241,-0.3767424884,-0.1719233276,-0.1268459337,0.2527063634,-0.327151814,-0.0703297798,0.0289794565,0.2586224574,-0.1694711636,-0.2192301338,0.0860741769,-2.6655945934,-3.0369826933,-51.7656622316,-26.1045267242,-20.4841576515,-58.9962475445,-123.063603835,0.2834823585,0.1744496633,5.7104112168,-17.1371115016,-2.8790205292,-1.5426846927,-94.6075415111,-3.2351321215,-1.2045348943,-0.0339520414,-1.7272173188,-0.5664867407,-0.1251253824,0.0297349085,0.1367605827,-0.3367221612,-0.1312245758,-0.2513691438,0.2396218478,-0.272630909,-0.8941810483,-0.0352270184,0.0797753876,-2.5244796582,-2.8960356134,-12.0270080917,-7.4096039915,0.1526018921,0.6836356641,0.0976049426,-10.5465496446,-0.6906260504,0.0937834791,-0.6312507648,-0.5796034445,-0.8391538486,0.1781201341,0.0919138924,0.2259620522,0.3211543019,-0.2777400537,0.2115971695,0.2020814519,-0.1661156219,-0.0751013869,-0.4472827217,-0.3210448047,0.0096790945,-0.4350306221,-0.2390316856,-0.2118268827,0.315198337,-0.3608143108,-0.2075797272,0.3770996104,0.2932405895,0.5493487284,0.452161524,-24.3718803913,0.0636654479,0.2331398602,0.1609330759,0.1986303819,0.2665578863,-0.0363659425,0.2599027084,-0.103122321,0.1526706541,-0.4471172509,-11.4370529596,-4.2677169313,-8.2999033277,-65.5580537245,-6.5370004876,-45.2487669963,-3.0683168452,-1.5240043806,-6.4734313624,-77.9857468781,-0.6912469721,-0.1538926541,0.1540849243,-8.5222579028,0.327670013,-0.1987488515,0.3135323033,0.6209508581,-671.5356945425,147.8698976619,11.4542820213,-2.5703660788,22.8734527801,-10.3775329532,-23.0666517612,0.7725845535,-1.0127194683,-2.5250843447,3.8838332563,-2.3774164181,3.0993593285,-2.6237932241,-2.6238378158,-2.3133300572,-2.6134157019,-7.1942327902,-2.607620533,-3.2771633451,-2.458033666,-2.7157524948,-2.7767149756,-0.1206631386,25.4446481843,106.4396987822,0.2025985545,0.1959620041,-438.658535252,-22.8155549853,-0.075562757,-0.2036389924,6.5568357502,0.7047792786,0.0146600873,0.1277230118,-0.4317776041,-0.6127284467,-1.2568092316,-0.5503180916,-10.3905919241,-7.4263699158,-2.3851832467,-0.3655200903,0.0726179288,-0.4639719141,-0.6345027049,14.9723470826,1.1895888107,19.7448567403,-7.5245849497,-4.2607530739,-2.1327547687,0.1077852892,0.2404125629,0.1868939759,8.0971725276,-6.5218385338,-0.3247213165,-1.1661285413,-0.7300552778,-1.0450008155,-0.4151672137,-0.597777609,-0.3501696574,-0.57054448,-0.1895371667,-0.537387612,-0.1742228911,-0.1606285064,-0.6036233518,0.0317306754,-0.0017943396,-0.0724153318,-0.3431784538,-2.9207597644,-2.1492177237,26.4648619708,0.4514166753,-1.9095548815,-1.1014768713,0.3943962965,0.3515023444,0.2732919597,45.0321815762,63.5880768879,0.8910834525,1.9432000654,5.9191135314,3.7090387483,7.6016799348,5.2345099006,-2.0082714074,-2.4632386953,-2.2553529941,-27.2964370857,-6.4145062056,-5.8807429695,-6.1014667354,-7.193394498,-10.1222950032,-35.2839460841,-2.450087168,31.1049538714,211.3178388934,-24.6951505775,-0.8481697288,0.524784441,-5.8103917569,0.0629590289,-0.5076268154,0.7265606402,0.1553698198,283.9153179315,-1.2675380772,-1.3075865865,-0.1440849212,0.0488338681,0.0264321559,-0.4961689752,0.1123908224,-0.2601613894,-0.4256657714,-0.3793336696,-0.3570396638,-0.2331314319,-0.1811030767,-0.2631326087,-0.3751754166,-0.346190853,-0.2834278032,-0.0809758574,-0.1810670931,-0.1571154526,-0.4237427193,0.3439377244,0.0858445721,-0.2239235365,-2.1550484444,0.3336362785,0.5762955913,1269.9962785294,-1.4084312593,-0.8785234837,0.0088935764,0.2634590704,0.148242087,-0.256899124,0.0745487546,-0.2276061996,0.1130369725,0.0643333835,-0.0957965696,-0.042405021,0.1497521634,-0.0326586726,0.0208592704,0.1238692133,0.130289831,-0.1026821547,0.1194250599,-0.3236087219,-0.3231411036,-0.0370812067,0.3332572987,-0.4239952547,0.5334172545,0.0821707944,0.3002459336,-1.8601221999,-0.1453566875,-1.0193633209,-0.6293424325,-0.4733737587,-0.0466714209,-0.7057319787,0.0971802931,-0.4942960005,-0.4748862106,0.0572876533,-0.119155442,0.0784326598,0.1938246162,-0.347668739,0.0252168027,0.0303319326,0.0313605412,-0.4940863985,0.2030890246,0.1934630855,0.0506235732,-0.0883301342,0.2321676698,-3.4655626033,0.0577680859,0.2563850707,0.611255587,-142.7624077233,-1.5128274788,-0.787668826,-2.5403404109,-0.2870933053,0.0019075635,-0.3740363335,-0.026364385,-0.0534274119,0.0890190051,-0.3708968677,-0.4806307213,0.0743021765,-0.4740161089,-0.7486124084,-0.0263173496,-0.4821178419,-0.2369621842,-0.2907913386,-1.9204766158,-4.9003921499,5.5569481079,0.3570664213,0.0804385853,-118.7066229762,0.3606721135,-0.426549904,0.0533168225,0.3558232192,10.2454114687,-0.907565142,-3.7005179006,-0.9770654283,-0.7752019278,-0.2361865739,-0.6915252699,-0.9591836357,-0.9745942903,-0.3497956381,-0.4803826307,-0.6625102526,-0.4561603415,-0.5661215584,-0.3122611017,-0.2010241961,-0.6541740548,-0.1263575777,-0.701502197,-0.5988448564,-0.3330663167,-0.3173862512,-1.5349341361,-0.4818524716,-0.8166502079,-0.6204330601,0.681747988,0.4500831906,-0.7824609206,-0.7159204286,-0.3274740127,-0.7195961723,-0.6790178346,-0.7304379112,-0.7778535697,-0.4600378404,-0.7739938647,-0.417062006,-0.5893119126,-0.3777469781,-0.7717102686,-0.4908906871,-0.4514826849,-0.7465723454,-0.8094654054,-0.8778144294,-0.431792061,-0.8217159907,-0.3288020645,-0.4188979727,-0.5110131411,-0.9496715429,-1.1951914055,0.4488082667,0.1376888953,0.2829142795,-0.3755015997,-0.6665690541,-0.3765393924,-0.567306487,-0.9019288863,-0.973198767,-0.9616400623,-0.5443735163,-0.7974093887,-0.2873594872,-0.4728155892,-0.1358160788,-0.187555565,-0.3051186339,-0.3900909568,-0.4732025635,-0.6109105655,-0.3625516536,-0.6827009164,-1.7596982374,-0.7226886756,0.0217813447,-0.0983593022,12.8669370102,-0.1244683774,0.7199194076,0.4822650039,0.0536935304,0.3252817792,-0.059887583,-0.2285593753,-0.4005745945,-0.5853166557,-0.6074983515,-0.1344982841,-0.6384078957,-0.3314834556,-0.4195223996,-0.7592955503,-0.9540705598,-0.5599705988,-0.3460512617,-0.6162656066,-0.6310641628,-0.8620972465,-1.5573388023,-0.6313082374,-1.352958499,-0.5759462812,-1.0539223074,-1.6985977018,0.2158927273,16.1847273438,0.6727023708,-1.1171016326,0.5309235579,0.5055778272,3.9528795726,-10.1022667134,0.0071192404,0.2000355456,3.1123583038,-0.2519681139,-0.1186705186,-0.2536391982,0.3463460703,0.1078004303,-0.2679938922,0.1775172944,0.3096456351,0.2607450081,-0.2175921028,-0.0449051221,-0.0303778126,-0.1005936564,0.457288447,0.4253891335,0.4937810998,0.3950938325,1.452719487,1.0557237368,0.1190969648,-1.9747702642,0.7156578489,0.1278337994,-0.5480147052,-21.7961211693,0.0875694537,-0.0155202028,-0.170561329,-0.2362809519,-1.4449783398,-0.8078468035,-0.4141017267,-0.0629415447,0.3353196765,0.2382425725,-0.0306293117,0.3877738115,-0.0030789468,-0.1336279828,0.0519998901,0.1225433742,0.1322602275,0.457161247,0.1568639285,0.2342324853,0.3726089973,5.4555657766,0.2343765007,0.4683732633,0.3026248043,0.606794109,3.3291749521,-1.3754388819,0.4104766641,-0.2198785907,0.0509993598,0.2200525452,-1.1803209708,0.4252179845,-0.1596754595,0.0421568665,-0.0258651919,0.3461176365,0.3253780304,0.184232072,0.0458266232,0.2529163826,0.3279669659,0.0807088276,0.6139205633,0.5137913519,2.0438026695,0.1285348281,0.1367663478,3.6774940638,-2.2401553818,0.4482517439,0.5813260913,0.3545419505
   -81.4053824649,-2.7972762852,-0.0422180444,-4.0148616285,-0.3858746987,-0.3160617418,0.1902779603,-0.1095399656,0.3312037771,0.1147041588,-0.4931285514,0.2578942876,0.2757961494,-0.7234387142,0.3480311876,0.1397837275,-0.0702987442,-0.2525254198,-0.1588031423,-0.7753454577,0.2280342537,19.219660245,-1.0595559692,0.0601193256,-860.6131698704,0.3944431281,-0.5515156924,0.5179249284,0.0797527871,-34.3504948937,2.5485122411,0.4973827823,1.9502162004,0.1069602296,0.1291997649,0.0724636893,-0.7915378674,-0.2195205729,-1.2177159669,0.2457237994,0.1037040032,0.0506291991,0.1667130636,-0.3054806342,-0.2229704128,-0.0257042942,-0.1192147203,0.1714646395,0.465411168,-0.0666017727,-0.0264042988,0.6184927304,2.3897798002,0.04876962,-227.7859934156,0.6901131462,0.4248536809,-61.0300804866,0.2422668095,-0.0970898754,-0.3504148262,-0.3566502019,-0.0535712666,0.113531011,0.2876204848,0.4524954602,-0.1552896451,0.1621409712,-0.4804099464,-0.5255201932,-0.0138321933,-0.4494121585,-0.2366637238,-0.1795658187,-0.1927781652,-0.4835247671,0.0718912839,0.1552883197,-0.1765364425,0.2649473985,0.4074652127,1.5304329011,0.5198481324,0.2510551057,0.3678654088,0.4069567151,-0.5368004186,-0.0994712136,23.8179892689,-0.3080293036,1.6333566372,1.1683695989,0.1805551096,-0.4200633622,-0.3996736941,0.1764695986,-0.4185325041,0.0163899548,-0.1419937968,0.2650954759,0.8013226279,0.5688122475,0.1550914654,0.0520203332,0.0783802229,-0.074962228,-0.1060411913,-4.1706120181,-0.44565448,0.6077698223,0.7049175658,0.3664922315,0.3917753021,7.0710840744,1.0050737381,0.7681905749,0.4657911908,-0.1125555049,0.0049173599,-0.1185452873,2.0501873557,0.7168448809,0.6244441974,0.5001621478,0.4829241442,0.0633027214,-0.1454989303,0.0501722535,0.2875470775,0.2449525407,0.1505558758,-0.7067945011,0.0143296396,-0.1274011765,0.4554453981,-245.9495117994,0.6769648224,41.1080700865,0.2286696624,-0.8166254443,0.1718047161,0.4466759385,384.1603012311,0.1078604071,0.0563664696,-0.493992712,0.1313114979,-0.1822220453,-1.698366148,0.1664909659,0.1247752008,0.0291102757,0.0587672708,-0.4704560401,-0.4553809481,-0.5378070855,-0.2843127248,-0.1493099162,-0.2537448083,-0.4385437709,-0.305992602,-0.2564906689,-0.3911552372,-0.064066501,-1.7232983349,-1.5589123223,-0.3571624992,-0.719000719,0.085871399,0.4426668583,922.5440910121,0.4604232193,-0.1009808237,2.5155952363,0.7006541933,0.7843226464,0.6572584435,0.0440575237,-0.1659332286,0.1773725255,0.1129270634,-0.2670639722,0.058012904,-0.2062193777,-0.1840264674,0.0479911842,-0.3573698725,0.0505786242,-0.0487772108,-0.332252215,0.0499782227,-0.1170972125,0.0369975006,-2.0962219824,-0.1368256298,0.6428327472,0.1452965308,0.0776988018,0.1041885535,-0.3787933854,-0.0950751976,0.1579372976,-0.1253969957,-0.2592363476,-0.3664838218,-0.4861525913,-0.3804116637,0.0216314981,-0.4782738578,0.0422411919,0.2092988217,-0.3263515736,-0.2909412045,-0.4357513298,-0.3111834941,-0.0194464024,-0.2086065502,-0.3491910938,-0.3367173101,0.0247587677,-0.1392267372,5.8549672218,0.8441654064,0.0302611902,0.550603374,0.491245093,-4.369131643,-0.0026853519,-0.3005261994,-0.1455537764,0.0727923122,0.0579076001,0.0643518718,0.1178477786,0.4838762784,0.4808346664,0.1116843744,-0.5096631195,-0.0303722146,-0.0974498951,-0.2234247456,-0.358900426,-0.0640234433,-0.5100890163,-0.3655400238,0.0902493505,-1.1956597934,-8.6087114266,2.7666092511,0.039503072,0.1615718083,0.5194385381,-1.0969443434,0.089516784,0.0400361989,-6.095617609,-0.3997216305,-690.6833620301,-76.0125759541,0.0259882146,-0.8205113463,-0.6683338865,-0.6314607421,-0.2439357362,1.6477323104,0.0310007429,-0.5012450699,-0.6213102615,-0.7791455382,-0.8731109927,-0.4990920004,-0.339190074,-0.2207965245,-0.7511885207,-0.2709919356,-0.2283083463,-0.8121811759,-0.5485972031,-0.4707905089,-0.8925880501,12.1836664152,0.3066860198,0.3793154962,-0.840219314,-0.1805334996,-0.1689111333,-0.3146518013,-0.6164921514,-0.6783168769,-0.3553535599,-0.5076131049,-1.9476358555,-1.6308748404,-0.5353902857,-0.5468824165,-0.4140178353,-0.3785148581,-0.69577221,-0.4809384733,-0.3666428148,-0.7180367581,-0.1892774585,-0.2670643225,-0.7961277657,-0.4663147673,-0.5616195368,-0.4739412955,-0.3992986341,0.1855874889,0.1180838551,0.3052543451,-0.5923050754,0.6426256552,0.1367843635,-0.4984632539,-0.4838448244,-0.4614786633,-0.5558453615,-0.7502366203,-0.2490544108,-0.6452615228,-0.4535406652,-0.2652816322,-0.3237820726,-0.4554705779,-0.1184680899,-0.6677637591,-0.1497775948,-0.5249110801,-0.618776865,-0.2941569694,0.2984116601,4.2363849169,1.314391853,-0.0988155621,18.7709950602,0.066078671,0.2330100885,0.643112738,0.4563206922,8.9946763421,-0.6596716828,0.1397510937,0.0838853367,0.006863547,-0.4854375719,0.4179191485,-0.7105453226,-0.3986454484,-0.7888780788,-0.9043785243,-0.7456307922,-0.8564039876,-0.6972316938,-0.280909633,-0.5580413223,-0.2797331594,-0.496172955,-2.6987877103,-0.1517741972,-2.0221973666,-0.4260280234,0.1940554512,15.1103314484,0.5405697669,-1.0325387511,0.6070318581,0.6315476093,-6.4973238771,90.940791104,-6.5919010587,12.850397553,5.799553651,-0.2261846199,-0.1150752851,-0.0986159114,0.0338105899,0.2716956461,0.4005875326,-0.1677357308,0.3498810689,-0.7399851549,-0.083381137,-0.4810411388,-0.5756131662,-0.2478063854,-0.4046616662,-0.6085439956,1.7688996814,-0.0873759399,0.5554635175,5.5255192435,31.5079916516,1.7836793272,0.261854945,0.4342321929,-1.2547817926,0.2299361998,-0.8198492532,-0.6220006946,-0.7306745686,-0.5802458778,-0.6846329476,-1.4086397496,-9.5887668319,-0.7049839309,-0.4354058578,-0.0435223323,-0.1106329841,-0.0946700031,-0.2415790052,-0.1713887532,-0.5470788108,-0.1882492456,-0.0644064339,-0.0888374189,-0.0083315143,-0.0252414104,-0.2139305038,11.7896727889,0.2303366034,0.204696091,0.2967222714,0.4799198878,-0.7855204228,0.6748297103,-0.412617858,-0.2695547158,-0.453470836,-0.6011156668,0.2330223241,0.0871411205,0.229639972,-0.1803447121,0.2346718698,-0.189435917,-0.1682994704,0.0918065903,-0.1231383775,-0.6452278632,-0.3075989519,-0.0070767751,-0.3685418609,-0.0360188891,-0.4225301367,-0.0332993254,-0.3021414582,1.1804211799,-1.2322632424,0.4257087829,0.0551198004,0.6836543999,3.3678687289,9.8912767298,-0.4229839556,-0.5427607127,-0.3150110369,-0.0046221029,-0.6108698582,-0.1555838148,-0.1161647431,-0.6324722774,-0.2933344225,-0.1967355394,-0.5108193183,-0.3299967837,-0.3501426556,-0.608091471,0.2120146998,-0.2781222582,-0.150287001,-0.9086893356,0.2406033966,-1.4359033626,-0.6660420534,0.5202846989,-584.4370678415,0.4430405826,-0.0921939043,0.7125134114,0.7293945155,-6.5832176707,3.2632997678,-0.375728328,0.3921548266,-0.8514362094,-0.3916672616,0.7817620539,-0.5318952032,-0.4809631917,-0.6890752724,-1.1487435824,-0.9127104558,-0.8849779895,-0.4263809861,-0.5001096635,-0.3813424446,-0.5901138586,-0.4163200645,-0.0103207505,-0.1859726723,-0.54669384,-0.10183331,0.8064989174,0.0963687459,-4.0982919132,-24.0453735401,0.4014393092,0.4765254592,8.9040863247,-1.8311706842,-0.1481966305,-0.330580813,-0.2355941575,0.5882112584,1.6290847403,0.9280572191,0.9279594882,-0.2058862174,0.0571406819,0.0176714646,-0.14322019,-0.194477349,-0.5449891335,-0.305079039,-0.0293678349,-0.5619925291,0.0308190799,-0.5723371639,0.0696593932,1.9407151325,3.4211359601,-1.6330155016,1.7216547786,0.3524736945,0.5833661995,0.3237842226,-1.2106655809,0.1209759238,0.0379356142,0.1779224912,0.1575008816,1.2134657185,0.2854187847,0.1056067016,-0.3510287436,-0.5611024648,-0.2948372912,0.0037746232,-0.4425268257,-0.3637138217,-0.0666841738,-0.4912880179,0.0042921761,0.0290413016,-0.0503613439,0.0948757406,0.1989619816,-0.3713082666,0.1031554188,0.2078245636,-0.0389036357,0.1469091988,0.1403681017,0.62455199,-1.4822708481,-1.0957109596,-0.0422691953,0.1179053804,-0.0731229119,-0.5770597724,0.0712186437,-0.4552613211,-0.2034872592,-0.1959449272,0.2912329994,1.3604076149,1.7500133321,2.0101490302,0.7546830837,0.0274823808,-0.4336837874,0.1679861772,0.0551489755,0.2791684678,-0.6111389131,1.5806009097,-2.7854460161,0.3766358399,570.6712955532,0.2304987516,0.0623914879,0.2799013292,0.5909692756,-1131.608404204,-0.4307242031,1.5916526117,1.5662400724,0.1005934328,-0.3304176395,-0.3134185767,-0.2403019738,0.2608003307,0.317136461,0.0881433384,0.5065259525,-0.5040924742,-0.3876692732,-0.3880286947,-0.1472341644,0.2981186697,0.0140130783,0.0123288395,0.2990824075,1.7497047056,0.6969647269,0.7220331059,0.4112892987,10.9617826071,32.215369255,0.1340768858,0.5233790921,-674.4998184003,-4.7057838388,-0.143460055,0.0145349219,-0.0069532746,0.2155492013,-0.0607716171,0.0953894239,-0.4547027266,-0.1310950491,-0.2712379358,-0.313741173,-0.9158547088,0.0814617928,0.0935568767,0.2796828086,-0.2203856708,0.2025800755,-0.2031292742,-0.2083981943,-0.4440632782,0.1157776733,-3.7757643498,-0.145743262,-1.2528759811,0.2146977168,0.4137301837,0.4155219814,1.2137398081,0.0018797005,-0.2521826066,0.1922337742,-0.0411111832,-0.0844545643,-0.0900527161,0.1631506472,0.2597033889,0.2795639235,0.3098401123,-0.1180477185,0.1788627756,-0.3179232789,-0.3804529775,0.2578914875,0.2511386835,0.2062858244,-0.5769034723,-0.2035851968,0.0910824156,0.0577874814,-2.2105859491,-0.3981538187,0.8704494057,0.6146047071,0.1380870979,0.4716805637,-161.5998250299,-0.9899482952,-0.3852548364,-0.3170945312,0.25624778,0.0471963909,-0.5687341928,-0.0186635983,-0.0676770645,0.0057072439,-0.0978058051,-0.252779026,-0.1839343445,-0.0498420675,-0.2150057693,-0.2588014786,-0.0140012756,2.0549246847,0.6773761642,0.3125321388,2.6263970554,-3.2071622289,0.9517274005,0.6621034141,-267.9896198991,0.3806893603,0.2585955659,0.2997750876,0.3703605245,-2.2701802805,-0.8970069605,-0.3239461036,-0.573918693,-0.5433245376,-0.1697332464,-1.1338112123,0.0187876122,0.3429793954,0.0766926539,0.3146276357,-0.3630318032,-0.1174435204,0.1887622358,-0.2178394451,0.3086662553,-0.1214909811,-0.3688725961,0.0549466261,0.5695153754,0.731081733,0.4394282127,0.7594005111,1.4392280456,422.8317841634,88.4417243419,0.0992568842,0.0463417061,-0.0469260993,-2.7964664223,-0.3607969699,-0.6518390133,-0.010031219,-0.2388450384,-0.0756420412,0.2995865482,-2.0015074258,-0.9489685842,-0.1993649168,-0.2276235867,0.2464684191,-0.3029888177,-0.5952346419,-0.160335145,-0.0268578814,-0.0675920646,-0.1858161547,0.1527917549,-0.286640378,0.0025962105,0.3012730722,-0.035720197,-0.1412370634,0.2453944511,0.490519426,0.332519126,-0.4604552956,-0.2726662036,0.0573395147,0.07010468,0.1657787427,-0.3054031761,0.2197416085,-0.0394963191,-0.1520214159,0.0647609618,0.0848698049,0.1804553765,0.1503138912,-0.3349811042,-0.1899118841,0.0882005471,-0.0711898178,-0.2718762564,0.2670182309,-0.054734827,0.1103546625,-0.0976011001,0.019788889,0.1411986099,1.9011245299,0.4322273493,0.3522503091,0.6705426319,-1.731817727,-0.7287893893,-0.5656056493,-0.0785241465,-0.4470780447,-0.1892515564,-0.1011647845,0.216139141,0.2913966767,0.0906192328,0.0372608483,-0.0924375054,-0.2395481762,0.030384022,0.2489806392,0.1740457918,-0.0548867656,0.6757629605,-0.1375652755,-0.3307475721,0.1666418281,-0.3365413581,0.3155079553,0.7004688495,-1.2009051399,0.5872451876,0.1950177684,0.1762250356,0.7192402108,0.4092700774,0.7628138022,0.3888894281,0.1121789956,0.4397687642,0.2349471704,0.6434302741,-1.330967473,0.3230766663,-0.1630616564,0.304813739,0.3305687421,0.0034978116,-0.0621137957,-0.2233499066,-0.2096319957,0.2201751518,-2.9668861155,0.1611257687,0.1559631404,3.0520801679,0.0680191767,-0.420405474,3.3726460217,-0.4723761817,-0.0050949398,0.0464791877,0.3023231497,-1.538987976,1.7335106689,-0.1569523364,0.1967397382,0.1489657801,0.3145298103,0.5090916664,-0.1296673916,0.6044934192,0.1077418344,0.3156920889,0.0942429677,-0.2079054129,-0.0222940553,0.253160432,-0.1749183203,0.0758890403,0.1941060078,0.4104215262,-0.2521508353,-0.0488960089,-0.054047714,-0.1331479331,-0.3837217003,0.2075825937,0.4724402304,0.0362918887,0.5121477512,1.0110910913,-0.2404869788,0.1036451978,-0.0183419687,-0.223574669,0.1779369767,-0.516552277,0.1681376815,-0.1320372396,0.1652606618,0.1667289672,-0.2300617498,0.0442754779,-0.1159706287,0.2614044405,0.2181294524,0.3982975618,-0.2881391145,-0.7787291669,-0.6688771753,-0.2335168078,-0.6066217092,-0.2658465416,-3.6476028557,-0.3188154258,0.6854303688,0.1580520581,0.2892869623,26.771609616,-0.5161800974,0.0837464143,-0.1760793548,0.2649655279,0.1386873276,0.2069743976,0.3575307789,-0.1252561175,0.3244430485,3.2592876892,1.1220027536,-0.0724184843,1.4012542521,1.2349065235,0.1846350654,0.3105538796,-0.2102280617,-0.4870242134,-0.191913409,-0.5283839895,5.0566204638,-0.1202157824,0.5196870531,0.3398755017,0.3380208736,-0.9107695015,0.5756613879,0.4102467108,14.8749276685,0.3280172845,9.1766830551,90.0162674347,3.4371716674,7.2980661062,2.1955351284,1.1252037382,2.7759130775,0.4326504402,0.2207165892,-0.2382476387,-0.225008031,0.0836891961,-0.3358638115,-0.3731257821,0.219052854,-0.030291843,-0.1509021281,-0.4404634042,-0.1808252319,-2.2878617338,0.6323464578,-0.0088757919,-1.4454249098,-1308.6521714848,0.4242119061,0.400633631,1.2657978297,42.0033552378,-100.2446403752,-93.2120294992,-1.9814599033,-2.2718899555,-1.9996721267,-0.1280493542,-0.0855876391,-0.1604261505,-0.5279468838,0.2397463223,0.1772715718,0.0399316853,0.1867110975,0.1463789694,-0.3149075839,-1.4838753531,0.1138361854,-0.1871581406,-0.7665567021,-1.5601446156,-41.3571175516,-0.3306440058,-0.143852485,0.5889550167,0.1300828285,0.0776488762,-2.3433183397,0.5738937446,6.1120649352,5.1844479665,-0.0592168944,0.0683684076,0.391022796,-0.0623289763,0.0113556034,0.1513514533,-0.0801263241,-0.2940577811,0.2394209804,0.1458470564,0.2097258747,0.8170271182,1.0086592044,3.7679955378,0.8054522249,0.5491052417,2.2701699234,2.3324937962,1.9650964077,86.8082591749,-4.6013184005,0.4310878822,0.4409469285,0.4119924191,133.4007616035,18.2725419664,10.1164326602,3.1568903955,0.0225286556,0.3124776851,-0.3492114385,-0.2210414421,-0.1304876162,-0.1829567963,-0.5204587236,-1.7785527775,-1.5837161819,-2.9339745201,-0.1856105556,-1.2071912558,-1.4562366625,-2.3596517527,-10.2194888889,-0.805037331,-7.6746901363,0.0558569313,-1.626916863,0.3175052582,-297.1973286395,0.2504882496,0.2955815074,0.3572441754,0.4982587899,-15.1255313614,-0.5013012279,-0.0055168062,-0.2892206086,-0.3864346535,-0.379741355,-0.2853748525,-0.5116017085,0.0324816597,0.0544679109,0.0157424406,0.2291538873,-0.1120657421,0.1289437603,-0.4395955143,-0.2809379494,-0.127352834,-0.2926208658,-0.4893902697,-0.0436355391,-1.2105554915,-0.0947066565,-0.7961827292,-0.8489415752,-0.4047237894,-0.5447809181,0.2505881351,0.4710844285,-20.3218878912,-0.7744549077,-0.2719872849,0.2444250482,-0.4146638199,0.1141328924,-0.4582288808,-0.4155817384,-0.2959626556,-0.22998791,-0.0567183331,0.147955213,-0.1488018236,-0.3088280333,-0.4413300194,-1.7226919862,-4.1034154509,-0.0058238157,-0.1585688168,-0.0730652416,-0.1302257927,-0.2654753953,-0.1431528922,-1.446297302,-0.3838503303,0.0864197676,0.3194321846,0.1472226686,-0.1420924265,-0.4201195057,-0.4136986013,-0.0725498854,0.1670334821,-0.5504077366,0.0266651796,-0.3637107757,0.4827428226,-0.5328888082,-0.4107637363,0.0393379698,0.1016238403,-0.2357871152,-0.3767928576,-0.1358705959,-0.0235351229,-0.522837781,0.0034505948,-0.4964978062,-0.6103058541,-0.105242797,-1.337065398,-0.2276736079,7.4324831681,0.1747266887,0.4303510304,0.4411465372,-59.4142799877,-0.0853965585,0.0504403705,-0.3033607012,-0.1016641232,-0.5222294095,0.1444576645,-0.2715732284,0.0895377782,-0.2848216844,-0.527822752,0.0660137406,-0.444290851,0.1331783362,-0.0497800586,0.1307268351,-0.1927525306,0.7030278147,0.1313700619,0.1344755088,-1.1077772837,-3.2150511526,0.0220385832,0.6088145227,-0.6551324067,0.519312353,0.2093719654,0.3680939189,0.3074401535,14.3839651768,-0.3724674702,-0.4296233088,-0.323490871,-0.4693543357,-0.6837074537,-0.6740737596,-0.4829643222,-0.2302094945,-0.4286723988,-0.5592967155,-0.1957460706,-0.7606094137,-0.2941352894,-0.100870714,0.0022837192,-0.2569787995,-0.0071783545,-0.356866644,-0.3592101549,-0.2346888516,-0.2510047238,-0.3495669176,-0.62375977,-0.4157032834,-5.0348291669,0.6237724513,0.3890192859,-1.1703704001,0.0509008684,-1.7492159585,-0.3013575359,-0.5293885489,-0.2608783688,-0.669761402,-0.8157617358,-0.4986292768,-0.8262223659,-0.354994105,-0.3128782314,-0.0210384007,-0.400452376,-1.1118798557,-0.5865126098,-0.6978121055,-0.2219108357,-0.7604221769,-0.452309642,-0.3740561116,-0.2044977971,-1.0990525433,-0.4969878161,-0.7293341963,0.0564321468,0.3518559163,0.3447516071,-0.4013847856,1.1336475228,-0.7211543934,-0.6293030119,-0.2777665336,-0.3791792056,-0.6300002523,-0.7314286627,-0.145881158,-0.6565315126,-0.4338192965,-0.4316851508,0.1680996339,-0.0439769756,-0.4771301193,-0.3367269915,-0.8596597685,-0.3937383301,-0.5036124722,-0.0998423376,-0.9546789141,-0.0793199598,0.1512125806,-0.3701263575,13.1587779713,0.4032626834,0.2019354282,0.3516671618,-2.5443305408,0.0548915867,-0.6302231729,-0.4913021106,-0.6246145931,-0.147260524,0.0096692464,-0.4724954705,-0.5027288849,-0.449075403,-0.7452540968,-0.3658780837,-0.4365665558,-0.6582322569,-0.495264351,-0.6309522095,-0.3054495923,-1.8371528051,-0.2347795956,-0.2799245098,-1.2105696968,-0.7381971433,0.0344486154,0.2769324508,1.2272694917,0.2101590372,-0.3415585264,0.6566185006,0.1739043809,-8.4985494153,-0.2272551479,-0.2349349585,-0.5626691582,-0.9531515416,-0.4540470591,-0.0513396505,-0.5624203228,0.0413150901,-0.0174595609,-0.3776949105,-0.9103177919,-0.4697359939,-0.1260643177,-0.5577391325,-0.5314615195,-0.0558136344,-0.4477467572,0.1078623691,-0.0058768915,-0.9141136167,1.2741986192,0.0390492305,-1.5228452402,-2.2177541122,-8.4965677667,0.0751586592,0.4154674736,2.719472429,0.4761233266,-1.6360935724,0.3099959689,0.8986563478,0.2045250887,0.4646818993,0.3603030074,0.4525840338,0.0075796222,0.4729386197,0.4074778063,-0.2203873175,-0.0657709084,0.1560513438,0.369747323,0.4475732818,-0.2688678489,0.5482053502,0.8159882161,1.4608608545,0.2697413968,-1.5337197609,-3.8213482402,-3.6284589381,0.714593584,0.3831881947,0.546783192,-2.2106088212,-0.6640581776,-1.793629615,-1.7245013474,-1.3818739087,-0.2329395346,0.0474985852,-0.0778805091,-0.1271545027,-0.2367101702,0.3444872432,0.3610169238,-0.135332668,0.4592752776,-0.4372433524,0.0678339732,0.0929322602,0.1200909826,0.2261483694,-0.3675736501,0.0338657084,-1.8526517424,-3.8327652919,-8.2625454475,0.5643898379,0.6834350992,0.6050453526,0.4015838749,0.772048097,-1.0790158295,-0.671686173,-0.2113910473,-0.2927577686,0.1137479376,0.1093106777,0.4143215338,-0.0340143618,-0.2462737748,0.2984185807,-0.2208789556,-0.2919516622,0.2446227738,-14.7868222838,-0.893451799,0.0027134308,-1.460335039,-1.1608909409,-1.5788662928,-5.9615221806,-6.5607505639,3.9685262061,0.2813966876,-17.6651302855,0.1391213299,0.272794132,0.3354259148,0.4409908104,1.4465622396,-22.496942105,-2.0934265323,-4.4096373905,-0.4272779681,2.3696956732,6.1918954942,-0.5274689832,-0.8097794451,-9.6633107963,-0.8494625743,-0.4045001087,-0.4749216405,-0.1741840813,0.1960058728,0.2621068112,0.6046590255,0.095593629,0.3203627825,0.3167741966,-0.0747655688,0.3581708995,-0.1105094091,3.1555331011,-1.2177767708,-562.7868692122,0.1798543377,0.1737216322,149.1266597081,-3.0459163833,-0.0101430943,-0.3857148332,-0.6189217162,0.5122271349,0.7613859297,1.6142549704,-0.0911345849,-0.0970530384,-0.0395850846,-0.0313326963,-0.22915951,0.0628586019,-0.0050103714,-0.2221354769,-0.4131849543,-0.6702731291,-0.3977978433,-0.6236297458,-0.1938598788,-2.4700431602,-0.1787983225,-6.6019120585,0.4111562489,0.4291555218,0.2451026763,0.5410679774,-8.5377570615,-1.3344531427,-0.6327197319,0.5060518459,0.5314305597,-0.0602120488,0.121003785,-0.4746128571,-0.4397212124,-0.013406797,-0.3269232384,-0.1972830627,0.2062694564,0.0971554678,-0.4961033503,-0.3191031419,-0.4502786072,0.1771326753,1.7689284359,1.7227255528,0.4808729992,0.419463378,0.327479243,0.5616821303,51.2860455091,0.2043288229,0.3825059632,0.4079963372,-819.54085573,-48.0731751688,-0.546089134,0.2163750618,0.281345117,0.4151150266,0.3821043775,0.2793297084,-0.2183640761,0.2107031715,-0.1743185402,0.0424649066,0.3828926838,-0.1410793553,1.8504899845,-0.0242044025,0.0191248273,-0.0487562801,3.1255185702,0.3662122857,-0.3302085984,3.0398892003,-336.6256136476,0.2559058529,221.2707907784,0.3383782401,-0.981642939,0.0492460501,0.4525919179,0.3123874374,-4.0064557622,-0.8713754629,-0.0457063145,0.0314610617,0.4779919165,-0.0314404876,-0.2485290448,-0.2479839265,0.0566267719,0.4495386615,0.0275750531,0.432202433,0.1406379936,-0.1359921801,0.0948803655,0.4292129155,5.0501616273,0.4304598041,-0.0622734511,0.3893402504,0.1635431816,0.2272863741,-0.0932733203,-0.4988357041,-121.4660039044,0.2785609228,0.616632613,-0.0985402988,-0.764399478,-7.0897086915,-3.538349136,0.1629978657,0.9867133014,-0.2820503026,0.2089899428,-0.9585312831,-0.1321848281,0.3111754426,-0.0682836368,-0.0363749103,0.3049363551,0.4546426862,0.324152539,0.0548076477,-0.1226562527,-0.1940724336,-0.2518350254,0.1709532039,0.0540291807,-0.2673406052,7.6721913009,-0.1604487192,0.3103108535,0.1943900426,0.6878925915,0.1313518908,0.2809238337,0.0742866016,-0.1960328573,0.0600261597,-0.2715182649,0.0340144793,-0.2193347439,-0.0710842871,-0.0087821332,0.0139928545,-0.0740539013,-0.2061832186,-0.0223076252,-0.0612818809,0.1109879848,0.0593964432,-0.0667492868,-0.1879245031,-0.0240125971,0.3556551217,0.1332115788,0.046730509,0.3890529855,-0.1100654972,0.2630542988,0.4269544846,0.1592848061,-13.0221622065,-0.0676939932,0.4047626146,-0.2751764066,-0.7350058815,-0.155420757,-0.149105539,0.3208941479,-0.1970676253,-1.8530612185,-43.4015244925,-246.0358157122,-52.3413220851,-98.5837654432,-0.30172201,-1.4885946711,-1.0903639153,0.20415635,0.5006785646,-0.3822739864,-0.7672047889,0.019094258,-7.5059413574,0.1555376645,-150.0418979962,0.6426000702,0.4359259805,0.4899791664,0.6882541254,-0.987594456,0.1950753842,0.1975378128,0.1993507912,0.0165212273,0.0984307628,0.1865377235,-0.5087201548,0.0287346259,-0.4953297567,-1.1015461603,-0.1566931989,-0.1857530911,0.2782874907,-0.0318940329,0.3849154777,0.0973533428,0.0784211576,-0.7135278254,-0.8616831261,-5.4216695124,-47.609646264,-0.3632515293,-4.2418799368,-184.7373432672,-2230.5677546335,0.3354285624,0.3815547498,-47.043664414,0.247897527,-1.5048143306,-394.370661099,-0.2428838328,0.6238696486,0.0867635181,1.1411451408,0.0875265989,0.1701619017,0.0360007529,0.363655075,-0.122110922,-0.2731016289,0.0575290562,-0.0098842258,-0.2628027398,-0.3031666848,-0.2242683177,-0.057751941,-1.1185533682,-2.4806402245,-492.7727541327,-35.35364125,6.5430073598,0.1908703431,0.1584589508,0.6151328358,0.4616774875,-0.8044697832,0.10959689,0.6522169136,0.0161913569,0.0827720449,0.3290556984,0.048946258,0.0775732038,-0.2827509638,0.2511743068,0.2547532198,0.2125516444,0.114780353,0.2245082653,2.0111823273,0.1633542269,-0.7195362906,0.1269180973,-0.2583557838,0.3728307611,-0.2234219401,20.4457012195,-0.1303126445,13.5875768645,0.1820240014,0.030831734,0.5276439805,7.9761575097,0.7577526386,0.0156820142,0.1264630933,-0.1290448321,-0.0829007347,0.35522155,0.5060727326,0.45698504,-0.1052375782,-0.4828844775,-1.2032412448,-0.4948673422,-0.4405981534,0.0961329779,-0.003158998,-2.7284334843,-1.2410580701,-0.0048336585,8.1493308912,-254.481025091,-8.5678194737,0.8250639465,0.4993125757,121.7656730757,0.2108983869,-0.5680806416,0.3582661292,0.4173741686,0.6913235278,0.560403068,6.2974168052,0.9898343933,0.1719894935,5.0134528216,2.8096323536,0.2857451807,5.4043045604,-0.008948275,-0.1725720098,-0.3014400344,-0.1304353314,-0.0867587583,-0.218135452,-0.0293623073,0.2842622425,-0.1499527925,-0.1789079613,-0.1151227554,0.7570557807,0.1023349994,0.7640300094,0.6152636621,-13.103091477,-671.5533605474,0.1158334748,0.2658646023,290.9935216326,0.0280469101,0.1586546741,-3.588147489,0.3186349293,1.0560966177,0.0592547585,-0.1449203121,0.1421367963,-0.1323974223,-0.129836365,-0.1223725741,0.2522595938,0.32469373,0.3415018069,-0.1021835217,0.138013441,-0.1784827606,-0.971230627,-1.9280786394,-2.8763771039,-0.7213508924,-1.530274798,0.7001407023,-0.1354279522,0.3048944829,0.1226521783,0.018615691,-0.231138004,0.9000930149,1.9671237663,-0.3637065304,0.0521066992,-0.3286596329,-0.4309035009,-0.054640858,-0.6542289092,-0.5837205458,0.2287813528,-0.0841666175,0.1970495623,0.1432650508,0.1176524418,-0.0591890601,-0.2201753523,0.2111212257,0.0815450407,-0.4629643794,1.3064060234,0.0167884492,-8.2669515986,0.3218979867,-9.6397797436,0.1272452559,0.5266693307,0.0099621047,36.0276906593,1.3495948825,0.2961693133,0.2947356489,0.570731393,0.3048605333,0.0627869316,0.5623570128,-0.0793958745,-0.1144004738,-0.0071603582,0.2911394285,-0.0334896977,0.2127319703,0.0826965356,-0.2477353229,-2.9407966106,-2.93359483,-1.8456448816,-0.5769865926,-221.8052796989,34.375586204,-5.9626903374,0.4018914808,171.5512209162,0.5707508121,-0.9201362396,0.6587708431,0.3929493885,-14.9564557598,-0.6610474237,-0.162944554,-0.113260275,-0.6456557799,-0.3546079716,-3.8770857732,-0.4068949252,-0.2461609229,-0.5477683822,-0.0180332679,-0.5010825882,-0.6498583659,-0.5924967381,-0.2823671025,-0.5301905404,0.1254373749,-0.0667690644,-0.0188722758,-0.6985996245,-0.4823778906,-0.5486419752,-0.5441422632,-0.3258118804,-0.4350179022,-12.6307910344,0.6539404438,0.1070375167,-1.8992527894,-0.3931158439,-1.0207421881,0.0406134141,2.9254454882,-0.2296364176,-0.6709418739,-0.424282365,-0.2673295913,-0.5385343667,-0.561308627,-0.2875415811,-0.004588994,-0.4587266184,-0.5150220586,-0.072489343,-0.6758887646,0.0102627362,-0.2394660181,-0.4604400622,-0.5266164681,-0.2532830589,-0.5863661658,-0.4340390282,-0.21028282,0.4495636131,0.4228900594,0.4014898955,-0.2239844643,-0.1727906264,-0.4635750351,-0.2257441564,-0.6362296804,-0.4074112544,-0.6764928962,-0.3311307565,-0.5049318947,-0.4731325959,-0.2120848874,0.1408596245,-0.305255547,-0.4473712246,-0.2407077315,-0.6235316035,-0.6464873053,-0.1029985585,-0.0749801326,-10.492160283,-0.9351002552,1.6694677947,5.027006502,0.0379434716,0.4157938863,0.4091140738,0.4653845872,0.3430145473,-3.3900832362,-0.3120513367,-0.4317343896,-0.3251367881,-0.3928469164,0.324769033,-0.2249473035,0.2832390313,0.0708837057,-0.2543730968,-0.2158303498,-0.449587682,-0.4927684622,-0.2128632295,-0.3566420325,-0.5648457563,-0.6486560914,-0.2579044812,0.0919314886,0.1017655811,1.7963201744,-1.1631366947,-1.5189982494,0.0906052973,-2.743401754,0.4301945753,-0.269201402,0.0612508291,0.5414475304,0.0956400212,3.2969938379,0.0795346928,0.8374659006,-0.2971886405,0.4655177114,2.4201886826,0.2868378768,0.3911972818,0.257287605,1.1026481461,0.1792362719,-0.192784243,-0.289319006,-0.1757046732,-0.2512805941,-0.02033309,0.0434354743,0.1498143151,0.9700962655,-0.0520823121,2.0616407295,-0.1859059529,1.8790278514,4.0489734123,1.2263727931,0.6223760852,0.535357423,8.4002116262,2.4449062303,0.041397902,0.2429165751,-0.2498436873,-0.0135347428,-0.1061225438,-0.4107335906,-0.2438870718,-0.451500602,-0.2210045405,-0.3662755162,0.1176433987,-0.1650882667,-0.1098032814,-0.469246034,0.0502809128,-0.3769191977,-0.0166996047,-0.1656362127,-0.1160587774,-2.609425311,-0.992130959,-16.3807367214,5.5295276858,0.1483518013,0.6317667294,0.1058672922,-0.5541883239,0.6726256375,0.5999163612,-0.7645438234,1.0419462737,-0.345880097,-0.1786351407,-0.6502299065,-0.1318799866,-0.597488198,0.0275168172,-0.1615952978,-0.3158737897,0.1089867016,-0.5577716705,-0.6679410877,-0.5427007781,-0.7676712318,-0.3343113448,-0.1820871762,-0.1652121801,-0.3334636164,-2.8218021486,-17.4119981849,0.4653654719,0.2337089687,0.4703279239,0.288221591,1.1701910496,4.1190774483,-1.1479105432,0.0141058387,0.5247211666,0.1069193631,0.0438032925,1.6325472763,0.2437150072,0.4077711495,0.3875567304,0.3860429532,0.2135327196,0.2676269587
   -0.2313931635,0.271831288,-0.1255087807,0.0663649173,-0.2751130748,-0.6173282508,1.2875834,6.5898952809,-1.8306078489,0.5443938712,1.2181407487,0.2294465915,-0.8971721611,0.0574714737,0.5268831346,1664.287197078,-21.3272336541,-13.8242057377,-13.4374224114,-3.4612577275,-0.5067774957,-0.5694176436,-0.4474487155,-0.4000680211,-0.1909352537,-0.2854588487,0.2040438649,0.3576224842,-0.0251182473,0.2432023043,-0.1157545154,-0.2042857725,-0.0423706173,0.0143053582,-0.0671878388,-0.1437285706,-29.9012627587,0.1189584397,-1.4227137302,-1.1228455745,-53.5470710866,0.6725535918,0.615361457,6.7321964603,-9.3773439335,-0.0229903456,-0.4517136127,-0.1969256537,0.1359247103,-0.2603504109,-0.1043908288,-0.1934519667,0.5280536918,0.1173957724,0.289633025,0.1938506325,0.3476020893,0.294977429,0.2180597551,-0.1986783169,-0.2446753125,0.3820854585,-0.1410378817,0.2907282676,-0.3595491459,0.0767017453,0.1227065755,0.0401460118,0.0568799884,0.5324444065,0.4176160875,1.035078813,-1.9666553917,-3.8746472145,-0.6221054006,-0.1464188389,-0.1501012296,0.2384418263,0.0455921242,-0.206956562,0.3098829973,0.2638882361,0.234760044,0.1153994939,0.1895578749,0.2608064616,-0.1888858799,0.1301356174,0.0354904731,0.2160378298,0.149779256,-0.184058386,-1.551291913,-3.5295335582,-3.1802879084,-214.7864118334,0.4017018373,0.3711264733,0.0897963193,-1394.1274858489,-37.5129535047,-0.700766216,-0.9428029269,-0.6496254877,-0.6802159211,-0.6010984831,-0.8730431678,-0.5655717812,-0.5658070103,-1.592269268,-1.3924218148,-0.8211028055,-1.0136800411,-0.5745052555,-0.2713966708,-0.3498756198,0.0790380212,2.3703448486,-0.4035855923,0.2898002999,15.9470571862,13.1189816588,0.1008987195,-27.3541955516,0.6239700554,-0.0551162397,0.6483125297,0.0394751873,-3.2202358026,-0.1680183358,-0.1602174915,-0.216808352,0.3481365311,-0.1024178483,-0.0436250631,-0.1021078135,-2.0286973645,-5.0114465793,0.3264650838,0.4058005352,-0.3661266503,-0.2079427348,-0.1360713871,0.2502519092,0.0412432196,0.7473544707,0.5736512912,1.1346286041,0.27921216,0.8168984225,0.16511517,-2.7478499125,0.4366787848,0.5523181658,0.5216174313,0.625786895,-1.6597211916,1.6034342988,1.2944333533,0.0624178026,-0.3322892938,-0.0424448574,-0.3706843556,0.038241336,0.1253123546,-0.2139032787,-0.1743805198,0.2007216727,-0.1304974362,0.1323499422,0.014548972,0.0633692778,0.2937455104,0.3367668825,0.3098970877,0.3343437766,-0.0193920441,-0.3225645023,0.8332053568,2.0349620534,0.1762584609,0.5677747656,0.3106242575,0.4422420886,-1.2965686849,0.1602091948,0.1491358778,-0.0275836472,0.2612278292,0.3158440213,-0.1686616068,-0.2537009038,-0.0612745685,0.14284952,-0.0340366529,0.1044361898,-0.059770308,0.1128753663,-0.2851255334,0.288819357,-0.1830733227,0.0719770822,0.3680698337,0.0936658898,0.3065347058,0.5339917304,-1.9199917755,-0.1196614156,1.7948494314,0.5125432613,0.2975895791,0.4670490972,-59.6776197183,-2.661331232,0.2519595336,-0.3965510904,-0.2210062352,-3.9731902398,-0.1275599961,-0.0184843316,0.3046340427,-0.0009692462,-0.1611213882,0.3034990939,0.2347829931,0.0859797985,0.3077637531,0.0337466307,1.1862109309,5.0848384562,0.3641611871,-0.0747596444,-1.1031194524,1.7665678481,-11.6177982033,0.1534251117,0.9750687329,0.0706762443,0.1937512047,0.030998854,0.1521436247,0.1846947775,-0.1966035085,-0.380083776,-1.6308926849,-1.6410102945,-13.7948262643,-3.9452503025,-0.3009541181,-0.2232385634,7.0684466376,-1.0145603629,-1.2946551782,0.5389280881,-1.2649618039,-0.4652705888,-0.7213463051,-0.5191004764,-0.878863307,-1.6391966759,-1.2439930264,-1.1497074458,-4.379869333,-5.2999429323,-4.0331786574,2.9047679751,-0.3521108166,0.5142364367,0.5787547793,-0.5983292533,23.4355830243,0.0778128885,0.0193384302,1.1209084726,-0.346959945,-0.3546529806,-0.239331505,-3.3497895696,-3.3316616522,-0.7427634824,-0.451928524,-0.5154565923,-0.4256614242,-0.7079627028,-1.1891953842,-0.2146755431,-0.7750327281,-0.3152302224,1.5488188761,-0.3851238356,4.9459312822,-4.8996772433,-4.5726154112,-3.8607695066,0.5379225165,0.169818516,0.4758326256,33.3283230394,-0.5947861766,-0.7905095221,-0.7748443825,-0.637950456,-1.0170390177,-0.4926175424,-0.9951870019,-1.0594841864,-0.4081624391,-0.6047882983,-0.3650135985,0.0121941787,-0.6583199025,-0.3524288189,-0.3294581407,-0.4062666159,0.1517314422,0.2147371678,-533.0384999952,-18.3572371728,5.4124099023,4.4352152562,4.9300089138,0.4361296597,0.3735106417,0.3550937725,0.3948523972,45.3344062537,5.8728095964,-0.4243569626,0.4019412442,2.2616564751,15.8572583251,0.4256060933,1.0866351553,-0.4737986987,-1.3567209785,-1.1458396104,-2.0876098934,-2.2602279158,-3.4182668102,-2.0962895556,-3.4869848108,-0.005475739,-71.7272605474,-2.0093853407,-12.232419664,399.7406677428,-8.7783980856,-0.2921986705,0.6456326789,-1.2780624985,0.5393554304,-0.8187937348,0.1874890287,0.6232092779,4.5340955625,-0.3992747491,7.2511878194,-2.7151394618,-0.7987404123,4.7230062944,0.2087491823,-0.0164749964,-0.3556041595,-0.2885402835,0.3235172006,0.0300093943,0.1548546212,0.2736074834,0.0361822832,-0.0870933356,-0.0964442208,0.2932453546,0.1868789126,0.1947987425,-0.0048579216,-0.2774731323,0.1780542251,-0.3005357796,0.5298145702,4.8449989914,0.0006709602,0.0967630366,52.2803956028,0.6429368242,0.2127660676,0.0196699111,0.3043811023,0.7246137769,-0.1034244667,0.1238449224,0.323430055,0.3661754648,-0.1979649021,0.0932300381,-0.0175374867,0.3238224344,0.2779820638,0.3848243862,-0.1737756572,-0.1050017867,0.021625963,0.0437471776,0.3666048563,0.1299018246,2.9740972541,0.4023372498,-2.2674247278,0.3734820978,0.4375259332,0.024979699,0.1796220853,-0.664618716,-0.9625310491,-2.2350159255,-1.1766536096,2.1047155651,-1.3770733057,0.0190667231,0.2585625002,0.0115588888,-0.0554335309,0.0744344079,-0.0448506575,0.2633791402,0.0744793848,-0.7101148739,-2.263452543,-2.3900763026,-1.0626337188,-0.7641946162,-0.8110789927,-0.3682256326,-0.4964080832,-4.2163766747,-0.4576047147,0.2126909864,0.3150550482,0.0264664445,-1.2584672034,3.8137825848,-10.5262899112,-0.6312348471,-0.4466971328,0.1550720346,0.4660065702,0.4380097994,-0.0284616685,0.2319030822,0.3609413787,0.2179170178,0.2837208025,0.3917995295,-0.085208045,0.2377257719,-0.1510484197,0.3012146374,-0.0459306894,-0.6266423966,-0.9520348832,0.4508457527,-0.4785902165,0.3582818343,-836.441331361,0.2353667056,0.2245624981,0.0812146166,0.6051590843,0.4901530976,6.508014097,17.4529872589,-4.1607369059,-51.8667394282,-0.695913534,-2.5681749979,-3.2513884657,-0.6458901275,-0.4559948154,-0.4581425873,-0.3933459825,0.0268445068,0.3130710884,0.0416624466,-0.4764842604,-0.3937189388,-0.3887105231,-0.5675292048,-0.5941758961,-1.1931563035,-2.215883391,-1.2414373339,-4.2359025017,-9.4754020007,-1796.2027513122,0.1575705074,0.5958141795,-0.2541257544,3.8808934171,-2.0357602718,0.0699558611,-0.0883704707,1.1009716338,0.7860671118,0.5856481872,0.07495132,0.0953598831,-0.1890521168,-0.1842540593,-0.3578093538,-0.3670617427,-0.0521727194,-0.3924988815,-0.3095501904,-0.2738313211,-0.2608985919,-0.1977452406,0.0133296138,-0.4336217973,-34.2268915527,-13.1636928055,-1.4961304536,0.3232236572,0.4953182858,0.6795195709,2.2694928966,-2.9870921561,-0.0236668565,-0.4565114573,-0.6852296178,-0.3675485403,0.0209865207,0.0801950029,-0.3366831285,0.1676188852,-0.2421302915,0.1914893446,-0.0958135592,0.1931725872,-0.0298197623,0.3510964025,-0.3237440832,-0.1294823392,0.2898782175,0.3156407101,-0.3310151763,-0.4163229447,0.5749253281,0.7046571022,0.1449153964,0.711365609,0.7188946517,0.6133406162,376.459380385,1.2761141239,-0.2502133761,-0.008627816,-0.0558157713,-0.1605439671,-0.1797618552,-0.0897503088,-0.5131604651,-0.7073271715,-0.4314563736,-0.604358367,-0.4016367027,-1.0043353193,-1.3594122058,-0.6049983168,-7.243963154,-21.6089893981,-0.5858044554,-0.237210129,-27.645057968,-0.1581946744,134.1485299961,0.7317661757,-0.6856142598,0.4514766683,-0.9927883505,0.2288186688,0.4289605889,1664.1873356973,-5.4294946394,-10.8966416326,-1.5680812498,-40.7032345162,-0.2623030351,3.0199685391,0.5752133384,-0.4746862499,0.1426966491,0.4317832516,0.3566423545,0.4162667122,0.8833925233,0.5010580005,-0.1123110304,0.2338754513,0.2477017403,0.2045893057,0.1957180022,-2.6398720026,-0.1849118188,1.3431467714,7.6396291442,5.8896686273,-3.1319279846,0.1965569895,0.5343660106,313.2342617052,-0.1677298363,-3.0651261102,0.2237336144,0.2031748441,0.366221194,0.3806036124,-0.2885465304,0.1693563801,-0.1576594513,-0.0513887273,-0.1772090396,0.2244680549,0.0390594003,0.1963548439,0.0923527287,-0.1126459627,0.2256475978,0.155349098,-1.5452602612,-0.2706790244,-6.6617449797,11.1393707612,0.2702467208,7.9860233648,0.2457154851,0.4402903468,0.0809735432,-12.8445955963,5.4490164185,0.0515283425,0.1948054994,0.4287730391,-0.0721593121,0.0250866112,-0.4216472662,0.1485654414,-0.0267120799,-0.1102472514,0.2284994657,-0.4765953926,-0.4477021629,0.2385776488,-0.143019364,-0.1433001067,-0.6195189569,-0.9257910035,-0.0555929429,0.0988166273,0.1094641911,1.1300861274,-10.6453804438,38.8774725064,0.3097052655,0.372758339,0.1848657351,-39.3094778076,-1.3034305301,0.4607778633,5.9859308726,0.2079622204,-1.0289215675,0.068588401,-4.952114526,0.7828568871,0.3809821281,0.4908319974,0.3621723977,0.0308777302,0.5318648816,0.2347717358,-0.0524665909,-1.0111674261,-0.1168830103,0.6114167379,3.7468240802,-20.6439888785,0.2067598617,146.6331726649,0.1075601954,1454.3738354687,0.0864016089,-0.4115180543,0.6766092703,0.2890739255,-4.4088168971,-1.9501795073,0.975909457,2.7989923487,-32.1926418313,4.7208365923,-0.2190875532,-0.2144131364,0.1268958029,-0.2120430238,-0.1179587983,-0.4486582332,-0.4476438276,-0.4782903636,-0.5441504963,-0.6075949662,-0.1705055024,-0.1649895455,1.3349250663,3.4392143239,0.2220027618,24.4948078569,-8.1504229235,1.7404973719,1.1342090418,0.6689486301,0.0214981601,0.373782036,0.043408315,-1.4709510566,0.1536008929,-0.2977671029,0.0995275536,-0.2888699375,-0.6769446662,-0.64778617,-0.319295963,-0.4290238011,-0.5152005317,-0.2943249478,-0.3213726698,-0.241371023,-0.2569137329,-0.6309111237,-0.3746490975,-0.0362336235,-0.2737707289,-1.0816991224,-2.8373092997,-12.9871231315,-6.0646266181,-304.1064925162,111.3265411271,0.0426532009,0.2283047044,0.5899182751,0.0160810932,-0.4808026897,11.8741139157,0.5957446382,3.1497226649,2.7211539772,-0.4906257994,-0.6503169832,-0.3824799136,-0.2531911772,-0.3043833279,-0.2029999473,-0.4308973428,-0.5874621967,-0.5753956773,-0.6915289152,-0.1393500289,-0.5377859957,-0.2648348992,0.8613785821,2.283044025,1.3660044752,-4.319577825,-48.1952922678,20.2643714005,0.6667858084,0.1738482302,0.5336421246,0.0532295885,-0.6135857021,-0.9712812194,2.7313284503,0.9246256441,0.2269361223,0.2813742044,0.8846506855,0.6974537648,1.216739515,-0.439811733,3.4514657831,-0.1242851199,-0.3787730536,0.1366216871,0.0662833598,0.0122793525,0.2746057871,5.3919734632,12.2600227468,2.899046676,18.6396132749,-1.0169291414,0.0222256125,0.7258063544,0.7012264551,-0.7101114931,0.1913849782,0.7008482197,-0.5761675254,-1.2242558644,-1.0853244759,-1.1694391515,-1.3607583424,-1.2809565528,-1.312292806,-1.1268654053,-1.3572600193,-1.3730979896,-1.0398753417,-1.0181390571,-0.9790244591,-1.0849441722,-1.1398710041,-0.9376164047,-1.5890481377,-1.5230465477,-1.6284682458,-1.1896850592,-1.5548140267,-1.4469346528,-0.2460670954,-0.5433446096,2.8114606729,11.5875655397,0.6998615716,0.5774379908,-0.1525606748,-0.3544784733,-0.8441131166,-1.0711454299,-0.7803346218,-1.4322661629,-1.1588358604,-1.2399008497,-1.6180840388,-1.5596015163,-1.5138973352,-0.5763570799,-0.8500676876,-0.6091345473,-1.0476170856,-1.1932894361,-1.4054138781,-1.3758627749,-0.9770731177,-1.4964015975,-1.4558664201,-0.275415343,-14.5367045735,-1.6849672036,-0.6525278336,0.6693964609,0.2585331598,0.5410528274,0.6151553765,11.9494798324,-0.9155661607,-1.6221315111,1.5886381726,-1.5709232553,-1.4119711582,-1.1328560434,-1.5994449156,-1.2150726989,-0.6625479693,-0.9230765787,-0.8884897391,-1.1635484211,-1.6316002727,-1.0833314488,-1.4571530901,-2.2666149851,-4.3393704214,-1.4475826532,-1.0889784688,0.5103353791,0.420030224,-2.5964527238,0.6771723595,0.4238274424,0.0437931209,0.155728675,-1.340894216,-1.4977943894,-1.5616277506,-1.6120946608,-1.2374090809,-1.3734635995,-1.0919382079,-1.145494366,-0.6671717132,-1.3629423086,-1.3171085645,-1.7709692107,-1.2055991714,-1.5399943363,-1.2687565037,-1.4024088673,-1.3081765156,-1.3286186017,-1.6328314383,-1.0828913159,-1.5345413505,-0.5614958648,-0.6542191901,0.6733835106,-1.8553195311,0.0721929597,-1.3472802933,0.2017411271,0.2179039548,0.372172966,-90.2882920171,-22.0025854063,-5.2396742291,-0.1200274044,0.631449988,-0.5148917859,-0.2957825176,0.8230542432,2.3523554957,-0.0897425691,0.2808635888,0.0334693421,0.3126959979,0.7246234043,-0.3062361346,0.154301607,0.2202751447,-1.5231807011,-0.0297109875,-0.1008536936,-886.4795138194,43.818700193,-34.8276565426,2.7863279233,-18.0814571677,0.5673498493,0.0674679527,355.5481291171,-0.7939308102,-3.0122759753,2.0522539291,-0.6519306808,-1.1639574387,-0.4254258621,-1.1296051943,-1.156630783,-0.6222259016,0.1603763913,-0.7734831042,0.0335324602,0.0094030439,0.3087341706,-0.1836119744,-0.2738737158,0.0520252094,-2.5721164132,-4.6148357662,-1.3627390757,-384.6653442478,-15.4850451383,-4.1752880741,-34.299503375,0.0255218551,0.2771746639,0.5256952358,-0.5202799353,0.3560810293,311.1254039073,-38.417266546,-39.2210854095,-6.8095950045,-58.8696055262,-1.8990202045,-295.1950569836,-0.0477336861,-0.0905331621,-2.2968632611,-0.229848452,-0.1865571523,-0.1333623622,-19.912089578,-6.4838669943,-1.8299247975,-0.9486676468,-12.8517112386,-1.6594939707,-2.913203864,0.4006601452,0.0465296101,-0.0637475026,0.6018297035,0.4955456566,0.0651545052,-133.776241236,-33.125589174,-4.2742417216,-5.5638953353,0.2676177165,-0.2331668628,0.035026528,0.0812541487,-0.2656919428,0.1070374394,-2.530093104,-103.5843449412,-64.0082389185,-23.0486057971,-51.9647861559,-1.2646405819,-0.6731576034,-0.8081237033,-0.3444750595,-321.4386182305,-11.642529416,-0.815477121,540.8300016234,0.0012047936,-626.7122443623,0.5863846027,0.0096336549,0.1963680919,0.3235001838,1.5997716329,-1.2364917258,-0.9761827079,-0.8180395372,-0.1755299299,-0.3609528987,0.1126696085,-0.6861974173,-0.2428108893,-0.0643221073,-0.2971069093,0.1406095745,-0.3714372876,0.1840257982,0.1210112315,-0.3575091271,-0.3350786684,0.0057403958,-0.4171065565,0.2522513461,0.2127614126,0.0767153544,4.1120512954,0.0435110442,-0.0134324211,-0.4481914828,0.1152992853,0.4430519681,0.7361682489,-0.5614899222,-0.1150913691,-0.0844141742,-0.3833419392,-0.184085952,-0.1141696485,-0.4300579224,-0.5027327661,0.1390933496,-0.2081031406,-0.2214822099,-0.3113508068,-0.2960872675,-0.1181771126,-0.3133654651,-0.1993621416,0.1489962525,-0.1340704039,-0.3581889365,0.0224554113,-0.9973296212,0.9411332288,7.871801009,0.1945793029,0.1279667013,0.1853905248,0.0449555052,-0.3867382878,-0.5180227484,-0.443838345,-0.7205620892,-0.4434751894,-0.2346756543,-0.4872136662,-0.3527959676,-0.1787679635,-0.0423589588,-0.3791356463,-0.2995065152,0.0590953837,-0.4827848991,-0.3726689094,-0.2907280684,-0.3198621473,-0.3941263537,-0.7112914158,-0.064948143,-0.5762603506,-0.2312170949,-3.8381392578,-0.4221072717,-2.2738883227,0.3827316242,0.7026847763,0.4440486101,-53.135452116,-1.3337502654,-1.0876314319,-1.8845383983,-0.3206797997,-0.1404579545,0.0340378231,0.1605201601,0.0142109474,-0.3996123806,-0.0500262515,-0.4809331821,-0.0058498374,-0.1096243108,-0.1835250154,-0.1082129542,-0.0292387659,-0.466861137,-0.4774785407,-0.4369362634,-0.5853566049,7.2366173385,-0.3198031715,0.3548920945,-1.951849866,0.5898663306,-0.3521156012,0.4517081137,0.5298271997,19.5004645072,1.1652896923,0.475365847,0.1002824701,0.0667754888,-0.1048860094,-0.1485931355,0.2101545588,0.3742642506,0.2357110356,0.2459128809,0.3913211097,0.1354073308,0.2343224691,0.4821209126,0.1799686706,0.1658209022,-0.0913411328,-0.0180712355,0.25333725,-0.1642246837,0.5333798864,0.3234936756,-0.0952705279,0.4584566861,0.0027858671,0.0333690789,0.2010243293,-113.1630066186,1.4924621837,0.1206344141,-0.0728109859,0.081311743,0.1228064679,0.0931144624,-0.0255761387,0.0098806505,0.2312407392,0.0044223902,0.4227699085,-0.1582831667,-0.0009959411,0.0804565481,0.013610989,0.4183546256,0.1454941532,0.466485789,0.4876210809,0.4133285918,0.452298748,0.4651029716,0.0071823585,0.0518448483,0.0060923671,0.347174101,0.3396334554,5.4754629442,-0.0155248857,1.7157143757,9.1365587384,0.540080141,0.194434407,0.4130288923,-0.0532346178,0.1808503466,-0.0496355145,0.4500962737,-0.0582061838,0.0932331432,0.4658896361,0.2877072964,0.1715723971,0.1171869991,-0.1379578506,0.1584764606,0.0009312066,0.3293214436,0.3004939118,0.4880269133,-0.1387984608,0.9409522096,0.2989105736,0.7014915701,0.2803239538,501.3841659015,1.1491837868,0.0550969043,0.2274149573,0.3961759276,0.3943460483,-0.1424497464,0.4119292065,0.3277228814,0.7460525,0.7626137936,0.2519535138,0.1167761419,0.7094167379,2.325979215,0.5614806007,0.4378239134,0.4744077045,0.1467887267,0.4592821761,0.4430510018,0.2934743782,-0.6887326718,0.1106092814,174.0926274009,0.6874100535,0.1300393176,0.1939667708,0.7185323722,-50.2429306943,-0.5579414218,-0.053761021,-0.5000968753,-0.5410248295,-0.507146676,-0.0295502185,-0.6923182974,-0.5173418423,-0.3218237112,0.0003028693,-0.1784684373,-0.4708558702,-0.1474962876,-0.4121513568,-0.4854917827,-0.2773207922,-0.0761351114,-0.4478850762,0.0161159831,-0.0702016869,-0.4485841744,-0.5885248081,0.0313001871,-0.1283382919,-8.9242865952,0.6957596664,0.1636482853,-0.3031148148,-0.6875791649,3.5991313322,-0.0507819547,-0.5422900177,-0.4119423051,-0.2514681484,-0.4224273818,-0.6970971607,-0.2134274531,-0.0360516686,-0.0702138184,-0.3679971255,-0.6988856313,-0.4651026256,-0.320957144,-0.0963174621,-0.383620839,-0.3380950859,0.0596691546,-0.5081274906,-0.3318175641,-0.2403867658,-0.2448017104,-0.124664293,0.5743525585,0.5244645612,0.262725524,-1.2768672504,-0.3552607796,-0.300091639,-0.3376318156,-0.3509463214,-0.561198861,-0.681384712,-0.4859697871,-0.0102336527,-0.2752624057,-0.5544212847,-0.2026370938,-0.112423761,-0.3829646176,-0.4659773751,-0.0349964514,-0.4094597705,-0.0315934334,-0.1584094573,-0.2669807676,-0.3013592943,0.6919070951,0.1940685647,-0.5925841412,1.7366707837,0.6829107428,0.4787184646,0.5413491301,-4.809102382,-0.0413718413,-0.4255024483,-0.2430867775,-0.2441702396,-1.5578652091,-0.5014908531,-0.4084701318,-0.2717975006,-0.0448437372,-0.0610640467,-0.4156281236,-0.001352581,-0.66562799,-0.6942599073,-0.7500181098,-0.2845697859,-0.0049139238,-0.2062286248,-0.251714186,-12.6009902639,-0.4729710168,-5.5102537315,0.1309946639,-0.5836898469,0.0450902779,-0.121548145,0.6960123841,0.2062049698,34.7492711473,-0.2288999159,0.0131294655,0.0903355725,-0.1843412875,-0.2274060944,-0.497506318,-0.442034111,-0.5268079791,-0.2810193156,-0.6640701323,0.0018427,-0.4010142211,-0.4087359058,-0.5157903446,-0.5125605687,-0.2292880799,0.067277408,-0.1194853689,-0.5862644902,-0.5680492981,-0.5761656461,-0.3225876742,-0.3952407636,-0.1676496022,-0.088403224,0.2350707455,0.5666177111,-0.1777731328,-0.4693627266,-0.6401831333,-0.0553690777,-10.3713549496,-0.0502915977,-0.3085487717,-0.3686157522,-0.5120697142,-0.5810846681,-0.4024931341,-0.3330421126,-0.4148728283,-0.4893053797,-0.2840122751,-0.4135142765,-0.1181162161,-0.2206214479,-0.3060444961,-0.0812684068,-0.0041849517,-0.2976125674,-0.2340767701,-0.4557722303,-0.0567765593,0.02465952,0.0504671764,0.4917154928,-1.6047249064,-0.4638152534,-0.0088821369,-0.2536699499,-0.2706846892,-0.1150027879,-0.4052290575,-0.1168309544,-0.0540045214,-0.6130266541,-0.3946483611,-0.4634560352,-0.2562638998,-0.4846514084,-0.1182623457,-0.4563548085,-0.006079944,-0.0451085026,-0.3444763936,-0.349909272,0.1022226363,2.0269529533,-0.1660732705,2.1059778967,-14.4847707019,0.2845546684,0.066666819,0.3892960429,-5.2628566605,-0.430714349,-0.0023559945,0.1517100716,-0.1007258991,-0.2330481384,-0.5190696977,0.0963642605,-0.1407071673,-0.4149737336,-0.366794726,-0.1079410238,-0.6843168908,-0.6416810071,-0.3744458695,-0.2925901944,0.0151701496,-0.4583887065,-0.0301004401,-1.1190466809,0.4952844772,-0.7725159158,1.9122751317,0.4086065214,-59.7884123985,0.6734436594,-0.4105271276,0.1871808754,0.7084227908,156.6250883345,-169.674702159,-3.2783928507,-0.3673803849,-0.6683001049,-0.3877714064,0.7015655583,-0.6490822039,-0.7014382183,-0.1499787476,-0.2644681099,-0.0184713591,0.7707217426,1.1373378082,0.7880792023,0.81153034,0.9372008288,0.8307948311,-0.6406930494,0.8799295191,0.8527566455,0.0468332802,34.7729478069,49.8328696266,-1.3372187945,-5.2507483204,0.0142379711,0.4306940471,-0.6228130903,-83.9149642501,-0.0278846844,-0.5463670434,0.0833934908,-0.1537111484,0.1140351596,0.8307912431,0.8317032712,0.5869524927,0.2854817877,-0.518444464,-0.4934641536,-0.1807122917,-0.1676717566,-0.2049987094,-0.0193639977,-0.1676554807,-0.0352453818,0.1078915374,0.4231174765,-3.3887722758,34.6878551589,8.1983787385,0.3952209009,0.3632425587,0.0275147267,0.1944007773,0.9321761955,-0.1858870152,-0.6188304404,-0.4677507705,-0.1184364585,-0.0729697077,-0.2019888373,0.3016660793,0.6798881765,0.2703475832,-0.1973634195,-0.2336389484,-0.043800889,-0.5314025258,0.6925688161,0.868368835,0.0508800806,-0.0235235248,0.4423719866,1.2738303275,3.2655588812,0.9864174212,0.3609135369,364.602071275,-0.6991489361,0.1657325401,0.296561191,0.4282240568,-459.0705171126,-22.3597704574,-0.6129343098,-0.1960759979,-0.4354943095,-0.131297113,-1.2423211705,-0.6412319588,-1.0004652196,-1.3838512981,-0.293514367,-0.6656329428,-0.8564016576,-0.5781292758,-0.3460032524,-1.2764947299,0.3339768706,0.1214722433,0.5464558112,-2.8801646654,-0.2381217363,124.7344220583,49.4769533215,0.6547401257,0.4553447357,0.3284360676,-0.5773476836,0.553127567,0.3434253542,-1655.2539334217,-26.3301900416,4.5933998882,0.2114813329,-0.1966491072,-2.2424302973,-0.5239298809,-0.0927776011,-0.3734876264,-0.1736883292,0.1761596808,-0.0539063709,-0.0312702976,-0.6341790017,-1.039807316,-0.3177384981,0.1144434285,0.347060478,-0.1332946512,0.0615132984,0.0300862359,0.4073066186,-0.2956501109,-0.0890605088,-0.038884369,-31.137135528,0.1075362839,0.1955669099,-982.3241021735,-36.4376241632,-0.1642791157,-0.1763981766,0.0295803234,-0.2386663237,0.0856571715,-0.0620803708,-0.0543991802,-0.3296404216,0.2634056284,-0.3887182124,-0.3251022969,-0.1651990008,-1.0942011073,-0.0424432819,0.2084931545,-0.0636485348,0.1603340618,-0.1489577398,0.3671848889,-0.270923608,-0.4603124534,-2.1216154489,-0.2558997111,0.7172829206,0.3373660237,0.2325804599,-371.9221312044,-1.3022065777,0.9339969658,0.1751108496,0.1622495626,0.1309024876,-0.0670105746,0.3246978727,0.0893566735,0.3067922069,0.2427895709,0.3341758019,-0.3686525823,0.2687840723,0.2269128768,-0.0309140841,-0.3051029197,0.9474898554,1.7327987329,0.5172852751,0.1607898587,0.1338791608,0.2779300168,0.52123324,4.3934541377,0.2972126987,0.2683078209,0.3464663394,-927.2971476399,-9.345386255,-0.2495343274,-0.2141051832,-0.347577551,-0.346534262,0.2617561243,-0.0007873561,0.2029716783,-0.1890228637,-0.4712888821,-0.1882225643,-0.1826986446,-0.1212323948,-0.3364213762,0.0546117557,0.0899587877,0.286388069,0.1209368442,-0.7015689147,-0.3910934522,0.1891920841,-398.1308620697,0.0506729691,1.5233729677,0.1472935187,-0.6318224635,0.6249099097,0.1654285186,-22.9257549848,-0.1905895475,-1.4096853551,-0.3562311759,-0.3131924364,-0.7192716575,-0.468050243,-0.6480888674,-0.5132867641,-0.4979334572,-0.3077356912,-1.3070665989,-1.2221936665,-1.1082221759,-0.6386108823,-0.2588274593,-0.2306007475,-0.7912652873,-0.6144744471,-0.4487433677,-0.6018972265,-0.4347833801,-0.7864661852,-0.5156322031,-0.8782973746,-0.0698877805,0.0394736545,0.5605246141,12.1526967578,-1.4648198367,-0.2314636491,-0.5671913214,0.2875891089,-0.645391569,-0.2772092321,-0.4900392995,-1.0357196076,-1.1220179877,-0.3500449275,-0.2797681605,-0.2601389044,-0.2138740671,-1.1775955638,-0.3813515241,-0.2833218738,-0.5081229425,-0.9090731192,-0.6024882311,-0.8338029168,-0.5520210099,-0.8156130678,-1.4738965874,-0.4914734389,0.6398593018,0.3334351564,0.5097712942,-1.3510692586,-0.7998747466,-0.4207495852,-0.120041175,-0.5785916554,-0.9458476835,-0.6424527532,-0.9305392086,-0.5974462687,-0.6061437061,-0.6287632379,-0.5931172487,-0.2388712623,-0.9248499911,-0.3025359236,-1.1213828818,-1.4707259454,-1.1005196242,-1.6376905114,-1.0426219572,-0.8964743395,0.2529458787,-0.7092446472,-4.5252104602,5.2397109154,0.310255163,0.1384274337,0.1776330544,-1.0130323642,-0.5454387554,-0.7918858393,-0.739212777,-0.6006679988,-0.1446155907,-0.5152263906,-0.7233414767,-0.5155606955,-0.7946527654,-0.7097591209,-0.4167750938,-0.6231743937,-0.4393262901,-0.2859208701,-0.6962915635,-0.9332837848,-0.4191474482,-0.209428805,-2.2743837008,-0.956562772,-3.4111660803,-1.2142979952,0.0226440762,11.859677721,0.6548802883,-0.8819512556,0.6645227013,0.1808139388,0.5895868397,0.448066386,0.5768450113,1.3303878851,3.3409685652,2.4489507484,-0.175725252,0.3385900621,1.3012265061,0.2807625891,1.1304276286,0.5491080067,-0.0134762589,0.1814899251,-0.029816826,-0.2164353219,0.1926835755,0.3170645347,-0.2926393047,-0.1554960712,-0.0097199685,-2.2507206564,-8.4083846455,-5.1753039406,-1.1624732163,0.4283687311,0.3937415203,0.4726797379,-4.9908854609,5.1730278825,-0.0332090604,-1.7603804645,-1.1006565408,-1.0365299684,-1.0349612137,-0.4848040707,-0.1262562792,-0.7161404712,-0.0245902844,-0.2555748221,-0.1583349052,-0.3124788925,0.3156779244,0.2849550728,0.061844014,-0.2053373488,-0.2784318621,-0.9336733966,-3.6265156339,-4.5995011333,-1448.6810528484,-0.9287149598,-0.342391703,0.6633030519,0.7101709398,0.6384355561,10.5247205573,2.2869911439,2.6607821212,1.0075398758,1.3556270666,0.0313732357,0.0140679166,-0.3787128337,-0.0601737236,-0.0512691684,-0.3003362137,-0.1559614844,-0.4073004424,0.0448891997,-0.2340351905,-0.1323148761,0.1391764739,-0.0904271163,-0.2025230494,-0.3068287798,0.0321999031,2.6483606875,0.5368997465,1.5003755087,-0.7769880513,0.4778469597,0.2530770799,0.2909369206,66.9663977058,6.6488815193,6.8379626221,1.3562158885,0.9287295772,0.4862725869,0.0748680782,0.3694341603,0.20451915,-0.1347064721,-0.054111057,0.0392971869,-0.0459086392,-1.7569782151,0.1850502673,-0.1230602234,0.1132976663,-0.0199446913,-1.3097967418,0.6521501392,0.2078963712,-3.9408096193,0.545893127,0.2720677471,-581.3990827997,0.7082255033,0.1207368442,0.6148585989,0.6898094692,-1.470146109,-1.3916629261,-1.4618820485,-1.2577719746,-1.1386185186,-0.8630773153,-1.5594051449,-0.9117242462,-1.2188649852,-0.9551854292,-1.4151317378,-1.4640843433,-1.4326007114,-1.4007202972,-1.3103128395,-1.1922858583,-1.5341808488,-1.2918165159,-1.3325243313,-1.2870984754,-1.1729901978,-1.5457975913,-0.4681263291,-0.7367595577,0.5014966037,2.4581919514,0.6698544833,0.3174246747,0.4655131792,-0.4896253969,-0.3552368406,-0.9638301212,-1.0769511605,-1.2082497114,-1.0856057554,-1.4077419087,-1.5242731259,-1.1361883974,-1.1343862438,-1.4256574273,-1.3044426134,-1.2122478902,-1.3526193901,-0.9277196535,-1.515973008,-1.1401594748,-1.2115391074,-1.4641250155,-1.5689619457,-1.0859922106,-404.3517422799,-3.9989052939,0.4209097708,0.3727423657,0.1831797992,0.3349157473,8.9268517139,12.3540565345,-0.7841831081,-1.1361309773,3.3492132636,-1.2196211949,-1.4564561543,-1.2507574735,-1.6160341969,-1.5020701287,-1.203779758,-1.006405521,-1.2487043414,-1.3516298076,-0.9708691513,-1.2429970847,-1.0248144859,-3.3005764969,-2.6292050982,-1.3569036979,-0.2922546048,-0.1539138065,42.9612505252,-5.3435267013,1.4613117796,0.0943149227,0.0256194462,0.5269957522,1.579813861,-1.2469063274,-2.3410106768,-0.9968025772,-0.8510556823,-0.9222647529,-1.7519992444,-4.3117994439,-0.4360149468,-1.1708939445,-0.9120327585,-0.9919393665,-1.4252955236,-1.4446137404,-1.112952127,-1.5339081051,-1.4366099011,-1.5040228486,-1.30159774,-2.0857937965,-0.8633954026,-2.2461746646,-1.8302208014,0.1393128445,2.1220087648,0.58656263,-1.8698683048,0.4251453121
